7.982972264289855957e-02
8.561165630817413330e-02
6.873841583728790283e-02
5.544440075755119324e-02
5.994500964879989624e-02
2.907867170870304108e-02
6.715261191129684448e-02
4.896280169486999512e-02
5.382527038455009460e-02
-2.665569633245468140e-02
2.979264035820960999e-02
-1.568212546408176422e-02
6.224813312292098999e-02
4.222775995731353760e-02
2.883412316441535950e-02
1.033297926187515259e-01
3.840367496013641357e-02
3.969947621226310730e-02
6.875294446945190430e-02
8.830406516790390015e-02
3.332342952489852905e-02
4.950363934040069580e-02
8.713806420564651489e-02
3.032673522830009460e-02
6.298895925283432007e-02
-1.202109921723604202e-02
4.424529895186424255e-02
4.595802351832389832e-02
1.784474775195121765e-02
1.573613844811916351e-02
4.145208280533552170e-03
-3.864524513483047485e-02
4.136398807168006897e-02
3.910423815250396729e-02
2.251594513654708862e-02
6.367162615060806274e-02
-1.698147505521774292e-02
5.307468399405479431e-02
-3.057014942169189453e-02
3.016196005046367645e-02
3.303385153412818909e-02
-1.236590207554399967e-03
-5.593855399638414383e-03
-3.767021745443344116e-02
-2.824217639863491058e-02
-1.977070234715938568e-03
-4.216573387384414673e-02
-3.919539600610733032e-02
-1.448005624115467072e-02
-7.950937002897262573e-02
-5.803095176815986633e-02
-5.735890939831733704e-02
-1.947271265089511871e-02
-6.262462586164474487e-02
8.009040728211402893e-03
-3.123808465898036957e-02
-4.780477285385131836e-02
-3.094276413321495056e-02
-4.912410676479339600e-02
-4.710935801267623901e-02
-2.553141489624977112e-02
2.043886482715606689e-02
-2.767813578248023987e-02
-2.748524770140647888e-02
-2.367600426077842712e-02
-3.728575631976127625e-02
-6.596980988979339600e-02
-4.080958291888237000e-02
-3.751368820667266846e-02
-1.899363100528717041e-02
-2.738712355494499207e-02
-1.877979002892971039e-02
-7.188491523265838623e-02
-6.143265217542648315e-02
-1.509641297161579132e-02
-3.017944656312465668e-02
4.324209876358509064e-04
-3.587784990668296814e-02
-1.916265860199928284e-02
-3.375199390575289726e-03
-3.890429437160491943e-02
-3.996808826923370361e-02
1.074831470759818330e-05
-3.028285130858421326e-02
-4.140688106417655945e-02
-3.731856122612953186e-02
-3.120105341076850891e-02
-4.230794683098793030e-02
-1.845629513263702393e-02
-3.220011293888092041e-02
1.286770217120647430e-02
-5.884217843413352966e-02
-2.430190518498420715e-02
-2.199582057073712349e-03
-5.058212205767631531e-03
-2.219449169933795929e-02
-2.674241922795772552e-02
-2.288985252380371094e-02
-2.788391662761569023e-03
-5.078850314021110535e-02
