-2.985379993915557861e-01 -4.384844005107879639e-01 -4.116543829441070557e-01 -3.944150805473327637e-01 -3.889758884906768799e-01 -2.842037677764892578e-01 -3.509947359561920166e-01 -4.238184392452239990e-01 -2.569575309753417969e-01 -4.424898624420166016e-01 -4.592495560646057129e-01 -2.911148369312286377e-01 -2.569427788257598877e-01 -2.522231638431549072e-01 -4.425618052482604980e-01 -3.874937593936920166e-01 -3.493507206439971924e-01 -4.814916849136352539e-01 -2.895725071430206299e-01 -2.460611760616302490e-01 -4.183027148246765137e-01 -1.748062670230865479e-02 -2.244480848312377930e-01 -4.908508360385894775e-01 -1.449082195758819580e-01 -3.555900156497955322e-01 -3.826875686645507812e-01 -4.305926859378814697e-01 -3.546953499317169189e-01 -1.156987100839614868e-01 -6.174720451235771179e-02 -8.493690192699432373e-02 -6.354618072509765625e-02 -2.384925782680511475e-01 -2.054785341024398804e-01 -6.620260886847972870e-03 -3.460462987422943115e-01 -8.289898186922073364e-02 6.335969269275665283e-02 -2.199452370405197144e-02 -3.448057174682617188e-02 -1.343116164207458496e-01 -5.056221410632133484e-02 -9.752782434225082397e-02 -7.983493059873580933e-02 1.512802764773368835e-02 -1.960364170372486115e-02 7.815793156623840332e-02 1.392510980367660522e-01 -1.000768169760704041e-01 9.504892677068710327e-02 1.139085665345191956e-01 1.004919707775115967e-01 -6.106697767972946167e-02 7.610907405614852905e-02 6.278368830680847168e-02 -1.526859253644943237e-01 8.160720020532608032e-02 1.460128128528594971e-01 -1.412618719041347504e-02 -9.097608923912048340e-02 1.074074581265449524e-01 6.483630836009979248e-02 1.253490895032882690e-01 -4.347497969865798950e-02 1.534350067377090454e-01 -9.420076757669448853e-02 1.962823607027530670e-02 -3.310279920697212219e-02 1.455350685864686966e-02 5.977900326251983643e-02 -4.477623850107192993e-02 -1.102208197116851807e-01 1.032687816768884659e-02 -9.468781203031539917e-02 -5.596999824047088623e-02 1.551563888788223267e-01 8.642369881272315979e-03 3.669295459985733032e-02 1.764395982027053833e-01 1.060337573289871216e-02 -1.467965990304946899e-01 3.554531186819076538e-02 -9.951345622539520264e-02 4.620633646845817566e-02 6.557785440236330032e-03 1.156139522790908813e-01 -1.222284734249114990e-01 1.225918382406234741e-01 -3.481541574001312256e-02 -1.271751075983047485e-01 -1.219384074211120605e-01 2.093718945980072021e-02 -5.377498641610145569e-02 -1.825188100337982178e-02 -9.417201578617095947e-02 1.343992948532104492e-01 1.381845176219940186e-01 -2.952831564471125603e-03 -9.630743414163589478e-02
-4.598217457532882690e-02 2.136691957712173462e-01 -2.296174503862857819e-02 1.678149104118347168e-01 3.044476918876171112e-02 1.384836584329605103e-01 1.189624518156051636e-01 8.310532197356224060e-03 -1.548965461552143097e-02 6.713633984327316284e-02 -1.160993799567222595e-01 8.708098530769348145e-02 -7.580314576625823975e-02 -1.061836108565330505e-01 2.498691156506538391e-02 -4.643922299146652222e-02 1.486180908977985382e-02 -4.952835291624069214e-02 -8.730530738830566406e-03 -5.715662986040115356e-02 8.795405924320220947e-02 1.075177788734436035e-01 1.459812968969345093e-01 9.169216454029083252e-02 -6.204544566571712494e-03 1.312289834022521973e-01 1.017077080905437469e-02 7.028796523809432983e-02 2.624689042568206787e-02 1.735023111104965210e-01 -1.887773163616657257e-02 -1.085081696510314941e-01 -2.196509391069412231e-02 9.650676697492599487e-02 -5.449936538934707642e-02 2.024711966514587402e-01 2.674176730215549469e-02 1.765559427440166473e-02 -6.501289457082748413e-02 -3.756947070360183716e-02 -6.185344234108924866e-02 2.360139787197113037e-02 4.230506718158721924e-02 7.519862055778503418e-02 1.494419425725936890e-01 1.073580682277679443e-01 1.425639241933822632e-01 -3.422733023762702942e-02 1.502702534198760986e-01 -1.778761148452758789e-01 3.178958594799041748e-02 2.332236617803573608e-02 -1.406194120645523071e-01 -1.090618297457695007e-01 -9.865000844001770020e-02 -8.896815776824951172e-02 -9.178528189659118652e-02 -1.738511472940444946e-01 -1.796497702598571777e-01 -2.941303187981247902e-03 -1.783779859542846680e-01 -1.810701638460159302e-01 8.852711878716945648e-03 1.108587905764579773e-01 -6.656920909881591797e-02 -8.773477375507354736e-02 -4.406865313649177551e-02 -1.414299309253692627e-01 5.207664519548416138e-02 -8.657233417034149170e-02 -6.101034209132194519e-02 -1.353692114353179932e-01 1.789659820497035980e-02 4.618818685412406921e-02 -1.508127450942993164e-01 -2.262575924396514893e-01 -4.094376787543296814e-02 -5.128934606909751892e-02 3.087132424116134644e-02 -2.011252790689468384e-01 -1.935529150068759918e-02 -7.121279090642929077e-02 -6.197042763233184814e-02 3.513850970193743706e-03 -2.267600446939468384e-01 -2.302397191524505615e-01 -1.425481289625167847e-01 -1.827271282672882080e-01 -1.636070385575294495e-02 -2.400611490011215210e-01 2.010242640972137451e-02 -2.190297842025756836e-01 -2.085558325052261353e-01 -1.127040088176727295e-01 -1.979913562536239624e-01 -1.826939582824707031e-01 -2.913938835263252258e-02 -2.110612839460372925e-01 -9.695138037204742432e-02 -8.685476332902908325e-02
-4.649341106414794922e-01 -3.628893196582794189e-01 -2.424732744693756104e-01 -3.692744374275207520e-01 -3.939426243305206299e-01 -2.582987248897552490e-01 -3.593342602252960205e-01 -2.761213183403015137e-01 -4.031270444393157959e-01 -3.190143108367919922e-01 -2.956716716289520264e-01 -2.492769509553909302e-01 -4.034380614757537842e-01 -4.383193552494049072e-01 -2.609415054321289062e-01 -4.464828968048095703e-01 -3.649038076400756836e-01 -2.365790754556655884e-01 -3.042544722557067871e-01 -3.419249057769775391e-01 -4.011515676975250244e-01 -1.512065976858139038e-01 -1.458499729633331299e-01 -2.941621243953704834e-01 -3.168909251689910889e-01 -5.103680491447448730e-01 -1.205365434288978577e-01 -1.834332942962646484e-01 -9.424261748790740967e-02 -1.072391644120216370e-01 -4.077399373054504395e-01 -1.482772827148437500e-01 5.773811787366867065e-02 -4.098515212535858154e-01 -2.406772375106811523e-01 -2.157650291919708252e-01 -3.213848471641540527e-01 -3.260605335235595703e-01 -2.315902896225452423e-02 -1.261067576706409454e-02 -5.723134055733680725e-02 -1.013480946421623230e-01 -1.870163232088088989e-01 -1.651572585105895996e-01 2.745672315359115601e-02 -5.721290782094001770e-02 1.441999524831771851e-01 -1.425323039293289185e-01 -4.042388126254081726e-02 1.008283868432044983e-01 -1.601030379533767700e-01 -1.298241764307022095e-01 -5.131548643112182617e-02 -8.611816167831420898e-02 2.501538582146167755e-02 1.307252198457717896e-01 -1.939616724848747253e-02 1.425314042717218399e-02 -4.061384499073028564e-02 9.824515134096145630e-02 1.517033874988555908e-01 3.073827736079692841e-02 -1.242131963372230530e-01 -4.118873178958892822e-02 -1.113414168357849121e-01 1.422748416662216187e-01 -1.451521068811416626e-01 -9.101244620978832245e-03 4.854967445135116577e-02 -8.310893923044204712e-02 -5.895482003688812256e-02 8.306118100881576538e-02 8.522903174161911011e-02 -1.251260638236999512e-01 1.103949770331382751e-01 -5.891610868275165558e-03 1.243834421038627625e-01 1.494094878435134888e-01 1.380779445171356201e-01 1.214304938912391663e-01 1.138616576790809631e-01 -5.799889191985130310e-02 -2.387100458145141602e-02 -1.176295131444931030e-01 7.357694208621978760e-02 1.310566663742065430e-01 9.996214509010314941e-02 1.576484292745590210e-01 3.538472205400466919e-02 -1.388359218835830688e-01 -5.306588113307952881e-02 1.235182117670774460e-02 -1.300154775381088257e-01 -1.284690499305725098e-01 8.614779263734817505e-02 1.234206706285476685e-01 1.078945249319076538e-01 1.581837832927703857e-01 1.253274977207183838e-01 6.351833045482635498e-02
-2.541903853416442871e-01 -2.816597521305084229e-01 -3.789059817790985107e-01 -2.325818687677383423e-01 -3.017769753932952881e-01 -2.371542602777481079e-01 -2.347277402877807617e-01 -2.336177229881286621e-01 -3.434414565563201904e-01 -3.681397140026092529e-01 -4.505976140499114990e-01 -4.306980967521667480e-01 -2.323186397552490234e-01 -2.499876320362091064e-01 -2.515809237957000732e-01 -2.544425725936889648e-01 -6.770252436399459839e-02 -2.952365279197692871e-01 -3.178235292434692383e-01 -4.225818812847137451e-01 -3.474360406398773193e-01 -2.495454549789428711e-01 -3.622084259986877441e-01 -3.697633743286132812e-01 -2.910317778587341309e-01 -3.361208438873291016e-01 -1.796521246433258057e-01 -5.123659968376159668e-01 -3.906032741069793701e-01 3.193086013197898865e-02 -2.233441770076751709e-01 -1.091946959495544434e-01 -4.837470874190330505e-02 -1.625073701143264771e-01 -1.369201689958572388e-01 -6.289412826299667358e-02 -9.648539870977401733e-02 -1.753440201282501221e-01 -1.926951259374618530e-01 4.027567431330680847e-02 -7.884167879819869995e-02 5.979050416499376297e-03 2.411825349554419518e-03 -1.711907982826232910e-01 -2.302098870277404785e-01 4.325009882450103760e-02 7.781052589416503906e-02 1.416928917169570923e-01 -1.554273217916488647e-01 1.116039007902145386e-01 -1.095191203057765961e-02 -7.765521295368671417e-03 -6.321922689676284790e-02 1.438198238611221313e-01 -5.406691506505012512e-02 -1.944017559289932251e-01 -5.288131162524223328e-02 -2.460675127804279327e-02 2.062489464879035950e-02 -1.300312280654907227e-01 -9.792236238718032837e-02 -1.047511473298072815e-01 5.540932342410087585e-02 -6.023298949003219604e-03 -1.150717809796333313e-01 -7.316560298204421997e-02 -1.082975193858146667e-01 -1.136260777711868286e-01 5.570353567600250244e-02 6.931195408105850220e-02 -3.179670870304107666e-02 -5.370760802179574966e-03 -8.942876011133193970e-02 6.868078559637069702e-02 1.279213428497314453e-01 -7.125865668058395386e-02 2.329043485224246979e-02 -1.238423306494951248e-02 7.811595499515533447e-02 1.063186302781105042e-01 -1.008371189236640930e-01 7.154780626296997070e-02 -1.539829093962907791e-02 1.207589432597160339e-01 1.836287081241607666e-01 1.529278010129928589e-01 -7.064803689718246460e-02 2.581930533051490784e-02 3.085374459624290466e-02 -5.328168347477912903e-02 -7.354810833930969238e-02 5.886662751436233521e-02 -6.337192654609680176e-02 1.212143972516059875e-01 -5.963404849171638489e-02 -1.315263956785202026e-01 1.772633492946624756e-01 1.709655970335006714e-01 1.442528516054153442e-01 -5.379045382142066956e-02
-2.116487175226211548e-01 -2.725827395915985107e-01 -2.976443767547607422e-01 -1.706315279006958008e-01 -3.254749178886413574e-01 -1.947318464517593384e-01 -2.871939837932586670e-01 -2.760853767395019531e-01 -2.737651169300079346e-01 -2.999151349067687988e-01 -2.589169144630432129e-01 -2.890393733978271484e-01 -1.864572316408157349e-01 -1.582671850919723511e-01 -3.557541668415069580e-01 -2.464864999055862427e-01 -2.049374133348464966e-01 -3.008586466312408447e-01 -3.370676338672637939e-01 -3.550369143486022949e-01 -3.043481111526489258e-01 -3.170250952243804932e-01 -1.885866671800613403e-01 -3.000925183296203613e-01 -3.276302516460418701e-01 -3.015147447586059570e-01 -4.149417877197265625e-01 -2.884707748889923096e-01 -4.675054848194122314e-01 -3.334614336490631104e-01 -4.423427283763885498e-01 -2.807642519474029541e-01 -4.585041403770446777e-01 -4.029594361782073975e-01 -4.428371787071228027e-01 2.950963564217090607e-03 -3.581819534301757812e-01 -4.919208884239196777e-01 -3.613161444664001465e-01 -3.472803831100463867e-01 -1.669785380363464355e-01 -1.733092516660690308e-01 -2.560718655586242676e-01 -1.068391501903533936e-01 -2.635272592306137085e-02 -1.764125078916549683e-01 -1.123901531100273132e-01 -1.177798137068748474e-01 -6.768206506967544556e-02 -8.291877806186676025e-02 1.078079640865325928e-02 -8.884663134813308716e-02 1.728680282831192017e-01 8.271909505128860474e-02 -6.229771301150321960e-02 -1.276610642671585083e-01 9.417949616909027100e-02 1.545720249414443970e-01 6.503659766167402267e-03 -8.086113259196281433e-03 -1.318968236446380615e-01 1.752433031797409058e-01 1.344835311174392700e-01 1.100204959511756897e-01 -1.400376707315444946e-01 -4.181614518165588379e-02 3.789408504962921143e-02 8.073238283395767212e-02 1.875539869070053101e-01 -3.143114596605300903e-02 -1.072755381464958191e-01 1.146688014268875122e-01 -1.158365458250045776e-01 1.937123760581016541e-02 4.641276225447654724e-02 -1.402902901172637939e-01 1.088384240865707397e-01 3.333066776394844055e-02 2.420891076326370239e-02 -1.396092325448989868e-01 -6.543354690074920654e-02 1.657283604145050049e-01 2.052248455584049225e-02 1.094381660223007202e-01 -1.424304395914077759e-01 -7.168581336736679077e-02 -4.586831852793693542e-02 -2.421566285192966461e-02 -1.546602230519056320e-02 7.130054756999015808e-03 7.372129708528518677e-02 1.052773222327232361e-01 1.621981114149093628e-01 -6.618068553507328033e-03 -3.715543076395988464e-02 7.354851812124252319e-02 5.277872085571289062e-02 9.499657899141311646e-02 -6.141337007284164429e-02 1.068487167358398438e-01
-2.880708277225494385e-01 -3.098669648170471191e-01 -2.810460925102233887e-01 -2.830236554145812988e-01 -3.921884596347808838e-01 -4.389702379703521729e-01 -3.632538020610809326e-01 -2.450455278158187866e-01 -2.672956883907318115e-01 -4.282854795455932617e-01 -4.494403600692749023e-01 -4.732542037963867188e-01 -2.656415700912475586e-01 -3.313771486282348633e-01 -4.611431956291198730e-01 -3.051953315734863281e-01 -4.327564835548400879e-01 -1.034590452909469604e-01 -3.576840758323669434e-01 -2.605588734149932861e-01 -4.345406889915466309e-01 -2.226326614618301392e-01 -3.948587179183959961e-01 -3.244059383869171143e-01 -4.613017141819000244e-01 -1.805398613214492798e-01 -2.409657090902328491e-01 -3.474713861942291260e-01 -2.214055359363555908e-01 -3.757624030113220215e-01 -2.440214753150939941e-01 -1.308158934116363525e-01 -2.147722542285919189e-01 -5.487317219376564026e-02 -8.363261073827743530e-02 -1.993359997868537903e-02 -5.899214651435613632e-03 -2.255208417773246765e-02 -2.200518175959587097e-02 -2.826957106590270996e-01 -4.540099948644638062e-02 2.263513579964637756e-02 -2.082451246678829193e-02 -3.495905920863151550e-02 2.156390808522701263e-02 -7.618327438831329346e-02 -5.346349254250526428e-02 3.820874541997909546e-02 1.409042030572891235e-01 -9.743923693895339966e-02 -1.923420727252960205e-01 6.848863512277603149e-02 2.186589874327182770e-02 1.573300361633300781e-01 -3.906721249222755432e-03 4.435187950730323792e-02 5.988995358347892761e-02 8.488904684782028198e-02 5.815726891160011292e-02 1.664980947971343994e-01 -1.522309891879558563e-02 4.344697296619415283e-02 -1.777534484863281250e-01 -4.128714278340339661e-02 -3.951172903180122375e-02 -1.002376675605773926e-01 6.242187693715095520e-02 -1.109290271997451782e-01 -1.367305815219879150e-01 6.768225878477096558e-02 4.157936573028564453e-02 7.625129073858261108e-02 4.657141119241714478e-02 -1.277472823858261108e-01 -1.149817481637001038e-01 9.185077250003814697e-02 -5.957427248358726501e-02 -1.066279783844947815e-01 -1.356328427791595459e-01 5.783139914274215698e-02 -9.818815439939498901e-02 -2.053280174732208252e-02 7.343845069408416748e-02 8.367820829153060913e-02 -1.144639477133750916e-01 4.782168567180633545e-02 -9.969371557235717773e-02 1.308822780847549438e-01 -1.082240343093872070e-01 9.967604279518127441e-02 -1.178829465061426163e-02 1.262071076780557632e-02 5.110648926347494125e-03 -8.539442904293537140e-03 -3.866516798734664917e-02 1.925175189971923828e-01 4.375483840703964233e-02 5.559265613555908203e-02 -2.226328290998935699e-02 9.387493878602981567e-02
4.026032239198684692e-02 7.681526243686676025e-02 2.503844909369945526e-02 -3.755886107683181763e-02 -2.554897591471672058e-02 5.013755522668361664e-03 7.538563758134841919e-02 3.057901561260223389e-02 8.435072004795074463e-02 4.507301375269889832e-02 -8.487319946289062500e-02 2.706728875637054443e-02 2.955972217023372650e-02 -9.686936438083648682e-02 1.813540905714035034e-01 -6.893932819366455078e-02 4.581656306982040405e-02 1.720740646123886108e-01 1.761221513152122498e-02 -3.893099725246429443e-02 1.365481317043304443e-01 7.457481324672698975e-02 -5.065573751926422119e-02 7.102767378091812134e-02 -5.101997032761573792e-02 -7.497264444828033447e-02 4.748179763555526733e-02 7.889452576637268066e-02 -9.346418082714080811e-02 -8.338749408721923828e-02 9.229592233896255493e-02 4.774724319577217102e-02 3.526984527707099915e-02 5.778652802109718323e-02 1.269604563713073730e-01 3.186487033963203430e-02 1.047506704926490784e-01 -9.444123506546020508e-02 1.511362642049789429e-01 -1.032136306166648865e-01 9.775361418724060059e-02 -2.190820500254631042e-02 -8.953795582056045532e-02 -7.699868828058242798e-02 2.660073153674602509e-02 -1.091517657041549683e-01 -6.456972658634185791e-02 -1.001793369650840759e-01 7.320368289947509766e-02 -1.044406369328498840e-01 2.737274207174777985e-02 5.384212825447320938e-03 -9.682438336312770844e-03 1.190244127064943314e-02 -9.332268685102462769e-02 3.445550054311752319e-02 -1.107346713542938232e-01 8.419038355350494385e-02 7.935886085033416748e-02 5.968265235424041748e-02 -9.815584123134613037e-02 -3.101307339966297150e-02 -1.457377821207046509e-01 -1.809279024600982666e-01 -1.457448005676269531e-01 -1.116536557674407959e-01 -1.048851907253265381e-01 2.090205438435077667e-02 -1.366360336542129517e-01 -4.156928136944770813e-02 4.613796621561050415e-02 -1.989804208278656006e-02 -6.848378106951713562e-03 -1.096253693103790283e-01 -1.050050333142280579e-01 2.939504943788051605e-02 1.710373163223266602e-02 -6.115271896123886108e-02 -8.866698294878005981e-02 -2.225684076547622681e-01 -1.472409218549728394e-01 -1.142638400197029114e-01 2.941332757472991943e-02 -3.385656327009201050e-02 -1.457971483469009399e-01 1.851119101047515869e-02 2.860718406736850739e-02 -1.551328003406524658e-01 -2.275665849447250366e-01 -7.528246939182281494e-02 1.311087422072887421e-02 -3.416823595762252808e-02 -2.032898366451263428e-01 -2.035136967897415161e-01 -9.724694490432739258e-02 -1.760597378015518188e-01 -1.809631735086441040e-01 -5.161273479461669922e-02 -1.187149137258529663e-01 -1.797004640102386475e-01
-3.110125064849853516e-01 -3.106177151203155518e-01 -4.127509593963623047e-01 -4.639894962310791016e-01 -4.337801635265350342e-01 -3.377796709537506104e-01 -4.343864023685455322e-01 -2.831224203109741211e-01 -2.961192429065704346e-01 -4.856918156147003174e-01 -4.225793182849884033e-01 -3.949754536151885986e-01 -4.546908438205718994e-01 -3.980317711830139160e-01 -3.620854318141937256e-01 -2.647978961467742920e-01 -3.665949106216430664e-01 -2.715910375118255615e-01 -3.292445242404937744e-01 -4.657080173492431641e-01 -1.263020187616348267e-01 -1.322312355041503906e-01 -4.867740273475646973e-01 -4.583233594894409180e-01 -2.183945924043655396e-01 -3.984614014625549316e-01 -1.831891983747482300e-01 -3.866143524646759033e-01 -6.963205337524414062e-02 -8.718620985746383667e-02 -2.712014913558959961e-01 -1.612138152122497559e-01 -4.436118528246879578e-02 -4.556693509221076965e-02 -1.809861958026885986e-01 -1.771353632211685181e-01 -1.991812586784362793e-01 6.675370037555694580e-02 -1.254888027906417847e-01 -1.109990328550338745e-01 -1.979361847043037415e-02 -7.495193928480148315e-02 -1.515730619430541992e-01 -1.480627655982971191e-01 -2.106629870831966400e-02 -1.210662871599197388e-01 -8.706099539995193481e-02 -1.397346258163452148e-01 -5.505221337080001831e-02 -2.207033708691596985e-02 5.849903449416160583e-02 6.315273791551589966e-02 6.559021025896072388e-02 2.144404686987400055e-02 1.541665941476821899e-01 4.323012381792068481e-02 1.344245523214340210e-01 -3.729277476668357849e-02 1.515510380268096924e-01 -4.433704167604446411e-02 1.638217829167842865e-02 -8.362714946269989014e-02 -1.775520108640193939e-02 9.072823077440261841e-02 -7.902663946151733398e-02 9.039171040058135986e-02 -2.012786567211151123e-01 1.246416009962558746e-02 -6.466169655323028564e-02 -2.857947163283824921e-02 -4.926353693008422852e-02 1.577346026897430420e-01 -3.420181572437286377e-03 -2.750785648822784424e-02 -1.297607719898223877e-01 7.035148888826370239e-02 1.421065479516983032e-01 1.276356726884841919e-01 1.003738045692443848e-01 1.661783307790756226e-01 -1.260987669229507446e-01 -2.938374876976013184e-02 -3.313807025551795959e-02 4.824925679713487625e-03 -1.135551333427429199e-01 -2.564179711043834686e-02 1.112053841352462769e-01 -1.165611892938613892e-01 -7.075818628072738647e-02 3.504921123385429382e-02 -3.094071894884109497e-02 -1.330095622688531876e-02 -1.124750673770904541e-01 1.468230038881301880e-01 -1.220695152878761292e-01 9.820958226919174194e-02 1.463903635740280151e-01 1.332262456417083740e-01 6.259331107139587402e-02 -2.235711365938186646e-02
-3.594311773777008057e-01 -3.997861146926879883e-01 -2.532286047935485840e-01 -3.271565735340118408e-01 -2.522227466106414795e-01 -4.433053433895111084e-01 -2.835641801357269287e-01 -2.200950533151626587e-01 -2.498154193162918091e-01 -2.967642843723297119e-01 -3.324590623378753662e-01 -3.341779410839080811e-01 -3.224391639232635498e-01 -3.576561510562896729e-01 -3.676576912403106689e-01 -3.945677280426025391e-01 -3.303159177303314209e-01 -2.821629941463470459e-01 -2.513383924961090088e-01 -3.876480162143707275e-01 -2.826739549636840820e-01 -2.588314116001129150e-01 -2.525018453598022461e-01 -3.459477126598358154e-01 -4.634964093565940857e-02 -3.334521055221557617e-01 -2.629980146884918213e-01 -3.137846291065216064e-01 -3.130085170269012451e-01 -4.413237571716308594e-01 -2.070981413125991821e-01 -1.728991270065307617e-01 -5.583850145339965820e-01 -4.173586890101432800e-02 -1.245643272995948792e-01 9.835336357355117798e-02 -2.038018405437469482e-01 8.655606955289840698e-02 -1.231404766440391541e-01 -1.394347995519638062e-01 -1.797446459531784058e-01 -1.143505945801734924e-01 1.231131628155708313e-01 -1.258283257484436035e-01 2.735641784965991974e-02 -6.031868979334831238e-02 7.065778225660324097e-02 -7.646760344505310059e-02 -1.033653616905212402e-01 -4.861549939960241318e-03 -1.464969962835311890e-01 -7.939426600933074951e-02 -9.234787523746490479e-02 -2.613097801804542542e-02 7.945013046264648438e-02 1.266832351684570312e-01 -1.823549531400203705e-02 3.583069518208503723e-02 -1.390290632843971252e-02 8.020725101232528687e-02 -1.587257683277130127e-01 1.198556870222091675e-01 5.798609927296638489e-02 1.337476074695587158e-01 2.700803242623806000e-02 2.469062805175781250e-02 -1.766509860754013062e-01 9.050870314240455627e-03 8.554311096668243408e-02 -7.441192865371704102e-02 1.577917784452438354e-01 1.078717038035392761e-01 1.460561994463205338e-03 1.794096231460571289e-01 5.449749901890754700e-02 1.662724614143371582e-01 1.676726043224334717e-01 -1.351720094680786133e-01 -4.351620003581047058e-02 -4.318770766258239746e-02 1.183075159788131714e-01 6.691673398017883301e-02 -1.077292561531066895e-01 -4.257421568036079407e-02 9.768326580524444580e-02 5.587059538811445236e-03 -1.072113662958145142e-01 -8.011674880981445312e-02 -4.136834759265184402e-03 -6.336968392133712769e-02 1.054154336452484131e-01 1.744928956031799316e-01 -9.137683361768722534e-02 1.343445926904678345e-01 -5.320758372545242310e-02 1.957729756832122803e-01 -7.640575617551803589e-02 1.425530463457107544e-01 4.107882827520370483e-02 6.353382766246795654e-02
-2.914861738681793213e-01 -2.404972612857818604e-01 -2.982168793678283691e-01 -2.113534957170486450e-01 -2.581591904163360596e-01 -2.652927041053771973e-01 -2.267945259809494019e-01 -3.296958506107330322e-01 -2.145603299140930176e-01 -2.103745192289352417e-01 -3.565693795680999756e-01 -2.792671918869018555e-01 -2.644546329975128174e-01 -2.948698699474334717e-01 -2.365632206201553345e-01 -3.048468828201293945e-01 -2.710590064525604248e-01 -2.069322615861892700e-01 -2.669140100479125977e-01 -3.288925290107727051e-01 -2.855330705642700195e-01 -2.767782211303710938e-01 -2.269817739725112915e-01 -3.346616923809051514e-01 -2.958334088325500488e-01 -3.175063431262969971e-01 -3.363505005836486816e-01 -3.381199836730957031e-01 -2.961060702800750732e-01 -3.425069153308868408e-01 -4.232079684734344482e-01 -3.835745751857757568e-01 -3.498520255088806152e-01 -4.423256814479827881e-01 -4.189698398113250732e-01 -1.428767442703247070e-01 -2.962104380130767822e-01 -1.623663306236267090e-01 -5.533648729324340820e-01 -3.185195028781890869e-01 -3.479030430316925049e-01 -8.323480933904647827e-02 -3.107210397720336914e-01 -2.058352977037429810e-01 -1.755492538213729858e-01 -2.981681227684020996e-01 2.683989517390727997e-02 9.722094237804412842e-02 6.534853577613830566e-02 -2.075509876012802124e-01 -1.597746759653091431e-01 -1.280280500650405884e-01 -5.398833006620407104e-02 2.594990842044353485e-02 9.661499410867691040e-02 -1.704545505344867706e-02 1.045953482389450073e-01 -1.102646812796592712e-01 -8.165375888347625732e-02 1.146512385457754135e-02 4.190129414200782776e-02 1.311155557632446289e-01 4.666480049490928650e-02 -3.111744858324527740e-02 9.931521117687225342e-02 -5.531200394034385681e-02 5.400244519114494324e-02 1.173583716154098511e-01 -3.698414936661720276e-02 7.645887881517410278e-02 3.502935171127319336e-02 5.191811174154281616e-02 9.664295613765716553e-02 7.780589908361434937e-02 8.483297377824783325e-02 -3.605614602565765381e-02 -1.146661639213562012e-01 1.645813435316085815e-01 -2.579434029757976532e-02 -1.061450107954442501e-03 -2.999079180881381035e-03 4.176761582493782043e-02 1.695230156183242798e-01 7.448274642229080200e-02 -9.181087464094161987e-02 2.199479192495346069e-02 1.247962117195129395e-01 7.841085642576217651e-02 -4.725504294037818909e-02 -7.790257781744003296e-02 1.623156219720840454e-01 1.384816914796829224e-01 -1.171890413388609886e-03 1.302584912627935410e-02 1.550671607255935669e-01 -6.762000918388366699e-02 1.490433514118194580e-02 -4.002984985709190369e-02 1.436123847961425781e-01 -8.324055373668670654e-02
-4.027777910232543945e-01 -4.006613194942474365e-01 -4.332396686077117920e-01 -2.673826217651367188e-01 -4.536469876766204834e-01 -3.994894623756408691e-01 -2.644735872745513916e-01 -3.366615176200866699e-01 -3.947044312953948975e-01 -2.759576141834259033e-01 -2.688557803630828857e-01 -3.976399898529052734e-01 -3.934391438961029053e-01 -2.461280673742294312e-01 -4.018003940582275391e-01 -2.433746010065078735e-01 -2.506332397460937500e-01 -4.448055624961853027e-01 -4.334954321384429932e-01 -3.934477865695953369e-01 -4.198063910007476807e-01 -3.613099753856658936e-01 -4.010734856128692627e-01 -2.816463410854339600e-01 -3.895706236362457275e-01 -3.823141753673553467e-01 -2.722311615943908691e-01 -2.116538435220718384e-01 -3.360992074012756348e-01 -2.223884016275405884e-01 -1.774742156267166138e-01 -2.233636528253555298e-01 -4.050071537494659424e-01 -9.269452840089797974e-02 -2.548953592777252197e-01 -1.172483488917350769e-01 -2.197396755218505859e-02 -1.742355227470397949e-01 -1.187996589578688145e-03 1.116849184036254883e-01 -5.397490784525871277e-02 -1.930807679891586304e-01 -1.357639729976654053e-01 -8.157872408628463745e-02 1.056143641471862793e-02 -2.038593441247940063e-01 -1.174017861485481262e-01 -1.155294775962829590e-01 -1.118547916412353516e-01 -1.809872128069400787e-02 -9.397607296705245972e-02 -8.285681903362274170e-02 -2.966423146426677704e-02 -1.078336611390113831e-01 -1.032364889979362488e-01 9.743478894233703613e-02 -7.592070102691650391e-02 1.430831998586654663e-01 -3.340083174407482147e-03 1.719530522823333740e-01 -1.245941668748855591e-01 -7.861316204071044922e-02 2.540503256022930145e-02 9.258145838975906372e-02 3.295044600963592529e-02 -1.141413897275924683e-01 2.572128176689147949e-02 1.593919657170772552e-02 1.532151997089385986e-01 7.891002297401428223e-02 5.788514018058776855e-02 3.921947628259658813e-02 9.414609521627426147e-02 2.186821028590202332e-02 1.675421148538589478e-01 4.369536042213439941e-02 4.338634759187698364e-02 5.522209219634532928e-03 -4.323174431920051575e-02 -1.098729297518730164e-01 1.476701069623231888e-02 -1.096155960112810135e-02 5.551311746239662170e-02 1.671878620982170105e-02 3.803990781307220459e-02 7.250975817441940308e-02 4.867671802639961243e-02 4.558469355106353760e-02 -8.601889945566654205e-03 6.369346380233764648e-02 8.592760562896728516e-02 -8.869642764329910278e-02 1.800429224967956543e-01 -1.852123066782951355e-02 6.531929224729537964e-02 -8.261550962924957275e-02 -7.738222181797027588e-02 -3.106157109141349792e-02 -1.070526614785194397e-02 -7.391498889774084091e-03
1.502060741186141968e-01 5.892771761864423752e-03 1.475803554058074951e-01 -4.136287793517112732e-02 5.500045046210289001e-02 1.154012754559516907e-01 6.812189519405364990e-02 -6.918738037347793579e-02 -8.041316270828247070e-02 1.140336245298385620e-01 -5.822704732418060303e-02 -8.831222355365753174e-02 -7.540612667798995972e-02 8.322592824697494507e-02 -6.217842176556587219e-02 -5.237332731485366821e-02 3.550846129655838013e-02 6.726863235235214233e-02 -9.273912757635116577e-02 8.243968337774276733e-02 -3.106756508350372314e-02 -4.807813093066215515e-02 1.727724671363830566e-01 9.522520750761032104e-02 -4.493437334895133972e-02 7.459531724452972412e-02 -9.621753543615341187e-02 -6.439790874719619751e-02 -5.003001075237989426e-03 -6.932585686445236206e-02 1.398864388465881348e-02 -1.458982825279235840e-01 7.851074635982513428e-02 -7.800655066967010498e-02 8.099301159381866455e-02 -6.666184961795806885e-02 1.070601567625999451e-01 -1.753516495227813721e-02 5.340027436614036560e-02 3.568474203348159790e-02 -1.067309230566024780e-01 -9.277676045894622803e-02 -9.092997759580612183e-02 2.604301832616329193e-02 -6.033111736178398132e-02 -1.324123889207839966e-01 3.877685964107513428e-02 7.102339062839746475e-03 -3.583439067006111145e-02 -7.837276905775070190e-02 -4.583065584301948547e-02 6.862419098615646362e-02 1.149584725499153137e-01 -1.607553567737340927e-03 1.107858791947364807e-01 -2.515912801027297974e-02 -8.480245620012283325e-02 -1.640406847000122070e-01 -2.060330063104629517e-01 2.866593562066555023e-02 1.082783937454223633e-02 -1.329702436923980713e-01 -1.363333612680435181e-01 -2.074524462223052979e-01 -7.075136061757802963e-03 -4.166395217180252075e-02 -6.159468740224838257e-02 -2.785424292087554932e-01 -1.858093887567520142e-01 -9.318856149911880493e-02 -1.212748736143112183e-01 -7.922358810901641846e-02 -2.653159201145172119e-01 -7.892299443483352661e-02 -1.758182644844055176e-01 1.476873271167278290e-02 3.292879089713096619e-02 -5.732581391930580139e-02 -1.928175985813140869e-01 -1.884822845458984375e-01 -6.434085220098495483e-02 -1.702124178409576416e-01 -1.896535009145736694e-01 -1.624407023191452026e-01 -8.497189730405807495e-02 -2.516469657421112061e-01 -2.008712850511074066e-02 -7.694432977586984634e-03 -1.342352107167243958e-02 -1.139829382300376892e-01 -9.322218596935272217e-02 -2.847012877464294434e-01 -5.154559016227722168e-02 -7.225586473941802979e-02 -1.632839292287826538e-01 -2.632134258747100830e-01 -1.843984723091125488e-01 4.609980434179306030e-02 -1.249371916055679321e-01 -2.296912521123886108e-01
-3.313918113708496094e-01 -3.180856704711914062e-01 -2.343306690454483032e-01 -4.476931691169738770e-01 -4.167541265487670898e-01 -3.356605470180511475e-01 -2.496816366910934448e-01 -3.550817668437957764e-01 -4.418747127056121826e-01 -3.533067405223846436e-01 -4.546063542366027832e-01 -2.866989672183990479e-01 -4.420282542705535889e-01 -3.294879794120788574e-01 -4.650520980358123779e-01 -2.527745664119720459e-01 -4.469722509384155273e-01 -3.256258070468902588e-01 -4.673738777637481689e-01 -2.697080373764038086e-01 -4.920710027217864990e-01 -4.203583598136901855e-01 -2.920995354652404785e-01 -3.959130644798278809e-01 -2.405081391334533691e-01 -4.982448816299438477e-01 -2.643834948539733887e-01 -3.383478522300720215e-01 -5.715582966804504395e-01 -2.312913984060287476e-01 -2.282269001007080078e-01 -2.652039229869842529e-01 -2.782700955867767334e-01 4.169686883687973022e-02 -3.173792660236358643e-01 -7.807830721139907837e-02 -2.964072227478027344e-01 -1.558476984500885010e-01 -1.345527172088623047e-01 -5.797347426414489746e-02 -1.318961083889007568e-01 8.179902285337448120e-02 -1.256607025861740112e-01 -9.082991629838943481e-02 -9.373563341796398163e-03 -5.731588229537010193e-02 -1.310207545757293701e-01 5.614817887544631958e-02 3.278172761201858521e-02 6.559197604656219482e-02 -1.117010712623596191e-01 -9.063295274972915649e-02 1.316997259855270386e-01 -6.492805480957031250e-02 1.305563300848007202e-01 -9.293206781148910522e-02 -2.725416421890258789e-02 -1.460704505443572998e-01 7.703541219234466553e-02 1.191988810896873474e-01 -5.056393146514892578e-02 -1.985634863376617432e-02 -1.243589669466018677e-01 1.261413097381591797e-01 -6.887432187795639038e-02 5.110679194331169128e-02 1.082388311624526978e-01 -5.734441801905632019e-03 -4.528102651238441467e-02 1.422906666994094849e-01 3.281030058860778809e-02 1.149164438247680664e-01 1.140319555997848511e-01 1.555389314889907837e-01 1.351440101861953735e-01 1.317511647939682007e-01 8.876133710145950317e-02 1.652595847845077515e-01 9.256551414728164673e-02 2.687150426208972931e-02 4.709135740995407104e-02 -3.024032525718212128e-02 -1.399316340684890747e-01 -1.926645054481923580e-04 9.757917374372482300e-02 -1.223135218024253845e-01 -1.039615087211132050e-02 1.542026996612548828e-01 1.676403731107711792e-01 1.714613437652587891e-01 8.343843370676040649e-02 -4.728414863348007202e-02 -5.888085067272186279e-02 1.818628609180450439e-01 -5.133569240570068359e-02 1.602078527212142944e-01 1.510668452829122543e-02 -9.943081438541412354e-02 -4.701979085803031921e-02 1.426089555025100708e-01
-2.284575849771499634e-01 -3.027992844581604004e-01 -4.070714712142944336e-01 -4.049982726573944092e-01 -2.585814893245697021e-01 -2.898358404636383057e-01 -3.828517198562622070e-01 -3.497759401798248291e-01 -4.060027897357940674e-01 -2.800295054912567139e-01 -2.581418454647064209e-01 -3.708137869834899902e-01 -3.304478824138641357e-01 -2.729889452457427979e-01 -2.842842638492584229e-01 -2.701681554317474365e-01 -4.317644834518432617e-01 -3.506795465946197510e-01 -3.778520226478576660e-01 -2.935120463371276855e-01 -3.899872601032257080e-01 -3.988088071346282959e-01 -4.031900763511657715e-01 -2.416323125362396240e-01 -3.142278492450714111e-01 -4.419361948966979980e-01 -3.109364807605743408e-01 -2.354661226272583008e-01 -5.075480937957763672e-01 -5.504183173179626465e-01 -2.383819073438644409e-01 -1.005920395255088806e-01 1.064702644944190979e-01 -1.905218213796615601e-01 -5.542913079261779785e-02 -1.809442043304443359e-01 -6.627368275076150894e-03 3.119670599699020386e-02 -1.681452989578247070e-01 5.694116000086069107e-03 1.000450849533081055e-01 -5.393090844154357910e-02 8.531131595373153687e-02 2.503132075071334839e-02 -6.101504899561405182e-03 1.137876287102699280e-01 -1.660372316837310791e-01 -1.356718391180038452e-01 -8.522978425025939941e-02 -2.001916170120239258e-01 -1.750722527503967285e-01 -1.048733443021774292e-01 1.575623154640197754e-01 2.911792322993278503e-02 -1.022428199648857117e-01 -1.698600314557552338e-02 1.358069777488708496e-01 9.339280426502227783e-02 -1.244399920105934143e-01 4.062263667583465576e-02 1.290732715278863907e-02 -3.894442319869995117e-02 -9.605629742145538330e-02 -1.364006251096725464e-01 8.021879196166992188e-02 6.335449963808059692e-02 -6.525435298681259155e-02 1.209571864455938339e-02 7.645943015813827515e-02 -2.023296989500522614e-02 6.322482228279113770e-02 1.796592175960540771e-01 -4.143982194364070892e-03 -2.299291826784610748e-02 1.479983776807785034e-01 -1.164187043905258179e-01 3.987586125731468201e-02 -9.693517535924911499e-02 1.610371470451354980e-01 -4.778162762522697449e-02 1.160613521933555603e-01 4.474725574254989624e-03 -3.013126552104949951e-02 1.463597714900970459e-01 1.496249288320541382e-01 -1.215101480484008789e-01 1.460394114255905151e-01 -3.716650232672691345e-02 5.307332798838615417e-02 5.811818689107894897e-02 -2.577606402337551117e-02 -4.473583027720451355e-02 -3.852950781583786011e-02 6.273069232702255249e-02 1.064075529575347900e-01 -7.668734062463045120e-03 -7.924833148717880249e-02 -1.019007638096809387e-01 -6.537979096174240112e-02 6.395678967237472534e-02
-2.984562814235687256e-01 -2.125110775232315063e-01 -2.807205319404602051e-01 -2.324623912572860718e-01 -3.345427513122558594e-01 -2.560540735721588135e-01 -2.591597735881805420e-01 -2.879326343536376953e-01 -1.957651972770690918e-01 -1.985394209623336792e-01 -2.782264649868011475e-01 -3.423530161380767822e-01 -3.292060792446136475e-01 -2.782050073146820068e-01 -3.415448069572448730e-01 -3.238368034362792969e-01 -3.111525774002075195e-01 -3.394579291343688965e-01 -3.380665481090545654e-01 -2.925613224506378174e-01 -3.431842029094696045e-01 -2.943711280822753906e-01 -2.888641655445098877e-01 -2.572141587734222412e-01 -2.803195714950561523e-01 -2.951439023017883301e-01 -3.356004059314727783e-01 -3.926486968994140625e-01 -3.439386487007141113e-01 -4.702301323413848877e-01 -3.540558516979217529e-01 -3.994517028331756592e-01 -4.517892599105834961e-01 -4.137342274188995361e-01 -3.136136531829833984e-01 -5.025585740804672241e-02 -2.941186726093292236e-01 -1.898417323827743530e-01 -4.211748242378234863e-01 -2.885209321975708008e-01 -1.979866623878479004e-01 -2.345640212297439575e-01 -4.495549499988555908e-01 -2.533992528915405273e-01 -9.229762852191925049e-02 3.679717332124710083e-02 -1.033960655331611633e-01 -2.104901522397994995e-01 -1.001666560769081116e-01 1.175933256745338440e-01 -1.025203615427017212e-01 -1.181423291563987732e-01 -2.402490563690662384e-02 1.409830003976821899e-01 9.537487477064132690e-02 -3.015422262251377106e-02 1.168952975422143936e-02 1.124217659235000610e-01 -9.589660167694091797e-02 -1.216944232583045959e-01 1.390688121318817139e-01 8.199301362037658691e-02 4.721401724964380264e-03 5.343535169959068298e-02 -1.110909506678581238e-01 -1.220664605498313904e-01 -5.046075582504272461e-02 -3.646303340792655945e-02 5.999444425106048584e-02 4.297247156500816345e-02 -7.526367157697677612e-02 1.029043421149253845e-01 -2.285733446478843689e-02 -1.504268348217010498e-01 -1.154151111841201782e-01 1.644683778285980225e-01 1.362164318561553955e-01 8.058895170688629150e-02 -1.313747614622116089e-01 9.842859953641891479e-02 -1.336752530187368393e-02 1.316189467906951904e-01 -1.620743125677108765e-01 1.407982259988784790e-01 1.039254739880561829e-01 -1.364829987287521362e-01 -1.104962751269340515e-01 -9.188930690288543701e-02 1.819450855255126953e-01 -5.241840705275535583e-02 1.221326366066932678e-01 3.213491290807723999e-02 2.158435434103012085e-02 3.449550271034240723e-02 -4.999770596623420715e-02 6.482327729463577271e-02 1.709554791450500488e-01 3.160870866850018501e-03 1.684637218713760376e-01 5.890077725052833557e-02
-2.778489589691162109e-01 -2.620326578617095947e-01 -3.710945844650268555e-01 -3.201167285442352295e-01 -2.489791363477706909e-01 -3.116197884082794189e-01 -4.191446900367736816e-01 -2.650516629219055176e-01 -3.793707787990570068e-01 -3.935899734497070312e-01 -3.644874691963195801e-01 -3.825700581073760986e-01 -2.918009459972381592e-01 -3.682523071765899658e-01 -2.441973835229873657e-01 -2.864270806312561035e-01 -2.621844410896301270e-01 -3.509272038936614990e-01 -2.949433922767639160e-01 -4.223611056804656982e-01 -2.840902507305145264e-01 -4.701367318630218506e-01 -4.910580813884735107e-01 -3.155732750892639160e-01 -3.363834321498870850e-01 -3.299086987972259521e-01 -8.665506541728973389e-02 -1.806178390979766846e-01 -8.151944726705551147e-02 -2.945387661457061768e-01 -1.764694452285766602e-01 -2.499020546674728394e-01 -1.413640826940536499e-01 5.134565755724906921e-03 -1.416965425014495850e-01 -1.318112611770629883e-01 7.125647366046905518e-02 5.704332143068313599e-02 -2.217881754040718079e-02 -1.052188724279403687e-01 -1.531382054090499878e-01 6.150348857045173645e-02 -6.618581712245941162e-02 -2.239342778921127319e-01 -9.984912723302841187e-02 7.864739745855331421e-02 -1.750868707895278931e-01 3.013401105999946594e-02 -4.414776340126991272e-02 -1.242556571960449219e-01 -4.638249985873699188e-03 5.270499363541603088e-02 4.942084848880767822e-02 -1.141684129834175110e-01 1.620406210422515869e-01 -2.161579206585884094e-02 4.045836627483367920e-02 7.168196886777877808e-02 -2.853202447295188904e-02 8.631509542465209961e-02 -8.038923889398574829e-02 -3.217784315347671509e-02 3.290864825248718262e-02 5.567717552185058594e-02 4.305107891559600830e-02 -3.451629308983683586e-03 4.450742527842521667e-02 4.446515068411827087e-02 -9.589179605245590210e-02 -3.385651158168911934e-03 -4.669895768165588379e-02 6.758844107389450073e-02 7.991684973239898682e-02 -1.374514400959014893e-01 5.780392885208129883e-02 -1.627083718776702881e-01 1.736753731966018677e-01 2.455494739115238190e-02 3.720067813992500305e-02 1.497344523668289185e-01 -6.809127330780029297e-02 -4.617284610867500305e-02 -9.681189805269241333e-02 -1.086021587252616882e-01 -5.546224117279052734e-02 5.972814187407493591e-02 -2.505897916853427887e-02 -1.513032615184783936e-01 1.608683168888092041e-02 -1.323700547218322754e-01 -9.379869699478149414e-02 1.928239315748214722e-02 -1.077705100178718567e-01 1.152578890323638916e-01 9.486447274684906006e-02 -1.158945038914680481e-01 -7.954287528991699219e-02 -5.514117702841758728e-02 -1.384296175092458725e-02 -5.868652090430259705e-02
9.270169585943222046e-02 -2.633557189255952835e-03 1.207786947488784790e-01 -2.222779765725135803e-02 3.039534576237201691e-02 -1.158749982714653015e-01 7.061307877302169800e-02 9.378443658351898193e-02 -3.954968601465225220e-02 -8.929350227117538452e-02 9.719964116811752319e-02 1.038225665688514709e-01 -3.036678954958915710e-02 1.379031985998153687e-01 -1.192968189716339111e-01 -6.190048903226852417e-02 1.576847583055496216e-02 -1.782242953777313232e-02 1.096523180603981018e-02 8.448663167655467987e-03 -3.265524655580520630e-02 -4.653070867061614990e-02 -4.300314933061599731e-02 2.713213860988616943e-02 2.248827964067459106e-01 5.839898064732551575e-02 1.819866709411144257e-02 1.737507618963718414e-02 7.235612720251083374e-02 -1.018437650054693222e-02 1.050764024257659912e-01 1.128198951482772827e-01 2.334613166749477386e-02 8.632762730121612549e-02 -1.249188035726547241e-01 -1.370866037905216217e-02 4.479963704943656921e-02 -6.938595324754714966e-02 -1.455237716436386108e-01 5.384832620620727539e-02 7.958729565143585205e-02 9.243236482143402100e-02 -1.188218742609024048e-01 -1.629548519849777222e-01 -4.825066030025482178e-02 1.414813101291656494e-01 -1.259753108024597168e-01 -1.167653277516365051e-01 -1.014178022742271423e-01 -4.468320310115814209e-02 3.082261979579925537e-02 -5.729052796959877014e-02 6.894930265843868256e-03 5.688819661736488342e-02 -1.354488879442214966e-01 -6.057019345462322235e-03 -1.620160639286041260e-01 -1.723731607198715210e-01 -2.222186774015426636e-01 1.785599999129772186e-02 -1.875732541084289551e-01 -1.593167036771774292e-01 -1.636918336153030396e-01 7.371558248996734619e-02 -8.833740651607513428e-02 -1.907869987189769745e-02 -2.853289432823657990e-02 -7.805730402469635010e-02 -2.930260598659515381e-01 -1.110967919230461121e-01 -4.834034293889999390e-02 -2.220845073461532593e-01 -1.560491025447845459e-01 -3.124764561653137207e-02 2.543711848556995392e-02 -3.215837106108665466e-02 -1.411641240119934082e-01 -1.312293857336044312e-01 -8.076677471399307251e-02 -1.106961518526077271e-01 -2.019226700067520142e-01 -7.264291495084762573e-02 -4.985439404845237732e-02 -1.033120006322860718e-01 -3.465046407654881477e-03 -2.737963497638702393e-01 -5.315671861171722412e-02 3.168979659676551819e-02 -1.886300146579742432e-01 -2.329152375459671021e-01 -8.131411671638488770e-02 -2.325414493680000305e-02 -2.195672504603862762e-02 -1.961310505867004395e-01 2.217764779925346375e-02 -2.031732499599456787e-01 -1.992528140544891357e-01 -1.242380589246749878e-01 -1.689704656600952148e-01 2.084865793585777283e-02
-4.872801303863525391e-01 -3.484870195388793945e-01 -4.537336826324462891e-01 -3.989227712154388428e-01 -4.194892644882202148e-01 -5.016505718231201172e-01 -4.401182234287261963e-01 -3.806687891483306885e-01 -3.950496613979339600e-01 -3.488896191120147705e-01 -4.815429449081420898e-01 -3.129335045814514160e-01 -2.951126992702484131e-01 -4.556726813316345215e-01 -3.110689222812652588e-01 -3.961005806922912598e-01 -2.698248624801635742e-01 -2.924456298351287842e-01 -4.555855393409729004e-01 -3.893513679504394531e-01 -3.904919922351837158e-01 -3.775617778301239014e-01 -2.831967175006866455e-01 -3.298531845211982727e-02 -4.726661443710327148e-01 -4.645088315010070801e-01 -2.127786427736282349e-01 -3.887138068675994873e-01 -1.491898894309997559e-01 -1.417335271835327148e-01 -3.217851817607879639e-01 -7.613863795995712280e-02 -1.912124156951904297e-01 2.552440576255321503e-02 -1.966922730207443237e-01 -3.063344657421112061e-01 -5.088109895586967468e-02 -1.284412443637847900e-01 -4.486009478569030762e-02 1.084306016564369202e-01 -1.634557247161865234e-01 -1.686869859695434570e-01 -1.309813708066940308e-01 1.900876685976982117e-02 -1.727200001478195190e-01 -3.082033060491085052e-02 -4.354392737150192261e-02 -1.876264214515686035e-01 -5.870741978287696838e-02 4.116024076938629150e-02 6.554411351680755615e-02 1.373232714831829071e-02 1.325598210096359253e-01 1.444805264472961426e-01 3.929523006081581116e-02 -1.239243373274803162e-01 7.625508308410644531e-02 1.565040946006774902e-01 1.628540754318237305e-01 9.892926365137100220e-02 1.199170500040054321e-01 -4.290957376360893250e-02 1.576673239469528198e-02 1.060088425874710083e-01 7.759217172861099243e-02 1.293738782405853271e-01 -1.505489498376846313e-01 -1.595832854509353638e-01 -1.399208046495914459e-02 1.185521185398101807e-01 -4.534386843442916870e-02 -1.080174073576927185e-01 6.242470443248748779e-02 -1.163393445312976837e-02 -1.333077698945999146e-01 2.018502950668334961e-01 -9.302670508623123169e-02 -6.145904958248138428e-02 -9.637407027184963226e-03 3.096210770308971405e-02 -7.450712379068136215e-03 -4.263715818524360657e-02 2.050013095140457153e-01 1.058420911431312561e-01 7.351558655500411987e-02 -6.904686987400054932e-02 -2.472487464547157288e-02 1.737529411911964417e-02 -6.202475354075431824e-02 1.871998906135559082e-01 1.835121661424636841e-01 -3.986884653568267822e-02 6.937865912914276123e-02 4.435378313064575195e-02 1.340947207063436508e-02 1.831015348434448242e-01 1.264285594224929810e-01 8.407546579837799072e-02 -1.332870218902826309e-02 6.008791550993919373e-02
-4.523501396179199219e-01 -3.304398357868194580e-01 -3.949181139469146729e-01 -3.398956358432769775e-01 -3.453898131847381592e-01 -3.046868741512298584e-01 -3.700411021709442139e-01 -3.794332444667816162e-01 -3.565405309200286865e-01 -4.190730452537536621e-01 -3.367042541503906250e-01 -3.620770871639251709e-01 -4.299738407135009766e-01 -3.024046719074249268e-01 -2.362741678953170776e-01 -3.332484662532806396e-01 -4.344769716262817383e-01 -4.305286109447479248e-01 -3.631514608860015869e-01 -4.854268729686737061e-01 -4.899446070194244385e-01 -3.050407469272613525e-01 -3.994049429893493652e-01 -3.122187554836273193e-01 -3.797848522663116455e-01 -3.441351950168609619e-01 -4.420127272605895996e-01 -1.195593997836112976e-01 -2.018048465251922607e-01 -4.273574054241180420e-02 6.033888086676597595e-02 -1.085740029811859131e-01 -3.119491040706634521e-01 -2.167964577674865723e-01 -1.858686208724975586e-01 -2.084806859493255615e-01 -5.791449546813964844e-02 -8.310843259096145630e-02 1.680664718151092529e-02 -1.582293212413787842e-01 6.485491245985031128e-02 9.932922571897506714e-02 8.450537174940109253e-02 -5.953359417617321014e-03 1.073071286082267761e-01 -1.753567010164260864e-01 4.650897532701492310e-02 7.039484381675720215e-02 -1.703979223966598511e-01 -1.372775882482528687e-01 -8.357489854097366333e-02 5.913358554244041443e-02 1.090005785226821899e-01 9.386327862739562988e-02 -9.061478078365325928e-02 -1.335044950246810913e-01 -9.265489876270294189e-02 -1.460797712206840515e-02 8.998898416757583618e-02 -6.623477209359407425e-03 6.336052715778350830e-02 -5.001227930188179016e-02 -8.431921899318695068e-02 -1.474619954824447632e-01 2.437399327754974365e-02 -3.501893207430839539e-02 6.242077052593231201e-02 -1.147030368447303772e-01 7.886578142642974854e-02 2.869203127920627594e-02 -1.677272170782089233e-01 7.819414138793945312e-02 5.141231417655944824e-02 -9.129489958286285400e-02 4.711006581783294678e-02 1.096120569854974747e-02 -1.211181506514549255e-01 2.912880480289459229e-02 -6.500814855098724365e-02 -1.781378500163555145e-02 7.817269116640090942e-02 -2.435755543410778046e-02 1.256660744547843933e-02 2.233084104955196381e-02 -8.930440992116928101e-02 -1.250263489782810211e-02 7.642553001642227173e-02 2.260719053447246552e-02 8.586287498474121094e-02 9.056792408227920532e-02 3.542668744921684265e-02 1.656311750411987305e-01 4.507962614297866821e-02 -1.038224026560783386e-01 3.723988682031631470e-02 -6.956969946622848511e-02 -2.851788513362407684e-02 7.361046969890594482e-02 1.149205118417739868e-01 -8.578436076641082764e-02
-2.197190225124359131e-01 -2.019706815481185913e-01 -2.473793029785156250e-01 -3.093153536319732666e-01 -2.842604517936706543e-01 -3.614399135112762451e-01 -1.978169977664947510e-01 -3.006831407546997070e-01 -1.987201869487762451e-01 -1.781174838542938232e-01 -3.263975083827972412e-01 -1.994352191686630249e-01 -2.672364711761474609e-01 -3.202037513256072998e-01 -2.543773949146270752e-01 -2.369272857904434204e-01 -3.004249930381774902e-01 -2.616169750690460205e-01 -2.832335233688354492e-01 -3.431655466556549072e-01 -2.424612492322921753e-01 -2.700111567974090576e-01 -3.186466991901397705e-01 -2.341767996549606323e-01 -3.015811443328857422e-01 -4.099047780036926270e-01 -3.977884352207183838e-01 -3.649188876152038574e-01 -2.208250313997268677e-01 -3.263231515884399414e-01 -1.784221529960632324e-01 -3.634424209594726562e-01 -3.180912733078002930e-01 -9.013143926858901978e-02 -5.144120454788208008e-01 -5.525533556938171387e-01 -4.967755973339080811e-01 -3.248575031757354736e-01 -4.740688800811767578e-01 -5.925079584121704102e-01 -4.654959738254547119e-01 -3.426606953144073486e-01 -1.592993736267089844e-01 -1.595553010702133179e-01 -2.855720520019531250e-01 -1.013241335749626160e-02 3.490081429481506348e-02 2.197875082492828369e-02 7.229114323854446411e-02 -6.326654553413391113e-02 1.347117940895259380e-03 1.092799007892608643e-01 1.213011983782052994e-02 -1.298839747905731201e-01 -2.884130366146564484e-02 6.089757010340690613e-02 8.361610770225524902e-02 -9.495380520820617676e-02 1.190268471837043762e-01 -6.549958139657974243e-02 1.098206266760826111e-02 5.841781198978424072e-02 -4.992750287055969238e-02 1.394712924957275391e-01 2.551840990781784058e-02 -1.130613535642623901e-01 9.544216841459274292e-02 1.577493101358413696e-01 -1.273530572652816772e-01 -1.097349897027015686e-01 1.189601048827171326e-02 1.814204305410385132e-01 1.354351341724395752e-01 -8.547282963991165161e-02 -1.064099222421646118e-01 1.326894313097000122e-01 5.638372525572776794e-02 -1.368691772222518921e-01 2.912310883402824402e-02 -2.230823598802089691e-02 1.244978979229927063e-01 4.328656941652297974e-02 4.555163159966468811e-02 1.027838960289955139e-01 1.133217513561248779e-01 -6.504777073860168457e-02 -1.527669373899698257e-02 1.503460407257080078e-01 1.459973026067018509e-02 1.112602874636650085e-01 3.926446288824081421e-02 1.028555855154991150e-01 -1.342921406030654907e-01 6.205924600362777710e-02 7.775391638278961182e-02 9.135545790195465088e-02 -1.208186894655227661e-01 -1.351883262395858765e-01 -1.080490648746490479e-01 9.783673286437988281e-02
-2.795384824275970459e-01 -4.555754959583282471e-01 -3.504908680915832520e-01 -2.947125732898712158e-01 -3.825341463088989258e-01 -2.968590855598449707e-01 -2.559333741664886475e-01 -2.664915323257446289e-01 -3.903080224990844727e-01 -3.492795228958129883e-01 -3.875786066055297852e-01 -4.215836226940155029e-01 -4.046677649021148682e-01 -4.346396923065185547e-01 -2.731353938579559326e-01 -3.230068981647491455e-01 -3.802256882190704346e-01 -4.008151590824127197e-01 -3.051396608352661133e-01 -3.605642318725585938e-01 -3.070183396339416504e-01 -4.631829261779785156e-01 -3.652616739273071289e-01 -4.052295386791229248e-01 -3.357361555099487305e-01 -1.819180697202682495e-01 -1.898622214794158936e-01 -3.010245263576507568e-01 -6.821454316377639771e-02 -4.487460851669311523e-02 -2.216066718101501465e-01 -7.612814009189605713e-02 -2.720773816108703613e-01 -2.463763803243637085e-01 -2.769287526607513428e-01 -1.297442018985748291e-01 -1.632452458143234253e-01 1.663537463173270226e-03 9.418604522943496704e-02 -3.181039169430732727e-02 -2.133486866950988770e-01 -7.996764779090881348e-02 2.499672397971153259e-02 -2.154107540845870972e-01 2.850453741848468781e-02 2.734524384140968323e-02 1.152853816747665405e-01 -3.405212238430976868e-02 -1.664720475673675537e-01 8.210244029760360718e-02 -7.305987924337387085e-02 -6.294936407357454300e-03 -1.107495948672294617e-01 -1.476522833108901978e-01 5.592833831906318665e-02 -1.357000917196273804e-01 -1.071077063679695129e-01 1.625137329101562500e-01 1.819871664047241211e-01 6.623369455337524414e-02 -9.646402299404144287e-02 2.501508034765720367e-02 8.998341113328933716e-02 1.411587148904800415e-01 1.075964346528053284e-01 -4.218670073896646500e-03 1.789760142564773560e-01 8.574324101209640503e-02 7.744340598583221436e-02 -1.952486112713813782e-02 1.406635195016860962e-01 1.679190993309020996e-01 2.158761210739612579e-02 3.257953003048896790e-02 -3.344736248254776001e-02 1.765968650579452515e-01 9.878458082675933838e-02 2.380453422665596008e-02 -2.938271872699260712e-02 1.979142725467681885e-01 -4.396464675664901733e-02 1.664177477359771729e-01 1.210015192627906799e-01 -3.155402839183807373e-02 -4.621675238013267517e-02 -1.132017076015472412e-01 4.604113101959228516e-02 -1.011831164360046387e-01 1.635926216840744019e-01 -5.632196553051471710e-03 8.711645007133483887e-02 -7.382858544588088989e-02 1.571573764085769653e-01 1.495670080184936523e-01 5.670008808374404907e-02 -3.505219519138336182e-02 -8.275050669908523560e-02 1.705669909715652466e-01 2.492031641304492950e-02 -3.311877325177192688e-02
1.244742982089519501e-02 -7.342777401208877563e-02 -8.432526141405105591e-02 -2.618907578289508820e-02 5.916288495063781738e-02 1.061805710196495056e-01 -2.779547497630119324e-02 1.708406358957290649e-01 -2.571730874478816986e-02 1.289346069097518921e-01 -2.919824095442891121e-03 1.857183687388896942e-02 -8.133344352245330811e-02 -6.408173590898513794e-02 -2.013742364943027496e-02 6.765764206647872925e-02 1.886802613735198975e-01 -1.050235554575920105e-01 2.109893113374710083e-01 -3.855575993657112122e-02 -1.102928966283798218e-01 1.854067146778106689e-01 -3.316490352153778076e-02 -5.101068317890167236e-02 -7.888025045394897461e-02 1.724152266979217529e-01 2.150881141424179077e-01 1.173287853598594666e-01 6.610459089279174805e-02 6.407473236322402954e-03 9.647696465253829956e-02 3.975356370210647583e-02 2.656191773712635040e-02 1.459758263081312180e-02 1.287814825773239136e-01 1.530265510082244873e-01 2.627770975232124329e-02 5.000644922256469727e-02 4.202504456043243408e-02 1.978822946548461914e-01 -1.040909588336944580e-01 1.400779187679290771e-01 -6.155680865049362183e-02 7.571055740118026733e-02 9.511886537075042725e-02 3.578393533825874329e-02 -1.162382066249847412e-01 1.580750346183776855e-01 -1.463263034820556641e-01 4.493620991706848145e-02 -2.055225707590579987e-02 -1.522671580314636230e-01 -1.529535800218582153e-01 2.140040276572108269e-03 -4.145082086324691772e-02 -4.438870772719383240e-02 5.396645516157150269e-02 -1.565419584512710571e-01 -3.051452711224555969e-02 -2.017983645200729370e-01 -1.786469370126724243e-01 -7.710574567317962646e-02 -1.490572541952133179e-01 6.314367800951004028e-02 -1.701304167509078979e-01 -1.568344980478286743e-01 -9.287741035223007202e-02 -9.507986903190612793e-02 -2.599582262337207794e-02 4.803329333662986755e-02 -1.618923693895339966e-01 -4.599680658429861069e-03 -1.886702477931976318e-01 4.777098447084426880e-02 -1.546579748392105103e-01 -9.106314927339553833e-02 -1.029335260391235352e-01 -2.499954253435134888e-01 -3.004632145166397095e-02 -1.526218056678771973e-01 3.117181546986103058e-02 -1.668407768011093140e-01 -7.702037692070007324e-02 -1.381834596395492554e-01 -1.655377000570297241e-01 -4.955049604177474976e-02 -1.848041117191314697e-01 -8.962226659059524536e-02 -3.286167746409773827e-03 -7.205782830715179443e-02 -1.657182425260543823e-01 -6.051902100443840027e-02 4.032774642109870911e-02 -1.692081987857818604e-01 -9.267060086131095886e-03 -1.127003207802772522e-01 5.391825921833515167e-03 3.394252434372901917e-02 -4.214139655232429504e-03 -7.654465269297361374e-03
-2.761686146259307861e-01 -2.598729729652404785e-01 -2.611840367317199707e-01 -3.465556800365447998e-01 -3.485842049121856689e-01 -3.718708157539367676e-01 -4.753702282905578613e-01 -2.270979583263397217e-01 -3.071967363357543945e-01 -2.992265224456787109e-01 -2.729675769805908203e-01 -2.223709076642990112e-01 -2.788173854351043701e-01 -4.537678658962249756e-01 -3.630285263061523438e-01 -3.707090616226196289e-01 -3.549475073814392090e-01 -2.673068642616271973e-01 -4.600224196910858154e-01 -3.301929831504821777e-01 -3.819134235382080078e-01 -2.979180514812469482e-01 -3.731989264488220215e-01 -3.200324773788452148e-01 -1.530905812978744507e-01 -1.729653626680374146e-01 -5.316191539168357849e-02 -2.887007594108581543e-01 -1.361266523599624634e-01 -3.276942372322082520e-01 -2.053708136081695557e-01 -3.993574082851409912e-01 -1.653370857238769531e-01 -3.115026950836181641e-01 -1.580920964479446411e-01 -5.353226512670516968e-02 4.841122031211853027e-02 -1.632929220795631409e-02 -7.132987678050994873e-02 -9.546837210655212402e-02 -3.079392313957214355e-01 -3.869602456688880920e-02 -2.324276603758335114e-02 6.031699106097221375e-02 -1.642990708351135254e-01 -7.412021607160568237e-02 8.871772885322570801e-02 -5.266334488987922668e-02 -5.576498806476593018e-02 -8.632254786789417267e-03 6.139923632144927979e-02 -1.195987313985824585e-01 -4.758475348353385925e-02 -9.858006238937377930e-02 9.821025282144546509e-02 1.626698374748229980e-01 1.365733705461025238e-02 -2.120413444936275482e-02 9.540425986051559448e-02 -1.406663805246353149e-01 8.574460446834564209e-02 3.226661309599876404e-02 5.596940591931343079e-02 1.465498358011245728e-01 1.867836900055408478e-02 -1.610467582941055298e-01 4.236022382974624634e-02 -1.364608556032180786e-01 -3.186153620481491089e-02 -4.475286230444908142e-03 -9.725428186357021332e-03 -7.594513148069381714e-02 7.660858333110809326e-02 -1.338523626327514648e-01 1.419093161821365356e-01 -1.366524305194616318e-02 9.275497496128082275e-02 3.604081645607948303e-02 -2.791281230747699738e-02 3.606942296028137207e-02 1.102713588625192642e-02 9.293085336685180664e-02 6.461220234632492065e-02 4.331213235855102539e-02 1.886306330561637878e-02 8.459212258458137512e-03 -6.085783988237380981e-02 7.055129855871200562e-02 5.651144310832023621e-02 1.355379223823547363e-01 1.765453666448593140e-01 -2.803678438067436218e-02 1.184279471635818481e-01 -8.063245564699172974e-02 1.695413887500762939e-01 3.907823935151100159e-02 -7.544898986816406250e-02 -5.556330829858779907e-02 1.865431368350982666e-01 -5.570002645254135132e-02
-3.752124905586242676e-01 -3.937522768974304199e-01 -2.745050191879272461e-01 -3.831493258476257324e-01 -3.368344902992248535e-01 -2.758358716964721680e-01 -2.564081549644470215e-01 -3.502326011657714844e-01 -3.500921130180358887e-01 -4.093832075595855713e-01 -4.535144269466400146e-01 -4.258898794651031494e-01 -3.462890088558197021e-01 -3.279204666614532471e-01 -3.593511581420898438e-01 -3.509686589241027832e-01 -3.962014019489288330e-01 -3.049309551715850830e-01 -4.474273622035980225e-01 -3.234305679798126221e-01 -4.668519496917724609e-01 -4.310898482799530029e-01 -3.919073343276977539e-01 -2.819190919399261475e-01 -3.857007324695587158e-01 -3.998626172542572021e-01 -2.185086347162723541e-02 6.958268582820892334e-02 -2.479429394006729126e-01 -2.782305479049682617e-01 -1.841376423835754395e-01 -3.236487880349159241e-02 -1.419118046760559082e-01 -2.204959839582443237e-01 -2.041792571544647217e-01 -1.260887682437896729e-01 -2.554560005664825439e-01 -6.815162301063537598e-02 8.735632896423339844e-02 1.310181524604558945e-02 -1.778285354375839233e-01 5.484519526362419128e-02 -1.260466128587722778e-01 -2.659225463867187500e-02 1.535789519548416138e-01 -1.479100733995437622e-01 4.230512678623199463e-02 -1.543262135237455368e-02 2.402502298355102539e-02 -4.810155928134918213e-02 -1.587083190679550171e-01 -8.785726130008697510e-02 -1.214733496308326721e-01 -8.240786194801330566e-02 7.542643696069717407e-02 6.229095160961151123e-02 8.694068342447280884e-02 -1.492316722869873047e-01 -7.450331747531890869e-02 1.821871250867843628e-01 -1.610317677259445190e-01 -1.242987997829914093e-02 -1.083128452301025391e-01 -9.664831310510635376e-02 -5.284344404935836792e-02 2.107488363981246948e-01 -8.508903533220291138e-02 9.763048589229583740e-02 1.471634060144424438e-01 1.067891195416450500e-01 6.558495014905929565e-02 5.109511781483888626e-03 -4.875193163752555847e-02 3.106870129704475403e-02 -6.341340392827987671e-02 6.940891593694686890e-02 -2.965706586837768555e-02 4.906377196311950684e-02 -6.056404486298561096e-02 -1.186140030622482300e-01 -1.691209971904754639e-01 6.824563443660736084e-02 1.591007113456726074e-01 1.301203519105911255e-01 1.677498519420623779e-01 1.232418566942214966e-01 9.053993970155715942e-02 8.882546424865722656e-02 -9.589669294655323029e-03 -1.150460317730903625e-01 1.129318252205848694e-01 -5.603483691811561584e-02 5.066864937543869019e-02 2.139683626592159271e-02 2.011345922946929932e-01 -2.017202973365783691e-02 2.106240950524806976e-02 -4.133241716772317886e-03 8.573228120803833008e-02 6.788417696952819824e-02
-3.134233951568603516e-01 -2.734071612358093262e-01 -2.602204680442810059e-01 -3.468357026576995850e-01 -2.978409826755523682e-01 -1.950382292270660400e-01 -2.790233194828033447e-01 -2.908730208873748779e-01 -2.798617780208587646e-01 -2.958351075649261475e-01 -2.263701409101486206e-01 -2.699662148952484131e-01 -2.898789942264556885e-01 -3.437421619892120361e-01 -2.288536280393600464e-01 -2.580566704273223877e-01 -2.668871581554412842e-01 -3.426499068737030029e-01 -1.885935217142105103e-01 -2.983516752719879150e-01 -3.954543769359588623e-01 -2.955260872840881348e-01 -3.468622565269470215e-01 -3.842224180698394775e-01 -3.572483062744140625e-01 -2.793050110340118408e-01 -3.942411839962005615e-01 -2.734621763229370117e-01 -2.578641772270202637e-01 -3.693226575851440430e-01 -4.255761504173278809e-01 -2.366350293159484863e-01 -4.128209054470062256e-01 -4.543935656547546387e-01 -2.569192051887512207e-01 -2.627780735492706299e-01 -4.834680855274200439e-01 -5.820502638816833496e-01 6.789090484380722046e-02 -5.367823243141174316e-01 -2.560831010341644287e-01 -1.442530304193496704e-01 -8.202619105577468872e-02 -1.883427500724792480e-01 -1.227973774075508118e-01 5.365472286939620972e-02 -3.168398886919021606e-02 -6.348901987075805664e-02 -2.041027545928955078e-01 5.320500209927558899e-02 -6.708429008722305298e-02 8.149474114179611206e-02 -3.787749260663986206e-02 8.119759708642959595e-02 -1.263775378465652466e-01 -8.982780575752258301e-02 2.540011517703533173e-02 5.724943056702613831e-02 -4.206113517284393311e-02 -9.096454083919525146e-02 1.120948642492294312e-01 -1.563888043165206909e-02 8.663693815469741821e-02 -1.227421220391988754e-02 -4.535904899239540100e-02 -9.574978053569793701e-02 1.103971749544143677e-01 7.087536156177520752e-02 -5.449309945106506348e-02 1.051485762000083923e-01 3.110413206741213799e-03 -1.015157904475927353e-02 7.214803993701934814e-02 -9.432065486907958984e-02 1.537368893623352051e-01 8.161301165819168091e-02 1.079807505011558533e-01 -1.625251621007919312e-01 -5.244633555412292480e-02 -6.169562414288520813e-02 2.714458480477333069e-02 3.096981532871723175e-02 1.637030094861984253e-01 6.478457897901535034e-02 -6.442558020353317261e-02 8.300966583192348480e-03 -1.421263068914413452e-01 -1.093567907810211182e-01 -3.167737275362014771e-02 5.756058543920516968e-02 -9.850161522626876831e-02 -1.270826756954193115e-01 1.031313166022300720e-01 4.892127215862274170e-02 9.122305363416671753e-02 1.180422380566596985e-01 1.761004179716110229e-01 -5.372848361730575562e-02 9.668016433715820312e-02 1.295081432908773422e-02
-4.316801130771636963e-01 -2.464730590581893921e-01 -3.232479393482208252e-01 -3.671786785125732422e-01 -3.593686521053314209e-01 -2.600295245647430420e-01 -3.266309797763824463e-01 -3.660164177417755127e-01 -2.976823449134826660e-01 -3.983238637447357178e-01 -3.892198503017425537e-01 -2.447444647550582886e-01 -4.035180509090423584e-01 -3.866683840751647949e-01 -2.868710756301879883e-01 -4.058122634887695312e-01 -4.116919934749603271e-01 -2.368896305561065674e-01 -4.553847014904022217e-01 -3.071170151233673096e-01 -4.198574721813201904e-01 -4.693290889263153076e-01 -1.987130045890808105e-01 -4.115962088108062744e-01 -4.189614057540893555e-01 -3.578650057315826416e-01 1.358533557504415512e-02 3.047390654683113098e-02 -1.184223499149084091e-02 -3.510671555995941162e-01 -1.234538853168487549e-01 -2.637996077537536621e-01 -1.435000598430633545e-01 -1.772209256887435913e-01 5.568312853574752808e-02 -2.039776891469955444e-01 -3.897723257541656494e-01 1.021968480199575424e-02 -4.115242883563041687e-02 -8.896194398403167725e-02 9.214203804731369019e-02 3.276003524661064148e-02 -1.399419009685516357e-01 1.152870431542396545e-02 -2.473930120468139648e-01 -1.814740896224975586e-01 -1.080485209822654724e-01 -1.490262597799301147e-01 7.214297074824571609e-03 3.283340111374855042e-02 -1.728189736604690552e-02 1.018089056015014648e-01 -7.259671390056610107e-02 -4.940343648195266724e-02 -1.484225392341613770e-01 -1.271363496780395508e-01 -8.972044289112091064e-02 -9.979847073554992676e-02 -9.144126623868942261e-02 -7.349984347820281982e-02 8.916647732257843018e-02 1.655629128217697144e-01 -2.669139392673969269e-02 2.582356147468090057e-02 3.094585239887237549e-02 8.328595012426376343e-02 -1.199944913387298584e-01 -5.414479970932006836e-02 -1.614336371421813965e-01 -4.944369941949844360e-02 1.153165102005004883e-01 1.030143350362777710e-01 -8.594164252281188965e-02 1.324493736028671265e-01 -1.269013434648513794e-01 -1.045109704136848450e-01 -9.784732758998870850e-02 7.824137806892395020e-02 7.342732697725296021e-02 1.034140959382057190e-01 -2.016946673393249512e-02 1.498913913965225220e-01 -1.538401469588279724e-03 6.280551105737686157e-02 1.061145439743995667e-01 -2.349580265581607819e-02 1.300348043441772461e-01 6.225191988050937653e-03 1.638144254684448242e-02 -1.260497421026229858e-01 -2.605414483696222305e-03 1.424235552549362183e-01 1.160785853862762451e-01 -6.410222500562667847e-02 1.072699725627899170e-01 6.262445822358131409e-04 -8.417757600545883179e-02 4.909592121839523315e-02 1.393940001726150513e-01 1.107575073838233948e-01
-3.381361067295074463e-02 1.857920289039611816e-01 -8.694329112768173218e-02 1.722566187381744385e-01 1.714089810848236084e-01 1.635572165250778198e-01 3.159904479980468750e-02 8.743899315595626831e-02 2.148762643337249756e-01 -3.496056422591209412e-02 1.527011245489120483e-01 9.803968667984008789e-02 -2.861151285469532013e-02 1.441061943769454956e-01 1.672015041112899780e-01 -3.599863499402999878e-02 8.343372493982315063e-02 -1.163045503199100494e-02 -5.170447751879692078e-02 -7.108943536877632141e-03 -2.688664011657238007e-02 -7.054580748081207275e-02 -8.528369478881359100e-03 1.757380366325378418e-01 7.759816944599151611e-02 -6.901042908430099487e-02 8.486887067556381226e-02 -2.948867157101631165e-02 -2.860879153013229370e-02 5.766891688108444214e-02 -7.053723186254501343e-02 1.205755919218063354e-01 1.207713037729263306e-01 -3.473490849137306213e-02 -4.915770515799522400e-02 -7.112429291009902954e-02 1.173597201704978943e-01 -2.412539161741733551e-02 -9.840247780084609985e-02 -4.070851579308509827e-02 3.746709227561950684e-02 8.208052068948745728e-02 8.851684629917144775e-02 9.754031896591186523e-02 9.118978679180145264e-02 -1.212454736232757568e-01 9.480738639831542969e-02 9.503397345542907715e-02 2.552300877869129181e-02 -8.533092588186264038e-02 -6.449698656797409058e-02 -1.132376715540885925e-01 -1.033209636807441711e-01 -9.983340650796890259e-02 -4.945789650082588196e-02 -1.482699513435363770e-01 -1.379851400852203369e-01 -1.007140949368476868e-01 -8.633366972208023071e-02 -9.846635907888412476e-02 5.085887387394905090e-02 -2.056618221104145050e-02 -1.555772125720977783e-01 2.212439663708209991e-02 1.983881555497646332e-02 4.910045303404331207e-03 -3.038104437291622162e-02 3.350483253598213196e-02 2.223855815827846527e-02 -1.285940315574407578e-02 -2.931971475481987000e-02 -4.387766495347023010e-02 -5.990954115986824036e-02 -2.460902333259582520e-01 -1.941801458597183228e-01 -1.371516883373260498e-01 -9.156552702188491821e-02 -6.520316004753112793e-03 9.519763290882110596e-03 1.218806207180023193e-02 -1.207767501473426819e-01 -7.183035463094711304e-02 -2.181511223316192627e-01 -4.994366317987442017e-03 -2.468507140874862671e-01 -2.111709909513592720e-03 -4.723517969250679016e-02 -1.227366775274276733e-01 -1.899258345365524292e-01 -1.542053520679473877e-01 -2.211982458829879761e-01 -2.155109792947769165e-01 -1.295566558837890625e-01 3.820389742031693459e-03 -2.388402819633483887e-01 -3.236066177487373352e-02 -1.457369327545166016e-01 -1.161382570862770081e-01 -3.859800100326538086e-02 -7.910054922103881836e-02
-2.500126361846923828e-01 -3.626414239406585693e-01 -4.075663685798645020e-01 -4.702223241329193115e-01 -4.263810217380523682e-01 -3.752289414405822754e-01 -4.762582778930664062e-01 -4.387580156326293945e-01 -2.624152898788452148e-01 -3.063059747219085693e-01 -2.452247142791748047e-01 -3.186792731285095215e-01 -2.666710615158081055e-01 -3.898355960845947266e-01 -4.418310225009918213e-01 -3.100533485412597656e-01 -3.663468062877655029e-01 -4.438541531562805176e-01 -4.353170692920684814e-01 -3.666412532329559326e-01 -2.710239291191101074e-01 -3.551726341247558594e-01 -2.953203916549682617e-01 -4.280372858047485352e-01 -4.287483394145965576e-01 -4.253974854946136475e-01 5.871155112981796265e-02 -3.686131238937377930e-01 -1.305443942546844482e-01 -4.775493443012237549e-01 -3.284824788570404053e-01 -2.429009526968002319e-01 -5.055878162384033203e-01 -1.570789813995361328e-01 -4.522201418876647949e-02 7.012722082436084747e-03 -5.794046446681022644e-02 -1.878360807895660400e-01 -1.018904373049736023e-01 5.017144978046417236e-02 -5.250437185168266296e-02 -1.702538505196571350e-02 -1.294179819524288177e-02 -5.153990932740271091e-04 8.507131040096282959e-02 -2.026525698602199554e-02 -1.585807204246520996e-01 1.038554012775421143e-01 -1.278765499591827393e-01 -1.076213717460632324e-01 -2.530582807958126068e-02 -7.286970317363739014e-02 -1.674837321043014526e-01 -1.134782359004020691e-01 -1.212445925921201706e-02 -9.357418119907379150e-02 -1.260249018669128418e-01 9.686949849128723145e-02 -1.367864292114973068e-02 -8.499230444431304932e-02 -1.535132061690092087e-02 7.425712887197732925e-03 5.506237596273422241e-02 1.052483096718788147e-01 6.141022965312004089e-02 -1.562456227838993073e-02 6.999952346086502075e-02 9.645325690507888794e-02 3.792145848274230957e-02 -1.175397410988807678e-01 -2.395326644182205200e-02 1.293473243713378906e-01 -2.014005929231643677e-02 -7.750138640403747559e-02 5.363594368100166321e-02 1.304166018962860107e-01 -5.850734934210777283e-02 -1.304998844861984253e-01 -8.695308864116668701e-02 -3.560374304652214050e-02 -6.782973557710647583e-02 1.272483468055725098e-01 -1.405270844697952271e-01 7.912097126245498657e-02 1.170527748763561249e-02 1.877435445785522461e-01 5.067820101976394653e-02 1.509430352598428726e-02 1.127605214715003967e-01 1.187841128557920456e-02 3.544097393751144409e-02 -8.168387413024902344e-02 -7.169175893068313599e-02 1.265261173248291016e-01 1.393124740570783615e-02 1.191099360585212708e-01 3.603218938224017620e-04 -1.172377765178680420e-01 1.167517155408859253e-01 1.433472484350204468e-01
-3.668646514415740967e-01 -4.139526486396789551e-01 -3.834217786788940430e-01 -2.290402948856353760e-01 -2.689525485038757324e-01 -2.879575788974761963e-01 -2.798019647598266602e-01 -2.977645695209503174e-01 -3.839789032936096191e-01 -4.768934547901153564e-01 -3.695325255393981934e-01 -4.485028386116027832e-01 -4.124665856361389160e-01 -2.577900588512420654e-01 -2.296912819147109985e-01 -3.795305192470550537e-01 -3.884282708168029785e-01 -2.255349457263946533e-01 -4.503109157085418701e-01 -3.201188445091247559e-01 -2.326147556304931641e-01 -4.730995893478393555e-01 -4.233708381652832031e-01 -4.295467436313629150e-01 -5.556639656424522400e-02 -1.091226041316986084e-01 -3.778240084648132324e-01 -2.196816354990005493e-01 -9.298344701528549194e-02 -1.515236049890518188e-01 -3.919078707695007324e-01 -1.075275242328643799e-01 -6.264424920082092285e-01 -1.029034927487373352e-01 1.334487833082675934e-02 -2.630553580820560455e-02 1.346530318260192871e-01 -2.467767000198364258e-01 -1.586142480373382568e-01 6.809087842702865601e-02 -9.967204928398132324e-02 -4.929415509104728699e-02 9.991414099931716919e-02 -1.460504978895187378e-01 5.451582744717597961e-02 -1.145378276705741882e-01 -1.128840744495391846e-01 -1.386503130197525024e-01 9.248355031013488770e-02 3.014151379466056824e-02 9.549999237060546875e-02 -1.339646428823471069e-01 -9.766599535942077637e-02 -4.204094037413597107e-02 7.385581731796264648e-02 -3.933399543166160583e-02 3.426804021000862122e-02 2.478925883769989014e-02 -4.747370723634958267e-03 1.470166742801666260e-01 -7.939444482326507568e-02 -1.286519467830657959e-01 -1.005556657910346985e-01 -2.273464389145374298e-02 6.197201460599899292e-02 -1.172732003033161163e-02 -7.157313078641891479e-02 1.550144851207733154e-01 1.706331670284271240e-01 -9.414853528141975403e-03 -5.762898176908493042e-02 1.738261058926582336e-02 -1.030892506241798401e-01 1.237783655524253845e-01 8.911740034818649292e-02 1.087356582283973694e-01 1.455343216657638550e-01 -7.878486067056655884e-02 -1.215848252177238464e-01 -8.991555869579315186e-02 8.303530514240264893e-02 1.034961268305778503e-01 8.414828032255172729e-02 -9.977003186941146851e-02 1.508080512285232544e-01 1.925853779539465904e-03 -8.024371415376663208e-02 -1.181469019502401352e-02 -5.790694802999496460e-02 1.117229014635086060e-01 7.806207239627838135e-02 1.722691953182220459e-02 -4.142197221517562866e-02 -5.468384921550750732e-02 -1.054034382104873657e-01 -1.378403902053833008e-01 -7.995828986167907715e-02 -5.117568373680114746e-02 -1.115166097879409790e-01 1.783537305891513824e-02
-2.547893226146697998e-01 -2.831389605998992920e-01 -3.560686409473419189e-01 -3.128991425037384033e-01 -2.200042009353637695e-01 -2.532594799995422363e-01 -3.296931982040405273e-01 -2.652612924575805664e-01 -2.091468423604965210e-01 -2.766388952732086182e-01 -3.457779586315155029e-01 -2.588624954223632812e-01 -2.077943831682205200e-01 -3.424484729766845703e-01 -3.720746934413909912e-01 -2.772310078144073486e-01 -2.578773498535156250e-01 -2.284717559814453125e-01 -2.071149647235870361e-01 -2.232757061719894409e-01 -2.792450487613677979e-01 -2.986259758472442627e-01 -1.877542138099670410e-01 -2.480906397104263306e-01 -2.545405924320220947e-01 -2.774251699447631836e-01 -3.739704489707946777e-01 -2.928736507892608643e-01 -4.223249554634094238e-01 -4.501768350601196289e-01 -4.362756609916687012e-01 -2.986395061016082764e-01 -3.177059292793273926e-01 -5.421460866928100586e-01 -1.533392071723937988e-01 -3.506033122539520264e-01 -2.049445807933807373e-01 -5.267958045005798340e-01 -4.046729505062103271e-01 -2.285916954278945923e-01 -4.522373080253601074e-01 -2.591124176979064941e-01 -2.748920023441314697e-01 -1.320163160562515259e-01 -3.219996988773345947e-01 -1.012484431266784668e-01 5.830571800470352173e-02 -1.470761597156524658e-01 1.253760606050491333e-01 -1.455913484096527100e-01 -2.661863900721073151e-02 8.015472441911697388e-02 7.044226676225662231e-02 1.333173215389251709e-01 -1.084811463952064514e-01 -4.942316561937332153e-02 -1.542808413505554199e-01 1.010866016149520874e-01 -6.806979328393936157e-02 -3.020552173256874084e-02 7.007660716772079468e-02 -5.973151326179504395e-02 1.595827937126159668e-01 -3.108966350555419922e-02 7.093792408704757690e-02 1.631196588277816772e-01 3.131281584501266479e-02 5.420415475964546204e-02 -1.170111894607543945e-01 9.436686336994171143e-02 -7.491772621870040894e-02 -8.740781247615814209e-02 -4.749197140336036682e-02 8.309642225503921509e-02 1.726904883980751038e-02 1.595753282308578491e-01 -1.029544323682785034e-01 9.877788834273815155e-03 7.769960165023803711e-02 -9.742692112922668457e-02 1.797467172145843506e-01 -7.424019277095794678e-02 4.498552065342664719e-03 -8.391767740249633789e-02 1.102650463581085205e-01 9.470926225185394287e-02 -1.479011476039886475e-01 1.290416866540908813e-01 5.774044897407293320e-03 1.156537011265754700e-01 -9.821333736181259155e-02 6.379714608192443848e-02 5.812255293130874634e-02 3.848144039511680603e-02 7.914531230926513672e-02 7.523401826620101929e-02 4.476210474967956543e-02 -1.279432028532028198e-01 2.140443958342075348e-02 1.620514690876007080e-01
-3.746526837348937988e-01 -3.285661637783050537e-01 -4.503555297851562500e-01 -3.440539240837097168e-01 -4.435004293918609619e-01 -3.136976659297943115e-01 -3.092219829559326172e-01 -2.539498805999755859e-01 -3.338738083839416504e-01 -3.634371161460876465e-01 -2.299607843160629272e-01 -4.256840050220489502e-01 -2.817851006984710693e-01 -3.049889802932739258e-01 -2.314562946557998657e-01 -4.455005824565887451e-01 -3.581060767173767090e-01 -3.454903662204742432e-01 -2.601141929626464844e-01 -2.433686703443527222e-01 -1.954500526189804077e-01 -4.221440255641937256e-01 -3.480272889137268066e-01 -2.260501384735107422e-01 -1.967391967773437500e-01 -3.325092792510986328e-01 -3.317271769046783447e-01 -2.445158362388610840e-01 -2.052163779735565186e-01 5.637939646840095520e-02 -3.338380455970764160e-01 -1.874744892120361328e-01 -5.377876758575439453e-02 -1.490309089422225952e-01 -7.060651481151580811e-02 -1.976291537284851074e-01 -3.785499185323715210e-02 -1.664275079965591431e-01 -2.442754209041595459e-01 -1.065216958522796631e-01 -1.203922107815742493e-01 1.961156353354454041e-02 -1.450920403003692627e-01 -1.058634445071220398e-01 -1.137006795033812523e-03 4.030561074614524841e-02 1.095858067274093628e-01 -9.420438110828399658e-02 -3.181910514831542969e-02 1.201164945960044861e-01 1.403863076120615005e-02 5.500001460313796997e-02 1.544992532581090927e-02 2.568437159061431885e-02 -9.402859956026077271e-02 1.108466237783432007e-01 -8.762339130043983459e-04 6.619274150580167770e-03 -1.032154932618141174e-01 -1.421916931867599487e-01 2.069649286568164825e-02 -9.925139695405960083e-02 1.005659103393554688e-01 7.792375981807708740e-02 1.307705789804458618e-01 -1.083027869462966919e-01 -1.843520104885101318e-01 -1.509753465652465820e-01 -8.305790275335311890e-02 -1.392858177423477173e-01 1.181904450058937073e-01 -1.222451403737068176e-01 -3.726065158843994141e-02 1.020078896544873714e-03 -3.317498415708541870e-02 -2.765312604606151581e-02 4.211826715618371964e-03 -9.986940771341323853e-02 -2.236982807517051697e-02 -3.978670388460159302e-02 3.992456942796707153e-02 5.841974914073944092e-02 -1.090925931930541992e-02 1.507584899663925171e-01 1.112403422594070435e-01 7.782377302646636963e-02 6.642841547727584839e-02 1.217442601919174194e-01 9.280972182750701904e-02 -4.718990996479988098e-02 1.200580224394798279e-01 1.402870118618011475e-01 5.638587102293968201e-02 -1.269830018281936646e-01 -1.076971739530563354e-01 -7.784458994865417480e-02 -9.782111272215843201e-03 1.268997695297002792e-02 1.193539425730705261e-02 -6.890293955802917480e-02
1.772159337997436523e-01 -2.180236577987670898e-02 -2.445579133927822113e-02 4.202523082494735718e-02 1.532249152660369873e-03 8.552071452140808105e-02 -1.208133436739444733e-02 1.893264986574649811e-02 1.070744097232818604e-01 6.980123370885848999e-02 1.210760176181793213e-01 -2.779488638043403625e-02 9.805469959974288940e-02 1.037537828087806702e-01 -1.501527056097984314e-02 -4.462209716439247131e-02 -7.352146506309509277e-02 9.796628355979919434e-02 1.297075003385543823e-01 -3.714084252715110779e-02 1.904834508895874023e-01 -1.555999927222728729e-02 2.414619624614715576e-01 -3.658577427268028259e-02 3.772109374403953552e-02 4.671384394168853760e-02 1.189547255635261536e-01 -1.044275462627410889e-01 7.799636572599411011e-02 1.184401810169219971e-01 -4.704531654715538025e-02 9.993276000022888184e-02 1.926113516092300415e-01 1.245997101068496704e-02 1.865969896316528320e-01 -8.129692077636718750e-02 1.645348072052001953e-01 1.340772062540054321e-01 -2.434283308684825897e-02 -1.117064952850341797e-01 -3.071234375238418579e-02 -5.976092442870140076e-02 1.644918620586395264e-01 1.220161020755767822e-01 -4.801308270543813705e-03 1.056298613548278809e-02 -1.266581565141677856e-01 -1.274161506444215775e-02 9.206286072731018066e-02 1.937944628298282623e-02 8.851321041584014893e-02 -2.832229947671294212e-03 -9.590895473957061768e-02 6.523165106773376465e-02 5.109006166458129883e-02 -1.113732010126113892e-01 3.151155263185501099e-02 5.631387978792190552e-02 7.863747887313365936e-03 -1.053477227687835693e-01 -6.178198754787445068e-02 -1.426914632320404053e-01 -1.913743168115615845e-01 -1.109819188714027405e-01 -1.431928724050521851e-01 -1.693880259990692139e-01 2.858931012451648712e-02 -1.297225952148437500e-01 -1.271025687456130981e-01 -7.286274433135986328e-02 -1.178777664899826050e-01 -5.835343524813652039e-02 -3.739107400178909302e-02 -5.377482995390892029e-02 -1.591595113277435303e-01 -1.299364864826202393e-01 -9.393458813428878784e-02 -1.204692721366882324e-01 -2.026229649782180786e-01 7.458529621362686157e-02 -2.064608931541442871e-01 -2.031580805778503418e-01 -1.787540316581726074e-01 -9.188035875558853149e-02 -1.489268522709608078e-02 -2.939474023878574371e-02 -2.182737141847610474e-01 -1.644501239061355591e-01 -2.548409402370452881e-01 -1.639963388442993164e-01 -1.478405892848968506e-01 -6.129942461848258972e-02 -2.010794430971145630e-01 -1.896049380302429199e-01 -1.699574142694473267e-01 -1.848677247762680054e-01 -2.097765207290649414e-01 -2.126569449901580811e-01 -1.755864620208740234e-01 -2.566641010344028473e-02
-3.070877790451049805e-01 -3.484481275081634521e-01 -3.383610844612121582e-01 -3.182776272296905518e-01 -4.213210940361022949e-01 -2.956865131855010986e-01 -3.123092353343963623e-01 -4.249919950962066650e-01 -4.913699924945831299e-01 -3.265208005905151367e-01 -3.569913208484649658e-01 -2.998382747173309326e-01 -3.204038739204406738e-01 -3.822824954986572266e-01 -3.027250766754150391e-01 -4.568820893764495850e-01 -4.220835566520690918e-01 -3.638733029365539551e-01 -2.588822841644287109e-01 -3.931679129600524902e-01 -3.245889544486999512e-01 -3.171038329601287842e-01 -3.598455786705017090e-01 -3.091756701469421387e-01 -4.006836712360382080e-01 -1.849501579999923706e-01 -2.411486953496932983e-01 -1.312628686428070068e-01 -2.020772695541381836e-01 -1.033852528780698776e-02 -3.324708640575408936e-01 -2.316797524690628052e-01 -2.062010765075683594e-01 9.548580273985862732e-03 -2.440032213926315308e-01 -1.380540281534194946e-01 -4.792020656168460846e-03 -2.212291508913040161e-01 -7.039280235767364502e-02 -1.956140995025634766e-01 -1.189494952559471130e-01 -3.713221848011016846e-02 -9.678371250629425049e-03 -2.126067280769348145e-01 -2.568935602903366089e-02 -1.383410692214965820e-01 -3.415261209011077881e-02 -1.337765753269195557e-01 -1.419244557619094849e-01 5.767700821161270142e-02 -1.848670989274978638e-01 4.106336459517478943e-02 3.859062492847442627e-02 -3.557083383202552795e-02 -3.980987891554832458e-02 -3.651615232229232788e-02 8.630484342575073242e-02 -1.534965485334396362e-01 4.444408044219017029e-02 -9.497988224029541016e-02 1.115964427590370178e-01 3.487691655755043030e-02 1.475641131401062012e-02 -1.256182640790939331e-01 -1.356438845396041870e-01 3.196882084012031555e-02 -2.249340340495109558e-02 -6.890116631984710693e-02 1.056741848587989807e-01 -2.068659849464893341e-02 1.858555129729211330e-03 4.506417736411094666e-02 2.454146370291709900e-02 -1.755419187247753143e-02 8.543929457664489746e-02 7.173223793506622314e-02 -1.357965469360351562e-01 8.626954630017280579e-03 1.428817063570022583e-01 8.599989116191864014e-02 1.225097775459289551e-01 1.121411100029945374e-01 -6.726693361997604370e-02 1.761245876550674438e-01 -4.702929034829139709e-02 -9.628197550773620605e-02 -5.755205824971199036e-02 1.194461211562156677e-01 -1.291740983724594116e-01 -4.624926671385765076e-02 8.431299775838851929e-02 7.478732615709304810e-02 -9.817428141832351685e-02 -9.604470431804656982e-02 1.515757888555526733e-01 -1.032558232545852661e-01 1.691109389066696167e-01 1.184934973716735840e-01 -1.467352509498596191e-01 -4.273476451635360718e-02
-3.867192268371582031e-01 -4.374191462993621826e-01 -2.825956046581268311e-01 -3.189436495304107666e-01 -3.294455409049987793e-01 -3.342942595481872559e-01 -4.124836027622222900e-01 -2.554281949996948242e-01 -4.740061759948730469e-01 -4.243258535861968994e-01 -4.443476498126983643e-01 -2.826781570911407471e-01 -3.733777403831481934e-01 -3.082477450370788574e-01 -4.906835556030273438e-01 -1.747331917285919189e-01 -3.161026537418365479e-01 -2.868575751781463623e-01 -1.138261035084724426e-01 -1.678990274667739868e-01 -2.745600938796997070e-01 -1.239199489355087280e-01 -2.653988897800445557e-01 -1.503113210201263428e-01 -3.193670809268951416e-01 4.213588312268257141e-02 -4.826398566365242004e-02 -3.318996131420135498e-01 -2.338135093450546265e-01 -1.646654307842254639e-01 1.119749620556831360e-01 -1.341041624546051025e-01 8.192436397075653076e-02 -1.749260872602462769e-01 -6.421191245317459106e-02 -2.252784967422485352e-01 -4.694950580596923828e-02 8.109102398157119751e-02 -8.332807570695877075e-02 1.256407797336578369e-02 -3.695594146847724915e-02 -8.101408928632736206e-02 -1.254343390464782715e-01 5.084214732050895691e-02 -6.705094128847122192e-02 4.484605044126510620e-02 -1.830067336559295654e-01 -4.227979481220245361e-02 -7.222136855125427246e-02 -9.891486912965774536e-02 -1.331284791231155396e-01 5.005399882793426514e-02 -2.422639913856983185e-02 7.380961906164884567e-03 -4.977691546082496643e-02 5.343552306294441223e-02 7.542863488197326660e-02 -1.240219697356224060e-01 -5.336058139801025391e-02 1.658588349819183350e-01 -1.212716624140739441e-01 1.183720529079437256e-01 -3.220293670892715454e-02 1.952148601412773132e-02 -8.361919224262237549e-02 -1.294510066509246826e-01 5.477308481931686401e-02 -8.532679080963134766e-02 1.281536221504211426e-01 4.603580106049776077e-03 7.978376746177673340e-02 -4.872653633356094360e-02 4.841944202780723572e-02 -2.712545916438102722e-02 4.212965071201324463e-02 4.921646323055028915e-03 -7.021418213844299316e-02 -4.461698234081268311e-02 -1.043391600251197815e-01 2.946287766098976135e-02 -8.818647265434265137e-02 8.890920877456665039e-02 5.225373804569244385e-02 -8.841337263584136963e-02 3.044030256569385529e-02 1.824932843446731567e-01 -1.054325401782989502e-01 1.607670336961746216e-01 9.175290167331695557e-02 1.054973155260086060e-01 -7.003370672464370728e-02 -2.915298379957675934e-02 4.306372627615928650e-02 -1.323699206113815308e-01 -3.095546364784240723e-02 7.593400776386260986e-02 4.787797853350639343e-02 -1.055833101272583008e-01 1.014015451073646545e-02 -9.788776934146881104e-02
-2.593451738357543945e-01 -2.500827014446258545e-01 -3.092293441295623779e-01 -3.024002313613891602e-01 -2.838344573974609375e-01 -2.932614684104919434e-01 -3.022831976413726807e-01 -3.318586945533752441e-01 -2.622218132019042969e-01 -3.174001574516296387e-01 -1.879873424768447876e-01 -3.381369113922119141e-01 -2.007284164428710938e-01 -2.635706365108489990e-01 -2.344776839017868042e-01 -2.430337667465209961e-01 -3.364985585212707520e-01 -3.082910478115081787e-01 -3.295551836490631104e-01 -2.062544226646423340e-01 -1.966159790754318237e-01 -2.121772319078445435e-01 -3.474732935428619385e-01 -2.125856578350067139e-01 -2.750223577022552490e-01 -2.527069151401519775e-01 -3.766555190086364746e-01 -2.153813242912292480e-01 -3.719498515129089355e-01 -3.947777748107910156e-01 -2.902029156684875488e-01 -3.806006014347076416e-01 -1.253946125507354736e-01 -4.549815952777862549e-01 -2.498362958431243896e-01 -5.192070603370666504e-01 -3.824115693569183350e-01 -9.250944852828979492e-02 -5.351423621177673340e-01 -2.706075310707092285e-01 -1.706622689962387085e-01 -4.420199990272521973e-01 -6.522804498672485352e-02 -1.011356487870216370e-01 -4.528909549117088318e-02 2.809565886855125427e-02 -9.837389737367630005e-02 3.113565593957901001e-02 1.369628496468067169e-02 -1.519674658775329590e-01 2.162942895665764809e-03 3.828749433159828186e-02 -5.049744620919227600e-02 -1.091106608510017395e-01 1.348680257797241211e-01 7.473926246166229248e-02 8.594734966754913330e-02 7.554771751165390015e-02 -1.068100035190582275e-01 1.017179787158966064e-01 5.512653291225433350e-02 1.321711577475070953e-02 -1.456741094589233398e-01 6.096993014216423035e-02 1.384627968072891235e-01 -3.296818211674690247e-02 1.060874611139297485e-01 -2.316787373274564743e-03 1.213230565190315247e-01 6.755656749010086060e-02 5.745852738618850708e-02 1.190808191895484924e-01 4.099093005061149597e-02 9.636924602091312408e-03 -1.334880888462066650e-01 -1.359730362892150879e-01 1.257267743349075317e-01 7.309117168188095093e-02 9.703156352043151855e-02 -8.563990890979766846e-02 -1.858776994049549103e-02 -2.490555495023727417e-02 5.973630398511886597e-02 -1.946936734020709991e-02 -4.390713199973106384e-02 -2.417465858161449432e-02 -1.227011084556579590e-01 7.856601476669311523e-02 -3.696705400943756104e-02 -1.731029450893402100e-01 -1.068376153707504272e-01 -8.515477925539016724e-02 2.505029551684856415e-02 -4.831099510192871094e-02 1.251631826162338257e-01 1.049190387129783630e-01 -9.524220228195190430e-02 5.057488381862640381e-02 -1.349830925464630127e-01 -1.151434183120727539e-01
-2.741659581661224365e-01 -4.500851631164550781e-01 -3.640746772289276123e-01 -3.825061619281768799e-01 -4.390725791454315186e-01 -3.909954726696014404e-01 -2.869721949100494385e-01 -3.824256956577301025e-01 -3.368785381317138672e-01 -3.053184151649475098e-01 -2.788168191909790039e-01 -3.131490349769592285e-01 -3.012347221374511719e-01 -4.533267617225646973e-01 -4.744235575199127197e-01 -2.670637965202331543e-01 -3.378791809082031250e-01 -2.868407070636749268e-01 -4.150166213512420654e-01 -2.710828185081481934e-01 -3.019103407859802246e-01 -3.074848651885986328e-01 -3.153806030750274658e-01 -3.846595883369445801e-01 -1.693120449781417847e-01 -2.479460984468460083e-01 -3.640146851539611816e-01 -3.324238359928131104e-01 -2.601124644279479980e-01 -4.425455033779144287e-01 -3.339643403887748718e-02 -1.984618008136749268e-01 -4.435153305530548096e-02 -2.871399521827697754e-01 -1.796846538782119751e-01 7.834705524146556854e-03 -2.594499103724956512e-02 1.158383935689926147e-01 4.596453160047531128e-02 -4.386131465435028076e-02 6.153239682316780090e-02 -3.555185347795486450e-02 -9.094972908496856689e-02 -1.396830826997756958e-01 -1.503083109855651855e-01 2.809756807982921600e-02 2.233018912374973297e-02 -5.604869127273559570e-02 -5.828263983130455017e-02 9.130973368883132935e-02 -1.169332042336463928e-01 -1.487047970294952393e-01 -3.186493366956710815e-02 3.941666707396507263e-02 8.685097843408584595e-02 -2.973406203091144562e-02 -9.164524078369140625e-02 7.701067626476287842e-02 -1.328006088733673096e-01 -1.386174261569976807e-01 1.761317700147628784e-01 3.971597924828529358e-02 1.328472942113876343e-01 -1.020119246095418930e-02 -1.021932065486907959e-01 2.177020013332366943e-01 2.829315513372421265e-02 -1.359726786613464355e-01 1.777779012918472290e-01 -1.164657101035118103e-01 1.084004119038581848e-01 -4.210987687110900879e-02 -1.951624602079391479e-01 2.175675518810749054e-02 -4.782954230904579163e-02 3.460317477583885193e-02 -9.696969389915466309e-02 1.421387791633605957e-01 9.730620309710502625e-03 8.177170902490615845e-02 1.719928532838821411e-01 -1.090350970625877380e-01 -1.309060603380203247e-01 9.741330146789550781e-02 9.588766843080520630e-02 1.676008701324462891e-01 1.170031819492578506e-02 1.820166707038879395e-01 -1.065588463097810745e-02 1.534195840358734131e-01 1.884055882692337036e-01 1.608032137155532837e-01 -5.277748405933380127e-02 -1.083284690976142883e-01 9.256585687398910522e-02 1.122434735298156738e-01 -1.083608716726303101e-01 -1.123569905757904053e-01 -1.339444369077682495e-01 6.799335777759552002e-02
-6.950470805168151855e-02 1.528372913599014282e-01 1.022891923785209656e-01 3.147826762869954109e-03 5.605218466371297836e-03 1.460106112062931061e-03 -7.724178582429885864e-02 6.348448991775512695e-02 2.554544061422348022e-02 1.112536936998367310e-01 9.319183975458145142e-02 -6.395774334669113159e-02 1.862894892692565918e-01 5.906696990132331848e-02 -9.250023961067199707e-02 1.236242707818746567e-02 1.230673864483833313e-01 -9.274168871343135834e-03 2.060907185077667236e-01 2.302055656909942627e-01 -9.969080239534378052e-02 9.569584578275680542e-02 -8.068404346704483032e-02 9.223934262990951538e-02 -3.289793618023395538e-03 -8.478920161724090576e-02 -9.696080535650253296e-02 -3.726779669523239136e-02 8.719989657402038574e-02 -8.917403966188430786e-02 6.986116617918014526e-02 -8.774010092020034790e-02 3.306657448410987854e-02 1.211472600698471069e-01 -4.783730208873748779e-02 -8.306793868541717529e-02 -2.147345989942550659e-02 -2.275791019201278687e-02 1.085444688796997070e-01 -8.336710184812545776e-02 2.002476155757904053e-01 1.798435151576995850e-01 1.055261716246604919e-01 -5.909425392746925354e-02 7.063513249158859253e-02 -4.368311911821365356e-02 -1.439495235681533813e-01 6.170743331313133240e-02 -1.123149842023849487e-01 3.792380541563034058e-02 6.270828843116760254e-02 1.854708045721054077e-02 6.761923432350158691e-02 -1.860408810898661613e-03 2.388816326856613159e-02 -1.584872305393218994e-01 -1.212395206093788147e-01 -9.081185609102249146e-02 -1.357845664024353027e-01 -1.092368811368942261e-01 1.204816475510597229e-01 -1.364611387252807617e-01 -9.218972176313400269e-02 -1.970966607332229614e-01 -5.630534887313842773e-02 2.314961515367031097e-02 -1.170256524346768856e-03 -1.491338312625885010e-01 -9.603295475244522095e-02 -1.521748602390289307e-01 -8.352801948785781860e-02 -1.499825716018676758e-01 -1.463974118232727051e-01 1.083397120237350464e-02 5.563282873481512070e-03 -9.288956969976425171e-02 -1.843517720699310303e-01 5.644777789711952209e-02 -1.335080564022064209e-01 -2.171585522592067719e-02 2.873854897916316986e-02 -7.407908141613006592e-02 -1.110783740878105164e-01 -1.940339356660842896e-01 -3.699500113725662231e-02 -4.721734300255775452e-02 -1.277233809232711792e-01 -1.497955769300460815e-01 -2.198025137186050415e-01 -7.086045295000076294e-02 6.783206481486558914e-05 4.237341880798339844e-02 -2.215544730424880981e-01 -6.094622984528541565e-02 1.060291100293397903e-02 -2.953862072899937630e-03 -1.921724677085876465e-01 -1.388076692819595337e-03 -8.609134703874588013e-02 -1.102581173181533813e-01
-4.603583216667175293e-01 -2.794844508171081543e-01 -3.683546185493469238e-01 -4.287087917327880859e-01 -4.766931533813476562e-01 -2.771378755569458008e-01 -2.996776401996612549e-01 -4.000071287155151367e-01 -4.563467502593994141e-01 -4.153298139572143555e-01 -4.405070841312408447e-01 -4.922743737697601318e-01 -3.644141852855682373e-01 -4.545786976814270020e-01 -3.515413701534271240e-01 -3.519842326641082764e-01 -4.063802659511566162e-01 -3.054977655410766602e-01 -3.639701306819915771e-01 -3.183170557022094727e-01 -4.002870321273803711e-01 -4.256634712219238281e-01 -4.466309249401092529e-01 -1.212310716509819031e-01 -4.046799838542938232e-01 -4.343214035034179688e-01 -4.979668259620666504e-01 -5.478030443191528320e-01 -1.786826103925704956e-01 -3.260651826858520508e-01 -2.187844663858413696e-01 -3.101226985454559326e-01 -9.004484117031097412e-02 -1.255294233560562134e-01 -1.729326844215393066e-01 -3.610860705375671387e-01 -2.210495471954345703e-01 1.222202368080615997e-02 -1.917604677146300673e-04 -1.590395905077457428e-02 2.346569113433361053e-02 -2.797684632241725922e-02 1.100496295839548111e-02 -1.944449543952941895e-01 -2.088263779878616333e-01 -1.749256253242492676e-01 -2.179784327745437622e-01 -1.446620076894760132e-01 -5.055732652544975281e-02 -1.893696635961532593e-01 -1.036953255534172058e-01 -1.246170699596405029e-02 1.357410550117492676e-01 -1.267392933368682861e-01 -5.363321304321289062e-02 5.611910670995712280e-02 1.353727281093597412e-01 -1.012251302599906921e-01 -1.858816444873809814e-01 -7.541887462139129639e-02 -2.992265112698078156e-02 -1.125035956501960754e-01 1.993989013135433197e-02 8.382518589496612549e-02 -7.818929851055145264e-02 7.227178430184721947e-04 -9.047037363052368164e-02 3.689629584550857544e-02 -7.617271691560745239e-02 8.572120964527130127e-02 -8.596323430538177490e-02 4.167541861534118652e-02 5.378544703125953674e-02 -1.359759364277124405e-02 -4.415683448314666748e-02 -1.599481999874114990e-01 8.457397669553756714e-02 7.593785226345062256e-02 3.908484056591987610e-02 1.295845210552215576e-02 -1.071663349866867065e-01 -1.295611262321472168e-01 -1.270759552717208862e-01 4.910438880324363708e-02 9.006094932556152344e-02 -8.034563064575195312e-02 1.468965262174606323e-01 -4.743224009871482849e-02 1.474387347698211670e-01 7.201051712036132812e-02 5.187649279832839966e-02 -3.157129511237144470e-02 1.996684260666370392e-02 6.176137365400791168e-03 1.397334784269332886e-01 1.161867082118988037e-01 -8.570342510938644409e-02 -4.873583838343620300e-02 1.565231829881668091e-01 -3.684819862246513367e-02
