4.986601925338618457e-05
-4.990784145775251091e-05
4.992798130842857063e-05
-4.996184725314378738e-05
-4.994188202545046806e-05
4.903504668618552387e-05
-3.049699080293066800e-05
5.010251334169879556e-05
-4.966009510098956525e-05
-4.991844616597518325e-05
4.985675332136452198e-05
4.985182022210210562e-05
-5.006630817661061883e-05
-5.003020487492904067e-05
-4.978744982508942485e-05
4.991243986296467483e-05
4.997828364139422774e-05
-4.984821134712547064e-05
4.914789315080270171e-05
-5.001795216230675578e-05
-4.995406197849661112e-05
-4.965775224263779819e-05
4.987715146853588521e-05
-4.996558709535747766e-05
-4.986636849935166538e-05
-4.987093052477575839e-05
4.950438233208842576e-05
-4.993946640752255917e-05
4.973041359335184097e-05
-4.997440919396467507e-05
-4.983779217582195997e-05
4.997418727725744247e-05
-5.001533281756564975e-05
4.994040500605478883e-05
4.950518996338360012e-05
4.999009252060204744e-05
-4.901866122963838279e-05
-4.983964754501357675e-05
-4.993226320948451757e-05
-4.988156797480769455e-05
-5.000501550966873765e-05
-4.798661393579095602e-05
-5.000300370738841593e-05
-4.999522934667766094e-05
-4.973947943653911352e-05
-4.991241439711302519e-05
4.968349821865558624e-05
4.995839844923466444e-05
-4.996867573936469853e-05
-4.996443385607562959e-05
4.813710256712511182e-05
4.983827238902449608e-05
4.996416828362271190e-05
4.966451888321898878e-05
-5.001473618904128671e-05
4.979212098987773061e-05
-4.991298919776454568e-05
-4.997635551262646914e-05
4.991004971088841558e-05
4.995235940441489220e-05
-4.999193333787843585e-05
4.985429404769092798e-05
-4.996200004825368524e-05
-4.987608917872421443e-05
-4.994482515030540526e-05
4.996896313969045877e-05
