2.480716817080974579e-02 -1.326780319213867188e-01 -5.270847678184509277e-02 -6.214057654142379761e-02 1.303737908601760864e-01 -6.555625051259994507e-02 3.669501096010208130e-02 -2.488079108297824860e-02 1.117001548409461975e-01 -1.214638948440551758e-01 5.603378266096115112e-02 2.363536693155765533e-02 -1.160493716597557068e-01 -4.665631428360939026e-02 9.333866089582443237e-02 9.094405174255371094e-02 -1.025941073894500732e-01 5.641396343708038330e-02 1.160954684019088745e-02 1.408123672008514404e-01 -3.578112274408340454e-02 8.366686850786209106e-02 -1.604684628546237946e-02 -1.399370431900024414e-01 1.432728171348571777e-01 -4.243324324488639832e-02 2.213572338223457336e-02 1.388179361820220947e-01 -9.701678156852722168e-02 -6.249136105179786682e-02 5.649887397885322571e-02 1.035730615258216858e-01 5.879248306155204773e-02 1.039656102657318115e-01 1.425046175718307495e-01 1.004516407847404480e-01 7.324375957250595093e-02 5.471857264637947083e-02 -3.243891149759292603e-02 -8.077067323029041290e-03 -1.313301175832748413e-01 -9.248739480972290039e-02 -2.582177706062793732e-02 -6.540433317422866821e-02 -5.248565226793289185e-02 -3.494944656267762184e-03 -1.278930008411407471e-01 -9.344171732664108276e-02 -5.399852618575096130e-02 -1.392443180084228516e-01 4.668064357247203588e-04 3.159723430871963501e-02 2.943320572376251221e-02 -1.543179806321859360e-02 -1.369786709547042847e-01 1.017137914896011353e-01 -5.765694379806518555e-02 -3.484154120087623596e-02 1.716104801744222641e-03 -8.625222742557525635e-02 1.329321861267089844e-01 -2.233958058059215546e-02 -1.415893435478210449e-01 -3.983060643076896667e-02
-2.266638539731502533e-02 7.574716955423355103e-02 1.290736496448516846e-01 -8.522007614374160767e-02 -1.315643358975648880e-02 -4.936673864722251892e-02 9.560792148113250732e-02 8.767978101968765259e-02 -5.184696242213249207e-02 -6.994382292032241821e-02 -1.128306090831756592e-01 1.113760471343994141e-01 5.947367846965789795e-02 -1.971797831356525421e-02 -4.302885755896568298e-02 1.276839524507522583e-01 9.209555387496948242e-02 1.031242031604051590e-02 -6.543908268213272095e-02 1.193212717771530151e-01 -6.560322642326354980e-02 -1.209041010588407516e-02 -9.393461793661117554e-02 1.417700201272964478e-01 1.071535423398017883e-01 1.348601132631301880e-01 -2.271362394094467163e-02 6.128928810358047485e-02 -7.019865512847900391e-02 2.791984751820564270e-02 1.022387519478797913e-01 -2.723501995205879211e-02 -1.144974902272224426e-01 1.214640587568283081e-01 -9.236258268356323242e-02 -1.033429503440856934e-01 1.239990070462226868e-01 9.561318159103393555e-02 -1.078659221529960632e-01 9.964171797037124634e-02 -1.351689100265502930e-01 6.852200627326965332e-02 8.060146123170852661e-02 5.552328750491142273e-02 8.057937771081924438e-02 1.058729365468025208e-01 1.422311067581176758e-01 -1.116685792803764343e-01 6.683213263750076294e-02 -3.952275495976209641e-03 -2.183937467634677887e-02 4.716083034873008728e-02 -1.019372269511222839e-01 4.214433953166007996e-02 9.821996837854385376e-02 3.115606866776943207e-02 -2.879282832145690918e-02 3.579787164926528931e-02 1.753529161214828491e-02 -9.410095214843750000e-02 -9.880579262971878052e-02 -1.102838963270187378e-01 1.841689809225499630e-03 1.409328822046518326e-02
-1.452776882797479630e-02 3.123501688241958618e-02 9.389901906251907349e-02 1.068068444728851318e-01 -1.403616666793823242e-01 -4.106869921088218689e-02 -4.354447301011532545e-04 -1.209316775202751160e-01 -1.026193518191576004e-02 -4.340982437133789062e-02 -2.349875122308731079e-02 -3.165715187788009644e-02 -1.303451359272003174e-01 4.775947704911231995e-02 -8.262701332569122314e-02 -1.309713125228881836e-01 6.084312871098518372e-02 -2.474684081971645355e-02 -3.637901321053504944e-02 7.033478468656539917e-02 -7.162782712839543819e-04 -9.162029623985290527e-02 -1.118474081158638000e-01 1.262575853615999222e-02 -3.463867586106061935e-03 -1.100835725665092468e-01 3.995827585458755493e-02 5.509602278470993042e-02 -7.271723449230194092e-02 -5.100756511092185974e-02 -1.425054222345352173e-01 -1.388929039239883423e-01 6.863425672054290771e-02 -6.691757589578628540e-02 5.725833401083946228e-02 7.470945268869400024e-02 1.188017427921295166e-01 9.058417379856109619e-02 9.373370558023452759e-02 8.623907715082168579e-02 9.769885241985321045e-02 -9.944254532456398010e-03 8.353032916784286499e-02 3.629245236515998840e-02 9.517721086740493774e-02 -6.145855411887168884e-02 3.371329233050346375e-02 -1.784468814730644226e-02 3.895958140492439270e-02 -9.269483387470245361e-03 -3.224074468016624451e-02 1.313216239213943481e-01 2.711029537022113800e-02 1.143288835883140564e-01 -3.719237074255943298e-02 -7.984653860330581665e-02 1.414215564727783203e-01 5.700255557894706726e-02 -1.307460367679595947e-01 4.889839142560958862e-02 -1.434923708438873291e-01 1.258544325828552246e-01 8.878374099731445312e-02 3.240033239126205444e-02
-1.361354021355509758e-03 1.374833732843399048e-01 -4.310053586959838867e-02 1.156482263468205929e-03 -3.548868745565414429e-02 -6.984671577811241150e-03 -4.164570942521095276e-02 -2.353380061686038971e-02 2.652290742844343185e-03 6.275407969951629639e-03 -1.022145152091979980e-03 1.380316764116287231e-01 -1.274348646402359009e-01 1.327127516269683838e-01 -3.557857871055603027e-02 1.319881826639175415e-01 1.111717373132705688e-01 -2.116657327860593796e-03 1.166882440447807312e-01 -2.541370689868927002e-03 1.428379267454147339e-01 -9.975146502256393433e-02 2.501878701150417328e-02 6.630478799343109131e-02 3.915173932909965515e-02 3.198813274502754211e-02 -9.364389628171920776e-02 -9.621674194931983948e-03 -1.047552446834743023e-03 -1.298371553421020508e-01 7.872223109006881714e-02 2.575313486158847809e-02 6.942934542894363403e-02 -1.151562929153442383e-01 2.893884479999542236e-02 9.356653690338134766e-02 8.331251144409179688e-02 -1.049126088619232178e-01 -1.178171485662460327e-01 6.074158102273941040e-02 7.526300102472305298e-02 -4.318854957818984985e-02 1.030682101845741272e-01 9.444075822830200195e-02 -6.791286170482635498e-02 1.422877609729766846e-01 -2.720046602189540863e-02 -4.393141344189643860e-02 2.405796386301517487e-02 8.469887822866439819e-02 1.215135753154754639e-01 -5.261053796857595444e-03 8.029685914516448975e-02 -8.027902990579605103e-02 -1.192603856325149536e-01 -1.284402459859848022e-01 3.948454745113849640e-03 -8.235928416252136230e-02 1.429975777864456177e-01 -9.005171060562133789e-02 1.147678568959236145e-01 -1.111769452691078186e-01 -4.187384992837905884e-02 -5.426186323165893555e-02
-5.146900936961174011e-02 -8.733170479536056519e-02 1.179530322551727295e-01 -5.841448158025741577e-02 1.312502771615982056e-01 5.091276019811630249e-02 4.537134990096092224e-02 -4.101402312517166138e-02 -1.115158051252365112e-01 2.890082448720932007e-02 1.037048548460006714e-02 3.347628563642501831e-02 1.320648193359375000e-01 4.651555325835943222e-03 -1.015355363488197327e-01 3.529930114746093750e-02 -7.578197121620178223e-02 -5.001293122768402100e-02 -1.200131773948669434e-01 -8.254981040954589844e-02 -1.317535489797592163e-01 2.581113763153553009e-02 -1.284336447715759277e-01 -9.268253296613693237e-02 5.516235157847404480e-02 7.068294286727905273e-02 -1.142351776361465454e-01 6.366581656038761139e-03 -8.221191912889480591e-02 -1.397732496261596680e-01 -8.801835589110851288e-03 -8.168557658791542053e-03 -1.302543729543685913e-01 -1.295848041772842407e-01 -2.933735772967338562e-02 -1.398431956768035889e-01 -1.168815419077873230e-01 1.412814557552337646e-01 -1.189627423882484436e-01 -8.272133022546768188e-02 1.236684396862983704e-01 4.435891285538673401e-02 8.196327253244817257e-04 -5.992663279175758362e-02 -1.427772082388401031e-02 -6.222923099994659424e-02 -7.877255976200103760e-02 1.012167707085609436e-01 -6.982995569705963135e-02 1.941305585205554962e-02 -4.577660933136940002e-02 1.320445239543914795e-01 1.046788394451141357e-01 6.008107587695121765e-02 -6.804665550589561462e-03 -9.896663576364517212e-02 -9.696202725172042847e-02 5.009504780173301697e-02 1.021494157612323761e-02 -1.161784529685974121e-01 -1.036208271980285645e-01 -1.411748081445693970e-01 -8.131059817969799042e-03 -6.347130984067916870e-02
-2.829574048519134521e-02 -4.837460443377494812e-02 2.076281979680061340e-02 6.937980651855468750e-03 -6.345833651721477509e-03 4.612936824560165405e-02 -1.207058057188987732e-01 -2.238465659320354462e-02 7.936582714319229126e-02 -1.166968122124671936e-01 1.353023499250411987e-01 -1.186451911926269531e-01 -1.267900317907333374e-01 8.951820433139801025e-02 9.828738123178482056e-02 1.163668632507324219e-01 8.340094238519668579e-03 9.765691310167312622e-02 -1.054702550172805786e-01 -1.133375912904739380e-01 -6.112281605601310730e-02 -1.264988929033279419e-01 1.006273254752159119e-01 -1.427415106445550919e-02 1.092506647109985352e-01 -8.328115940093994141e-02 -3.620163351297378540e-02 -1.285998374223709106e-01 -4.299441725015640259e-02 -1.135865822434425354e-01 -1.423157937824726105e-02 1.573790423572063446e-02 4.544888809323310852e-02 -6.382869184017181396e-02 -1.141269728541374207e-01 -3.843737393617630005e-02 -4.097537696361541748e-02 5.279345437884330750e-02 -1.146329659968614578e-02 1.055607721209526062e-01 5.529192462563514709e-02 -6.771204620599746704e-02 -1.234896630048751831e-01 1.395136024802923203e-02 1.082557439804077148e-01 -4.582950845360755920e-02 -8.619771152734756470e-02 7.478885352611541748e-02 -7.930649816989898682e-02 1.437048427760601044e-02 7.135441154241561890e-02 5.203847959637641907e-02 -6.844489276409149170e-02 -4.553601145744323730e-02 7.999169081449508667e-02 9.808641672134399414e-02 7.577567547559738159e-02 1.422191970050334930e-02 -9.370585903525352478e-03 7.513582706451416016e-03 4.472334682941436768e-02 -2.713616122491657734e-04 1.358411163091659546e-01 9.325796365737915039e-02
1.249202620238065720e-02 6.233098730444908142e-02 -1.006450504064559937e-01 4.865788295865058899e-02 -1.246735751628875732e-01 4.742509499192237854e-02 2.802323177456855774e-02 1.005725190043449402e-01 1.079587116837501526e-01 -1.236307322978973389e-01 8.704195171594619751e-02 -7.553388923406600952e-02 1.151863783597946167e-01 -5.846210941672325134e-02 -5.646400153636932373e-02 1.143931224942207336e-01 -8.772961050271987915e-02 -1.862598583102226257e-02 5.211816728115081787e-02 -1.004215553402900696e-01 2.718337439000606537e-02 1.301108300685882568e-01 -1.255340427160263062e-01 -4.361484572291374207e-02 -1.165331378579139709e-01 8.368470519781112671e-02 -5.203542113304138184e-02 -9.454737603664398193e-02 1.081702336668968201e-01 2.648091467563062906e-04 -5.962461978197097778e-02 -1.259002685546875000e-01 -1.330848485231399536e-01 7.127825915813446045e-02 -8.095635473728179932e-02 -6.142029166221618652e-02 -4.398844763636589050e-02 -1.244658902287483215e-01 -1.413782835006713867e-01 4.295732080936431885e-02 -5.413052067160606384e-02 -1.268091499805450439e-01 8.845992386341094971e-02 8.248340338468551636e-02 4.088546149432659149e-03 3.877500817179679871e-02 7.607185095548629761e-02 -1.904813013970851898e-02 -8.109881728887557983e-02 6.110124662518501282e-02 -1.280293911695480347e-01 -6.006811186671257019e-02 -1.088039643946103752e-04 -5.005818232893943787e-02 3.637572377920150757e-02 1.438826769590377808e-01 1.329245418310165405e-01 -7.313326001167297363e-02 9.449536353349685669e-02 1.349127441644668579e-01 3.557769209146499634e-02 -1.317394375801086426e-01 9.148251265287399292e-02 -1.283911056816577911e-02
-1.863231323659420013e-02 -7.981560379266738892e-02 -1.668956317007541656e-02 9.092959761619567871e-02 3.131890296936035156e-02 8.009395748376846313e-02 -1.253625899553298950e-01 4.074205830693244934e-02 -4.487251490354537964e-02 -9.470441192388534546e-02 -7.696501910686492920e-02 7.826343178749084473e-02 -9.752067178487777710e-02 -2.315309271216392517e-02 -9.406808018684387207e-02 -6.192983128130435944e-03 -7.152157276868820190e-02 2.290422562509775162e-03 -3.012810461223125458e-02 -2.955558337271213531e-02 -4.417013376951217651e-02 -1.053463891148567200e-01 9.808611124753952026e-02 4.918379709124565125e-02 -1.904642768204212189e-02 1.132023558020591736e-01 -5.390477553009986877e-02 6.443116813898086548e-02 5.726876854896545410e-02 -6.375508010387420654e-02 1.348420083522796631e-01 -1.186508685350418091e-01 1.045083925127983093e-01 1.433903723955154419e-01 1.076025068759918213e-01 -1.284125298261642456e-01 1.063512787222862244e-01 9.806989878416061401e-02 -4.426354542374610901e-02 4.646345227956771851e-02 1.037453413009643555e-01 6.026974320411682129e-02 5.863021314144134521e-02 6.276105344295501709e-02 1.254459619522094727e-01 -5.438903719186782837e-02 1.078807786107063293e-01 3.511057794094085693e-02 -6.166300177574157715e-02 1.035851538181304932e-01 -9.996050968766212463e-03 1.168474853038787842e-01 5.058600753545761108e-02 -9.456594288349151611e-02 2.848487719893455505e-02 -7.806021720170974731e-02 -2.354252152144908905e-02 9.258061647415161133e-02 -8.080602437257766724e-02 -8.295167982578277588e-02 -1.413152962923049927e-01 9.209364652633666992e-02 2.876190468668937683e-02 -7.004090398550033569e-02
1.092618554830551147e-01 -1.342478394508361816e-01 -8.386823534965515137e-02 1.081204637885093689e-01 8.091159909963607788e-02 -1.032486930489540100e-01 -1.344093233346939087e-01 4.904320836067199707e-02 2.901984751224517822e-02 -5.684838071465492249e-02 -1.380624920129776001e-01 -3.226300701498985291e-02 -5.929986387491226196e-02 -2.004672400653362274e-02 8.669681847095489502e-02 2.432884089648723602e-02 -6.957519054412841797e-02 -6.791107356548309326e-02 -3.959397971630096436e-02 -1.075091063976287842e-01 -1.174489632248878479e-01 4.478121548891067505e-02 1.008119061589241028e-01 3.869270533323287964e-02 -1.336168050765991211e-01 9.276679903268814087e-02 1.094643175601959229e-01 1.289877146482467651e-01 1.322700362652540207e-02 4.628425091505050659e-02 7.978166639804840088e-02 1.835823990404605865e-02 8.739599585533142090e-02 -1.022772565484046936e-01 -1.194253936409950256e-01 -1.062695607542991638e-01 -2.800148539245128632e-02 -1.131643280386924744e-01 -7.948632538318634033e-02 -5.011920258402824402e-02 -6.060679629445075989e-02 -4.040796775370836258e-03 1.997898332774639130e-02 4.133994132280349731e-02 9.440253488719463348e-03 5.802483111619949341e-02 -2.140728011727333069e-02 -1.177325621247291565e-01 -6.127156689763069153e-02 9.258618205785751343e-02 -1.193225681781768799e-01 -5.469911918044090271e-02 -5.573254078626632690e-02 7.258633524179458618e-02 -5.968661978840827942e-02 -9.469345211982727051e-02 2.340331301093101501e-02 -9.206882119178771973e-02 -5.599919334053993225e-02 5.469774827361106873e-02 -3.479960560798645020e-02 -1.011352017521858215e-01 -1.047863066196441650e-01 -7.311186939477920532e-02
1.060369536280632019e-01 -2.756663970649242401e-02 -4.031409695744514465e-02 2.528712153434753418e-02 -5.361877381801605225e-03 -3.143977373838424683e-02 -2.659204415977001190e-02 -3.201542422175407410e-02 -1.914225704967975616e-02 -1.330227553844451904e-01 -1.330024600028991699e-01 -1.193396560847759247e-02 5.189304053783416748e-02 -4.834594205021858215e-02 5.904005095362663269e-02 -7.706495933234691620e-03 -9.722106903791427612e-02 5.482476949691772461e-02 7.441118359565734863e-02 4.679811000823974609e-02 -6.393630802631378174e-02 -3.702371940016746521e-02 8.041632175445556641e-02 -1.387787014245986938e-01 -2.472915127873420715e-02 -1.078153923153877258e-01 9.281326830387115479e-02 6.138449534773826599e-02 -5.097698792815208435e-02 1.256767660379409790e-01 -2.648278698325157166e-02 -1.325441896915435791e-01 6.843499094247817993e-02 -3.209281712770462036e-02 -1.138613522052764893e-01 1.807454600930213928e-02 9.657602757215499878e-02 -6.317009031772613525e-02 -8.214894682168960571e-02 -1.413361635059118271e-02 7.546553760766983032e-02 9.248980134725570679e-02 8.368784189224243164e-02 -7.368563860654830933e-02 -2.006471529603004456e-02 -4.711163789033889771e-02 1.296002715826034546e-01 -1.116603240370750427e-01 -1.195612847805023193e-01 8.489456027746200562e-02 -1.210393086075782776e-01 -8.943548053503036499e-02 1.128418892621994019e-01 -8.218418806791305542e-02 -7.037166506052017212e-02 -7.871032506227493286e-02 -5.945128574967384338e-02 1.022178381681442261e-01 5.149978026747703552e-02 -1.302522718906402588e-01 9.987220913171768188e-02 -3.889745101332664490e-02 9.656734764575958252e-02 -8.430667966604232788e-02
-1.219951882958412170e-01 4.970461502671241760e-02 -7.658506929874420166e-02 -5.962662398815155029e-02 8.771946281194686890e-02 5.671636387705802917e-02 5.214634165167808533e-02 1.047396752983331680e-02 1.369227319955825806e-01 1.165567710995674133e-01 9.498456865549087524e-02 2.729440294206142426e-02 -1.240421757102012634e-01 -1.440386325120925903e-01 -1.331256926059722900e-01 -6.912303715944290161e-02 -8.026745915412902832e-02 -1.026947423815727234e-02 5.822801962494850159e-02 -1.362771540880203247e-01 -1.334832608699798584e-01 7.339877635240554810e-02 9.767644107341766357e-02 -9.906689077615737915e-02 -1.377068608999252319e-01 4.945982247591018677e-02 4.738833010196685791e-02 2.916198968887329102e-02 -1.119488701224327087e-01 1.266871392726898193e-01 -2.763902209699153900e-02 -6.862759590148925781e-02 -1.034490838646888733e-01 -7.153446227312088013e-02 8.291421085596084595e-02 2.579675056040287018e-02 1.053048670291900635e-01 -2.180251106619834900e-02 -1.243152469396591187e-01 7.117289304733276367e-02 9.216705337166786194e-03 1.257294714450836182e-01 -2.933611348271369934e-02 1.015084907412528992e-01 -1.088323742151260376e-01 -1.402292996644973755e-01 7.107509672641754150e-02 1.058391630649566650e-01 -9.186466038227081299e-02 -1.217409893870353699e-01 1.266081258654594421e-02 1.092592403292655945e-01 1.010481938719749451e-01 8.696733042597770691e-03 6.674760580062866211e-02 -2.116305381059646606e-02 9.943402558565139771e-02 1.395480930805206299e-01 -4.398988932371139526e-02 -4.598814994096755981e-02 1.343511193990707397e-01 -1.254480630159378052e-01 1.252137124538421631e-01 -4.721228778362274170e-02
-1.312310844659805298e-01 -1.421977579593658447e-02 -9.175376594066619873e-02 -2.042863331735134125e-02 -1.209105998277664185e-01 -2.632856369018554688e-02 -7.595575600862503052e-02 2.214923687279224396e-02 -7.167945802211761475e-02 9.995473176240921021e-02 -9.653333574533462524e-02 1.002896279096603394e-01 -1.998266950249671936e-02 1.060085743665695190e-01 3.660317882895469666e-02 7.051978260278701782e-03 -4.450915008783340454e-02 1.056114733219146729e-01 3.784926980733871460e-02 -2.909950725734233856e-02 1.142772883176803589e-01 6.178128346800804138e-02 5.300704389810562134e-02 2.901089563965797424e-02 1.647071354091167450e-02 -1.557534188032150269e-02 -1.018207147717475891e-02 -6.302630901336669922e-02 -5.884107947349548340e-02 5.448517575860023499e-02 5.500472150743007660e-03 -9.824301302433013916e-02 -2.837467566132545471e-02 -2.815683744847774506e-02 6.223716214299201965e-02 -1.407559067010879517e-01 -6.275759637355804443e-02 2.496409043669700623e-02 -9.554845746606588364e-04 -3.494654968380928040e-02 1.210557371377944946e-01 6.159652397036552429e-02 7.318519800901412964e-02 2.382987923920154572e-02 -1.334552746266126633e-02 1.365996301174163818e-01 -1.299510747194290161e-01 -5.816888436675071716e-02 -7.053215056657791138e-02 -1.200775429606437683e-01 -1.221361197531223297e-02 -1.271793544292449951e-01 2.298498339951038361e-02 -8.400499075651168823e-02 -2.943418174982070923e-02 -1.088134199380874634e-01 -4.356326162815093994e-02 -9.896798431873321533e-02 -1.951354928314685822e-02 -1.649445481598377228e-02 -8.048147708177566528e-02 -8.309180289506912231e-02 -6.549463421106338501e-02 -9.809582680463790894e-02
-8.606542646884918213e-02 7.369592785835266113e-02 -6.390925496816635132e-02 1.802661269903182983e-02 -1.219419389963150024e-01 -1.108158230781555176e-01 1.308704763650894165e-01 7.109414786100387573e-02 1.146765705198049545e-02 1.423499286174774170e-01 -9.320668876171112061e-03 -4.327154904603958130e-02 1.185588985681533813e-01 8.990083634853363037e-02 -1.021778956055641174e-01 -5.371712148189544678e-02 1.188511401414871216e-01 5.121346935629844666e-02 -6.738871335983276367e-02 -1.066731195896863937e-02 -3.978112339973449707e-02 1.053928062319755554e-01 8.803892135620117188e-02 -1.233189105987548828e-01 9.285102598369121552e-03 2.104260772466659546e-02 -1.237814351916313171e-01 3.432961180806159973e-02 1.027624607086181641e-01 -3.897512331604957581e-02 1.325069647282361984e-02 -3.799926862120628357e-02 9.798594564199447632e-02 8.814067393541336060e-02 -1.228857114911079407e-01 -1.255884915590286255e-01 6.955775618553161621e-02 -5.470750853419303894e-02 -4.182563722133636475e-02 -1.348809003829956055e-01 6.147396191954612732e-02 -8.439405821263790131e-03 1.177740246057510376e-01 -5.646293610334396362e-02 3.023758716881275177e-02 7.416814565658569336e-02 -1.616628468036651611e-02 -5.990529060363769531e-02 1.088510006666183472e-01 1.195461899042129517e-01 1.382050663232803345e-02 1.158610582351684570e-01 -1.436304599046707153e-01 1.630214601755142212e-02 -5.168211832642555237e-02 -1.070365980267524719e-01 1.216653659939765930e-01 1.125217303633689880e-01 8.094351738691329956e-02 6.474652886390686035e-02 2.986126812174916267e-03 1.065719965845346451e-02 -5.683952569961547852e-02 8.826418220996856689e-02
1.409086585044860840e-01 9.689689427614212036e-02 -5.543922632932662964e-02 8.432112634181976318e-02 4.435205459594726562e-02 -9.872637689113616943e-02 -1.069126650691032410e-02 1.326744109392166138e-01 -1.380675137042999268e-01 5.234263837337493896e-02 1.235226914286613464e-01 4.465753585100173950e-02 1.404378116130828857e-01 -1.071858778595924377e-01 2.370070293545722961e-02 5.526626110076904297e-02 -8.049549907445907593e-02 -1.166348010301589966e-01 -1.031274199485778809e-01 -1.303768076468259096e-04 -5.746703594923019409e-02 7.424532622098922729e-02 1.333827525377273560e-01 1.121050864458084106e-01 -8.246136456727981567e-02 -6.384164839982986450e-02 4.161905869841575623e-02 1.282708346843719482e-01 2.259308472275733948e-02 5.945788696408271790e-02 -8.741830289363861084e-02 1.116143241524696350e-01 -1.030908897519111633e-02 -9.731579571962356567e-02 7.704493403434753418e-02 -2.221637219190597534e-02 -7.865578681230545044e-02 4.583082348108291626e-02 7.809555530548095703e-02 1.196553260087966919e-01 -1.159818992018699646e-01 2.589771524071693420e-02 1.278012692928314209e-01 -1.613785699009895325e-02 -8.561887592077255249e-02 1.716680824756622314e-02 1.367252878844738007e-02 -1.148020997643470764e-01 -8.656444400548934937e-02 2.182935364544391632e-02 -1.635543629527091980e-02 -1.517903432250022888e-02 1.409094631671905518e-01 1.266878843307495117e-01 -5.639975424855947495e-03 5.107014626264572144e-02 -1.200238242745399475e-01 5.328151211142539978e-02 8.818418532609939575e-02 -1.379611790180206299e-01 1.007377356290817261e-01 -4.753372818231582642e-02 1.273453421890735626e-02 -3.322590375319123268e-03
6.161991879343986511e-02 -4.996419325470924377e-02 1.265192776918411255e-01 7.405981887131929398e-03 1.314842700958251953e-01 1.374435424804687500e-01 -7.631483674049377441e-02 6.976409931667149067e-04 -9.730283170938491821e-02 -7.394120842218399048e-02 -1.559851225465536118e-02 -2.309589274227619171e-02 -2.032602578401565552e-02 -7.092919200658798218e-02 2.691354835405945778e-03 3.785509988665580750e-02 5.993429198861122131e-02 -9.139184653759002686e-02 -1.319888085126876831e-01 5.897032469511032104e-02 -1.211433857679367065e-01 -7.245119661092758179e-02 -2.106455899775028229e-02 -1.003965586423873901e-01 -1.293952614068984985e-01 -4.927582666277885437e-02 5.846747010946273804e-02 -1.275340765714645386e-01 8.573470264673233032e-02 -1.411878019571304321e-01 1.139212027192115784e-01 1.424313187599182129e-01 -5.959126353263854980e-02 -4.887840524315834045e-02 -7.881937175989151001e-02 -7.838704437017440796e-02 -1.267472803592681885e-01 1.209107562899589539e-01 -1.284152120351791382e-01 -3.262212872505187988e-02 4.955000709742307663e-03 7.718673441559076309e-03 -2.976382523775100708e-02 -3.699078038334846497e-02 -1.203249208629131317e-02 -1.266001462936401367e-01 -8.843205869197845459e-02 -9.160388261079788208e-02 -7.945681363344192505e-02 -4.795844852924346924e-02 8.502511680126190186e-02 1.897268742322921753e-02 -3.640497801825404167e-03 6.420395220629870892e-04 -4.211073368787765503e-02 -4.700978472828865051e-02 2.368339896202087402e-02 -1.072112247347831726e-01 -1.153236404061317444e-01 -2.249932475388050079e-02 -6.732398271560668945e-02 3.078468330204486847e-02 -3.795097023248672485e-02 -6.053961068391799927e-02
1.403391212224960327e-01 -1.382358819246292114e-01 -1.005520746111869812e-01 2.605142816901206970e-02 -2.409406937658786774e-02 1.008017137646675110e-01 6.226063892245292664e-02 -9.892082214355468750e-02 1.648553833365440369e-02 -1.079475209116935730e-01 1.323727965354919434e-01 -5.842232331633567810e-02 6.015951558947563171e-02 -1.332805454730987549e-01 3.105719946324825287e-02 -8.314868435263633728e-03 1.383459419012069702e-01 -2.861832082271575928e-02 1.414009928703308105e-01 -6.471454352140426636e-02 -6.288321223109960556e-03 -9.432356804609298706e-02 4.859219118952751160e-02 6.384550034999847412e-02 -2.480006590485572815e-02 -4.049610719084739685e-02 5.477773398160934448e-02 -4.099437221884727478e-02 1.402332931756973267e-01 -9.661237895488739014e-02 -1.342642605304718018e-01 1.117409840226173401e-01 -2.433094941079616547e-02 1.322650462388992310e-01 1.277657151222229004e-01 -4.521694034337997437e-02 6.608252227306365967e-02 -4.363489896059036255e-02 4.393265396356582642e-02 4.301388934254646301e-02 -1.086113974452018738e-01 -2.015128172934055328e-02 1.358233094215393066e-01 -4.797847941517829895e-02 -4.890378564596176147e-02 -8.410226553678512573e-02 -9.329742193222045898e-02 -1.119143068790435791e-01 1.190177500247955322e-01 7.519642263650894165e-02 1.109055876731872559e-01 7.712202519178390503e-02 -5.245180800557136536e-03 1.410122066736221313e-01 -1.125058084726333618e-01 -3.954420983791351318e-02 -1.066405922174453735e-01 -7.932536303997039795e-02 -1.404923051595687866e-01 -8.378956466913223267e-02 4.466288536787033081e-02 2.119192853569984436e-02 -7.888616994023323059e-03 1.278464645147323608e-01
3.710521012544631958e-02 -7.285818457603454590e-02 4.237849637866020203e-02 1.009556055068969727e-01 7.149095833301544189e-02 5.915708094835281372e-02 -1.247571036219596863e-01 8.277738094329833984e-02 -1.360306441783905029e-01 -7.973122596740722656e-02 -6.825964152812957764e-02 -1.059844493865966797e-01 -5.975059792399406433e-02 -6.339045614004135132e-02 -1.430390626192092896e-01 -1.125617548823356628e-01 1.935272739501670003e-04 -1.332306265830993652e-01 1.152613610029220581e-01 2.679580636322498322e-02 -3.387218341231346130e-02 -5.211871489882469177e-02 -1.328603923320770264e-01 4.202509298920631409e-02 -9.346740692853927612e-02 -9.883046895265579224e-02 -1.344690173864364624e-01 -1.300904750823974609e-01 1.136131137609481812e-01 1.096289455890655518e-01 -1.354310959577560425e-01 -1.188750714063644409e-01 -1.055620610713958740e-01 -2.174910344183444977e-02 -8.126203715801239014e-02 -5.335672944784164429e-02 2.284557931125164032e-02 1.251488178968429565e-01 7.607205957174301147e-02 -8.682395517826080322e-02 5.365090072154998779e-02 3.019064851105213165e-02 1.404982507228851318e-01 -1.345136016607284546e-01 -6.512666493654251099e-02 9.125214815139770508e-02 -4.415639862418174744e-02 1.384198367595672607e-01 9.494931250810623169e-02 1.244616955518722534e-01 -1.616036891937255859e-02 1.273173391819000244e-01 9.181435406208038330e-02 8.644953370094299316e-02 1.111420392990112305e-01 1.393752545118331909e-01 -6.771279871463775635e-02 -1.433469951152801514e-01 -7.601717859506607056e-02 -7.272073626518249512e-02 -1.090131774544715881e-01 -7.248917967081069946e-02 6.972632557153701782e-02 -9.351003170013427734e-02
-2.456253208220005035e-02 -1.342533528804779053e-01 -7.134394347667694092e-02 1.360042691230773926e-01 -8.214022219181060791e-02 -9.536176919937133789e-02 8.567170798778533936e-02 -2.619292587041854858e-03 1.326046139001846313e-01 -1.254415214061737061e-01 4.026603698730468750e-02 -1.048447657376527786e-02 5.330113694071769714e-02 1.091897487640380859e-01 -8.362770080566406250e-02 -5.347087234258651733e-02 -6.005756556987762451e-02 -1.127871200442314148e-01 -1.625659130513668060e-02 4.258968308568000793e-02 7.140125334262847900e-02 5.103952717036008835e-03 2.786734886467456818e-02 7.312355935573577881e-02 -1.398574858903884888e-01 1.128853578120470047e-02 8.307902514934539795e-02 3.170667216181755066e-02 -6.768931448459625244e-02 1.159947663545608521e-01 1.631203480064868927e-02 5.450818315148353577e-02 6.702741980552673340e-02 -1.101807206869125366e-01 1.000220775604248047e-01 -1.925475150346755981e-02 -4.787205904722213745e-02 -5.003160610795021057e-02 -9.496124833822250366e-02 6.306570023298263550e-02 -7.954103499650955200e-02 -1.384198367595672607e-01 1.324414759874343872e-01 -4.937004670500755310e-02 -8.693234622478485107e-02 1.085261106491088867e-01 1.391995847225189209e-01 1.125691011548042297e-01 -4.779571294784545898e-02 -1.219965592026710510e-01 -8.899895846843719482e-02 1.092041134834289551e-01 -1.107302978634834290e-01 4.149319604039192200e-02 -1.101678609848022461e-01 -3.920614719390869141e-02 -6.950905919075012207e-02 -6.775215268135070801e-02 -5.628655850887298584e-02 8.801873028278350830e-02 2.942555956542491913e-02 3.043590486049652100e-02 -7.272995263338088989e-02 4.723691195249557495e-02
-9.804577380418777466e-02 3.603709116578102112e-02 -8.553560078144073486e-02 4.024038463830947876e-02 -1.170114204287528992e-01 -7.247001677751541138e-02 -3.600561618804931641e-02 1.272911131381988525e-01 -2.597254700958728790e-02 -3.131417557597160339e-02 5.779545009136199951e-02 -6.678596138954162598e-02 -8.149845153093338013e-02 1.857304200530052185e-02 1.399685442447662354e-01 7.132359594106674194e-02 1.024739369750022888e-01 -7.277570664882659912e-02 3.989371936768293381e-03 -9.359408169984817505e-02 -1.155453175306320190e-01 8.052847534418106079e-02 8.808730542659759521e-02 -5.998373031616210938e-02 -5.381983518600463867e-02 4.838501662015914917e-02 1.025901958346366882e-01 4.370279610157012939e-02 -7.333513349294662476e-02 -9.464512020349502563e-02 -7.049539685249328613e-02 5.157887935638427734e-02 -8.182014524936676025e-02 -9.037676267325878143e-03 -1.108468919992446899e-01 5.057375133037567139e-02 1.084100753068923950e-01 -7.993467152118682861e-02 1.088545471429824829e-01 -9.578616917133331299e-02 -2.130975387990474701e-02 -1.459733676165342331e-02 2.144440636038780212e-02 8.434683084487915039e-02 -6.425409764051437378e-02 1.322071254253387451e-01 -3.556295484304428101e-02 4.368771612644195557e-02 -2.725377213209867477e-03 1.038184463977813721e-01 -7.793852686882019043e-02 -7.035183161497116089e-02 9.415227174758911133e-02 -1.391612291336059570e-01 -1.098643466830253601e-01 1.383045613765716553e-01 1.108057200908660889e-01 1.178407445549964905e-01 8.638226427137851715e-03 -7.300835847854614258e-02 1.163989305496215820e-01 1.007916256785392761e-01 8.423911780118942261e-02 1.106384396553039551e-02
-1.023826748132705688e-01 6.527845561504364014e-02 -4.051268845796585083e-02 -7.768201082944869995e-02 -1.385173201560974121e-01 -9.367407113313674927e-02 9.714658558368682861e-02 1.544909924268722534e-02 9.612482041120529175e-03 1.185847297310829163e-01 8.874120563268661499e-02 3.293094411492347717e-02 1.210314966738224030e-02 2.198210358619689941e-02 -1.144943758845329285e-01 -1.058268025517463684e-01 -3.166553005576133728e-02 1.320401281118392944e-01 -8.512855321168899536e-02 2.154610306024551392e-02 1.008522137999534607e-01 1.122954264283180237e-01 1.106437072157859802e-01 1.335379034280776978e-01 6.564275175333023071e-02 -7.276275753974914551e-02 -6.238267943263053894e-02 4.131317138671875000e-02 -1.132740750908851624e-01 -1.417125808075070381e-03 -8.589642494916915894e-02 1.230653449892997742e-01 -4.574808478355407715e-02 -1.129184514284133911e-01 -7.840981334447860718e-02 1.011332646012306213e-01 -9.613282978534698486e-02 -5.430609360337257385e-02 -1.371318548917770386e-01 1.069021746516227722e-01 1.165537014603614807e-01 1.247884472832083702e-03 -1.126402337104082108e-02 -9.856110438704490662e-03 -1.438601315021514893e-01 -8.334787189960479736e-02 -8.391972631216049194e-02 8.134367875754833221e-03 1.275945752859115601e-01 5.953690782189369202e-02 1.167310401797294617e-01 -4.694358259439468384e-02 -1.043033376336097717e-01 1.021452322602272034e-01 -6.088720634579658508e-02 -9.828738123178482056e-02 -6.532913073897361755e-03 1.245421841740608215e-01 -8.761850185692310333e-03 -1.267108619213104248e-01 -5.634926259517669678e-02 1.394077539443969727e-01 1.222505867481231689e-01 -7.663282100111246109e-03
1.324904058128595352e-02 -5.117025971412658691e-02 -4.418136551976203918e-02 1.555396476760506630e-03 1.104896441102027893e-01 -2.174975909292697906e-02 -3.452061116695404053e-02 -5.240071099251508713e-03 -8.947512507438659668e-02 1.669871620833873749e-02 2.865870855748653412e-02 4.406898096203804016e-02 -1.304304301738739014e-01 7.622788846492767334e-02 -1.367736160755157471e-01 -1.051233783364295959e-01 -1.349561214447021484e-01 1.005097404122352600e-01 -6.023828312754631042e-02 1.127244308590888977e-01 -1.092073041945695877e-03 -1.337289661169052124e-01 1.048268303275108337e-01 -1.196550130844116211e-01 1.318691968917846680e-01 4.292789474129676819e-02 -4.523785039782524109e-02 5.469651520252227783e-02 3.946398943662643433e-02 6.217699497938156128e-02 5.619717016816139221e-02 9.197904169559478760e-02 -1.214626729488372803e-01 -2.498667873442173004e-02 -3.574477136135101318e-02 8.836163580417633057e-02 6.269091973081231117e-04 -7.560791075229644775e-02 -9.787658601999282837e-02 -3.618739172816276550e-02 -1.647608168423175812e-02 6.932318210601806641e-02 -8.759560436010360718e-02 -9.456486999988555908e-02 5.651861056685447693e-02 1.120125800371170044e-01 8.548925071954727173e-02 2.142310142517089844e-02 -8.826057612895965576e-02 -1.246405616402626038e-01 1.205131188035011292e-01 -8.451423048973083496e-02 -3.347354009747505188e-02 -6.345877796411514282e-02 -2.451753988862037659e-02 7.615903019905090332e-02 7.137111574411392212e-02 1.857449300587177277e-02 7.078993320465087891e-02 1.318678259849548340e-03 1.065794602036476135e-01 -3.877637907862663269e-02 -7.872889935970306396e-02 2.362415660172700882e-03
-1.708476617932319641e-02 -1.005466505885124207e-01 2.752641215920448303e-02 -1.131820585578680038e-02 -8.493758738040924072e-02 1.097304746508598328e-01 -1.330100595951080322e-01 -2.720485208556056023e-04 -7.778870314359664917e-02 -9.672444313764572144e-02 1.028934568166732788e-01 -4.580243304371833801e-02 9.035817533731460571e-02 7.873860001564025879e-02 -6.847229599952697754e-02 3.913732990622520447e-02 -1.289387047290802002e-01 6.680136173963546753e-02 -1.268643140792846680e-01 3.360291942954063416e-02 9.239865466952323914e-03 7.574240863323211670e-02 -9.099405258893966675e-02 8.666481822729110718e-02 9.937959164381027222e-02 5.601944029331207275e-02 1.130243092775344849e-01 7.821421138942241669e-03 -1.352593302726745605e-01 4.577807337045669556e-02 1.203030720353126526e-01 1.206952184438705444e-01 -8.752846159040927887e-03 -8.652932196855545044e-02 -6.123622506856918335e-02 6.695578992366790771e-02 1.010058298707008362e-01 -5.335173755884170532e-02 -2.177281118929386139e-02 5.957814678549766541e-02 7.018192857503890991e-02 1.329909712076187134e-01 -8.659791201353073120e-02 -4.021639004349708557e-02 -1.048935353755950928e-01 -7.249680906534194946e-02 -1.042829304933547974e-01 -8.129324018955230713e-02 -1.296371221542358398e-01 1.068174019455909729e-01 -1.300269067287445068e-01 2.110635302960872650e-02 9.296097606420516968e-02 9.081279486417770386e-02 -1.419373452663421631e-01 4.438818618655204773e-02 6.326897442340850830e-02 -9.364101290702819824e-02 8.470484614372253418e-02 -6.164364144206047058e-02 1.118718385696411133e-01 -6.415813416242599487e-02 5.013987421989440918e-02 9.683588892221450806e-02
-3.711452591232955456e-04 -5.713213607668876648e-02 -2.207593247294425964e-02 -5.817621573805809021e-02 2.792648505419492722e-03 -1.091871932148933411e-01 -2.497467026114463806e-02 -1.313403099775314331e-01 2.396572194993495941e-02 -4.257572069764137268e-02 1.026660948991775513e-02 2.405454404652118683e-02 1.344840675592422485e-01 5.062367022037506104e-02 1.270833611488342285e-01 7.801992446184158325e-02 7.250893977470695972e-04 6.779835373163223267e-02 -3.051054291427135468e-02 -8.270157873630523682e-02 3.590605780482292175e-02 -3.998229745775461197e-03 -2.746020257472991943e-02 -6.580846756696701050e-02 -5.611500144004821777e-02 -9.203913062810897827e-02 -4.337462596595287323e-03 3.644200414419174194e-02 6.874837726354598999e-02 1.168269813060760498e-01 1.350443959236145020e-01 1.231072843074798584e-01 -1.283842721022665501e-04 1.124789845198392868e-02 -6.458759307861328125e-02 -1.194477081298828125e-01 -1.158225610852241516e-01 7.849947363138198853e-02 5.274906754493713379e-02 8.362749963998794556e-02 8.474711328744888306e-02 6.620579864829778671e-03 -4.193287715315818787e-02 -1.230755522847175598e-01 -8.354207873344421387e-02 -2.446200698614120483e-02 -1.065863370895385742e-01 6.720601767301559448e-02 5.499182641506195068e-02 1.370180547237396240e-01 1.203392073512077332e-01 -5.742114409804344177e-02 9.964790940284729004e-02 1.002229824662208557e-01 -7.364109903573989868e-02 2.368113957345485687e-02 -1.200547814369201660e-01 1.171274110674858093e-01 1.038612201809883118e-01 9.829360991716384888e-02 -8.849647641181945801e-02 7.332571595907211304e-02 1.075135618448257446e-01 -5.362642556428909302e-02
4.064857214689254761e-02 -1.316674239933490753e-02 1.117614954710006714e-01 2.522907685488462448e-03 7.151359319686889648e-02 -7.686104625463485718e-02 5.903822928667068481e-02 -5.467914161272346973e-04 3.071232326328754425e-02 -5.430596694350242615e-02 8.965834230184555054e-02 5.239714309573173523e-02 7.103323191404342651e-02 -8.513600379228591919e-02 -1.405268460512161255e-01 4.725922364741563797e-03 -7.880535721778869629e-02 1.197344958782196045e-01 -1.017891541123390198e-01 9.403279423713684082e-02 6.404296308755874634e-02 -8.155575022101402283e-03 -1.341374069452285767e-01 -3.956181183457374573e-02 1.090621873736381531e-01 1.154436618089675903e-01 1.392070502042770386e-01 -1.112173963338136673e-02 -1.000045612454414368e-01 2.463583834469318390e-03 2.453259658068418503e-03 1.387133300304412842e-01 1.168033331632614136e-01 5.966507270932197571e-02 1.194626018404960632e-01 -1.343899071216583252e-01 6.332148611545562744e-02 -1.252447068691253662e-01 6.248714774847030640e-02 -5.860909074544906616e-02 2.928165346384048462e-02 1.185001805424690247e-02 -2.899065986275672913e-02 -8.616937696933746338e-02 4.465943574905395508e-02 4.055098816752433777e-02 -6.068378686904907227e-02 -4.488722980022430420e-02 1.206556782126426697e-01 3.409602493047714233e-02 1.402207911014556885e-01 6.142318248748779297e-02 -3.109578043222427368e-02 9.051717817783355713e-03 -1.508103683590888977e-02 7.440654933452606201e-02 -7.938685268163681030e-02 -6.917835026979446411e-02 7.844170182943344116e-02 -2.004580385982990265e-02 -4.934928193688392639e-02 -5.767024308443069458e-02 2.614362351596355438e-02 7.886274158954620361e-02
-1.273087561130523682e-01 -1.698376797139644623e-02 -4.524536058306694031e-02 -6.237773969769477844e-02 -3.725980641320347786e-03 8.352702111005783081e-02 -5.525540560483932495e-02 -1.350936591625213623e-01 9.164638072252273560e-02 4.194713011384010315e-02 -2.597043663263320923e-02 -1.523022633045911789e-02 -5.361452698707580566e-02 1.094181761145591736e-01 2.632215060293674469e-02 -1.785957254469394684e-02 1.201672032475471497e-01 -8.116845041513442993e-02 -1.193777546286582947e-01 -6.209417432546615601e-02 -8.117311634123325348e-03 5.443820729851722717e-02 6.203394755721092224e-02 -1.263232976198196411e-01 -6.911162286996841431e-02 7.094699144363403320e-02 -9.892897307872772217e-02 -9.186445176601409912e-02 6.442150473594665527e-02 2.726159431040287018e-02 7.409705780446529388e-03 -1.128777936100959778e-01 -8.261521905660629272e-02 -1.027202531695365906e-01 -3.175256028771400452e-02 -2.736816555261611938e-02 -8.273559808731079102e-02 3.461201861500740051e-02 7.445184886455535889e-02 1.940852846018970013e-03 -2.375195268541574478e-03 6.024629995226860046e-02 2.631817385554313660e-02 -2.188070677220821381e-02 -1.321236491203308105e-01 2.873721159994602203e-02 -7.382506877183914185e-02 7.878343760967254639e-02 -6.848485022783279419e-02 4.605113354045897722e-04 -7.577624171972274780e-02 7.716192305088043213e-02 1.196684911847114563e-01 1.013919338583946228e-01 8.420782536268234253e-02 4.849154129624366760e-02 -6.127633899450302124e-02 -7.151201367378234863e-02 1.400182545185089111e-01 -9.233832359313964844e-02 5.059323832392692566e-02 3.050699643790721893e-02 1.616719737648963928e-02 1.290471293032169342e-02
-2.690893039107322693e-02 -6.756431609392166138e-02 -1.206084489822387695e-01 1.618185825645923615e-02 3.961508348584175110e-02 5.741267278790473938e-02 -8.326788991689682007e-02 -1.201317682862281799e-01 -9.527581185102462769e-02 1.438368260860443115e-01 2.157679945230484009e-02 3.320267051458358765e-02 -5.631868541240692139e-02 -1.604809612035751343e-02 -2.491551078855991364e-02 1.015658751130104065e-01 2.856864966452121735e-02 1.654027961194515228e-02 3.472734987735748291e-02 -1.311315894126892090e-01 -9.927659481763839722e-02 3.340314701199531555e-02 4.173516854643821716e-02 -9.673045575618743896e-02 -1.498286519199609756e-02 -8.729346096515655518e-02 -1.080134063959121704e-01 1.430396288633346558e-01 -8.576919138431549072e-02 -2.594720758497714996e-02 1.719975471496582031e-02 7.719448208808898926e-02 8.378848433494567871e-02 -1.106299310922622681e-01 2.873525768518447876e-02 2.307711541652679443e-02 1.021594330668449402e-01 1.302002072334289551e-01 -1.404644250869750977e-01 -1.280491948127746582e-01 1.900870539247989655e-02 -1.192651540040969849e-01 1.357907354831695557e-01 5.149567872285842896e-02 5.147683620452880859e-02 1.501404307782649994e-02 -2.508529461920261383e-02 -4.706833511590957642e-02 9.974575042724609375e-02 9.561689943075180054e-02 8.253901451826095581e-02 -1.535072689875960350e-03 5.085280910134315491e-02 1.452989224344491959e-02 -6.799579411745071411e-02 9.966666251420974731e-02 1.356271058320999146e-01 1.098862588405609131e-01 -2.797097153961658478e-02 1.298886239528656006e-01 -1.046324670314788818e-01 -1.427745521068572998e-01 1.136462390422821045e-02 -8.191826939582824707e-02
-4.147552698850631714e-02 -9.501505643129348755e-02 -1.284435242414474487e-01 -1.450117584317922592e-02 -6.351411342620849609e-02 1.032629832625389099e-01 1.884140819311141968e-02 -3.163365647196769714e-02 2.196185849606990814e-02 -1.752864569425582886e-02 -1.604689843952655792e-02 7.210388779640197754e-02 -7.635160535573959351e-02 3.975237160921096802e-02 -1.253614574670791626e-01 -7.858762890100479126e-02 6.518449634313583374e-02 -1.507594157010316849e-02 -7.391469925642013550e-02 4.077864438295364380e-02 -4.620701447129249573e-02 8.160899393260478973e-03 4.042258951812982559e-03 -3.048942983150482178e-02 7.114063948392868042e-02 -1.005392223596572876e-01 -2.229023352265357971e-02 -4.625979438424110413e-02 1.136055663228034973e-01 -6.987401098012924194e-02 3.121553687378764153e-03 -1.052529513835906982e-01 -9.202773869037628174e-02 -1.066458225250244141e-01 1.302771717309951782e-01 -4.507533088326454163e-02 -6.832417566329240799e-03 1.177036166191101074e-01 -2.193248644471168518e-02 -6.780934333801269531e-02 -1.737376302480697632e-02 -1.127171814441680908e-01 1.064216345548629761e-01 -5.582231655716896057e-02 7.098311930894851685e-02 -1.214001998305320740e-01 -7.266702502965927124e-02 1.640003733336925507e-02 -8.301217854022979736e-02 -2.720527537167072296e-02 -1.111324280500411987e-01 1.198943406343460083e-01 -5.511724948883056641e-02 -6.585995852947235107e-02 1.320096999406814575e-01 3.488304838538169861e-02 7.192760705947875977e-02 -1.037848815321922302e-01 -1.989274285733699799e-02 -7.529892772436141968e-02 -1.032126694917678833e-01 -7.228992879390716553e-02 -1.653726026415824890e-02 -2.529274299740791321e-02
-2.200902253389358521e-02 2.569829579442739487e-03 1.040452644228935242e-01 -2.706931903958320618e-02 -3.862432017922401428e-02 -2.724352106451988220e-02 -1.408477574586868286e-01 2.697983942925930023e-02 -1.122137382626533508e-01 1.171315908432006836e-01 -6.275533139705657959e-02 2.777394093573093414e-02 -1.371483653783798218e-01 -2.078137919306755066e-02 1.033079531043767929e-02 1.113427728414535522e-01 2.709295973181724548e-02 2.175222150981426239e-02 -1.055502444505691528e-01 -1.213532239198684692e-01 -2.260809019207954407e-02 -4.192761331796646118e-02 4.435706511139869690e-02 5.919104814529418945e-02 -3.645328106358647346e-03 -6.038726121187210083e-02 -7.777202874422073364e-02 -2.168606268242001534e-03 1.010923162102699280e-01 1.188503652811050415e-01 -7.378191500902175903e-02 -9.500192105770111084e-02 4.481408372521400452e-02 -1.717088930308818817e-02 4.107818007469177246e-02 -5.557333678007125854e-02 -4.023940861225128174e-02 -2.456285431981086731e-02 2.152393199503421783e-02 1.401394009590148926e-01 1.206863224506378174e-01 7.868389040231704712e-02 6.865095347166061401e-02 7.724844181211665273e-05 1.368657499551773071e-01 -5.855455622076988220e-02 -2.277920022606849670e-03 4.186616092920303345e-02 1.399212330579757690e-01 -3.717883303761482239e-02 -8.999052457511425018e-03 -1.005476713180541992e-01 -1.166534051299095154e-01 3.818674758076667786e-02 6.770990788936614990e-02 -5.037615192122757435e-04 -5.658751726150512695e-02 1.254326552152633667e-01 -4.717161133885383606e-02 5.564042367041110992e-03 -7.062540948390960693e-02 -1.800163649022579193e-02 -6.440690904855728149e-02 1.009403318166732788e-01
-7.919123768806457520e-02 -1.405880004167556763e-01 1.074853688478469849e-01 -1.570835593156516552e-03 7.363537698984146118e-02 -6.766848266124725342e-02 8.388711512088775635e-02 6.350894272327423096e-02 2.325441688299179077e-02 -6.996329128742218018e-02 -1.093569695949554443e-01 -7.746978849172592163e-02 -3.673832863569259644e-02 7.812365144491195679e-02 -1.323361694812774658e-01 -1.088646799325942993e-01 1.422876864671707153e-01 -8.070357888936996460e-02 8.752266317605972290e-02 -5.559359118342399597e-02 -1.247555539011955261e-01 -5.544081702828407288e-02 8.307277411222457886e-02 -1.157639026641845703e-01 -8.631116151809692383e-02 -5.737001821398735046e-02 6.829033046960830688e-02 4.449584707617759705e-02 4.116163030266761780e-02 5.754876881837844849e-02 4.772921279072761536e-02 -1.254333853721618652e-01 1.291211098432540894e-01 2.419409900903701782e-02 -3.230863064527511597e-02 5.565856024622917175e-02 -1.376644801348447800e-02 -4.391666129231452942e-02 -3.778981789946556091e-02 9.297350049018859863e-02 -6.376390904188156128e-02 -1.004628762602806091e-01 1.002368181943893433e-01 1.029781103134155273e-01 5.014161765575408936e-02 5.247476324439048767e-02 1.014101952314376831e-01 -1.383806020021438599e-01 -8.017349243164062500e-02 2.852062694728374481e-02 1.881497539579868317e-02 4.323362559080123901e-02 1.296199411153793335e-01 -3.283493593335151672e-02 -9.192436188459396362e-02 1.124316826462745667e-01 1.079039424657821655e-01 -3.786115348339080811e-02 1.403501778841018677e-01 4.463206976652145386e-02 -7.774370163679122925e-02 -6.752530485391616821e-02 -1.329939998686313629e-02 2.823248319327831268e-02
3.461635112762451172e-02 1.054924130439758301e-01 -7.729296386241912842e-02 1.684447005391120911e-02 -1.174551025032997131e-01 -1.388410944491624832e-02 -2.874047309160232544e-02 1.044333726167678833e-01 -7.031825184822082520e-02 -5.374763533473014832e-02 -1.054362505674362183e-01 3.994350880384445190e-02 6.269213557243347168e-02 -3.032661415636539459e-02 -1.311031985096633434e-03 -1.115994229912757874e-01 9.771057218313217163e-02 2.922801487147808075e-02 -1.358946561813354492e-01 -2.240760065615177155e-02 -3.810887038707733154e-02 5.611140280961990356e-02 -8.175184577703475952e-02 1.076920479536056519e-01 9.660600870847702026e-02 -1.043752878904342651e-01 -1.436337083578109741e-01 1.932140067219734192e-02 -3.596581891179084778e-02 -9.132553637027740479e-02 8.567431569099426270e-02 1.877946592867374420e-02 -8.146908134222030640e-02 -2.331591583788394928e-02 5.082283541560173035e-02 -9.223169833421707153e-02 -1.253196746110916138e-01 1.261406242847442627e-01 1.100449413061141968e-01 -8.720671385526657104e-02 1.292338371276855469e-01 -5.803627893328666687e-02 -2.877132222056388855e-02 8.864480257034301758e-02 -1.405499875545501709e-01 1.227046847343444824e-01 4.933187365531921387e-02 1.269120573997497559e-01 1.004708334803581238e-01 -1.166103556752204895e-01 -1.917432248592376709e-02 -4.836232960224151611e-02 1.286268234252929688e-01 5.618461593985557556e-02 -9.241524338722229004e-02 1.109183952212333679e-01 9.095702320337295532e-02 -6.286834180355072021e-02 -1.323227733373641968e-01 -1.062471494078636169e-01 6.003767997026443481e-02 1.178892850875854492e-01 9.041780978441238403e-02 -1.714130677282810211e-02
-1.099816262722015381e-01 7.685361802577972412e-02 7.443347573280334473e-02 -1.250059902667999268e-01 3.031939826905727386e-02 1.196877732872962952e-01 1.887796632945537567e-02 -3.030710667371749878e-02 -1.214676573872566223e-01 8.408343791961669922e-02 -1.003839820623397827e-01 7.923805713653564453e-02 5.111183598637580872e-02 9.899387508630752563e-02 6.412302702665328979e-02 6.291902624070644379e-03 1.099425088614225388e-02 8.514671772718429565e-02 1.024888828396797180e-01 2.895089611411094666e-02 -1.204775348305702209e-01 6.213927268981933594e-02 1.234197616577148438e-02 5.769649147987365723e-02 -1.121657714247703552e-01 9.816954843699932098e-03 -1.181780025362968445e-01 -1.583745703101158142e-02 1.339547336101531982e-01 6.660987436771392822e-02 -7.026047259569168091e-02 -7.859195023775100708e-02 1.237051337957382202e-01 9.818599373102188110e-02 -1.859965547919273376e-02 1.409405469894409180e-01 -2.017754688858985901e-02 -1.225009486079216003e-01 1.747790491208434105e-03 1.125112324953079224e-01 -6.174190342426300049e-02 1.351590305566787720e-01 -2.721332199871540070e-02 4.787212237715721130e-02 1.379913836717605591e-01 -8.580020815134048462e-02 1.279822289943695068e-01 7.038618624210357666e-02 9.506586939096450806e-02 -1.286149322986602783e-01 -5.977051705121994019e-02 -7.348610460758209229e-02 1.173867657780647278e-01 -1.127407774329185486e-01 1.245024502277374268e-01 -5.451852828264236450e-02 3.304509818553924561e-02 2.182805538177490234e-02 1.330035626888275146e-01 6.073305383324623108e-02 9.980332851409912109e-02 1.128442883491516113e-01 3.656706586480140686e-02 1.134392544627189636e-01
-1.325985789299011230e-01 1.128028407692909241e-01 -7.328169047832489014e-02 -1.218358352780342102e-01 2.294352836906909943e-02 -9.841645509004592896e-02 -4.775890335440635681e-02 9.131929278373718262e-02 -4.033348709344863892e-02 -1.227524355053901672e-01 6.196398288011550903e-02 6.113766506314277649e-02 -1.087422817945480347e-01 -2.226966246962547302e-02 -1.354885995388031006e-01 8.696334064006805420e-02 -3.048713784664869308e-03 -1.336424350738525391e-01 8.528411388397216797e-02 -3.573375986889004707e-03 -9.557114541530609131e-02 -1.319526135921478271e-01 -1.056722402572631836e-01 1.811446249485015869e-02 -3.502991423010826111e-02 1.066892892122268677e-01 8.779041469097137451e-02 -4.904142022132873535e-02 -3.193033859133720398e-02 3.104260563850402832e-02 -6.737951189279556274e-03 -5.761520564556121826e-02 6.748417019844055176e-02 9.591224789619445801e-02 2.769200131297111511e-02 -1.750276982784271240e-02 5.203152447938919067e-02 1.408078372478485107e-01 8.481264859437942505e-02 -1.163708791136741638e-01 9.063770622014999390e-02 -1.052926778793334961e-01 4.100918397307395935e-02 -3.879677504301071167e-02 8.793586492538452148e-02 -1.393842995166778564e-01 -6.733094900846481323e-02 -1.226978302001953125e-01 1.261663883924484253e-01 -2.970336191356182098e-02 6.374645978212356567e-03 -7.357002794742584229e-02 8.350653946399688721e-02 -1.281339526176452637e-01 -3.298131003975868225e-02 1.304947584867477417e-01 1.431510150432586670e-01 -9.449112415313720703e-02 7.936301827430725098e-02 -8.250861614942550659e-02 -1.407163739204406738e-01 -1.148987784981727600e-01 5.147744715213775635e-02 1.860451512038707733e-02
2.131826942786574364e-03 -1.452639047056436539e-02 2.904832921922206879e-02 -4.777256026864051819e-02 -1.135381981730461121e-01 -7.866780459880828857e-02 -1.488377805799245834e-02 6.424249708652496338e-02 -2.504322491586208344e-02 -3.659663489088416100e-03 3.972217440605163574e-02 9.433815628290176392e-02 -1.388205140829086304e-01 -1.038145050406455994e-01 -8.757436275482177734e-02 -2.174603380262851715e-02 1.324197500944137573e-01 -6.023750454187393188e-02 6.351999193429946899e-02 -6.951448321342468262e-02 4.750682786107063293e-02 1.404294967651367188e-01 -7.440605759620666504e-02 1.525673270225524902e-02 5.374528467655181885e-02 -1.073300763964653015e-01 -1.286991834640502930e-01 3.835743293166160583e-02 3.080410696566104889e-02 1.389012485742568970e-01 -4.592210426926612854e-02 1.281238943338394165e-01 -1.337491273880004883e-01 9.974955022335052490e-02 5.490220338106155396e-02 -4.965016990900039673e-02 -4.181435331702232361e-02 1.115759238600730896e-01 1.334272623062133789e-01 2.866361290216445923e-02 -4.776741564273834229e-02 -1.403536647558212280e-01 1.083949059247970581e-01 8.304052054882049561e-02 6.027291715145111084e-02 -2.868030592799186707e-02 -1.042048074305057526e-02 -1.227716654539108276e-01 -9.217710793018341064e-02 4.036033153533935547e-02 -6.077881902456283569e-02 -1.193363592028617859e-01 -5.062892660498619080e-02 7.637628912925720215e-02 7.284733653068542480e-02 9.164949506521224976e-02 1.132503971457481384e-01 -2.097429335117340088e-02 -1.123168841004371643e-01 -1.372448951005935669e-01 3.816711716353893280e-03 1.035261675715446472e-01 -6.068048998713493347e-02 -4.269991815090179443e-02
-5.340030416846275330e-02 -1.362340152263641357e-01 -1.285043060779571533e-01 -8.886741101741790771e-02 -5.146275833249092102e-02 9.764862805604934692e-02 -7.212775200605392456e-02 5.143443867564201355e-02 -1.074824705719947815e-01 -1.045612022280693054e-01 1.232393607497215271e-01 1.024293750524520874e-01 9.833936579525470734e-03 -8.537033200263977051e-02 1.127660274505615234e-01 -1.036878675222396851e-01 -4.583341628313064575e-02 8.380675315856933594e-02 4.482658207416534424e-02 4.501404240727424622e-02 -1.419556140899658203e-02 1.040567308664321899e-01 -1.024061813950538635e-02 1.071468591690063477e-01 7.086689025163650513e-02 2.830519899725914001e-02 2.421336062252521515e-02 4.235246777534484863e-02 1.070124134421348572e-01 8.648211136460304260e-03 4.278594255447387695e-02 1.168405041098594666e-01 -7.417946308851242065e-02 -9.141904115676879883e-02 -7.235781848430633545e-02 7.759168744087219238e-02 -8.960711210966110229e-02 -7.075021415948867798e-02 -9.881605207920074463e-02 5.852001532912254333e-02 -1.665520947426557541e-03 -7.466292381286621094e-02 8.927002549171447754e-03 1.058064401149749756e-01 1.426766961812973022e-01 5.220801383256912231e-02 8.411218225955963135e-02 9.229393303394317627e-02 -1.030125021934509277e-01 1.887489669024944305e-02 5.634146556258201599e-02 7.077576220035552979e-02 -4.824789706617593765e-03 1.388063072226941586e-03 4.761238023638725281e-02 6.611071527004241943e-02 -1.059744134545326233e-01 -1.106317415833473206e-01 -7.407867163419723511e-02 1.427153348922729492e-01 -9.345871210098266602e-02 1.243575215339660645e-01 3.491736948490142822e-02 6.027369201183319092e-02
1.025191992521286011e-01 -1.108450368046760559e-01 -7.262790948152542114e-02 -1.019928883761167526e-02 -1.345061212778091431e-01 -1.415188610553741455e-01 1.131057739257812500e-03 2.274335175752639771e-02 -1.635444723069667816e-02 -1.098958589136600494e-02 -3.543706983327865601e-02 -1.261923275887966156e-02 -1.003130152821540833e-01 -1.341491043567657471e-01 8.064931631088256836e-02 6.477586179971694946e-02 1.288481056690216064e-02 -1.210641637444496155e-01 -1.219336763024330139e-01 1.158099621534347534e-02 4.965260997414588928e-02 -4.517354071140289307e-02 9.467875957489013672e-02 -1.293154209852218628e-01 1.252901107072830200e-01 -6.246911734342575073e-02 1.418855786323547363e-01 1.560962013900279999e-02 -1.340415515005588531e-02 1.087825000286102295e-01 -1.178971976041793823e-01 -4.302869550883769989e-03 -5.776348337531089783e-02 4.935297742486000061e-02 1.271082162857055664e-01 -4.940362647175788879e-02 1.002636849880218506e-01 -1.154698133468627930e-01 -3.226393135264515877e-03 4.900950938463211060e-02 4.850394278764724731e-02 6.067837774753570557e-02 1.220726966857910156e-01 -1.408446580171585083e-01 1.285841017961502075e-01 6.466713547706604004e-02 5.532087013125419617e-02 -1.014713346958160400e-01 -3.742466866970062256e-02 -1.029481813311576843e-01 -6.258617341518402100e-02 -1.018643826246261597e-01 -5.923549085855484009e-02 1.164924236945807934e-03 1.160811334848403931e-01 -5.610971152782440186e-02 1.011781916022300720e-01 1.507212501019239426e-02 -7.978367060422897339e-02 -5.391046032309532166e-02 -5.112804099917411804e-02 3.291480988264083862e-02 -1.106673330068588257e-01 -6.548351794481277466e-02
-1.197174340486526489e-01 2.314232476055622101e-02 -5.000248551368713379e-02 -6.180005148053169250e-03 -8.220256119966506958e-02 5.055714026093482971e-02 -1.037548482418060303e-01 -2.557208016514778137e-02 -1.409910917282104492e-01 -1.211627870798110962e-01 -8.995407819747924805e-02 -6.296283751726150513e-02 -1.385414898395538330e-01 -1.870964094996452332e-02 -4.738513380289077759e-02 -6.886126101016998291e-02 3.264536336064338684e-02 -1.142682656645774841e-01 -4.803559929132461548e-02 -3.540052846074104309e-02 -1.945864968001842499e-02 7.156967371702194214e-02 1.163629963994026184e-01 6.051426008343696594e-02 6.188547238707542419e-02 -6.995168328285217285e-02 4.240335896611213684e-02 -9.805960953235626221e-02 -6.884189695119857788e-02 6.905462592840194702e-02 -2.905235625803470612e-03 -2.552082017064094543e-02 -2.564833313226699829e-02 3.191121667623519897e-02 1.266598422080278397e-02 1.143496856093406677e-01 -2.107374370098114014e-02 1.110091805458068848e-01 3.100311011075973511e-02 -1.177319064736366272e-01 -9.180488437414169312e-02 1.311274319887161255e-01 2.968156524002552032e-02 6.716597825288772583e-03 3.285986930131912231e-02 1.333327293395996094e-01 6.816481705754995346e-03 1.319400221109390259e-01 -9.458348900079727173e-02 1.288986355066299438e-01 -2.543454244732856750e-02 -9.657666832208633423e-02 1.519935857504606247e-02 -7.350975275039672852e-02 6.561850011348724365e-02 4.345341771841049194e-02 -9.841668605804443359e-02 8.428943157196044922e-02 8.648790419101715088e-02 4.650533944368362427e-02 -1.170212328433990479e-01 -1.760251820087432861e-02 -6.601431220769882202e-02 -3.224179521203041077e-02
6.762429326772689819e-02 7.089369744062423706e-02 5.307725071907043457e-02 4.219801723957061768e-02 -4.172832239419221878e-03 -1.283268183469772339e-01 1.255835294723510742e-01 -1.240230631083250046e-02 -1.147039234638214111e-02 -8.409876376390457153e-02 8.602556586265563965e-02 -2.909674867987632751e-02 4.148028790950775146e-03 -4.928359761834144592e-02 -2.987201558426022530e-03 1.063094823621213436e-03 -1.031708493828773499e-01 7.555318064987659454e-03 -1.198603361845016479e-01 1.018611043691635132e-01 -4.093302413821220398e-03 -2.096837013959884644e-02 -9.638595581054687500e-02 7.281015813350677490e-02 7.984222611412405968e-04 5.192145705223083496e-02 -5.819554254412651062e-02 -3.414817154407501221e-02 5.289733037352561951e-02 -8.966504782438278198e-02 -1.136655807495117188e-01 -1.911480166018009186e-02 2.398964250460267067e-03 1.003113612532615662e-01 5.361134186387062073e-02 -8.424779027700424194e-02 -1.048962697386741638e-01 -1.126205548644065857e-01 -1.996751409024000168e-03 4.946518316864967346e-02 -4.921809583902359009e-02 1.190989986062049866e-01 -4.618694633245468140e-02 1.882959855720400810e-03 4.890025779604911804e-02 8.424414321780204773e-03 1.269329637289047241e-01 -4.505476728081703186e-02 -1.104565858840942383e-01 -7.651525735855102539e-02 6.268981844186782837e-02 5.813661590218544006e-02 -2.927756495773792267e-02 -5.580592900514602661e-02 -1.051633358001708984e-01 -1.318423748016357422e-01 -1.113360375165939331e-01 7.852386683225631714e-02 9.138434380292892456e-02 -1.210665181279182434e-01 -7.571501657366752625e-03 8.988154679536819458e-02 9.108917415142059326e-02 -8.024755120277404785e-02
1.345146596431732178e-01 9.118699468672275543e-03 -1.347035467624664307e-01 -9.862609952688217163e-02 -1.071509718894958496e-01 -7.596989721059799194e-02 -1.402312815189361572e-01 4.602368548512458801e-02 -8.432485908269882202e-02 -1.223315298557281494e-01 -5.002578347921371460e-02 3.064878284931182861e-03 1.022713109850883484e-01 -1.370338946580886841e-01 -3.961256146430969238e-02 -1.005182508379220963e-02 3.133480623364448547e-02 -2.965588308870792389e-02 -1.118692606687545776e-01 1.189408078789710999e-01 -6.420714408159255981e-02 -2.693180739879608154e-02 9.433872252702713013e-02 -1.237374842166900635e-01 -4.775828123092651367e-02 7.252536248415708542e-03 -9.133583307266235352e-02 -3.777772560715675354e-02 -2.193531580269336700e-02 1.393464207649230957e-01 -8.969050645828247070e-02 -2.142064645886421204e-02 -3.981450945138931274e-02 5.488342419266700745e-02 -1.323030889034271240e-01 5.128978937864303589e-02 2.421015687286853790e-02 2.243023365736007690e-02 -1.261830925941467285e-01 2.877114154398441315e-02 4.172651469707489014e-02 -1.262656748294830322e-01 -2.150394208729267120e-02 6.200572475790977478e-02 1.398410052061080933e-01 -1.383441090583801270e-01 -2.023929916322231293e-02 -1.050274595618247986e-01 1.060426831245422363e-01 -9.049400687217712402e-02 -6.680966913700103760e-02 -7.326535135507583618e-02 -1.335832774639129639e-01 -4.013733938336372375e-02 -2.056271769106388092e-03 8.593554049730300903e-02 1.375648230314254761e-01 3.284422308206558228e-02 6.315807253122329712e-02 4.475909471511840820e-02 1.345618516206741333e-01 -1.401190459728240967e-01 -1.348181515932083130e-01 7.732994854450225830e-02
-1.098234653472900391e-01 6.879372149705886841e-02 8.608974516391754150e-02 3.548507019877433777e-02 -1.064654439687728882e-01 1.096971631050109863e-01 1.243847459554672241e-01 4.023859649896621704e-02 -6.623131036758422852e-02 3.851921856403350830e-02 1.315096765756607056e-01 1.335209794342517853e-02 -3.855058923363685608e-02 7.540218532085418701e-02 -1.236466765403747559e-01 5.359401553869247437e-02 1.103724017739295959e-01 -4.280572757124900818e-03 -7.058732211589813232e-02 9.520215541124343872e-02 -3.098047152161598206e-02 1.046829950064420700e-02 -1.623761840164661407e-02 -1.077934280037879944e-01 -1.553350221365690231e-02 2.367657050490379333e-02 -4.607326537370681763e-02 1.773886755108833313e-02 -7.185545563697814941e-02 -6.274719536304473877e-02 7.361282408237457275e-02 -7.538674771785736084e-02 -8.112979680299758911e-02 1.050078049302101135e-01 -1.292940080165863037e-01 -1.210466846823692322e-01 1.016791537404060364e-01 3.004184737801551819e-02 -5.608516186475753784e-02 -1.102434173226356506e-01 -1.163510829210281372e-01 -2.210197970271110535e-02 -6.257004290819168091e-02 -5.018116533756256104e-02 -2.435580082237720490e-02 -1.406875252723693848e-01 -5.208492651581764221e-02 9.626228362321853638e-02 -3.052742034196853638e-02 -7.565873861312866211e-02 9.221501648426055908e-02 7.804688066244125366e-02 -9.704227559268474579e-03 -2.050825394690036774e-02 7.116802781820297241e-02 -1.015619263052940369e-01 -4.146661609411239624e-02 -7.054007053375244141e-02 1.229334771633148193e-01 3.766391426324844360e-02 -6.490998715162277222e-02 -4.576727375388145447e-02 -1.054663560353219509e-03 6.949772592633962631e-03
4.055041447281837463e-02 -7.959832437336444855e-03 7.273771613836288452e-02 -2.241057716310024261e-02 4.974140971899032593e-02 -8.497847616672515869e-02 1.371255815029144287e-01 1.415792405605316162e-01 7.640709728002548218e-02 1.100224032998085022e-01 1.189323589205741882e-01 -6.018770486116409302e-02 3.225088864564895630e-02 -1.115230005234479904e-02 1.376458704471588135e-01 -5.787878856062889099e-02 1.127906218171119690e-01 -5.567798390984535217e-02 1.419282853603363037e-01 -9.181527793407440186e-02 8.742891997098922729e-02 -2.720927260816097260e-02 3.293987363576889038e-02 -1.580742932856082916e-02 -7.715138792991638184e-02 6.722034513950347900e-02 -8.985237032175064087e-02 3.372278879396617413e-04 4.984646290540695190e-02 7.736001163721084595e-02 -7.981470972299575806e-02 7.016054540872573853e-02 -1.332210469990968704e-02 -4.051437228918075562e-02 2.711928077042102814e-02 9.420312941074371338e-02 -1.182398125529289246e-01 -2.459397725760936737e-02 8.577514439821243286e-02 -7.246536761522293091e-02 -1.270217895507812500e-01 1.161881312727928162e-01 6.507628411054611206e-02 1.337359547615051270e-01 2.404619567096233368e-02 7.037761062383651733e-02 -1.286679804325103760e-01 -1.059797219932079315e-02 3.522269800305366516e-02 1.798787154257297516e-02 -1.274280808866024017e-02 9.064638614654541016e-02 -9.333790093660354614e-02 -7.886549830436706543e-02 4.477344453334808350e-02 -5.760596599429845810e-03 -4.508577694650739431e-05 -1.158686652779579163e-01 -1.077669337391853333e-01 6.706152856349945068e-02 1.071689799427986145e-01 1.266315300017595291e-02 5.250910297036170959e-02 -1.990975625813007355e-02
5.833417549729347229e-02 -9.972649812698364258e-02 -1.025130823254585266e-01 1.121651902794837952e-01 8.859969675540924072e-02 6.822003424167633057e-02 1.086981520056724548e-01 -6.235431134700775146e-02 -1.090530902147293091e-01 8.927597105503082275e-02 -1.177278831601142883e-01 1.402590572834014893e-01 -1.827410981059074402e-02 8.295117318630218506e-02 -4.633130133152008057e-02 5.457965657114982605e-02 -6.045355275273323059e-02 -1.168214231729507446e-01 -2.855760790407657623e-02 -9.522403031587600708e-02 -6.729503720998764038e-02 -3.885170817375183105e-02 7.962723262608051300e-03 1.417365297675132751e-02 -1.088688001036643982e-01 1.093210130929946899e-01 -1.414194405078887939e-01 1.272493898868560791e-01 -1.121996492147445679e-01 -1.050202995538711548e-01 -4.725626111030578613e-02 1.271371170878410339e-02 -2.755491435527801514e-02 1.085648164153099060e-01 3.905990719795227051e-02 -8.395526558160781860e-03 2.832198888063430786e-02 -5.725862458348274231e-02 -5.605852603912353516e-02 8.272219449281692505e-02 -2.747986838221549988e-02 -9.573549032211303711e-02 -5.052317306399345398e-02 -1.127840429544448853e-01 1.273863911628723145e-01 1.411631703376770020e-01 8.738243579864501953e-02 1.115169003605842590e-01 -1.419201940298080444e-01 1.411578357219696045e-01 8.282998204231262207e-02 1.365161687135696411e-01 -1.176097169518470764e-01 -6.784898042678833008e-02 5.603983998298645020e-02 -5.372954159975051880e-02 1.014496088027954102e-01 -1.156208291649818420e-01 7.759059965610504150e-02 -1.156617254018783569e-01 1.155832484364509583e-01 -4.772992432117462158e-02 1.004568785429000854e-01 -1.370243877172470093e-01
3.544016554951667786e-02 1.296215206384658813e-01 1.294840406626462936e-02 1.372997928410768509e-02 2.530201151967048645e-02 3.730807453393936157e-02 3.800968453288078308e-02 -1.268803030252456665e-01 -1.578639075160026550e-02 1.176317036151885986e-01 8.936081826686859131e-02 -1.301266103982925415e-01 -4.505506902933120728e-02 4.707269836217164993e-03 2.095554210245609283e-02 -1.309924870729446411e-01 -1.261098384857177734e-01 4.821950197219848633e-02 1.721659675240516663e-02 9.514164179563522339e-02 -9.119937568902969360e-02 -6.206082180142402649e-02 4.888259992003440857e-02 -1.364803016185760498e-01 -5.780885368585586548e-02 5.247068032622337341e-02 1.056852862238883972e-01 2.707737125456333160e-02 1.195069774985313416e-01 1.038494855165481567e-01 8.860928006470203400e-03 5.791907198727130890e-03 2.405895479023456573e-02 9.990719705820083618e-02 1.368199139833450317e-01 5.966817960143089294e-03 -2.852720953524112701e-02 1.328441053628921509e-01 -3.096877969801425934e-02 -4.107875429326668382e-05 1.472064573317766190e-02 1.085222959518432617e-01 -1.070706397294998169e-01 -1.002690009772777557e-02 4.539939761161804199e-02 -9.963688254356384277e-02 8.425310999155044556e-02 -8.734554052352905273e-02 2.027814649045467377e-02 4.169972240924835205e-02 -1.149369403719902039e-01 -9.947335720062255859e-02 -1.249612048268318176e-01 6.530847866088151932e-03 1.164667215198278427e-02 -1.347305178642272949e-01 3.914743661880493164e-02 4.545540735125541687e-02 2.326354384422302246e-02 -1.534065790474414825e-02 -1.350003629922866821e-01 -1.271624118089675903e-01 7.252420485019683838e-02 -4.672482237219810486e-02
-4.981280490756034851e-02 6.010512635111808777e-02 -9.487431496381759644e-02 5.368736758828163147e-02 -1.139039322733879089e-01 -1.375838220119476318e-01 1.073654741048812866e-01 -8.076994121074676514e-02 7.682401686906814575e-02 -4.422555491328239441e-02 -1.323022693395614624e-01 2.976946346461772919e-02 -9.667714685201644897e-02 3.432163596153259277e-02 5.168038979172706604e-02 -4.032989218831062317e-02 -1.385182235389947891e-02 5.808587372303009033e-02 -5.889474973082542419e-02 5.140684172511100769e-02 4.022406041622161865e-02 2.605403587222099304e-02 -1.435802876949310303e-02 1.377521157264709473e-01 7.813689857721328735e-02 8.504551649093627930e-02 -1.325069665908813477e-01 4.916480928659439087e-02 -7.591734081506729126e-02 2.001278474926948547e-02 -7.809247076511383057e-02 3.064139978960156441e-03 1.405707281082868576e-02 -2.570005506277084351e-02 8.881638944149017334e-02 -1.077212244272232056e-01 5.197596549987792969e-02 -1.359760463237762451e-01 -6.654224544763565063e-02 5.017952620983123779e-02 8.627468347549438477e-02 -1.043967306613922119e-01 6.762601900845766068e-03 7.646086812019348145e-02 -1.447296608239412308e-02 -4.510495439171791077e-02 1.066400185227394104e-01 -6.996181607246398926e-02 -7.935126125812530518e-02 -8.628033846616744995e-02 -8.757359534502029419e-02 -1.366433873772621155e-02 -5.567342042922973633e-02 3.573862835764884949e-02 5.982073768973350525e-02 -4.574675112962722778e-02 -9.922002255916595459e-02 -1.610764116048812866e-02 3.938613086938858032e-02 -1.247741058468818665e-01 -8.256011456251144409e-02 3.867775434628129005e-03 -1.162889152765274048e-01 8.131206780672073364e-02
1.151923611760139465e-01 -1.196746155619621277e-02 -4.358879814390093088e-04 2.762453816831111908e-02 -4.225926473736763000e-02 -3.791073709726333618e-02 -5.527783557772636414e-02 -5.008171498775482178e-02 -2.086981385946273804e-02 -6.882213056087493896e-02 2.510783495381474495e-03 2.933986019343137741e-03 2.180586196482181549e-02 7.681533694267272949e-02 -1.070160493254661560e-01 3.296648338437080383e-02 4.157167673110961914e-02 -8.638998121023178101e-02 -1.928088627755641937e-02 2.977920696139335632e-02 -2.927527390420436859e-02 -5.535737797617912292e-02 -1.053253263235092163e-01 7.216124981641769409e-02 1.164954975247383118e-01 -1.148531585931777954e-01 2.507849223911762238e-02 9.711716324090957642e-02 -9.809539467096328735e-02 -1.151008307933807373e-01 1.315048336982727051e-01 -9.070558100938796997e-02 -1.058121621608734131e-01 4.495836794376373291e-02 1.072359737008810043e-03 2.651741728186607361e-02 -6.195716187357902527e-02 -2.100986056029796600e-02 -9.813175350427627563e-02 -2.165008150041103363e-02 5.960791185498237610e-02 -1.163907349109649658e-01 -5.466013401746749878e-02 1.167696490883827209e-01 -3.064040094614028931e-02 -8.862765878438949585e-02 -4.295340180397033691e-02 -9.894184768199920654e-03 -4.974444210529327393e-02 -1.369435936212539673e-01 7.726492732763290405e-02 6.675362586975097656e-02 -1.195262297987937927e-01 -1.036186516284942627e-02 -9.874447435140609741e-02 -1.068473830819129944e-01 -3.172791376709938049e-02 9.832140058279037476e-02 -1.320433020591735840e-01 1.657422631978988647e-02 -1.322288066148757935e-01 -1.401352584362030029e-01 6.370108574628829956e-02 -1.327201277017593384e-01
6.303498521447181702e-03 2.398717403411865234e-02 2.070230431854724884e-02 -2.071316121146082878e-03 -1.012461632490158081e-01 1.305202245712280273e-01 -8.714102953672409058e-02 -3.915809467434883118e-02 9.738479554653167725e-02 -6.449243426322937012e-02 1.227747499942779541e-01 -2.766213566064834595e-02 2.092070318758487701e-02 4.238191992044448853e-03 5.616043508052825928e-02 1.047347113490104675e-01 1.243216171860694885e-01 -9.613884985446929932e-02 1.159832254052162170e-02 -4.146207123994827271e-02 -1.201586797833442688e-01 1.100737378001213074e-01 3.827191144227981567e-02 -2.393872104585170746e-02 -1.127907782793045044e-01 -1.085068434476852417e-01 7.975033670663833618e-02 1.130778528749942780e-02 3.046351112425327301e-02 -9.913641214370727539e-02 2.834952622652053833e-02 5.328474566340446472e-02 -1.151726022362709045e-01 -1.951133459806442261e-02 -1.132691130042076111e-01 -2.610117383301258087e-02 -2.659748122096061707e-02 -3.916693851351737976e-02 -8.302840590476989746e-02 -2.856147708371281624e-03 -9.131833910942077637e-03 1.334325373172760010e-01 8.991181850433349609e-02 -5.780291743576526642e-03 -9.533059783279895782e-03 -5.977591872215270996e-02 -1.311143338680267334e-01 -1.179147437214851379e-01 1.405689120292663574e-01 -3.200042759999632835e-03 -1.232675686478614807e-01 -1.191956475377082825e-01 2.516388520598411560e-02 7.435826957225799561e-02 2.422347292304039001e-02 1.339533478021621704e-01 6.131634488701820374e-02 7.600799947977066040e-02 1.432771831750869751e-01 -1.331610381603240967e-01 6.444298475980758667e-02 5.594469234347343445e-02 1.412878632545471191e-01 5.980293452739715576e-02
-5.060085281729698181e-02 1.018962636590003967e-01 -1.177290081977844238e-02 1.262333244085311890e-01 -6.251206994056701660e-02 4.206986352801322937e-02 -2.002973342314362526e-03 -6.466411799192428589e-02 1.285123974084854126e-01 -2.958779688924551010e-03 1.153428778052330017e-01 -1.012916192412376404e-01 5.548552051186561584e-02 8.497916907072067261e-02 1.339705009013414383e-02 -5.175540968775749207e-02 -7.149833440780639648e-02 8.866848796606063843e-02 2.081914618611335754e-02 1.302061080932617188e-01 6.644427194260060787e-04 -1.381379812955856323e-01 -9.964261949062347412e-02 5.883873626589775085e-02 1.272183060646057129e-01 -6.745991855859756470e-02 1.447714865207672119e-02 7.242457568645477295e-02 -8.368602395057678223e-02 -1.023178026080131531e-01 9.162015467882156372e-02 -1.014068275690078735e-01 -3.589489310979843140e-02 -1.042237728834152222e-01 -5.065948888659477234e-02 -3.687028214335441589e-02 -1.038436144590377808e-01 -6.080055236816406250e-02 -4.014611989259719849e-02 1.713654771447181702e-02 1.016891673207283020e-01 -9.271724522113800049e-02 -1.084779724478721619e-01 -2.522183815017342567e-03 7.241077721118927002e-02 2.355945855379104614e-02 1.123177483677864075e-01 -8.310021949000656605e-04 7.017310708761215210e-02 -5.334206391125917435e-03 -3.689113305881619453e-03 -8.892047405242919922e-02 1.211319193243980408e-01 1.432068347930908203e-01 9.839126467704772949e-02 1.023436337709426880e-01 -1.056670770049095154e-01 -9.080722928047180176e-02 9.149366617202758789e-02 8.435681462287902832e-02 1.189253628253936768e-01 -1.172524169087409973e-01 1.385270804166793823e-01 6.672538071870803833e-02
4.894370958209037781e-02 -3.883781284093856812e-02 1.360406726598739624e-01 -1.299583911895751953e-01 1.170393005013465881e-01 -3.578838333487510681e-02 5.777620896697044373e-02 -2.941745147109031677e-02 -1.259976625442504883e-01 1.205785423517227173e-01 2.552461111918091774e-03 3.236175328493118286e-02 -9.052979201078414917e-02 6.226763874292373657e-02 7.888017594814300537e-02 -9.858006238937377930e-02 4.497029259800910950e-02 4.154333844780921936e-03 7.620400190353393555e-02 -3.153435885906219482e-02 9.440757334232330322e-02 -6.012278422713279724e-02 8.125308901071548462e-02 8.658335357904434204e-02 3.771565482020378113e-02 6.923458725214004517e-02 -7.518456876277923584e-02 9.497631341218948364e-03 5.710295960307121277e-02 1.307318955659866333e-01 -4.587615653872489929e-02 5.362216010689735413e-02 -4.554436542093753815e-03 -1.125260666012763977e-01 7.515444606542587280e-02 8.222701400518417358e-02 -8.380825072526931763e-02 1.786620728671550751e-02 1.398646086454391479e-01 -7.384542375802993774e-02 2.613284811377525330e-02 6.614774465560913086e-02 1.889255642890930176e-02 -5.241459608078002930e-02 -9.061224758625030518e-02 -4.131192341446876526e-02 -7.892592251300811768e-02 -1.420851945877075195e-01 8.543523401021957397e-02 1.039751619100570679e-01 6.358134746551513672e-02 -6.102788075804710388e-02 8.950391411781311035e-02 7.906512171030044556e-02 -6.136605516076087952e-02 5.120709910988807678e-02 1.360888332128524780e-01 -1.263098269701004028e-01 4.855235666036605835e-02 7.583798468112945557e-02 3.694765642285346985e-02 9.365557879209518433e-02 -1.045674905180931091e-01 -1.277760509401559830e-02
2.706046774983406067e-02 6.022924557328224182e-02 -1.381066441535949707e-01 -7.221664767712354660e-03 1.152158230543136597e-01 3.658775612711906433e-02 4.461446776986122131e-02 4.276919364929199219e-02 -1.121300607919692993e-01 1.557517424225807190e-02 6.923902779817581177e-02 -3.315332904458045959e-02 5.964409932494163513e-02 5.714434385299682617e-02 1.035932824015617371e-01 8.097267895936965942e-02 -5.247048288583755493e-02 -1.130471155047416687e-01 -1.358928233385086060e-01 1.307998895645141602e-01 -1.171886250376701355e-01 1.178520824760198593e-02 1.291067991405725479e-02 5.754429101943969727e-02 -1.131343618035316467e-01 1.006214395165443420e-01 1.883796602487564087e-02 9.311641007661819458e-02 9.289739280939102173e-02 -3.125584498047828674e-02 -7.539487630128860474e-02 7.963039726018905640e-02 -9.986686520278453827e-03 6.896075606346130371e-02 -1.581380516290664673e-02 -1.412257999181747437e-01 8.992656320333480835e-02 2.913355454802513123e-02 -4.418026655912399292e-02 1.104994565248489380e-01 1.022555083036422729e-01 -1.837394386529922485e-02 -1.014181673526763916e-01 5.201446637511253357e-02 1.095887199044227600e-01 -1.393999755382537842e-01 5.002298578619956970e-02 -3.829462220892310143e-03 -6.891695410013198853e-02 8.530180156230926514e-02 3.508684411644935608e-02 5.871418491005897522e-02 1.372610777616500854e-01 3.690805658698081970e-02 1.405356917530298233e-02 -6.083112582564353943e-02 1.222172472625970840e-02 2.950758859515190125e-02 -7.676821202039718628e-02 4.308563470840454102e-02 -7.759964466094970703e-02 -1.336707640439271927e-02 -5.474962294101715088e-02 1.112389937043190002e-02
1.103316098451614380e-01 -9.464254230260848999e-02 1.027813460677862167e-02 -1.028441935777664185e-01 -3.371528908610343933e-02 -9.454326704144477844e-03 6.716507673263549805e-02 -6.585137546062469482e-02 1.307674050331115723e-01 8.182645775377750397e-03 -1.223446503281593323e-01 3.174434229731559753e-02 -1.635157677810639143e-04 -4.385440796613693237e-02 1.094506680965423584e-01 1.321441978216171265e-01 -1.225086674094200134e-01 4.503657110035419464e-03 -1.224333867430686951e-01 -1.364916861057281494e-01 7.688841968774795532e-02 -8.859987556934356689e-02 -2.647931873798370361e-02 -8.530137687921524048e-02 9.548339247703552246e-02 4.853435605764389038e-02 -9.495715051889419556e-02 -2.069644071161746979e-02 -1.252850592136383057e-01 9.803447872400283813e-02 -1.874497160315513611e-02 7.815387099981307983e-02 1.194095090031623840e-01 4.690852481871843338e-03 1.154983118176460266e-01 6.384514272212982178e-02 -1.210705488920211792e-01 -2.607667259871959686e-02 -5.784359574317932129e-02 -1.102750748395919800e-01 -7.970821112394332886e-02 -3.241200745105743408e-02 1.129936575889587402e-01 -7.492233067750930786e-02 -7.872986793518066406e-02 1.319282203912734985e-01 1.293813586235046387e-01 -1.239397451281547546e-01 5.499351769685745239e-02 8.583954535424709320e-03 3.711221739649772644e-02 -1.424141228199005127e-01 -7.849758118391036987e-02 8.485013246536254883e-02 -7.363525032997131348e-02 6.604595482349395752e-02 6.737658753991127014e-03 -1.110496893525123596e-01 -9.232102334499359131e-02 -1.555358711630105972e-02 4.697134718298912048e-02 2.773778513073921204e-02 -9.171622805297374725e-03 6.298434734344482422e-02
1.291609108448028564e-01 -1.119430065155029297e-01 8.476774394512176514e-02 1.543701812624931335e-02 -1.228603422641754150e-01 -1.397509723901748657e-01 -1.203186884522438049e-01 1.054482460021972656e-01 -5.318187922239303589e-02 2.020050212740898132e-02 -5.193821340799331665e-02 -1.218322589993476868e-01 -3.362484276294708252e-02 -1.228536479175090790e-02 -8.246230334043502808e-02 4.403299093246459961e-02 -8.620151318609714508e-03 -1.091386750340461731e-01 9.663812071084976196e-02 5.654068291187286377e-02 1.415349841117858887e-01 -5.657276138663291931e-02 -4.200524464249610901e-02 1.315296441316604614e-01 -7.847623527050018311e-02 4.640590399503707886e-02 -6.921243667602539062e-02 2.207244932651519775e-02 -1.196934469044208527e-02 -1.376563012599945068e-01 7.850952446460723877e-02 1.384070664644241333e-01 6.091020256280899048e-02 -8.734169602394104004e-02 7.293134927749633789e-02 -1.021780595183372498e-01 8.573254197835922241e-02 -7.804527133703231812e-02 9.600205719470977783e-02 6.010803952813148499e-02 -9.446038305759429932e-02 -1.167298760265111923e-02 2.178369322791695595e-03 8.660984784364700317e-02 -7.435830682516098022e-02 8.868633210659027100e-02 5.943780392408370972e-02 -4.627821594476699829e-02 1.212797015905380249e-01 -7.587793469429016113e-02 5.193878710269927979e-02 -1.213527321815490723e-01 -2.760795876383781433e-02 4.877025634050369263e-02 -1.034158188849687576e-02 2.753060124814510345e-02 5.114748608320951462e-03 -1.042248979210853577e-01 -9.163323789834976196e-02 9.079136699438095093e-02 9.779649227857589722e-02 1.323634684085845947e-01 -8.550962060689926147e-02 -1.431808173656463623e-01
5.590953677892684937e-02 4.783484339714050293e-02 -1.128776371479034424e-01 -7.391541451215744019e-02 6.252742558717727661e-02 -4.128485918045043945e-02 -1.389126032590866089e-01 -6.578436121344566345e-03 1.428309231996536255e-01 -4.460422322154045105e-02 9.154333919286727905e-02 -1.631371863186359406e-02 3.771069645881652832e-02 -5.120235309004783630e-02 4.461827501654624939e-02 4.979826137423515320e-02 6.683120876550674438e-02 9.826253354549407959e-02 -8.693957328796386719e-02 1.163859218358993530e-01 1.243392452597618103e-01 1.091726720333099365e-01 6.511126458644866943e-02 1.157558523118495941e-02 -1.136543676257133484e-01 4.954959824681282043e-02 7.307802885770797729e-02 3.787451609969139099e-02 9.547145664691925049e-02 -1.551486551761627197e-02 6.571020185947418213e-02 1.393938213586807251e-01 -8.831810951232910156e-02 1.119735166430473328e-01 -4.954887926578521729e-02 3.447963297367095947e-02 1.003816071897745132e-02 -1.428693234920501709e-01 -1.017373502254486084e-01 -5.142560228705406189e-02 1.272176206111907959e-01 -2.535058371722698212e-02 -1.284354776144027710e-01 -1.187116503715515137e-01 2.090248279273509979e-02 9.340083599090576172e-02 -3.262913972139358521e-02 -4.450801759958267212e-02 -5.070024356245994568e-02 1.151200681924819946e-01 -1.647415198385715485e-02 1.016991436481475830e-01 1.074938029050827026e-01 1.955709420144557953e-02 -6.597592681646347046e-02 -7.508389651775360107e-02 1.434660255908966064e-01 6.871034204959869385e-02 -5.568437278270721436e-02 -5.455372855067253113e-02 1.268594712018966675e-01 -1.245831325650215149e-01 -2.446555532515048981e-02 5.688294395804405212e-02
1.369461566209793091e-01 2.689056098461151123e-03 1.089664846658706665e-01 1.009086892008781433e-01 -9.768763184547424316e-02 7.960185408592224121e-02 1.047642156481742859e-01 1.141005679965019226e-01 1.232659220695495605e-01 9.996783733367919922e-02 1.495130732655525208e-02 -1.260993778705596924e-01 -1.353010088205337524e-01 5.867610126733779907e-02 -1.181490868330001831e-01 -4.704345762729644775e-02 -1.762663014233112335e-02 1.215804740786552429e-01 5.557261407375335693e-02 1.228949576616287231e-01 -8.031068742275238037e-02 -8.203534781932830811e-02 -3.908810764551162720e-02 3.171222284436225891e-02 7.773397117853164673e-02 -3.150142356753349304e-02 1.031502056866884232e-02 -9.926377236843109131e-02 -1.312655508518218994e-01 3.195569664239883423e-02 -4.848746210336685181e-02 1.266128569841384888e-01 -9.437566995620727539e-02 6.167630106210708618e-02 -7.823514193296432495e-02 1.381323039531707764e-01 -9.984637796878814697e-02 -8.059071004390716553e-02 4.181922972202301025e-02 -1.039187237620353699e-01 1.123416200280189514e-01 -1.428449898958206177e-01 -5.009100213646888733e-02 1.266355216503143311e-01 -4.709103330969810486e-02 -1.949759013950824738e-02 -4.329701885581016541e-03 1.335982084274291992e-01 -1.176352575421333313e-01 -1.472531165927648544e-02 9.408834576606750488e-02 -1.028936207294464111e-01 9.910565614700317383e-02 1.238601803779602051e-01 1.420447975397109985e-01 -1.775772310793399811e-02 -4.117106553167104721e-03 9.721832722425460815e-02 6.678359210491180420e-02 9.462568163871765137e-02 7.243505120277404785e-02 -5.704516172409057617e-02 -2.826134674251079559e-02 -1.703114435076713562e-02
-9.936430305242538452e-02 -7.444749586284160614e-03 -3.117184340953826904e-02 7.021203637123107910e-02 -3.584130108356475830e-02 -3.153004124760627747e-02 -5.122598260641098022e-02 1.418744027614593506e-01 1.697591971606016159e-03 -1.047635264694690704e-02 -6.195743009448051453e-02 2.876475825905799866e-02 9.111418575048446655e-02 5.252867005765438080e-03 8.651959896087646484e-02 -3.486813604831695557e-02 1.122370809316635132e-01 9.490191191434860229e-02 -3.994897380471229553e-02 5.258243530988693237e-02 6.372504681348800659e-02 -6.644491851329803467e-02 8.546234667301177979e-02 8.668638020753860474e-02 -1.319229006767272949e-01 2.069721557199954987e-02 1.139348596334457397e-01 -1.115535125136375427e-01 -1.209800392389297485e-01 -8.185437321662902832e-02 1.395815163850784302e-01 1.256138086318969727e-02 6.096922326833009720e-03 -4.541110992431640625e-02 1.195512339472770691e-01 1.103369966149330139e-01 -1.255110949277877808e-01 -1.266566365957260132e-01 -1.117664128541946411e-01 3.944104537367820740e-02 6.559015810489654541e-02 4.967217799276113510e-03 -8.573697507381439209e-02 -8.792274445295333862e-02 -3.617223817855119705e-03 4.949017614126205444e-02 -3.195503354072570801e-02 -1.002493500709533691e-01 1.029933840036392212e-01 3.058895282447338104e-02 8.959937986219301820e-05 -1.108456179499626160e-01 -6.708503514528274536e-02 -1.283248364925384521e-01 4.849120043218135834e-03 -8.368109166622161865e-02 -6.586998701095581055e-02 4.923497885465621948e-02 -8.579109609127044678e-02 -5.281586572527885437e-02 1.034957170486450195e-01 -1.433618962764739990e-01 -9.836111217737197876e-02 -1.084949746727943420e-01
-1.425168961286544800e-01 1.103425845503807068e-01 1.280217468738555908e-01 1.181007027626037598e-01 -1.032755076885223389e-01 -8.677144348621368408e-02 -1.019371598958969116e-01 -6.877611577510833740e-02 9.298477321863174438e-03 3.115208446979522705e-02 3.442517295479774475e-02 -5.457772314548492432e-02 9.941838681697845459e-02 3.486402332782745361e-02 9.557046927511692047e-03 8.620006591081619263e-02 1.090069860219955444e-01 -1.011401861906051636e-01 6.537629663944244385e-02 -2.921278402209281921e-02 -1.162339374423027039e-01 -5.444110371172428131e-03 5.059177428483963013e-02 8.579734712839126587e-02 -9.847465902566909790e-02 -1.438179798424243927e-02 1.354523599147796631e-01 -8.965609967708587646e-02 -7.886099815368652344e-02 -4.306273162364959717e-02 1.422020494937896729e-01 5.689403414726257324e-02 -7.472591847181320190e-02 7.975710928440093994e-02 -7.767271250486373901e-02 -1.364524960517883301e-01 -3.707017749547958374e-02 -1.225555092096328735e-01 -4.024159535765647888e-02 3.640004992485046387e-02 9.575628489255905151e-02 1.029545161873102188e-02 -7.347905635833740234e-02 -8.162364363670349121e-02 -8.081807196140289307e-02 -4.624818265438079834e-02 -1.268566548824310303e-01 -5.715165287256240845e-02 1.029639989137649536e-01 1.246237605810165405e-01 -1.324087381362915039e-01 9.309262782335281372e-02 -1.434285342693328857e-01 -2.700804034247994423e-03 -9.659121930599212646e-02 1.014382913708686829e-01 -1.373892277479171753e-01 -1.202755868434906006e-01 -8.495526015758514404e-02 1.241837143898010254e-01 -9.006894379854202271e-02 2.116448711603879929e-03 1.415932327508926392e-01 -1.412570178508758545e-01
1.407232414931058884e-02 1.293281316757202148e-01 7.544227689504623413e-02 -9.351280331611633301e-02 -6.830548495054244995e-02 1.384196132421493530e-01 1.258006244897842407e-01 -6.823400501161813736e-03 -6.188033893704414368e-02 1.238030716776847839e-01 -1.354278028011322021e-01 -1.037515886127948761e-02 -8.403809741139411926e-03 -5.779880285263061523e-02 -4.750384762883186340e-02 -6.040922924876213074e-02 -3.973217681050300598e-03 -9.837873280048370361e-02 -7.724273949861526489e-02 -5.969067569822072983e-03 4.777722060680389404e-02 7.543519884347915649e-02 -2.933309227228164673e-02 -6.431843340396881104e-02 -1.149214133620262146e-01 9.697590023279190063e-02 -1.048821806907653809e-01 5.978470295667648315e-02 6.140608340501785278e-02 -3.071397356688976288e-02 2.771863155066967010e-02 -3.054043836891651154e-02 1.209682300686836243e-01 -6.690718233585357666e-02 -6.531816720962524414e-02 8.709968999028205872e-03 -1.319864988327026367e-01 -1.963200792670249939e-02 7.799163460731506348e-02 4.534473642706871033e-02 -2.945824898779392242e-02 3.224670514464378357e-02 5.564786121249198914e-02 9.115400910377502441e-02 -9.058050066232681274e-02 5.512753129005432129e-02 -3.101602895185351372e-03 7.636658847332000732e-02 9.781491011381149292e-02 -1.081781089305877686e-01 8.761096745729446411e-02 -1.263363659381866455e-02 -2.701351791620254517e-02 -4.266995191574096680e-02 -3.563780710101127625e-02 8.367466926574707031e-02 1.314124315977096558e-01 -1.305611729621887207e-01 5.188504979014396667e-02 8.188910037279129028e-02 -4.123958945274353027e-02 1.111294608563184738e-02 -5.734082683920860291e-02 -1.231759116053581238e-01
-1.998947933316230774e-02 4.980732873082160950e-02 7.594975084066390991e-02 6.629583239555358887e-02 -8.659242093563079834e-02 -4.070398584008216858e-02 -2.155922912061214447e-02 3.744720667600631714e-02 1.411898881196975708e-01 7.730846107006072998e-02 -1.387882530689239502e-01 4.433184117078781128e-02 -9.106338769197463989e-02 -5.065191537141799927e-02 4.699916020035743713e-02 6.047834176570177078e-03 9.856913983821868896e-02 3.569923713803291321e-02 9.953977912664413452e-02 -1.338282376527786255e-01 7.562106102705001831e-02 5.291167274117469788e-02 1.146025881171226501e-01 -4.259423166513442993e-02 -4.205472767353057861e-02 -4.671377688646316528e-02 1.245581805706024170e-01 -1.147968545556068420e-01 5.749545618891716003e-02 -1.349363774061203003e-01 -1.170441135764122009e-01 3.591017797589302063e-02 3.483173996210098267e-02 -9.860730171203613281e-02 -1.345559209585189819e-01 6.040509790182113647e-02 3.893727809190750122e-02 -2.852711081504821777e-02 1.384854018688201904e-01 -5.598339810967445374e-02 4.446065053343772888e-02 4.522674903273582458e-02 1.000393033027648926e-01 -3.539477661252021790e-02 9.448413550853729248e-02 2.606998756527900696e-02 -3.294445946812629700e-02 -9.717994183301925659e-02 6.718937307596206665e-02 -1.425912529230117798e-01 6.798844039440155029e-02 -1.112684682011604309e-01 1.404317021369934082e-01 9.847069531679153442e-02 6.952452659606933594e-02 -1.000740565359592438e-02 1.063263043761253357e-01 3.346069529652595520e-02 1.155290305614471436e-01 8.076267689466476440e-02 -1.086512431502342224e-01 5.086375400424003601e-03 -1.183917224407196045e-01 8.144965022802352905e-02
9.698265790939331055e-02 1.038032025098800659e-01 4.581556469202041626e-02 1.110614612698554993e-01 -1.202329099178314209e-01 -1.141461953520774841e-01 1.319276988506317139e-01 -9.653548151254653931e-02 -1.413075476884841919e-01 -6.567277759313583374e-02 -1.198895946145057678e-01 1.531100552529096603e-02 7.566148042678833008e-02 1.112643778324127197e-01 -1.757483929395675659e-02 -4.451314359903335571e-02 -4.456357657909393311e-02 1.229275166988372803e-01 -3.130357712507247925e-02 -1.386067718267440796e-01 8.156844228506088257e-02 -9.269081801176071167e-02 6.422331929206848145e-02 1.960127055644989014e-02 -1.028057336807250977e-01 1.209258809685707092e-01 5.379661545157432556e-02 -2.938316436484456062e-03 -1.140946298837661743e-01 1.004493460059165955e-01 -7.862572371959686279e-02 3.660978004336357117e-02 1.186581924557685852e-01 -9.249310195446014404e-02 1.032669171690940857e-01 -4.075373522937297821e-03 2.431486267596483231e-03 -1.013448685407638550e-01 1.175497695803642273e-01 6.746669858694076538e-02 1.171959787607192993e-01 -4.821425303816795349e-02 3.266553580760955811e-02 -5.034248903393745422e-02 -2.474758960306644440e-02 1.315006911754608154e-01 -4.244400933384895325e-02 -9.605280309915542603e-02 7.585881650447845459e-02 8.775668591260910034e-02 1.084316149353981018e-01 3.267664462327957153e-02 -1.130144596099853516e-01 -1.089837700128555298e-01 -1.118400692939758301e-01 5.095448344945907593e-02 -1.393988132476806641e-01 4.917369689792394638e-03 -1.206887513399124146e-02 1.298152208328247070e-01 -2.224321290850639343e-02 9.656582027673721313e-02 4.869169741868972778e-02 1.166994199156761169e-01
-6.182953342795372009e-02 -8.433872461318969727e-02 -1.165474131703376770e-01 1.950566470623016357e-02 1.381477899849414825e-02 -7.661499828100204468e-02 -9.902151674032211304e-02 1.434079259634017944e-01 7.228011637926101685e-02 -7.908010482788085938e-02 8.346986025571823120e-02 1.001109555363655090e-01 3.357374668121337891e-02 -1.348551362752914429e-01 -1.367507725954055786e-01 -7.645909488201141357e-02 3.770804405212402344e-02 -6.511726975440979004e-02 1.426138281822204590e-01 -1.242898330092430115e-01 5.579997226595878601e-02 -7.756623625755310059e-02 1.106176152825355530e-01 8.930739946663379669e-03 -6.075472757220268250e-02 1.179676353931427002e-01 -4.193078726530075073e-02 -2.590696699917316437e-02 7.764709740877151489e-02 -4.812774434685707092e-02 3.545666858553886414e-02 5.218390375375747681e-02 1.101917102932929993e-01 -7.904995232820510864e-02 1.301463395357131958e-01 7.699392735958099365e-03 -3.507056087255477905e-02 7.843362540006637573e-02 -1.859237998723983765e-02 1.047217920422554016e-01 -1.215118244290351868e-01 -2.754686400294303894e-02 -2.172867767512798309e-02 -4.036557674407958984e-02 8.207016438245773315e-02 -1.037356108427047729e-01 -8.610045909881591797e-02 1.079469174146652222e-01 -9.756436944007873535e-02 -1.364233791828155518e-01 8.400115184485912323e-04 -1.213278155773878098e-02 -1.344498544931411743e-01 9.734422713518142700e-02 -1.074975589290261269e-03 1.277972245588898659e-03 6.362718343734741211e-02 6.607734411954879761e-02 8.234495669603347778e-02 -1.281342059373855591e-01 1.322503834962844849e-01 5.906745791435241699e-02 6.289568543434143066e-02 -6.348226219415664673e-02
5.609608255326747894e-03 -9.497848339378833771e-03 1.251313555985689163e-02 7.612103223800659180e-02 1.431593745946884155e-01 7.720759510993957520e-02 -1.481942646205425262e-02 1.413956135511398315e-01 8.548176847398281097e-03 9.269602596759796143e-02 -8.606038242578506470e-02 6.302606314420700073e-02 3.399777226150035858e-03 -1.220029667019844055e-01 7.721795141696929932e-02 7.668153196573257446e-02 1.111186221241950989e-01 1.227762363851070404e-02 -7.291093468666076660e-02 -1.373285204172134399e-01 1.339776515960693359e-01 -1.369770914316177368e-01 7.206925004720687866e-02 1.759370602667331696e-02 -3.772315382957458496e-02 -8.193058520555496216e-02 -5.455591529607772827e-02 2.548344805836677551e-02 1.026745513081550598e-01 -1.345320194959640503e-01 -1.199644654989242554e-01 -1.124740540981292725e-01 -5.546904727816581726e-02 -1.115121245384216309e-01 1.256425827741622925e-01 5.930192396044731140e-02 -4.670485481619834900e-02 -5.028963088989257812e-02 -9.530103206634521484e-02 -4.175222665071487427e-02 -2.764312177896499634e-02 -1.047328561544418335e-01 6.440790742635726929e-02 1.000737771391868591e-01 -6.207550689578056335e-02 6.959166377782821655e-02 -7.616385817527770996e-02 1.264063268899917603e-01 2.446308732032775879e-02 -1.636507734656333923e-02 -6.435661017894744873e-02 2.055177837610244751e-02 7.282099127769470215e-02 4.644618555903434753e-02 -9.586645662784576416e-02 -4.913330450654029846e-02 -1.048524025827646255e-02 1.174993515014648438e-01 5.651112273335456848e-02 -6.838203221559524536e-02 1.023983880877494812e-01 -5.877565965056419373e-02 -6.979335844516754150e-02 1.400849521160125732e-01
-2.838943386450409889e-03 -1.190656274557113647e-01 -1.349804252386093140e-01 1.121590062975883484e-01 1.009429097175598145e-01 -5.631688237190246582e-02 1.032142713665962219e-02 3.332528099417686462e-02 1.288358420133590698e-01 3.170881047844886780e-02 -1.259728074073791504e-01 7.430287450551986694e-02 1.313121914863586426e-01 -7.676635682582855225e-02 6.153294444084167480e-02 -8.270581811666488647e-02 1.345405578613281250e-01 -5.011692643165588379e-02 1.187510862946510315e-01 9.572859108448028564e-02 4.596609622240066528e-02 -1.265245079994201660e-01 -1.625300943851470947e-02 6.436857581138610840e-02 3.014547005295753479e-02 4.376694932579994202e-02 -1.083528473973274231e-01 2.984283864498138428e-02 -9.973903186619281769e-03 5.365847609937191010e-03 -1.157280355691909790e-01 1.286181062459945679e-01 2.124264574376866221e-04 -1.221838667988777161e-01 5.484195426106452942e-03 -9.086244553327560425e-02 -6.091066077351570129e-02 5.230506882071495056e-02 1.264072209596633911e-01 2.951765432953834534e-02 -1.159024536609649658e-01 1.967077329754829407e-02 -1.386384665966033936e-01 1.523143891245126724e-02 -3.465171903371810913e-03 -9.783702343702316284e-02 1.251167654991149902e-01 -3.899990022182464600e-02 1.071378663182258606e-01 1.096727177500724792e-01 1.246587932109832764e-02 -1.009017452597618103e-01 7.460536807775497437e-02 -6.464553624391555786e-02 6.146318744868040085e-03 2.790721319615840912e-02 4.937982559204101562e-02 -1.015580147504806519e-01 -1.178983300924301147e-01 -1.156767234206199646e-01 -8.945232629776000977e-02 1.929053178173489869e-05 1.186216026544570923e-01 -8.517584204673767090e-02
1.063346788287162781e-01 1.548432838171720505e-02 1.061011925339698792e-01 6.172031629830598831e-03 -1.541567593812942505e-02 1.970397680997848511e-02 -4.415459185838699341e-02 4.643825069069862366e-02 9.314500540494918823e-02 1.114208176732063293e-01 -7.035912573337554932e-02 -8.357279002666473389e-02 -1.423852890729904175e-01 4.104243591427803040e-02 -3.217226266860961914e-02 1.365328133106231689e-01 -3.731039911508560181e-02 1.413322240114212036e-01 -6.779664754867553711e-02 -4.167314991354942322e-02 9.526146948337554932e-02 9.733070433139801025e-02 -7.566818594932556152e-02 3.507695347070693970e-02 -9.269339591264724731e-02 9.309141337871551514e-02 -1.365695595741271973e-01 -1.102868393063545227e-01 -1.487432140856981277e-02 -8.894665539264678955e-02 -5.952882766723632812e-02 3.915038704872131348e-02 5.149807780981063843e-02 -3.378071263432502747e-02 -1.031864732503890991e-01 -7.143889367580413818e-02 -1.055150665342807770e-02 4.922467633150517941e-05 -1.191755011677742004e-01 9.813895821571350098e-02 4.618093743920326233e-02 1.296928077936172485e-01 8.196084201335906982e-02 -1.296426206827163696e-01 -2.328060939908027649e-02 -9.512837976217269897e-02 -2.156207803636789322e-03 -1.228324994444847107e-01 -1.157843247056007385e-01 -2.628685720264911652e-02 -6.542380899190902710e-02 -7.126206904649734497e-02 1.093713939189910889e-01 6.870987266302108765e-02 -1.011073142290115356e-01 -1.427406370639801025e-01 -1.006102114915847778e-01 1.372571587562561035e-01 8.032658696174621582e-02 1.113102585077285767e-01 -1.323044449090957642e-01 -3.523063287138938904e-02 -4.171006754040718079e-02 -1.748063042759895325e-02
