-1.295404583215713501e-01
5.949173569679260254e-01
7.303547263145446777e-01
-1.073477342724800110e-01
-1.184850633144378662e-01
7.637377381324768066e-01
7.739289999008178711e-01
7.617700099945068359e-01
7.591767907142639160e-01
-7.897809743881225586e-01
2.489916980266571045e-02
-1.164430975914001465e-01
7.614815235137939453e-01
-7.875543236732482910e-01
2.395128905773162842e-01
7.708444595336914062e-01
5.279603600502014160e-01
7.102171778678894043e-01
7.424201369285583496e-01
7.636851072311401367e-01
7.524583339691162109e-01
-1.160771399736404419e-01
3.203608095645904541e-01
-9.534501284360885620e-02
7.649961113929748535e-01
7.486784458160400391e-01
7.324212193489074707e-01
-8.758915960788726807e-02
-5.934198200702667236e-02
-1.164938434958457947e-01
-6.811829656362533569e-02
-1.136030182242393494e-01
-7.888786792755126953e-01
-7.862522006034851074e-01
-1.180241852998733521e-01
7.621778845787048340e-01
-1.114200279116630554e-01
7.535753846168518066e-01
7.171899676322937012e-01
-7.881091237068176270e-01
-1.076471209526062012e-01
7.677742838859558105e-01
6.641551256179809570e-01
-8.065953850746154785e-02
-7.835503816604614258e-01
-7.904168367385864258e-01
7.679550647735595703e-01
-5.784101784229278564e-02
-7.903487682342529297e-01
-1.004247516393661499e-01
-3.717850893735885620e-02
-7.844509482383728027e-01
-1.036555394530296326e-01
-7.893517613410949707e-01
-8.791096508502960205e-02
4.709479212760925293e-01
-1.220682635903358459e-01
7.302790880203247070e-01
-1.077328771352767944e-01
7.346404790878295898e-01
7.685514092445373535e-01
7.841594815254211426e-01
7.622811794281005859e-01
6.994488239288330078e-01
