2.534782141447067261e-02 2.204513736069202423e-02 8.265663683414459229e-02 -1.173899248242378235e-01 4.264346510171890259e-02 9.046839922666549683e-02 -1.123657748103141785e-01 1.062018275260925293e-01 5.182179436087608337e-02 1.070214435458183289e-01 3.511805087327957153e-02 -1.051356829702854156e-02 -6.090874969959259033e-02 1.435948610305786133e-01 4.592469334602355957e-02 5.584771558642387390e-02 4.970062989741563797e-03 -1.236834377050399780e-01 -1.432974487543106079e-01 -1.525626168586313725e-03 -1.556519120931625366e-01 -5.168789252638816833e-02 3.480609133839607239e-02 4.488030448555946350e-02 -9.263360872864723206e-03 7.614608108997344971e-02 8.695646375417709351e-02 1.278703473508358002e-02 9.309541434049606323e-02 -1.610779911279678345e-01 -1.473954766988754272e-01 -6.892446428537368774e-02 1.584231108427047729e-01 -2.066001296043395996e-02 -6.705372780561447144e-02 -7.734339684247970581e-02 5.281211435794830322e-02 -1.597238332033157349e-01 6.773845851421356201e-02 9.328246861696243286e-02 6.096594408154487610e-02 2.579943276941776276e-02 -1.120623722672462463e-01 -5.282072350382804871e-02 1.852186918258666992e-01 1.912714168429374695e-02 -3.589302301406860352e-02 1.174038797616958618e-01 4.609606415033340454e-02 -1.442961096763610840e-01 -7.570278644561767578e-02 2.107943035662174225e-02 6.265650689601898193e-02 2.232756465673446655e-01 -6.504742801189422607e-02 -7.764746248722076416e-02 -1.384110562503337860e-02 -9.183228760957717896e-02 -1.719649583101272583e-01 -8.987182378768920898e-02 -1.412424594163894653e-01 -1.485227197408676147e-01 1.579846069216728210e-02 -2.057479321956634521e-02
-1.116019412875175476e-01 -1.421331465244293213e-01 -1.123529300093650818e-02 -1.269677728414535522e-01 -1.178809776902198792e-01 1.127305030822753906e-01 4.245796799659729004e-02 -1.978714764118194580e-01 1.842211931943893433e-02 1.099580824375152588e-01 -3.865703241899609566e-03 4.720075428485870361e-02 -1.314849406480789185e-01 1.462181061506271362e-01 1.396637177094817162e-03 -9.869819134473800659e-02 8.293401449918746948e-03 -8.226528763771057129e-03 1.015564575791358948e-01 -4.049691185355186462e-02 1.244017407298088074e-01 4.727563634514808655e-02 2.623463224153965712e-04 -1.421952545642852783e-01 1.787654124200344086e-02 3.290418907999992371e-02 5.827844142913818359e-02 -1.947700232267379761e-02 -5.536638572812080383e-02 3.465027362108230591e-02 -9.915433079004287720e-02 -5.267677828669548035e-02 -3.876180201768875122e-02 -1.562863960862159729e-02 4.068174585700035095e-02 -3.517384454607963562e-02 -9.903220832347869873e-02 -4.207888990640640259e-02 -7.354177534580230713e-02 -3.809775691479444504e-03 -1.230849996209144592e-01 -1.745064258575439453e-01 2.295765094459056854e-02 -1.563482433557510376e-01 2.140747904777526855e-01 3.943708539009094238e-02 2.690209308639168739e-03 -3.774856403470039368e-02 -2.821205928921699524e-02 -9.200727939605712891e-02 -3.381225839257240295e-02 1.285912096500396729e-01 -1.698332726955413818e-01 1.376836895942687988e-01 6.958346068859100342e-02 9.384420700371265411e-03 -4.295820742845535278e-02 2.661503478884696960e-02 -9.715654887259006500e-03 -1.415658593177795410e-01 -7.479695230722427368e-02 -5.482391640543937683e-02 -9.674600511789321899e-02 -1.182281449437141418e-01
2.460906282067298889e-02 -1.257855296134948730e-01 8.175319433212280273e-02 -1.145188212394714355e-01 4.370133206248283386e-02 -7.022579014301300049e-02 -1.436591893434524536e-01 8.299421519041061401e-02 -4.455097392201423645e-02 -1.080003008246421814e-02 3.558302298188209534e-02 2.603399567306041718e-02 7.273963838815689087e-02 -3.729333356022834778e-02 1.522680670022964478e-01 -8.914154022932052612e-03 -3.997124359011650085e-02 6.812486052513122559e-02 -9.434720873832702637e-02 -1.496462225914001465e-01 -1.360961794853210449e-01 1.428838539868593216e-02 -8.749073743820190430e-02 3.785385936498641968e-02 -1.151098981499671936e-01 -1.470292359590530396e-01 -7.690186798572540283e-02 -1.402974035590887070e-02 -6.698805093765258789e-02 7.368398457765579224e-02 -6.885840743780136108e-02 -7.116544246673583984e-02 1.460729986429214478e-01 -5.838991329073905945e-02 -1.716865003108978271e-01 1.415860801935195923e-01 -3.603399917483329773e-02 -1.320030074566602707e-02 -1.568432450294494629e-01 9.516902267932891846e-02 -1.495856046676635742e-01 5.827591568231582642e-02 -7.791598141193389893e-02 -1.509129405021667480e-01 -6.007109582424163818e-02 -3.142751380801200867e-02 -1.068363934755325317e-01 6.877084821462631226e-02 7.006451487541198730e-02 -4.439266398549079895e-02 8.215256780385971069e-02 -7.122597657144069672e-03 4.695859737694263458e-03 -5.847949534654617310e-02 -1.391279846429824829e-01 -8.827791363000869751e-02 -5.427974835038185120e-02 3.369826450943946838e-02 2.944479323923587799e-02 8.521544933319091797e-02 -6.309054791927337646e-02 -9.808603674173355103e-02 8.507873117923736572e-02 1.566776782274246216e-01
2.368152374401688576e-03 -6.772308796644210815e-02 -4.499270021915435791e-02 -5.416750791482627392e-04 -1.420301944017410278e-02 -1.291448473930358887e-01 -3.171464661136269569e-03 -8.751492947340011597e-02 3.142770752310752869e-02 9.180031716823577881e-02 -1.263805925846099854e-01 8.750458247959613800e-03 -1.370540708303451538e-01 9.547458589076995850e-02 -1.301091536879539490e-02 -1.605993658304214478e-01 -8.292612433433532715e-02 1.247062087059020996e-01 6.662857532501220703e-02 -1.570732444524765015e-01 -1.550610661506652832e-01 -1.669203191995620728e-01 1.087364330887794495e-01 -1.463878303766250610e-01 -1.260150223970413208e-01 6.477183103561401367e-02 -6.072194874286651611e-02 -1.105538755655288696e-01 2.868924476206302643e-02 -1.506388932466506958e-01 -1.559272706508636475e-01 -1.012307628989219666e-01 1.582406312227249146e-01 7.607776671648025513e-02 -1.192534267902374268e-01 1.102554500102996826e-01 -1.486858427524566650e-01 8.045576512813568115e-02 1.260864362120628357e-02 -8.152726804837584496e-04 8.304505795240402222e-02 1.170092821121215820e-01 -9.501088410615921021e-02 -1.567718684673309326e-01 1.658425778150558472e-01 -1.543812267482280731e-02 8.832159638404846191e-02 -5.486489087343215942e-02 1.346973925828933716e-01 -7.309265434741973877e-02 5.740165710449218750e-02 -4.992014914751052856e-02 5.815621837973594666e-02 2.101527452468872070e-01 8.034310489892959595e-02 9.955452382564544678e-02 -4.659381508827209473e-02 3.782152384519577026e-02 -1.675942838191986084e-01 1.967102661728858948e-02 5.078308749943971634e-03 -2.539885975420475006e-02 -4.216574132442474365e-02 -2.851669304072856903e-02
9.379373863339424133e-03 6.090496852993965149e-02 -9.441151469945907593e-02 -1.555110067129135132e-01 1.787817664444446564e-02 -6.104243174195289612e-02 -1.718039661645889282e-01 7.871145755052566528e-02 -1.743835061788558960e-01 1.448808237910270691e-02 -5.826373770833015442e-02 -1.358467787504196167e-01 4.250553995370864868e-02 -1.048018261790275574e-01 -5.375747382640838623e-02 -1.063056737184524536e-01 6.758272647857666016e-02 -1.042379960417747498e-01 -5.271418392658233643e-02 -9.486474096775054932e-02 -7.672348618507385254e-02 -3.082757815718650818e-02 -4.446195065975189209e-02 -6.775119155645370483e-02 -8.226504921913146973e-02 1.421428024768829346e-01 -3.194681927561759949e-02 7.611614651978015900e-03 -1.358387917280197144e-01 -1.514493525028228760e-01 -5.438344925642013550e-02 -1.611669361591339111e-01 1.616196781396865845e-01 1.489056199789047241e-01 -6.878461223095655441e-03 3.501120954751968384e-03 7.196771353483200073e-02 -5.949530377984046936e-02 7.882071658968925476e-03 1.405568122863769531e-01 -1.180153805762529373e-03 -3.643622621893882751e-02 1.193260997533798218e-01 -1.509194374084472656e-01 1.211480200290679932e-01 -5.411916598677635193e-02 -5.591619759798049927e-02 8.303318917751312256e-02 1.825981289148330688e-01 -1.432553231716156006e-01 -1.828103139996528625e-02 1.036353036761283875e-01 -1.245647817850112915e-01 -7.550529390573501587e-02 -5.901924148201942444e-02 1.132922619581222534e-01 6.706085056066513062e-02 2.623957581818103790e-02 -7.245195657014846802e-02 4.150062333792448044e-03 2.296580234542489052e-03 1.107351854443550110e-01 3.986476734280586243e-02 -6.012600287795066833e-02
6.522544473409652710e-02 -1.017469242215156555e-01 -1.546181887388229370e-01 5.358168855309486389e-02 -5.177033692598342896e-02 -5.726223811507225037e-02 2.488192915916442871e-02 2.336535975337028503e-02 -3.268682211637496948e-02 6.904238462448120117e-02 4.511101171374320984e-02 -1.195034533739089966e-01 -4.834454134106636047e-02 1.841271072626113892e-01 3.088837489485740662e-02 2.647214755415916443e-02 4.087360575795173645e-02 -1.034248545765876770e-01 -1.366351693868637085e-01 1.114287599921226501e-01 -3.970447927713394165e-02 5.074852332472801208e-02 -6.796175241470336914e-02 -1.526188850402832031e-01 -5.047307908535003662e-02 1.399522125720977783e-01 -1.771550774574279785e-01 -4.811013489961624146e-02 4.230653867125511169e-02 4.399262368679046631e-02 -1.417409479618072510e-01 -1.351546049118041992e-01 3.580160811543464661e-02 1.416082531213760376e-01 -1.262953579425811768e-01 8.739660680294036865e-02 -2.126369066536426544e-02 3.616447001695632935e-02 6.277806311845779419e-02 5.985545367002487183e-02 8.486435748636722565e-03 -1.323027163743972778e-01 -6.404934823513031006e-02 -9.600230306386947632e-02 6.270887702703475952e-02 1.712116529233753681e-03 3.365406766533851624e-02 1.528828591108322144e-02 -2.392029017210006714e-02 6.237276270985603333e-02 -4.678855463862419128e-02 7.257768511772155762e-02 -1.558031737804412842e-01 5.934857949614524841e-02 -2.656140923500061035e-02 -2.515419945120811462e-02 -1.792967766523361206e-01 -1.222509369254112244e-01 -1.082809194922447205e-01 -1.744856089353561401e-01 3.998922556638717651e-02 5.494899675250053406e-02 -3.617630898952484131e-02 7.955294847488403320e-02
-1.208338048309087753e-02 1.842890866100788116e-02 -1.922550648450851440e-01 -1.221568733453750610e-01 6.167065352201461792e-02 2.437252551317214966e-02 6.428369134664535522e-02 1.170232445001602173e-01 -8.223507553339004517e-02 7.893528789281845093e-02 -1.233154833316802979e-01 8.587250858545303345e-02 8.834303170442581177e-02 1.152293384075164795e-01 -1.634473204612731934e-01 8.481241017580032349e-02 -8.152250200510025024e-02 8.577401936054229736e-02 -1.025283783674240112e-01 -4.288864135742187500e-02 -1.041714400053024292e-01 -7.717554271221160889e-02 -7.068166881799697876e-02 -1.080541536211967468e-01 7.087986171245574951e-02 -8.244606107473373413e-02 3.687412664294242859e-02 -1.507852375507354736e-01 1.008807569742202759e-01 -1.466245949268341064e-01 3.440252691507339478e-02 -7.009044289588928223e-02 1.899162530899047852e-01 3.631556779146194458e-02 -7.110066246241331100e-03 -1.059083193540573120e-01 -8.317199349403381348e-02 8.569260686635971069e-02 -1.709869951009750366e-01 8.627150952816009521e-02 -1.755495965480804443e-01 -4.226945713162422180e-02 5.077866837382316589e-02 -1.561149656772613525e-01 9.410517662763595581e-02 8.977063745260238647e-02 -5.773084983229637146e-02 -8.212954550981521606e-02 6.979746371507644653e-02 -1.688409447669982910e-01 -1.604626476764678955e-01 7.950883358716964722e-02 -8.044237643480300903e-02 1.363308131694793701e-01 1.519659161567687988e-02 8.776943385601043701e-02 -1.648648232221603394e-01 -7.959181815385818481e-02 -1.200648918747901917e-01 -4.531719908118247986e-02 -8.718170970678329468e-02 4.027695581316947937e-02 -1.693096607923507690e-01 1.954817399382591248e-02
8.178186602890491486e-03 -3.900921344757080078e-02 -1.476316750049591064e-01 -1.279486119747161865e-01 -9.503538161516189575e-02 5.922886542975902557e-03 -1.667682975530624390e-01 -2.230914495885372162e-02 2.916324883699417114e-02 1.750183850526809692e-02 1.040486544370651245e-01 3.271424025297164917e-02 1.024244800209999084e-01 -5.075610429048538208e-02 -2.021994441747665405e-02 -1.174260973930358887e-01 -1.000755056738853455e-01 -8.678990602493286133e-02 -1.596554070711135864e-01 -1.436947733163833618e-01 1.140795350074768066e-01 -7.633462082594633102e-03 -8.904482424259185791e-02 -9.993100911378860474e-02 -1.061811894178390503e-01 -7.647328078746795654e-02 1.216783970594406128e-01 -5.702817440032958984e-02 -6.488144397735595703e-02 -1.519892662763595581e-01 -1.059527844190597534e-01 -7.639200892299413681e-03 3.335714107379317284e-03 -1.175363175570964813e-02 -5.833738669753074646e-02 -3.812282159924507141e-02 8.815810084342956543e-03 8.205959200859069824e-02 4.540814086794853210e-02 4.505698010325431824e-02 5.512785911560058594e-02 -7.368207722902297974e-02 -1.075691427104175091e-03 6.424698978662490845e-02 3.367298468947410583e-02 1.582122445106506348e-01 4.226927086710929871e-02 -5.727819353342056274e-02 7.766456902027130127e-02 -3.209114819765090942e-02 -2.606720104813575745e-02 -3.567654639482498169e-02 -1.129863783717155457e-01 1.325796097517013550e-01 -1.490848064422607422e-01 -3.334511071443557739e-02 -8.373351395130157471e-02 -5.057676136493682861e-02 -8.327543735504150391e-02 6.081746891140937805e-02 3.200709074735641479e-02 -1.295876037329435349e-02 -1.020516082644462585e-01 3.495163097977638245e-02
5.606287717819213867e-02 -6.236842018552124500e-04 1.127524152398109436e-01 -1.013247147202491760e-01 -1.623868495225906372e-01 6.976226717233657837e-02 -1.105899736285209656e-01 6.421060860157012939e-02 3.706832230091094971e-02 2.795976586639881134e-02 2.991398423910140991e-02 -1.276709735393524170e-01 -9.162850677967071533e-02 1.089861094951629639e-01 -5.571940541267395020e-02 -1.207546666264533997e-01 3.823031112551689148e-02 -7.328159362077713013e-02 1.165226325392723083e-01 -5.128248594701290131e-03 -1.609502732753753662e-01 -1.144961491227149963e-01 1.121971011161804199e-02 -3.376146405935287476e-02 -8.907293528318405151e-02 -1.135428696870803833e-01 -7.928279042243957520e-02 -1.442578714340925217e-02 -1.064859628677368164e-01 4.578956589102745056e-02 -3.367498144507408142e-02 -1.614755094051361084e-01 9.703163057565689087e-02 6.610014289617538452e-02 5.254488065838813782e-02 -4.204637929797172546e-02 -2.265125140547752380e-02 -1.702881976962089539e-02 7.969470322132110596e-02 7.698408514261245728e-02 6.321153044700622559e-02 3.554338589310646057e-02 5.232293158769607544e-02 -6.047103554010391235e-02 6.429368257522583008e-02 6.992079317569732666e-02 -4.874927178025245667e-02 -1.195089071989059448e-01 9.097494930028915405e-02 8.628768473863601685e-02 -1.225030645728111267e-01 -5.053323507308959961e-02 5.017810687422752380e-02 1.740126758813858032e-01 -4.275985434651374817e-02 1.024107187986373901e-01 -1.022357270121574402e-01 -1.181385740637779236e-01 -3.016600944101810455e-02 -1.216029524803161621e-01 -2.047808811767026782e-04 1.685066819190979004e-01 -6.375432014465332031e-02 9.802176058292388916e-02
8.544703572988510132e-02 1.513170897960662842e-01 -3.623534739017486572e-02 -8.086974958132486790e-06 7.731789350509643555e-02 -1.831957139074802399e-02 -1.329502370208501816e-02 1.059667468070983887e-01 -2.708455547690391541e-02 -9.807121939957141876e-03 6.813457608222961426e-02 -5.889309197664260864e-02 5.132967233657836914e-02 2.933417074382305145e-02 -3.429471328854560852e-02 5.034066364169120789e-02 -1.148472055792808533e-01 -7.694705273024737835e-04 3.752618283033370972e-02 -6.393717229366302490e-02 3.863823600113391876e-03 -3.314987197518348694e-02 9.379059076309204102e-02 -5.955382436513900757e-02 -1.632904708385467529e-01 1.109533756971359253e-01 -6.998457759618759155e-02 -1.542049050331115723e-01 -1.943923346698284149e-02 9.043019264936447144e-03 -1.184511743485927582e-02 -2.513659372925758362e-02 2.120823711156845093e-01 2.312107682228088379e-01 -1.719780117273330688e-01 -1.339664906263351440e-01 -1.147671118378639221e-01 -2.123907580971717834e-02 -4.590628668665885925e-03 -1.676886342465877533e-02 -6.030701845884323120e-02 7.140905410051345825e-02 4.428262636065483093e-02 -1.135922688990831375e-02 -2.106544002890586853e-02 2.197163701057434082e-01 -4.149535670876502991e-02 -1.715470291674137115e-02 8.142235130071640015e-02 -6.005209311842918396e-02 1.091013699769973755e-01 1.585532575845718384e-01 7.089472562074661255e-02 1.788430064916610718e-01 -1.554255038499832153e-01 8.210722357034683228e-02 -9.421423077583312988e-02 -1.292098760604858398e-01 -1.136545464396476746e-01 -1.204588562250137329e-01 3.854352980852127075e-02 -1.851445878855884075e-03 3.683787211775779724e-02 -8.004440367221832275e-02
-5.583631247282028198e-02 1.919925026595592499e-02 -5.091609433293342590e-03 6.212707981467247009e-02 -3.994815424084663391e-02 1.204222999513149261e-02 3.597391769289970398e-02 -9.329212456941604614e-02 -1.125971004366874695e-01 1.536571830511093140e-01 -1.825519092381000519e-02 3.552639111876487732e-02 -5.303774401545524597e-02 1.980726867914199829e-01 8.036140352487564087e-02 -1.176175400614738464e-01 -1.152563989162445068e-01 -1.724012941122055054e-01 8.558060228824615479e-02 -6.191395968198776245e-02 -5.342344567179679871e-02 -1.715663373470306396e-01 -2.614062093198299408e-02 9.454242885112762451e-03 7.204440236091613770e-02 6.138027086853981018e-02 1.191628649830818176e-01 7.540490478277206421e-02 -1.120906174182891846e-01 5.051559954881668091e-02 6.153245642781257629e-02 -3.813572460785508156e-03 -2.557662129402160645e-02 4.618547856807708740e-02 5.091445520520210266e-02 9.039193391799926758e-02 -1.165050938725471497e-01 2.497902885079383850e-02 6.245009601116180420e-02 1.985230483114719391e-02 -3.706742450594902039e-02 -2.664301544427871704e-03 5.122678354382514954e-02 -1.090407669544219971e-01 3.115528076887130737e-02 1.373740029521286488e-03 1.047986820340156555e-01 5.126764625310897827e-02 1.270479559898376465e-01 2.774945832788944244e-02 1.101778596639633179e-01 1.298429220914840698e-01 -1.387425065040588379e-01 1.433085799217224121e-01 7.001613825559616089e-02 -1.171302795410156250e-01 2.012153621762990952e-03 -1.052865758538246155e-01 1.219683559611439705e-03 -6.990531831979751587e-02 -2.150259464979171753e-01 1.058382689952850342e-01 -4.130598902702331543e-02 -5.851122364401817322e-02
-1.411896198987960815e-01 -6.651321053504943848e-02 -6.652035564184188843e-02 -1.257467418909072876e-01 -1.652725636959075928e-01 1.035026758909225464e-01 1.115429326891899109e-01 -1.269875615835189819e-01 -1.516886949539184570e-01 -8.902131766080856323e-02 -3.686394542455673218e-03 -1.704200953245162964e-01 1.417075693607330322e-01 6.233293190598487854e-02 1.222353354096412659e-01 -1.047159954905509949e-01 -1.732595264911651611e-01 2.596764825284481049e-02 -5.467883124947547913e-02 3.302467614412307739e-02 5.648893490433692932e-02 -1.211651638150215149e-01 7.726326584815979004e-02 5.310130491852760315e-02 -8.090718835592269897e-02 -1.056053414940834045e-01 -1.167918182909488678e-02 7.992228120565414429e-02 -1.371744275093078613e-01 -1.168549060821533203e-01 -1.588851511478424072e-01 -5.581380426883697510e-02 1.441589891910552979e-01 1.114953160285949707e-01 -1.178435012698173523e-01 -1.050435528159141541e-01 2.561435662209987640e-02 -4.453365877270698547e-02 -7.295446842908859253e-02 4.719139263033866882e-02 -9.764343500137329102e-02 -1.123312488198280334e-01 6.196440756320953369e-02 4.079546779394149780e-02 1.900162845849990845e-01 1.413595974445343018e-01 1.135136559605598450e-02 1.152409985661506653e-01 1.554862409830093384e-01 -1.002968996763229370e-01 -5.530560016632080078e-02 -3.865125402808189392e-02 -1.415549069643020630e-01 1.332466602325439453e-01 -1.161499973386526108e-02 -1.506796665489673615e-02 1.514251157641410828e-02 3.247822448611259460e-02 3.883155528455972672e-03 -1.572181582450866699e-01 5.278525128960609436e-02 3.004889702424407005e-03 -1.022773087024688721e-01 7.883072644472122192e-02
-8.133964985609054565e-02 -2.847397141158580780e-02 -1.413730531930923462e-01 7.817630469799041748e-02 6.678187847137451172e-02 -9.234376996755599976e-02 1.237523742020130157e-02 -7.855759561061859131e-02 -9.324550046585500240e-04 1.686327308416366577e-01 -2.381050959229469299e-02 7.746279705315828323e-03 -8.605570346117019653e-02 5.390823632478713989e-02 -1.201107129454612732e-01 -4.458094015717506409e-02 1.767767965793609619e-02 2.266502939164638519e-02 1.075768172740936279e-01 1.584696769714355469e-01 -6.041716411709785461e-02 7.378540933132171631e-02 -1.368493735790252686e-01 -4.257639497518539429e-02 -1.306422948837280273e-01 1.350447386503219604e-01 1.563537716865539551e-01 -5.465623736381530762e-02 7.228670641779899597e-03 -1.672146618366241455e-01 -9.896070510149002075e-02 7.061570137739181519e-02 1.242669001221656799e-01 8.989842236042022705e-02 -1.108963117003440857e-01 -1.205808967351913452e-01 -9.584732353687286377e-02 2.541287802159786224e-02 3.563746809959411621e-03 3.774136677384376526e-02 -9.901376813650131226e-02 -1.171034947037696838e-01 1.111557111144065857e-01 -3.354719281196594238e-02 5.139096826314926147e-02 -3.510091686621308327e-03 -5.793537711724638939e-04 -2.298275567591190338e-02 4.400147125124931335e-02 7.953222841024398804e-02 1.554573979228734970e-02 1.698341816663742065e-01 -1.300008744001388550e-01 1.144329085946083069e-01 6.994086503982543945e-02 1.090971007943153381e-01 6.737475097179412842e-02 9.582808613777160645e-02 -1.231870278716087341e-01 -8.789145946502685547e-02 -9.498755633831024170e-02 -8.704809099435806274e-02 -2.992752380669116974e-02 -3.999602049589157104e-03
-1.566204428672790527e-01 -1.913522183895111084e-02 5.735242739319801331e-02 -3.637403249740600586e-02 7.304817438125610352e-02 -5.802318826317787170e-02 9.070879966020584106e-02 -1.215458735823631287e-01 -1.825285702943801880e-02 7.647461444139480591e-02 6.652767956256866455e-02 -5.697127059102058411e-02 5.928837135434150696e-02 1.274048835039138794e-01 9.313119202852249146e-02 -3.718881309032440186e-02 -6.258028745651245117e-02 -1.136137917637825012e-01 9.429414570331573486e-02 -5.410486087203025818e-02 -4.601225256919860840e-02 -1.711727678775787354e-01 -9.417473524808883667e-02 2.888947725296020508e-02 -6.996669620275497437e-02 -1.070576626807451248e-02 -3.219015523791313171e-02 4.526667296886444092e-02 -9.965009987354278564e-02 7.471263408660888672e-02 1.007766723632812500e-01 -9.955602884292602539e-02 1.668460220098495483e-01 5.826627463102340698e-02 -1.019903458654880524e-02 6.136504560708999634e-02 1.047371141612529755e-02 -2.437894232571125031e-02 -1.724117249250411987e-01 1.265754699707031250e-01 -1.252980232238769531e-01 3.308612480759620667e-02 5.432660132646560669e-02 4.686609283089637756e-02 -2.439418435096740723e-02 8.049992471933364868e-02 3.687445539981126785e-03 -7.093593478202819824e-02 1.995395123958587646e-01 -1.654347330331802368e-01 -3.260812535881996155e-02 1.244129911065101624e-01 7.562150061130523682e-02 7.387532293796539307e-02 -8.453593403100967407e-02 8.626614511013031006e-02 -6.859672069549560547e-02 -1.201966628432273865e-01 1.502882223576307297e-02 -3.994802385568618774e-02 -6.468150019645690918e-02 4.964051395654678345e-02 9.692960977554321289e-02 5.943451076745986938e-02
-1.285748332738876343e-01 -7.281409949064254761e-02 -1.255522668361663818e-01 -9.548341855406761169e-03 -4.810489714145660400e-02 -9.985548257827758789e-02 -4.348604381084442139e-02 2.855633758008480072e-02 1.303472667932510376e-01 1.326792538166046143e-01 -8.784195780754089355e-02 6.413879245519638062e-02 -2.297032065689563751e-02 9.830854088068008423e-02 -1.977730914950370789e-02 8.558543026447296143e-02 -3.694823756814002991e-02 -4.580669850111007690e-02 6.196267902851104736e-02 -1.374578103423118591e-02 -1.314562112092971802e-01 -1.500720232725143433e-01 6.202091276645660400e-02 -6.629858165979385376e-02 -7.294907420873641968e-02 -6.249025836586952209e-02 -5.957339331507682800e-02 -8.255264908075332642e-02 -1.115584969520568848e-01 -9.274432063102722168e-02 2.269125171005725861e-02 -5.285574495792388916e-02 1.897904463112354279e-02 1.056512296199798584e-01 4.602631181478500366e-02 -1.183604672551155090e-01 -1.415492743253707886e-01 -4.752485081553459167e-02 -1.441868841648101807e-01 4.486306011676788330e-02 6.333006173372268677e-02 -3.148325532674789429e-02 -2.316325157880783081e-02 -2.555883489549160004e-02 7.973528653383255005e-02 3.482929989695549011e-02 -1.081537380814552307e-01 -4.874592274427413940e-02 1.199241280555725098e-01 -9.679336845874786377e-02 -1.177090480923652649e-01 1.660962253808975220e-01 3.370525687932968140e-02 1.131199114024639130e-02 5.463042855262756348e-02 5.672748084180057049e-04 3.837811946868896484e-02 5.578507855534553528e-02 -1.319926083087921143e-01 4.215028509497642517e-02 1.069458127021789551e-01 -5.976091325283050537e-02 1.102822944521903992e-01 6.218268349766731262e-02
4.065486043691635132e-02 -1.915461011230945587e-02 6.355283409357070923e-02 -8.798518031835556030e-02 -9.482114017009735107e-02 7.399930059909820557e-02 2.675180137157440186e-02 7.082156836986541748e-02 3.911397606134414673e-02 1.980615854263305664e-01 -1.412298157811164856e-02 -1.249046549201011658e-01 7.044578343629837036e-02 7.662362605333328247e-02 3.255717083811759949e-02 -1.683881580829620361e-01 2.181983320042490959e-03 9.489993751049041748e-02 -1.256862133741378784e-01 8.408732712268829346e-02 2.847137674689292908e-02 -7.191614061594009399e-02 -6.376215070486068726e-02 3.430693969130516052e-02 -4.593207966536283493e-03 3.945308178663253784e-02 2.856042794883251190e-02 -5.767258815467357635e-03 4.215052351355552673e-02 -4.264241456985473633e-02 -3.779532760381698608e-02 -4.412486776709556580e-02 -2.412462839856743813e-03 1.499642431735992432e-01 -8.365640044212341309e-02 4.824060946702957153e-02 -1.483032256364822388e-01 1.207679733633995056e-01 3.677722811698913574e-02 1.250268071889877319e-01 1.911796256899833679e-02 -1.567324697971343994e-01 -2.282496914267539978e-02 -1.845023781061172485e-02 1.427038908004760742e-01 2.081552296876907349e-01 -8.458179980516433716e-02 6.316111236810684204e-02 1.782628893852233887e-01 6.140737235546112061e-02 -5.904300510883331299e-02 6.899664551019668579e-02 -4.559173807501792908e-02 -5.072020739316940308e-02 -1.645794659852981567e-01 -1.541577000170946121e-02 -1.048812568187713623e-01 -2.825655788183212280e-02 -2.700025960803031921e-02 -5.886930972337722778e-02 -1.778147071599960327e-01 -8.547018282115459442e-03 -1.590934097766876221e-01 -9.578140825033187866e-02
-4.381927475333213806e-02 4.875511303544044495e-02 4.403943568468093872e-02 -4.608826339244842529e-02 6.302302237600088120e-03 -2.482523769140243530e-02 3.156540542840957642e-02 7.755634933710098267e-02 -2.967352047562599182e-02 -3.547910228371620178e-02 -2.989862672984600067e-02 3.357119485735893250e-02 -9.725844115018844604e-02 1.384666264057159424e-01 -5.807472765445709229e-02 4.862968623638153076e-02 -1.385214389301836491e-03 4.687713086605072021e-02 9.953507781028747559e-02 -1.701764613389968872e-01 1.091432049870491028e-01 -6.315305083990097046e-02 5.056152492761611938e-02 -1.530350744724273682e-01 -5.768544971942901611e-02 3.059019893407821655e-02 -1.666494160890579224e-01 7.271626591682434082e-02 6.667588651180267334e-02 -8.844553679227828979e-02 -6.063702702522277832e-02 -4.164253920316696167e-02 2.062699049711227417e-01 -3.141530975699424744e-02 7.169345766305923462e-02 4.947789013385772705e-02 5.896445736289024353e-02 7.969010621309280396e-02 7.594171166419982910e-02 -3.888228908181190491e-02 -5.124932900071144104e-02 -5.395871400833129883e-02 -9.144096821546554565e-02 5.607371777296066284e-02 -3.633062168955802917e-02 3.790692239999771118e-02 9.354314953088760376e-02 -1.790192537009716034e-02 1.418216973543167114e-01 -1.266090571880340576e-01 8.868845552206039429e-02 1.809816509485244751e-01 -3.123868815600872040e-02 2.155662328004837036e-01 -5.824941396713256836e-02 -9.129701554775238037e-02 5.417526140809059143e-02 -1.361649483442306519e-01 -1.005133762955665588e-01 2.125705219805240631e-02 -1.612612754106521606e-01 2.698101662099361420e-02 -6.085888668894767761e-02 4.116401448845863342e-02
-3.010065481066703796e-02 -1.605961285531520844e-02 2.977586723864078522e-02 7.831599563360214233e-02 1.657121442258358002e-02 -1.997829042375087738e-02 -1.240635663270950317e-01 6.769451498985290527e-02 -1.228720471262931824e-01 1.511402875185012817e-01 7.781789451837539673e-02 4.181429743766784668e-02 1.468432843685150146e-01 2.195435017347335815e-01 7.377722114324569702e-02 4.874672368168830872e-02 1.437212154269218445e-02 -1.071205958724021912e-01 1.269913762807846069e-01 1.154828742146492004e-01 -4.670336470007896423e-02 2.126156724989414215e-02 9.023252874612808228e-02 -1.074250042438507080e-01 -1.132073849439620972e-01 -1.528639793395996094e-01 -3.982785344123840332e-02 8.657487481832504272e-02 -7.425272464752197266e-02 -1.582062840461730957e-01 6.926735397428274155e-03 2.742652595043182373e-02 6.654272228479385376e-02 2.341507060918956995e-04 7.465470582246780396e-02 -1.514441221952438354e-01 -1.706583499908447266e-01 9.579126536846160889e-02 2.924323081970214844e-02 7.009102404117584229e-02 -1.219564154744148254e-01 3.993677347898483276e-02 -1.556485146284103394e-02 -8.477827161550521851e-02 7.411101460456848145e-02 -2.284216927364468575e-03 -2.877472899854183197e-02 4.898907244205474854e-02 9.953672438859939575e-02 -1.201308816671371460e-01 1.123842746019363403e-01 1.506986171007156372e-01 -4.658323153853416443e-02 9.907915443181991577e-02 -9.910900890827178955e-02 -7.881911098957061768e-02 -9.121692739427089691e-03 1.103512942790985107e-01 3.600046411156654358e-02 -1.260826829820871353e-02 8.466727286577224731e-02 -4.211715236306190491e-02 9.016786515712738037e-02 5.086388811469078064e-02
-1.406806111335754395e-01 6.143523380160331726e-02 -9.125801175832748413e-02 2.861327119171619415e-02 -2.116677165031433105e-02 1.576266884803771973e-01 -1.107679381966590881e-01 -1.478558033704757690e-01 9.973200410604476929e-02 1.287135183811187744e-01 7.312276400625705719e-03 -1.136470213532447815e-01 -8.854686468839645386e-02 4.825446382164955139e-02 -1.536074839532375336e-02 -3.818721696734428406e-02 3.426368907094001770e-02 4.807277116924524307e-03 -7.802167534828186035e-02 1.905719935894012451e-02 3.787085786461830139e-02 -1.666426062583923340e-01 -1.059119254350662231e-01 -9.637301415205001831e-02 -4.944384470582008362e-02 -7.437840849161148071e-02 9.548532217741012573e-02 -3.656672313809394836e-02 6.036448851227760315e-02 5.534402281045913696e-02 6.092325970530509949e-02 5.248046293854713440e-02 1.024632304906845093e-01 -3.581611812114715576e-02 -1.176300644874572754e-01 2.308736182749271393e-02 -1.025305837392807007e-01 -1.139264106750488281e-01 -1.004360318183898926e-01 9.991579502820968628e-02 -7.719992846250534058e-02 1.379260569810867310e-01 5.422132089734077454e-03 -4.762559011578559875e-02 -1.267763040959835052e-02 1.696998327970504761e-01 -4.636760056018829346e-02 1.098733544349670410e-01 -1.588866300880908966e-02 -1.115037277340888977e-01 -3.066182695329189301e-02 1.851325482130050659e-01 -6.015214696526527405e-02 -9.371965378522872925e-02 1.234226301312446594e-02 1.000326573848724365e-01 -8.847188949584960938e-02 1.259091794490814209e-01 -3.758083656430244446e-02 -1.612460464239120483e-01 -2.897766977548599243e-02 -1.254357695579528809e-01 -6.874016672372817993e-02 -4.294085502624511719e-02
-2.166766114532947540e-02 5.314688012003898621e-02 -3.745068237185478210e-02 -8.549491316080093384e-02 -9.602422267198562622e-02 1.464472431689500809e-02 -1.202352195978164673e-01 -8.894013613462448120e-02 4.728720709681510925e-02 -1.877141185104846954e-02 1.151868849992752075e-01 -1.339440196752548218e-01 -1.054261624813079834e-01 -7.277689129114151001e-02 -1.074192523956298828e-01 8.769538253545761108e-02 -5.012511089444160461e-02 -6.652652472257614136e-02 -4.943645908497273922e-04 1.419286876916885376e-01 -5.859448015689849854e-02 5.976124852895736694e-02 3.880060836672782898e-02 -7.238157093524932861e-02 -9.674465656280517578e-02 -1.668892428278923035e-02 1.549326162785291672e-02 -1.870764046907424927e-01 -4.809939861297607422e-02 -6.305237114429473877e-02 -1.564142554998397827e-01 -9.905502945184707642e-02 -1.432127505540847778e-02 1.182645708322525024e-01 6.109265238046646118e-02 -1.525477916002273560e-01 -3.685062378644943237e-02 -5.992681160569190979e-02 1.497766077518463135e-01 5.168307945132255554e-02 2.724867314100265503e-02 5.173977930098772049e-03 -8.560011535882949829e-02 -1.189876943826675415e-01 5.817475542426109314e-02 1.236236244440078735e-01 -7.834896445274353027e-02 1.445577293634414673e-02 9.556587040424346924e-02 -1.170827150344848633e-01 -1.695550531148910522e-01 5.227918177843093872e-02 4.867646098136901855e-02 1.420015394687652588e-01 6.942343711853027344e-02 1.286329180002212524e-01 -1.297773122787475586e-01 1.024101898074150085e-01 8.700259029865264893e-02 9.457915276288986206e-02 -1.159544661641120911e-01 8.199399709701538086e-02 7.333450019359588623e-02 7.187953591346740723e-02
1.121221669018268585e-02 -4.884799942374229431e-02 -1.439445763826370239e-01 4.547448456287384033e-02 -1.654855757951736450e-01 -8.104723691940307617e-02 -1.305747628211975098e-01 7.491611689329147339e-02 2.219843305647373199e-02 -8.205302059650421143e-02 9.916392154991626740e-03 -1.556608229875564575e-01 -6.107085943222045898e-02 -5.303778871893882751e-02 7.885880768299102783e-02 3.862361237406730652e-02 -1.596157625317573547e-02 4.042814485728740692e-03 -5.454042553901672363e-02 5.678376555442810059e-02 1.523920595645904541e-01 -3.351934254169464111e-02 3.670301288366317749e-02 5.916387215256690979e-02 2.251521870493888855e-02 2.645815722644329071e-02 -2.720047486945986748e-03 3.772344440221786499e-02 5.247555673122406006e-02 -4.656648263335227966e-02 -5.764441192150115967e-02 -1.703387349843978882e-01 5.365057662129402161e-02 9.324995428323745728e-02 -7.291899621486663818e-02 5.033728480339050293e-02 1.147280819714069366e-02 8.900413662195205688e-02 2.382365614175796509e-02 -1.876117102801799774e-02 -5.476827174425125122e-02 -5.297338590025901794e-02 1.373717784881591797e-01 8.104652166366577148e-02 -7.350803818553686142e-03 1.017257273197174072e-01 8.467207103967666626e-02 -9.116969257593154907e-02 1.491857022047042847e-01 4.804843664169311523e-02 5.210338160395622253e-02 1.631954461336135864e-01 -2.749343588948249817e-02 1.223635822534561157e-01 -3.900921344757080078e-02 -1.431666910648345947e-01 8.309777081012725830e-02 -7.076185941696166992e-02 -4.096928238868713379e-02 -1.359022557735443115e-01 4.629495553672313690e-03 -1.653732210397720337e-01 -9.095800668001174927e-02 -8.636198192834854126e-02
-1.445128023624420166e-01 3.515917807817459106e-02 3.014575690031051636e-02 -1.250418275594711304e-01 -1.704119592905044556e-01 -9.518065489828586578e-03 -1.855563074350357056e-01 1.275087445974349976e-01 -1.337530016899108887e-01 2.089284956455230713e-01 -1.448974013328552246e-01 -1.211080849170684814e-01 -2.213858626782894135e-02 4.598597809672355652e-02 4.023500531911849976e-02 1.376778781414031982e-01 8.339116722345352173e-02 8.621770888566970825e-03 -3.635615482926368713e-02 1.004549488425254822e-01 -1.143058612942695618e-01 -9.139277040958404541e-02 -8.825395256280899048e-02 -7.103158533573150635e-02 1.511716842651367188e-01 8.349697291851043701e-02 -9.641762822866439819e-02 -8.957124501466751099e-02 -5.023805424571037292e-03 -1.782093793153762817e-01 -4.616104811429977417e-02 -6.994462013244628906e-02 -5.070973932743072510e-02 1.751412749290466309e-01 -4.300012812018394470e-02 -1.823419705033302307e-02 -2.992243878543376923e-02 -1.570309326052665710e-02 -2.300663106143474579e-02 1.468997332267463207e-03 6.961575895547866821e-02 -1.824585497379302979e-01 -4.117356240749359131e-02 -1.491790413856506348e-01 1.899960190057754517e-01 1.046963110566139221e-01 4.184445366263389587e-02 -2.635249868035316467e-02 2.647848334163427353e-03 -5.263606831431388855e-02 5.667658406309783459e-04 1.216239780187606812e-01 -7.218559086322784424e-02 1.551958769559860229e-01 -1.171750724315643311e-01 -5.661656334996223450e-02 -1.370457708835601807e-01 -7.878185063600540161e-02 -1.113726012408733368e-02 5.857770889997482300e-02 4.082675650715827942e-02 2.102486789226531982e-02 1.325493752956390381e-01 9.806199371814727783e-02
-1.516172736883163452e-01 -1.489835232496261597e-01 1.153305992484092712e-01 -7.711862772703170776e-02 6.580662727355957031e-02 4.152207449078559875e-02 9.688459336757659912e-02 -1.367119103670120239e-01 1.029030382633209229e-01 1.244695484638214111e-01 4.679832607507705688e-02 -1.400053650140762329e-01 -6.042140722274780273e-02 1.703947484493255615e-01 -1.331785768270492554e-01 9.677318483591079712e-02 3.622749820351600647e-02 -6.296554207801818848e-02 6.445661187171936035e-02 2.984708920121192932e-02 1.004834771156311035e-01 6.434192508459091187e-02 7.655685395002365112e-02 -1.525694727897644043e-01 3.365486487746238708e-02 -5.747780576348304749e-02 -1.999261416494846344e-02 -1.384497284889221191e-01 -9.684474021196365356e-02 7.462804019451141357e-02 -1.601523756980895996e-01 6.941802799701690674e-02 7.454837113618850708e-02 -1.558924745768308640e-02 -1.393787097185850143e-02 1.148464828729629517e-01 -8.729304373264312744e-02 2.698989771306514740e-02 -1.097517088055610657e-01 1.119287386536598206e-01 -9.305627318099141121e-04 1.186056584119796753e-01 2.423639968037605286e-02 6.258218735456466675e-02 1.186954881995916367e-02 4.873797297477722168e-02 1.030727475881576538e-02 5.482826009392738342e-02 9.674552828073501587e-02 -1.663285493850708008e-01 -2.231988124549388885e-02 1.320617794990539551e-01 5.830756202340126038e-02 1.647016704082489014e-01 -1.482449918985366821e-01 -2.077543176710605621e-02 6.903329049237072468e-04 -1.578106880187988281e-01 -1.658644229173660278e-01 7.226109504699707031e-02 -8.391965180635452271e-02 -1.397769898176193237e-01 9.498034417629241943e-02 -1.624624878168106079e-01
-1.699570864439010620e-01 -1.718384176492691040e-01 -1.158469840884208679e-01 8.470211178064346313e-02 -4.715281352400779724e-02 -7.659569382667541504e-02 9.572479128837585449e-02 9.195771068334579468e-02 -5.874942988157272339e-02 2.302881702780723572e-02 7.608085870742797852e-02 -5.834253504872322083e-02 -1.936524733901023865e-02 -5.036261305212974548e-02 -1.117916894145309925e-03 5.228853225708007812e-02 5.947481840848922729e-02 -1.033074557781219482e-01 2.367181004956364632e-03 1.302969157695770264e-01 2.227126993238925934e-02 2.965037152171134949e-02 -3.767345100641250610e-02 6.682401895523071289e-02 -2.842627465724945068e-02 1.043845862150192261e-01 -1.069181635975837708e-01 -1.268638223409652710e-01 -7.736099511384963989e-02 4.725820943713188171e-02 -6.863121688365936279e-02 7.991564273834228516e-02 3.841327875852584839e-02 1.841714233160018921e-01 -8.156491816043853760e-02 -8.472798019647598267e-02 -4.188917949795722961e-02 -2.142634242773056030e-02 1.591615378856658936e-02 1.335176080465316772e-01 5.281220003962516785e-02 1.186237782239913940e-01 -1.375454068183898926e-01 -1.601402908563613892e-01 2.026364654302597046e-01 2.735596522688865662e-02 -1.126214512623846531e-03 -1.483056545257568359e-01 -3.517090901732444763e-02 -6.468294560909271240e-02 6.796742975711822510e-02 1.245523393154144287e-01 7.832961529493331909e-02 -1.218371000140905380e-02 2.410809881985187531e-02 -1.001888737082481384e-01 -4.695812240242958069e-02 8.719536662101745605e-02 1.541444379836320877e-02 7.770002633333206177e-02 -1.222003027796745300e-01 4.185007140040397644e-02 -1.602744013071060181e-01 -2.079838886857032776e-02
-5.758570879697799683e-02 1.036258265376091003e-01 -9.839896112680435181e-02 6.181836128234863281e-02 5.402943119406700134e-02 -9.513743966817855835e-02 2.770428732037544250e-02 -5.535164847970008850e-02 3.150152787566184998e-02 3.896842710673809052e-03 -1.191733032464981079e-01 -1.003358066082000732e-01 -5.088801681995391846e-02 1.375430971384048462e-01 2.691652067005634308e-02 2.804115414619445801e-02 -4.815146327018737793e-02 1.797294244170188904e-02 1.352465003728866577e-01 -1.190996095538139343e-01 4.948582127690315247e-02 -4.921698197722434998e-02 5.581440031528472900e-02 9.068439900875091553e-02 1.261526197195053101e-01 9.215784817934036255e-02 -2.585662342607975006e-02 5.288645252585411072e-02 4.568556696176528931e-02 -9.664305485785007477e-03 -1.473431140184402466e-01 -4.415107890963554382e-02 1.125194504857063293e-01 1.014828011393547058e-01 4.009574651718139648e-02 2.055711671710014343e-02 -1.200197115540504456e-01 -6.148001551628112793e-02 -8.365371823310852051e-02 7.014413923025131226e-02 4.591397568583488464e-02 2.431773021817207336e-02 -7.420548051595687866e-02 -1.396297514438629150e-01 1.436867713928222656e-01 1.670406907796859741e-01 -1.518962439149618149e-03 -4.264872893691062927e-02 2.439543791115283966e-02 2.806000784039497375e-02 4.892384633421897888e-02 1.365711688995361328e-01 -6.812003999948501587e-02 1.669919639825820923e-01 -1.529981344938278198e-01 4.002796113491058350e-02 -1.667062379419803619e-02 -8.955505490303039551e-02 -8.862721920013427734e-02 9.102959185838699341e-02 -1.825253292918205261e-02 -2.500003017485141754e-02 1.272050887346267700e-01 -5.149477720260620117e-02
4.373633861541748047e-02 9.778697788715362549e-02 1.393003463745117188e-01 -1.046016216278076172e-01 -1.111469790339469910e-01 1.340533196926116943e-01 -1.103953458368778229e-02 -1.185535192489624023e-01 8.499260991811752319e-02 3.732292354106903076e-02 -9.622505307197570801e-02 -7.298116106539964676e-03 -7.758234441280364990e-02 1.313899159431457520e-01 -8.103924989700317383e-02 -3.423990681767463684e-02 -9.233599156141281128e-02 1.766558364033699036e-02 7.337208837270736694e-02 -1.190552115440368652e-02 -6.287606805562973022e-02 -1.027479246258735657e-01 -1.863580197095870972e-01 5.626079812645912170e-02 -5.810659006237983704e-02 2.253720723092556000e-02 8.748733252286911011e-02 2.617399208247661591e-02 3.556454926729202271e-02 1.654619537293910980e-02 9.132058918476104736e-02 -2.831743098795413971e-02 1.515811681747436523e-01 9.523160755634307861e-02 -1.165810674428939819e-01 3.661928325891494751e-02 -1.452951580286026001e-01 -4.229256883263587952e-02 -1.409772038459777832e-02 -6.700147688388824463e-02 -2.960823662579059601e-02 -7.418879866600036621e-02 -5.742550641298294067e-02 -1.670814454555511475e-01 1.176002770662307739e-01 8.158042281866073608e-02 -9.316238760948181152e-02 -2.480963477864861488e-03 4.158321022987365723e-02 -1.176003366708755493e-01 5.484046041965484619e-02 1.511857062578201294e-01 -1.594472490251064301e-02 1.337846666574478149e-01 -5.989527329802513123e-02 -1.317489296197891235e-01 -1.237216070294380188e-01 -6.077255681157112122e-02 1.715986058115959167e-02 6.767331808805465698e-02 -2.135099768638610840e-01 -3.467761725187301636e-02 1.370175778865814209e-01 2.397635579109191895e-02
-4.871128126978874207e-02 -1.764588952064514160e-01 -2.977704629302024841e-02 5.453522130846977234e-02 -1.509564816951751709e-01 4.782970622181892395e-02 8.434247225522994995e-02 -1.026607379317283630e-01 -1.239549741148948669e-01 5.357866175472736359e-03 -5.468592792749404907e-02 8.834965527057647705e-02 3.086497448384761810e-02 1.365465670824050903e-01 4.947440698742866516e-02 -2.007245644927024841e-02 4.449000954627990723e-02 7.747440040111541748e-02 -6.180483102798461914e-02 1.060077100992202759e-01 -6.455574184656143188e-02 -3.059505857527256012e-02 8.438500761985778809e-02 -7.727494090795516968e-02 -4.725624620914459229e-02 1.268666535615921021e-01 -9.668944031000137329e-02 6.211721524596214294e-02 3.589821234345436096e-02 -1.305683553218841553e-01 -6.173399277031421661e-03 -1.433992981910705566e-01 1.056800484657287598e-01 1.523535698652267456e-01 6.935301423072814941e-02 1.157114207744598389e-01 -7.896923273801803589e-02 3.331110579892992973e-03 4.466608166694641113e-02 6.415693461894989014e-02 7.331527769565582275e-02 -1.176076531410217285e-01 -1.250816732645034790e-01 4.915281012654304504e-02 -7.755143195390701294e-02 -5.578321591019630432e-02 -1.939254999160766602e-02 -8.309389650821685791e-02 1.553438156843185425e-01 -1.115575805306434631e-01 -4.767217487096786499e-02 8.577388525009155273e-02 -9.697981178760528564e-02 1.473590582609176636e-01 7.753844559192657471e-02 -1.021815240383148193e-01 -8.737268857657909393e-03 8.900889009237289429e-02 -2.804414927959442139e-02 3.787513449788093567e-02 -1.443385481834411621e-01 -3.444261848926544189e-02 1.447094380855560303e-01 -4.553582891821861267e-02
-1.262498646974563599e-01 -1.132744997739791870e-01 2.029335871338844299e-02 1.826972700655460358e-02 2.563670463860034943e-02 -8.323240093886852264e-03 -1.848277077078819275e-02 -6.323502957820892334e-02 -4.446205869317054749e-02 -8.739612251520156860e-02 -7.804805785417556763e-02 2.896487899124622345e-02 -5.028130114078521729e-02 1.590635627508163452e-01 -5.946883186697959900e-02 5.907624587416648865e-02 3.685916960239410400e-02 1.942639611661434174e-02 2.757527120411396027e-02 -9.986826032400131226e-02 -6.148536130785942078e-02 -7.490627467632293701e-02 4.515673592686653137e-02 5.453018099069595337e-02 9.013813734054565430e-02 -2.674953080713748932e-02 -3.851184388622641563e-03 -1.535476297140121460e-01 -1.323674321174621582e-01 -1.512659192085266113e-01 4.405067116022109985e-02 3.492151200771331787e-02 -5.967696011066436768e-02 8.936943858861923218e-02 -1.093947365880012512e-01 5.852717533707618713e-02 -1.536445617675781250e-01 -1.198199912905693054e-01 -1.835688203573226929e-01 -5.191407725214958191e-02 -1.403748095035552979e-01 2.522648684680461884e-02 -3.690183907747268677e-02 5.282456055283546448e-02 -9.505051374435424805e-02 1.730654388666152954e-01 -4.265244305133819580e-02 9.551919996738433838e-02 1.250627040863037109e-01 2.504662424325942993e-02 -1.081697344779968262e-01 -9.444303065538406372e-02 -7.121213525533676147e-02 -5.539539828896522522e-02 -1.401221305131912231e-01 1.552010979503393173e-02 -3.068886883556842804e-02 2.198478206992149353e-02 2.897161804139614105e-02 -1.233469173312187195e-01 6.375572830438613892e-02 -6.880918145179748535e-02 -1.305683702230453491e-01 -6.645702570676803589e-02
-6.120412424206733704e-02 7.049685716629028320e-02 8.739960379898548126e-03 -3.258539736270904541e-02 -1.435933411121368408e-01 -2.967204339802265167e-02 5.663866549730300903e-02 -7.944577932357788086e-02 4.591434448957443237e-02 1.487300246953964233e-01 -3.277065977454185486e-02 -1.313104573637247086e-02 5.356791988015174866e-02 -5.541526898741722107e-02 -1.256960034370422363e-01 -9.585283696651458740e-02 -1.351062506437301636e-01 1.070258468389511108e-01 -1.484214514493942261e-01 1.139902099967002869e-01 -1.119359731674194336e-01 1.255463249981403351e-02 9.095054864883422852e-02 -1.517874449491500854e-01 -6.748168915510177612e-02 -1.243373602628707886e-01 1.160395145416259766e-01 -1.291663646697998047e-01 -4.394781589508056641e-02 -7.483641617000102997e-03 -1.160564720630645752e-01 -1.451050490140914917e-01 -9.214910119771957397e-02 1.482019871473312378e-01 -6.604135781526565552e-02 4.603968188166618347e-02 -1.293569207191467285e-01 5.191575363278388977e-02 4.540869966149330139e-02 3.646921366453170776e-02 8.476686477661132812e-02 -1.431078165769577026e-01 -1.960294693708419800e-02 -6.387504935264587402e-02 1.661472767591476440e-01 -8.540228009223937988e-02 3.342535812407732010e-03 -4.745899885892868042e-02 -1.340305991470813751e-02 -2.183159813284873962e-02 -7.224769145250320435e-02 2.614227309823036194e-02 -5.021233111619949341e-02 1.463840603828430176e-01 -4.626477137207984924e-02 -3.731703385710716248e-02 -1.211986765265464783e-01 -1.004237160086631775e-01 -5.102926865220069885e-02 9.873154014348983765e-02 -9.950595349073410034e-02 -6.494243163615465164e-03 -1.631933003664016724e-01 -6.315437704324722290e-02
-1.132732853293418884e-01 8.982303552329540253e-03 1.166403144598007202e-01 -1.680653691291809082e-01 -3.456424549221992493e-02 3.580030798912048340e-02 -8.718588203191757202e-02 5.146283283829689026e-02 2.221411094069480896e-02 -1.089066714048385620e-01 5.904817208647727966e-02 2.391722798347473145e-02 -1.015468761324882507e-01 5.087122321128845215e-02 -8.178970962762832642e-02 1.438813954591751099e-01 -3.323259204626083374e-02 -7.248000800609588623e-02 -1.434336230158805847e-02 -6.854292470961809158e-03 -8.401691168546676636e-02 -8.665356040000915527e-02 4.300887882709503174e-02 3.990558534860610962e-02 -5.580226331949234009e-02 1.585246771574020386e-01 -1.188065335154533386e-01 -1.421937346458435059e-01 5.967789888381958008e-02 5.373702943325042725e-02 3.954219818115234375e-02 -3.868376463651657104e-02 1.543811112642288208e-01 6.258937716484069824e-02 -1.807060092687606812e-02 5.581357702612876892e-02 -1.657122746109962463e-02 -1.244904100894927979e-02 -4.432048648595809937e-02 -8.935421705245971680e-02 -6.262969970703125000e-02 -6.508151441812515259e-02 -1.368994079530239105e-02 -6.600733846426010132e-02 1.205431446433067322e-01 -5.321670323610305786e-02 1.446942687034606934e-01 -2.590311877429485321e-02 3.590741753578186035e-02 -3.068036865442991257e-03 -4.466623440384864807e-02 1.544025391340255737e-01 -6.486070901155471802e-02 9.847020730376243591e-03 -5.889454856514930725e-02 -1.758651435375213623e-02 -1.028054729104042053e-01 -1.174594238400459290e-01 8.854659646749496460e-02 -8.438928425312042236e-02 -6.298562884330749512e-02 -7.742875814437866211e-02 7.679518777877092361e-03 -7.896540313959121704e-02
-1.254913359880447388e-01 -4.288901761174201965e-02 -1.387235671281814575e-01 -2.928487770259380341e-02 -1.580706089735031128e-01 -1.434696167707443237e-01 9.547965973615646362e-02 1.047165468335151672e-01 -5.981312692165374756e-02 1.858011037111282349e-01 -7.058107107877731323e-02 -2.738191559910774231e-02 4.896100237965583801e-02 8.129655569791793823e-02 -1.253830045461654663e-01 -9.514541178941726685e-02 -3.598782420158386230e-02 -1.020736712962388992e-02 -1.704167760908603668e-02 -8.508616592735052109e-04 6.041237339377403259e-02 -1.426899582147598267e-01 -3.208314627408981323e-02 -8.179296553134918213e-02 -1.568520441651344299e-02 1.359865367412567139e-01 9.634535014629364014e-02 -1.563297212123870850e-01 -7.971262186765670776e-02 5.762030929327011108e-02 -2.148347906768321991e-02 6.759002059698104858e-02 -3.399061784148216248e-02 7.107158750295639038e-02 -1.742004007101058960e-01 -1.192719638347625732e-01 -1.043432578444480896e-01 -3.349970281124114990e-02 -8.336273021996021271e-03 2.092116773128509521e-01 -3.058943152427673340e-02 1.294849067926406860e-01 -2.664957009255886078e-02 -3.849774366244673729e-03 1.467178296297788620e-02 1.557011604309082031e-01 8.276953361928462982e-03 -1.293341815471649170e-01 4.314128682017326355e-02 -8.590026944875717163e-02 2.483593486249446869e-02 1.152102202177047729e-01 -9.563282132148742676e-02 6.069735810160636902e-02 -2.759457565844058990e-02 5.604669824242591858e-02 -5.965725332498550415e-02 -2.076058834791183472e-02 -1.116989478468894958e-01 -8.345615863800048828e-02 8.572264015674591064e-02 -1.233640238642692566e-01 -4.356823861598968506e-02 8.433271199464797974e-03
-1.659653484821319580e-01 6.020285561680793762e-02 -4.576082900166511536e-02 -3.286280483007431030e-02 5.719645693898200989e-02 -1.063798740506172180e-01 3.627006709575653076e-02 6.773880124092102051e-02 1.604291982948780060e-02 -5.545618012547492981e-03 9.620160609483718872e-02 4.137450456619262695e-02 1.420560777187347412e-01 5.824001971632242203e-03 -9.215661138296127319e-02 -8.573629893362522125e-03 -6.129854544997215271e-02 -1.442599762231111526e-02 -1.383592933416366577e-01 -2.738898620009422302e-02 6.163286045193672180e-02 -9.119652956724166870e-02 9.235495328903198242e-02 -1.402756124734878540e-01 -4.941799864172935486e-02 -9.729732573032379150e-02 4.684095829725265503e-02 2.290505170822143555e-02 -4.007417336106300354e-02 -4.477230831980705261e-02 -1.145670935511589050e-01 -1.694826334714889526e-01 9.231841564178466797e-02 1.122364178299903870e-01 -6.285704672336578369e-02 -1.835216209292411804e-02 8.234695345163345337e-02 -8.266521245241165161e-02 -1.072123423218727112e-01 -2.157896198332309723e-02 6.503292918205261230e-02 9.595828503370285034e-02 1.194100230932235718e-01 -1.306901276111602783e-01 1.740499138832092285e-01 -8.596210740506649017e-03 8.042106032371520996e-02 -9.642249345779418945e-02 6.776218861341476440e-02 -1.639126567170023918e-03 2.602320164442062378e-02 5.397513881325721741e-02 -1.003546044230461121e-01 1.633141487836837769e-01 6.084566563367843628e-02 1.227771490812301636e-02 2.053380757570266724e-02 -1.176137551665306091e-01 -6.817416846752166748e-02 1.669220067560672760e-02 -1.507048010826110840e-01 4.286356270313262939e-02 -2.821814827620983124e-02 -1.437527090311050415e-01
7.492249459028244019e-02 1.171946153044700623e-02 -6.948328763246536255e-02 -1.372938156127929688e-01 6.140225753188133240e-02 -9.748228639364242554e-02 2.587977237999439240e-02 1.204192638397216797e-01 -9.411251544952392578e-02 1.325836218893527985e-02 5.875668674707412720e-02 5.471701920032501221e-02 1.266382634639739990e-01 6.051527708768844604e-02 -4.721446707844734192e-02 9.430519491434097290e-02 1.037062183022499084e-01 3.826663363724946976e-03 5.790440738201141357e-02 -3.336567059159278870e-02 6.894281506538391113e-02 -4.129928722977638245e-02 2.464695647358894348e-02 -1.407969743013381958e-01 -1.316527426242828369e-01 4.718212410807609558e-02 -1.301716268062591553e-01 -6.233558431267738342e-02 -6.194761395454406738e-02 -8.437232673168182373e-02 -1.542688161134719849e-01 -4.953237995505332947e-02 1.780422478914260864e-01 9.580586105585098267e-02 -1.472004652023315430e-01 4.188933596014976501e-02 1.419473066926002502e-02 7.656797766685485840e-02 -6.323290616273880005e-02 1.343070119619369507e-01 -1.004802659153938293e-01 -1.035112962126731873e-01 -2.239316515624523163e-02 3.454647213220596313e-02 -3.148847445845603943e-02 2.205964028835296631e-01 8.047150820493698120e-02 -1.284209787845611572e-01 1.666051894426345825e-01 8.934193104505538940e-02 6.151588261127471924e-02 1.587357968091964722e-01 -1.377586126327514648e-01 1.035077646374702454e-01 8.268361538648605347e-02 6.423714756965637207e-02 8.016070723533630371e-02 -1.387946866452693939e-02 -3.401334211230278015e-02 -1.361280381679534912e-01 -1.237117350101470947e-01 3.670153021812438965e-02 5.366601049900054932e-02 5.446866527199745178e-02
5.284986924380064011e-03 -7.616517692804336548e-02 6.705684959888458252e-02 7.325609028339385986e-02 -5.880001559853553772e-02 4.197980463504791260e-02 -4.971790313720703125e-02 -1.064021214842796326e-01 -3.592938184738159180e-02 -1.328223105520009995e-02 8.660577237606048584e-02 -8.211670815944671631e-02 -1.105262935161590576e-01 1.991179771721363068e-02 -5.164647847414016724e-02 -9.320846199989318848e-02 -8.326098322868347168e-02 -1.167069226503372192e-01 -3.703010454773902893e-02 9.564037621021270752e-02 7.786437124013900757e-02 -8.146838843822479248e-02 7.249009609222412109e-02 1.993392966687679291e-02 7.264398783445358276e-02 -7.036594301462173462e-02 3.828686475753784180e-02 -1.207924485206604004e-01 -1.130655035376548767e-01 -1.737344563007354736e-01 -1.472325623035430908e-01 -1.347277909517288208e-01 2.015099823474884033e-01 -2.913335338234901428e-02 2.979364991188049316e-02 2.729177847504615784e-02 -3.150512650609016418e-02 7.185678184032440186e-02 4.156229645013809204e-02 2.809705329127609730e-04 -1.414576917886734009e-02 -6.467142701148986816e-02 8.843994885683059692e-02 2.805704623460769653e-02 1.035450100898742676e-01 5.328112468123435974e-02 -1.888426244258880615e-01 -4.450593143701553345e-02 5.237405002117156982e-02 -3.874893859028816223e-02 6.990458816289901733e-02 -4.626774042844772339e-02 -1.532845315523445606e-03 1.743102073669433594e-01 -1.165305227041244507e-01 -4.208828136324882507e-02 -1.069788783788681030e-01 -7.852540165185928345e-02 -1.213356330990791321e-01 -1.325020641088485718e-01 5.698551610112190247e-02 2.156006521545350552e-04 -6.027960684150457382e-03 1.145010516047477722e-01
-1.066333055496215820e-01 6.739656627178192139e-02 -2.372598461806774139e-02 -9.802436083555221558e-02 -1.362824887037277222e-01 -1.260548979043960571e-01 -1.513602770864963531e-02 2.666017971932888031e-02 1.718438044190406799e-02 1.548650264739990234e-01 -7.088306546211242676e-02 -1.658558696508407593e-01 1.500578820705413818e-01 1.952716894447803497e-02 8.338151127099990845e-02 1.968005858361721039e-02 8.073133230209350586e-02 -5.088341608643531799e-02 -1.150305271148681641e-01 -4.147265851497650146e-02 -1.595295369625091553e-01 -5.004952475428581238e-02 -8.542720973491668701e-02 -1.066174581646919250e-01 1.077227294445037842e-01 -1.068052053451538086e-01 5.045179277658462524e-02 -8.642490208148956299e-02 -3.456328809261322021e-02 1.589265279471874237e-02 -1.246111541986465454e-01 -2.451702393591403961e-02 -2.739204466342926025e-02 1.111269742250442505e-01 3.990645334124565125e-02 3.831141814589500427e-02 -9.001117944717407227e-02 -1.489500403404235840e-01 -1.100073307752609253e-01 1.103074774146080017e-01 -8.102383464574813843e-02 8.669334650039672852e-02 5.623790435492992401e-03 8.192515373229980469e-02 1.229178532958030701e-01 -5.589145049452781677e-02 -1.977968215942382812e-01 6.786886602640151978e-03 -5.470752716064453125e-02 -8.672390133142471313e-02 6.240087002515792847e-02 -4.976460710167884827e-02 -8.964487165212631226e-02 -4.518876597285270691e-02 -2.369913709117099643e-04 -8.268263190984725952e-02 -1.111450791358947754e-01 9.295626543462276459e-03 -1.625627875328063965e-01 1.583180390298366547e-02 -5.713962763547897339e-02 7.877668738365173340e-02 -1.692781746387481689e-01 -3.553552180528640747e-02
4.112749174237251282e-02 -1.249472796916961670e-01 2.473446168005466461e-02 -8.391431532800197601e-03 -1.277623325586318970e-01 9.269130229949951172e-02 4.470713809132575989e-02 -1.415802240371704102e-01 6.641492247581481934e-02 6.973204016685485840e-02 1.110536679625511169e-01 -1.207059696316719055e-01 -3.368699550628662109e-02 1.756427288055419922e-01 -2.263842150568962097e-02 -1.733472645282745361e-01 -3.158573433756828308e-02 1.354648768901824951e-01 -1.349630504846572876e-01 -5.093798413872718811e-02 -1.162404268980026245e-01 -7.894898205995559692e-02 1.171866357326507568e-01 -5.768762901425361633e-02 4.655335843563079834e-02 -9.624626487493515015e-02 1.188728287816047668e-01 -8.796397596597671509e-03 -1.103264093399047852e-01 6.696855276823043823e-02 -6.471802294254302979e-02 -1.306000947952270508e-01 7.945559918880462646e-02 1.395069360733032227e-01 -1.667974442243576050e-01 9.289582818746566772e-02 -1.476876586675643921e-01 -4.561721533536911011e-02 -2.223799936473369598e-02 1.570028066635131836e-01 -5.166742950677871704e-03 9.165142476558685303e-02 5.979727581143379211e-02 -1.476443409919738770e-01 -1.926852576434612274e-02 8.015718311071395874e-03 1.250164024531841278e-02 1.055846139788627625e-01 6.972943246364593506e-02 -5.983939021825790405e-02 2.566418610513210297e-02 7.020904868841171265e-02 -3.719080612063407898e-02 1.115148216485977173e-01 -9.676998853683471680e-02 -7.014732807874679565e-03 -1.688499003648757935e-01 1.023319661617279053e-01 1.242867298424243927e-02 -6.799081712961196899e-02 1.064161807298660278e-01 1.117629185318946838e-01 1.809170842170715332e-02 1.121749728918075562e-02
-1.479716151952743530e-01 -7.946480810642242432e-02 4.358574002981185913e-02 7.147866301238536835e-03 1.263448130339384079e-02 -1.264254450798034668e-01 8.789609186351299286e-03 -7.035204768180847168e-02 3.553358092904090881e-02 3.555686399340629578e-02 -1.212699785828590393e-01 3.448454290628433228e-02 9.007520042359828949e-03 1.420719623565673828e-01 -1.177274957299232483e-01 1.352708190679550171e-01 -1.234359219670295715e-01 -4.929995629936456680e-03 -3.546498715877532959e-02 -1.056375652551651001e-01 -3.521885350346565247e-02 3.613753989338874817e-02 9.332804381847381592e-02 -1.134850084781646729e-02 1.501232087612152100e-01 3.830769285559654236e-02 -3.513969480991363525e-02 -1.575420983135700226e-02 6.187465041875839233e-03 3.656183928251266479e-02 2.727991715073585510e-02 -4.369586333632469177e-02 1.589468866586685181e-01 3.692751377820968628e-02 -1.224616542458534241e-01 -7.962770015001296997e-02 -1.300845891237258911e-01 -9.830148518085479736e-02 -6.857061386108398438e-02 1.169360950589179993e-01 -3.205274790525436401e-02 6.318212300539016724e-02 6.609984487295150757e-02 -4.615753144025802612e-02 1.315494179725646973e-01 1.213769316673278809e-01 -1.923215948045253754e-02 8.714282512664794922e-02 1.578184068202972412e-01 1.195618323981761932e-02 -1.406784206628799438e-01 3.058321774005889893e-02 4.404579102993011475e-02 9.244681894779205322e-02 -9.976554661989212036e-02 4.891787096858024597e-02 -1.756977587938308716e-01 7.294171955436468124e-03 -9.298162907361984253e-02 -3.755247592926025391e-02 1.030200421810150146e-01 4.303609579801559448e-02 -2.666570059955120087e-02 1.697153784334659576e-02
-1.433830708265304565e-01 -1.157635673880577087e-01 3.032018244266510010e-02 -6.972355302423238754e-03 -1.668750941753387451e-01 6.985705345869064331e-02 -6.041346117854118347e-02 -1.272232681512832642e-01 -8.553086221218109131e-02 -5.388098955154418945e-02 2.332462556660175323e-02 -1.279433965682983398e-01 -7.900849729776382446e-02 6.590653210878372192e-02 -5.721803754568099976e-02 -6.739073991775512695e-02 1.374728828668594360e-01 -1.052332222461700439e-01 -1.274598836898803711e-01 9.968578815460205078e-02 5.710662808269262314e-03 -1.079752966761589050e-01 -5.111596733331680298e-02 4.937636852264404297e-02 -8.741913735866546631e-02 -4.618205595761537552e-03 -1.022115200757980347e-01 -1.230080947279930115e-01 1.107174083590507507e-01 2.352640777826309204e-02 2.748948335647583008e-02 -2.145912731066346169e-03 -3.523004055023193359e-02 1.572351157665252686e-01 6.140246987342834473e-02 1.435099840164184570e-01 7.319533824920654297e-02 -1.569686979055404663e-01 8.112334460020065308e-02 8.152962476015090942e-02 -2.468095719814300537e-02 4.415591806173324585e-02 -3.353806585073471069e-02 -1.046364232897758484e-01 7.972703874111175537e-02 5.936928838491439819e-02 3.598542138934135437e-02 2.833184413611888885e-02 4.065172374248504639e-02 -7.779201865196228027e-02 -2.539281733334064484e-02 -5.560268647968769073e-03 -4.277095571160316467e-02 8.498742431402206421e-02 1.041320785880088806e-01 6.285955756902694702e-02 5.239149183034896851e-02 -1.039456725120544434e-01 6.945805251598358154e-02 7.573652267456054688e-02 3.669429942965507507e-02 -7.262033224105834961e-02 6.981442868709564209e-02 -4.702768474817276001e-02
-6.681440863758325577e-03 -8.318348228931427002e-02 2.872587740421295166e-02 1.320869009941816330e-02 -1.289964616298675537e-01 -8.702245540916919708e-04 8.611899614334106445e-02 5.430191382765769958e-02 3.793458640575408936e-02 1.713199168443679810e-01 -1.176905166357755661e-02 -1.344252824783325195e-01 -1.078150570392608643e-01 6.584239751100540161e-02 1.070412173867225647e-01 -2.928720600903034210e-02 -1.004346907138824463e-01 8.838709443807601929e-02 7.828067988157272339e-02 -7.190556824207305908e-02 1.423752903938293457e-01 -1.217702180147171021e-01 6.598232779651880264e-03 -2.326734177768230438e-02 -1.833952590823173523e-02 8.517697453498840332e-03 4.013744369149208069e-02 -2.956392057240009308e-02 -1.199542209506034851e-01 -1.183041781187057495e-01 -1.505593955516815186e-01 6.104638427495956421e-02 1.884120553731918335e-01 1.382035017013549805e-02 -2.233983203768730164e-02 1.286370158195495605e-01 9.710951149463653564e-02 1.951988972723484039e-02 -1.381726861000061035e-01 8.753497898578643799e-02 -3.647280856966972351e-02 3.768950700759887695e-02 -1.342145055532455444e-01 -1.173789948225021362e-01 2.777733467519283295e-02 1.836569979786872864e-02 -1.722427457571029663e-01 6.178823299705982208e-03 -8.982172235846519470e-03 -3.277540206909179688e-02 2.100528450682759285e-03 1.398354172706604004e-01 -1.508389711380004883e-01 7.790788263082504272e-02 -5.793369188904762268e-02 -1.606368869543075562e-01 2.817206829786300659e-02 -1.149546078522689641e-04 -1.626874804496765137e-01 8.370723575353622437e-02 -7.381649315357208252e-02 -1.336118280887603760e-01 3.937776759266853333e-02 -9.479255974292755127e-02
5.829380080103874207e-02 1.074486970901489258e-01 1.955049298703670502e-02 -9.834978729486465454e-02 6.600658874958753586e-03 -1.682925671339035034e-01 -4.168435931205749512e-02 -8.982906490564346313e-02 6.616102904081344604e-02 2.055598497390747070e-01 4.898517951369285583e-02 -4.954968020319938660e-02 8.611749112606048584e-02 8.052364736795425415e-02 -3.917125985026359558e-02 5.865384638309478760e-02 6.938059628009796143e-02 9.276615083217620850e-02 3.388726711273193359e-02 -7.015378028154373169e-02 8.210363797843456268e-03 3.983268514275550842e-02 -1.114354655146598816e-01 -1.463037282228469849e-01 6.867692805826663971e-03 -1.556678907945752144e-03 5.326830595731735229e-02 -7.326826453208923340e-02 -1.383316963911056519e-01 -8.245263248682022095e-02 1.320332288742065430e-02 2.135707810521125793e-02 1.469872146844863892e-01 -1.751398481428623199e-02 4.669708386063575745e-02 5.604508146643638611e-02 3.160386532545089722e-02 -4.463090747594833374e-02 -5.244793370366096497e-03 1.765772700309753418e-01 4.986768215894699097e-02 -1.997332572937011719e-01 7.083190232515335083e-02 -4.257250204682350159e-02 -3.668119432404637337e-03 7.494349032640457153e-02 7.569547742605209351e-02 -4.539932310581207275e-02 1.999693959951400757e-01 -8.622086793184280396e-02 1.007888093590736389e-01 9.638442099094390869e-02 5.848472192883491516e-02 3.239805623888969421e-02 -5.602349713444709778e-02 -1.271963864564895630e-01 5.575692653656005859e-02 -9.067076444625854492e-02 -7.212747819721698761e-03 4.136737063527107239e-02 -4.715502634644508362e-02 -1.593104153871536255e-01 -8.765405416488647461e-02 3.460968611761927605e-03
-5.395070835947990417e-02 -1.375100691802799702e-03 1.160855665802955627e-01 -7.276229094713926315e-03 -9.040602296590805054e-02 -7.518490403890609741e-02 1.571296527981758118e-02 -8.574575930833816528e-02 7.362448424100875854e-02 1.814612597227096558e-01 -4.923689737915992737e-02 3.491935878992080688e-02 8.697441779077053070e-03 -7.417837530374526978e-02 -1.103208679705858231e-02 -4.222474060952663422e-03 1.017485838383436203e-02 -8.935314416885375977e-02 -1.672119945287704468e-01 4.590893909335136414e-02 -1.207775548100471497e-01 9.236223064363002777e-03 4.551845788955688477e-02 -1.548672169446945190e-01 -1.351999491453170776e-01 8.585966378450393677e-02 -6.788297742605209351e-02 -8.178082294762134552e-03 -1.699241809546947479e-02 -9.916285425424575806e-02 7.933694869279861450e-02 5.180044099688529968e-02 -2.628313004970550537e-02 5.293278768658638000e-02 1.550851669162511826e-02 -6.609687209129333496e-02 -4.698718339204788208e-02 1.055444031953811646e-01 -8.698082715272903442e-02 -7.166201621294021606e-02 -1.561217010021209717e-01 -1.744326204061508179e-02 -5.950258672237396240e-02 3.097508475184440613e-02 9.535976499319076538e-02 1.009106263518333435e-02 -1.558289378881454468e-01 -8.543609827756881714e-02 1.276976019144058228e-01 -1.385637521743774414e-01 -1.306603848934173584e-01 1.560800820589065552e-01 -3.378090262413024902e-02 -2.382945641875267029e-02 -1.681552380323410034e-01 -3.367498889565467834e-02 -1.383271068334579468e-01 -3.889702260494232178e-02 4.836980253458023071e-03 -6.605082750320434570e-02 -1.609122306108474731e-01 1.074753776192665100e-01 7.329045981168746948e-02 3.145478665828704834e-02
-6.044480018317699432e-03 3.162056207656860352e-02 8.574921637773513794e-02 -1.128975972533226013e-01 -2.832702361047267914e-03 -1.200966387987136841e-01 -9.994594752788543701e-02 -1.211457699537277222e-01 8.941440284252166748e-02 1.708157509565353394e-01 2.010192954912781715e-03 -2.498285472393035889e-02 -3.925700858235359192e-02 1.138873994350433350e-01 1.177533045411109924e-01 -9.193500131368637085e-02 1.002001687884330750e-01 -4.258534684777259827e-02 5.773223191499710083e-02 2.504329662770032883e-03 1.201602295041084290e-01 -9.376357495784759521e-02 4.747055843472480774e-02 -5.769276246428489685e-02 1.410705298185348511e-01 -8.956743031740188599e-02 9.337825328111648560e-02 -1.258363127708435059e-01 -1.107038464397192001e-02 6.027545407414436340e-02 -6.736547499895095825e-02 -8.485879004001617432e-02 1.867558509111404419e-01 8.938252925872802734e-02 7.452129572629928589e-02 -1.187735795974731445e-01 5.322090536355972290e-02 -8.541493117809295654e-02 9.831735864281654358e-03 7.757166773080825806e-02 -1.178974881768226624e-01 8.982738107442855835e-02 -4.400715604424476624e-02 7.445669174194335938e-02 -2.925200387835502625e-03 1.016356348991394043e-01 9.089910984039306641e-02 7.818768173456192017e-02 5.730816349387168884e-02 -8.985483646392822266e-02 7.183278352022171021e-02 1.528826951980590820e-01 -2.494471892714500427e-02 4.271638020873069763e-02 -1.717167943716049194e-01 -2.750419778749346733e-03 -1.422110348939895630e-01 -6.931793875992298126e-03 -4.231515154242515564e-02 -3.114862553775310516e-02 -2.580413408577442169e-02 -1.421451382339000702e-02 1.165393441915512085e-01 -1.988534443080425262e-02
-1.528001129627227783e-01 1.320050563663244247e-02 -8.331651240587234497e-02 -1.407980471849441528e-01 1.414372958242893219e-02 8.311167359352111816e-03 -7.051494717597961426e-02 8.184990147128701210e-04 -6.668477505445480347e-02 1.760500669479370117e-01 -5.611974373459815979e-02 -5.916845425963401794e-02 3.782280907034873962e-02 6.837976723909378052e-02 -1.507209986448287964e-01 -5.421445891261100769e-02 1.230603009462356567e-01 -5.967066437005996704e-02 5.900586768984794617e-02 -5.559174343943595886e-02 8.684432506561279297e-02 -6.410224735736846924e-02 -4.010168090462684631e-02 -2.447860129177570343e-02 1.072833985090255737e-01 -1.472728233784437180e-02 -1.372599154710769653e-01 -1.737824231386184692e-01 6.747715920209884644e-02 2.546439133584499359e-02 -1.567115783691406250e-01 1.251926273107528687e-02 1.686102002859115601e-01 -6.737931631505489349e-03 -1.335333138704299927e-01 -1.252959575504064560e-02 2.438503131270408630e-02 -6.361000239849090576e-02 -7.045780867338180542e-02 -3.970619291067123413e-02 2.811384759843349457e-02 -1.677736826241016388e-02 1.392424851655960083e-01 -9.255124628543853760e-02 9.727569296956062317e-03 8.139768987894058228e-02 -1.838609129190444946e-01 -6.068432331085205078e-02 -8.148188889026641846e-02 -1.081907674670219421e-01 -3.683676943182945251e-02 1.461607813835144043e-01 -4.936166107654571533e-02 -5.272617563605308533e-02 -1.510541588068008423e-01 1.714830845594406128e-02 5.754686146974563599e-02 4.071691259741783142e-02 -1.664578914642333984e-01 -8.787830173969268799e-02 6.666250526905059814e-02 -7.101331651210784912e-02 9.850661456584930420e-02 -1.135981529951095581e-01
-3.428125986829400063e-03 4.943093284964561462e-02 -2.851297333836555481e-02 -9.201381355524063110e-02 2.126466855406761169e-02 -8.967165648937225342e-02 7.642757147550582886e-02 1.463982462882995605e-01 -5.697586759924888611e-02 1.175535097718238831e-01 1.706752553582191467e-02 -1.650008857250213623e-01 -6.275293231010437012e-02 1.774140298366546631e-01 -4.687080532312393188e-02 2.301533473655581474e-03 3.321269899606704712e-02 -1.340628564357757568e-01 5.849201604723930359e-02 -1.344408839941024780e-01 -1.061178520321846008e-01 -6.069467216730117798e-02 7.579249143600463867e-02 -7.428596913814544678e-02 4.654308035969734192e-02 1.903528533875942230e-02 8.534634858369827271e-02 6.381636112928390503e-02 -4.001609049737453461e-03 -4.419948533177375793e-02 5.324616283178329468e-02 7.334578037261962891e-02 1.930859386920928955e-01 2.619011094793677330e-03 1.241819746792316437e-02 -1.539683341979980469e-01 -4.158958047628402710e-02 -9.384652227163314819e-02 9.198081493377685547e-02 5.360533483326435089e-03 -1.074915081262588501e-01 -1.758555620908737183e-01 -4.860299825668334961e-02 4.529680684208869934e-02 1.298923343420028687e-01 4.353129491209983826e-02 4.904225841164588928e-02 9.343080222606658936e-02 1.634640991687774658e-01 -1.562894880771636963e-01 -3.054429963231086731e-02 7.722435984760522842e-03 -1.934261061251163483e-02 1.306516584008932114e-02 6.495696306228637695e-02 -4.894560948014259338e-02 5.121132358908653259e-02 6.945341825485229492e-02 9.113128483295440674e-02 -6.462028715759515762e-03 4.110903665423393250e-02 -6.144106760621070862e-02 -1.071532890200614929e-01 6.177793815732002258e-02
3.606733679771423340e-02 -1.134600043296813965e-01 -9.299950301647186279e-02 -1.026382893323898315e-01 -9.422566741704940796e-02 8.736873418092727661e-02 -4.136588051915168762e-02 8.870843052864074707e-02 -1.563138067722320557e-01 5.849653854966163635e-03 -1.077641025185585022e-01 -4.680595174431800842e-02 -8.995934575796127319e-02 1.055325567722320557e-01 2.466657664626836777e-03 8.561456948518753052e-02 6.493544671684503555e-03 -1.099892854690551758e-01 -1.541218757629394531e-01 -7.327048480510711670e-02 -4.700545221567153931e-02 3.340513631701469421e-02 -4.115011915564537048e-02 -1.052494999021291733e-02 -1.112377494573593140e-01 -3.095481917262077332e-02 -1.188535019755363464e-01 -5.888799205422401428e-02 -1.145097017288208008e-01 -4.307005181908607483e-02 5.427313223481178284e-02 -1.121585606597363949e-03 6.094851344823837280e-02 1.065301224589347839e-01 -7.435574382543563843e-02 4.574631527066230774e-02 2.920035645365715027e-02 -1.051565930247306824e-01 9.638612717390060425e-02 8.796416968107223511e-02 -1.585248708724975586e-01 1.285692155361175537e-01 -7.619313150644302368e-02 -1.084290444850921631e-01 1.448629647493362427e-01 1.327925324440002441e-01 -1.319658756256103516e-02 -1.227991469204425812e-02 1.014180630445480347e-01 -8.476756513118743896e-02 -1.528703570365905762e-01 3.048804961144924164e-02 -1.360791474580764771e-01 1.351133733987808228e-01 -1.446064934134483337e-02 1.226724088191986084e-01 -9.427338838577270508e-02 9.324953705072402954e-02 -6.412784755229949951e-02 1.254806667566299438e-01 -3.847808390855789185e-02 -8.477263152599334717e-02 -3.009433113038539886e-02 -4.769600927829742432e-02
-8.643451333045959473e-02 2.808192372322082520e-02 3.401806950569152832e-02 -7.569082081317901611e-02 -1.090268343687057495e-01 -1.091885846108198166e-02 -1.443681120872497559e-01 -8.312313258647918701e-02 6.535678356885910034e-02 1.272372305393218994e-01 1.077213361859321594e-01 -1.519744843244552612e-01 2.152768662199378014e-03 -9.524506167508661747e-04 -7.466980069875717163e-02 -1.825954020023345947e-01 -8.375489711761474609e-02 1.287409067153930664e-01 9.054921567440032959e-02 3.429066389799118042e-02 5.012591555714607239e-02 -3.462117165327072144e-02 -1.440478563308715820e-01 1.985236769542098045e-03 8.615910261869430542e-02 -3.692725673317909241e-02 9.799780696630477905e-02 1.715893857181072235e-02 5.328505486249923706e-02 8.360986411571502686e-02 -1.156548485159873962e-01 -8.449945598840713501e-02 8.922850340604782104e-02 1.230713427066802979e-01 -5.411677062511444092e-02 4.141192883253097534e-02 -7.874196767807006836e-02 1.468079537153244019e-01 -1.584112197160720825e-01 1.372543275356292725e-01 -2.742510661482810974e-02 -6.932684779167175293e-02 -9.563653171062469482e-02 7.588613778352737427e-02 5.645153671503067017e-02 1.674007624387741089e-01 -4.350733757019042969e-02 -9.496009349822998047e-02 -9.434526786208152771e-03 4.053583368659019470e-02 -1.094837859272956848e-01 5.940764024853706360e-02 -1.496935188770294189e-01 -4.057971015572547913e-02 -1.169102173298597336e-02 -8.049374818801879883e-02 -1.331333518028259277e-01 -1.023648902773857117e-01 6.757645308971405029e-02 5.468269810080528259e-02 3.578531323000788689e-04 -1.676415838301181793e-02 6.871217489242553711e-02 -2.394561842083930969e-02
-1.649908572435379028e-01 -1.101811677217483521e-01 1.890512369573116302e-02 1.492060348391532898e-02 1.478459127247333527e-02 -1.356858313083648682e-01 -1.436566561460494995e-01 -1.498120427131652832e-01 -1.556614488363265991e-01 1.238260269165039062e-01 -9.575361758470535278e-02 -9.276049584150314331e-02 2.306395210325717926e-03 -6.271933019161224365e-02 -1.435626000165939331e-01 7.220143079757690430e-02 -6.304321438074111938e-02 3.740421961992979050e-03 -5.367608368396759033e-02 5.678857490420341492e-02 -5.316313728690147400e-02 6.980185955762863159e-02 -1.075798198580741882e-01 -1.379653066396713257e-01 -3.962302580475807190e-02 -6.272410601377487183e-02 -6.544348597526550293e-02 -1.594919115304946899e-01 -4.112867638468742371e-02 -6.240586191415786743e-02 -4.584787413477897644e-02 -4.340714961290359497e-02 1.939346641302108765e-02 1.584529429674148560e-01 -9.352684020996093750e-02 2.930714050307869911e-03 -6.621957570314407349e-02 5.896092392504215240e-03 6.743193953298032284e-04 1.232193410396575928e-01 -1.652350425720214844e-01 1.100744828581809998e-01 4.228375107049942017e-02 7.934448309242725372e-03 5.488905683159828186e-02 -5.472120642662048340e-02 4.544467106461524963e-02 9.540197253227233887e-02 1.410444080829620361e-01 -1.102639138698577881e-01 8.254662901163101196e-02 6.238060444593429565e-02 4.984885826706886292e-02 1.574264913797378540e-01 3.049784898757934570e-02 9.645299613475799561e-02 -1.145288124680519104e-01 2.164669800549745560e-03 7.124758511781692505e-02 1.546014994382858276e-01 1.023274138569831848e-01 8.547280915081501007e-03 -7.838129997253417969e-02 6.085802242159843445e-02
-1.235095784068107605e-01 5.645947158336639404e-02 3.437406942248344421e-02 -9.701215475797653198e-02 4.106021672487258911e-02 -2.279559383168816566e-03 6.410290300846099854e-02 -1.148020103573799133e-01 -1.402368098497390747e-01 -3.617220744490623474e-02 -6.201509758830070496e-02 -1.924723200500011444e-02 -4.062917828559875488e-02 1.490178555250167847e-01 9.414945729076862335e-03 9.954901039600372314e-02 -9.182003885507583618e-02 8.522509038448333740e-02 -8.478283137083053589e-02 -2.859439328312873840e-02 -2.161245793104171753e-02 -7.431332021951675415e-02 6.612988654524087906e-03 -8.506578952074050903e-02 -1.003056913614273071e-01 -1.796307973563671112e-02 6.227172911167144775e-02 -1.473984718322753906e-01 5.328895896673202515e-02 -4.087568074464797974e-02 9.863736480474472046e-02 -3.569700941443443298e-02 1.339128464460372925e-01 1.405958235263824463e-01 -4.194347187876701355e-02 -7.873939722776412964e-02 -1.618426740169525146e-01 1.878828182816505432e-02 3.156995773315429688e-02 -3.330076485872268677e-02 -2.326284721493721008e-02 -1.023617312312126160e-01 -4.896460473537445068e-02 -1.213199868798255920e-01 1.413058340549468994e-01 -8.816237747669219971e-02 -6.476836651563644409e-02 -6.088580191135406494e-02 -1.059904471039772034e-01 8.982061594724655151e-02 -6.318135559558868408e-02 -2.863371744751930237e-02 2.417431958019733429e-02 1.303674429655075073e-01 3.479911386966705322e-02 3.041432984173297882e-02 -1.785769313573837280e-01 1.770323608070611954e-03 -1.153738573193550110e-01 3.434258326888084412e-02 -9.374351799488067627e-02 1.220816373825073242e-01 2.931686490774154663e-02 3.640614449977874756e-02
-2.098126523196697235e-02 7.331452518701553345e-02 -1.190814971923828125e-01 6.799902766942977905e-02 3.283940255641937256e-02 -2.083519659936428070e-02 5.933493375778198242e-02 6.416948512196540833e-03 9.624607861042022705e-02 8.598960936069488525e-03 -1.252112537622451782e-01 -1.152440160512924194e-01 -8.875698596239089966e-02 8.386760205030441284e-02 1.198827177286148071e-01 -5.540461465716362000e-02 1.084175109863281250e-01 -1.080288514494895935e-01 1.153238937258720398e-01 -3.700467944145202637e-02 1.090943142771720886e-01 -3.659372031688690186e-02 9.007658064365386963e-02 6.642274558544158936e-02 4.744765907526016235e-02 -3.562131524085998535e-02 -6.264067441225051880e-02 -4.796373099088668823e-02 4.691255092620849609e-02 -9.378124028444290161e-02 7.429251819849014282e-02 -1.089205667376518250e-01 -5.138823296874761581e-03 9.531886875629425049e-02 6.640806532232090831e-05 -6.971664261072874069e-04 3.563110902905464172e-02 1.530066598206758499e-02 1.108977943658828735e-01 5.331036169081926346e-03 -1.419079490005970001e-02 -1.622051596641540527e-01 -2.151947841048240662e-02 -2.451363019645214081e-02 1.035911664366722107e-01 -5.389871075749397278e-03 -8.514854125678539276e-03 8.055925369262695312e-02 4.597893729805946350e-02 -4.640647023916244507e-02 -8.305820822715759277e-02 1.749510467052459717e-01 -4.358240589499473572e-02 2.016102336347103119e-02 -4.905627667903900146e-02 -9.982699900865554810e-02 -1.680537760257720947e-01 -1.205481961369514465e-01 3.840995207428932190e-02 4.993761703372001648e-02 -1.116386279463768005e-01 -1.792935580015182495e-01 4.216985031962394714e-02 -6.569055467844009399e-02
1.102794054895639420e-02 2.904051914811134338e-02 1.116494312882423401e-01 3.334468975663185120e-02 5.660529434680938721e-02 -8.315578848123550415e-02 4.097763076424598694e-02 1.474103927612304688e-01 -1.406948566436767578e-01 4.567261412739753723e-02 7.720878720283508301e-02 -5.017677694559097290e-02 -6.736362725496292114e-02 -1.155777554959058762e-02 2.734883874654769897e-02 5.868071690201759338e-02 -4.923152551054954529e-02 -6.948974728584289551e-02 -7.406847923994064331e-02 3.653937205672264099e-02 -1.067108139395713806e-01 -1.039737612009048462e-01 9.374593943357467651e-02 -4.282175377011299133e-02 -4.300998698454350233e-04 -1.175623834133148193e-01 -6.941871345043182373e-02 -1.253802180290222168e-01 -8.621562272310256958e-02 -1.458430588245391846e-01 9.924297034740447998e-02 -3.722672536969184875e-02 1.758061908185482025e-02 7.409800589084625244e-02 3.689219802618026733e-02 -1.370576117187738419e-02 -1.086562573909759521e-01 -8.156372606754302979e-02 5.753159988671541214e-03 1.741599887609481812e-01 -1.745148152112960815e-01 -2.430667914450168610e-02 -6.783395260572433472e-02 -1.722357608377933502e-02 1.722196787595748901e-01 -4.264106601476669312e-02 -5.162658169865608215e-02 -3.389859199523925781e-02 8.577882498502731323e-02 -5.967039149254560471e-03 -6.797197461128234863e-02 1.874844580888748169e-01 -1.130744069814682007e-02 -1.575862988829612732e-02 3.156311437487602234e-02 -2.691350132226943970e-02 -1.319320499897003174e-01 -4.524467140436172485e-02 -5.930650979280471802e-02 1.245815232396125793e-01 -3.133925795555114746e-02 -8.821172267198562622e-02 -5.359898507595062256e-02 -3.824298037216067314e-03
-1.701937764883041382e-01 -1.753607951104640961e-02 -1.170891150832176208e-01 2.326330356299877167e-02 -5.685870349407196045e-02 -1.145415231585502625e-01 -1.944671943783760071e-02 3.386196121573448181e-02 1.158635690808296204e-01 -3.338852152228355408e-02 -6.044992804527282715e-02 -1.767688617110252380e-02 1.426717638969421387e-01 7.239405065774917603e-02 -4.251700267195701599e-02 -1.563986986875534058e-01 -1.548533886671066284e-01 3.352395258843898773e-03 6.028550490736961365e-02 4.376087337732315063e-02 -9.907717816531658173e-03 5.000399798154830933e-02 -8.429541438817977905e-02 5.620364844799041748e-02 -1.164713427424430847e-01 -1.343014538288116455e-01 -1.397428512573242188e-01 -7.815048843622207642e-02 -5.589629709720611572e-02 -1.215318739414215088e-01 1.803506724536418915e-02 3.091893158853054047e-02 4.317798838019371033e-02 1.099151819944381714e-01 -1.239724680781364441e-01 -2.366364700719714165e-03 -4.971173405647277832e-02 -7.116929441690444946e-02 -3.089209273457527161e-02 -4.221869260072708130e-02 -1.734427660703659058e-01 1.097522154450416565e-01 -1.203526835888624191e-02 4.831131920218467712e-02 2.194870635867118835e-02 1.740625500679016113e-01 8.602841198444366455e-02 5.938215553760528564e-02 5.338406190276145935e-02 -7.568766176700592041e-02 -6.697241682559251785e-03 2.087854593992233276e-02 -5.862373486161231995e-02 1.902015358209609985e-01 -1.036894693970680237e-01 3.544383496046066284e-02 4.149649664759635925e-02 -2.782234549522399902e-02 2.745835110545158386e-02 -1.143786963075399399e-02 5.946782976388931274e-02 -5.956843495368957520e-02 -5.288825556635856628e-02 -7.181494683027267456e-02
3.758705407381057739e-02 1.376894861459732056e-01 -4.819070920348167419e-03 -4.907756671309471130e-02 -1.457378268241882324e-01 -7.405497878789901733e-02 1.354044228792190552e-01 -2.995072118937969208e-02 9.558483958244323730e-02 1.200270652770996094e-01 -2.073909342288970947e-02 -1.801296323537826538e-01 -8.157053589820861816e-02 8.065399527549743652e-02 -1.278757583349943161e-02 -1.111064106225967407e-01 -1.567517817020416260e-01 1.300768554210662842e-01 8.796373009681701660e-02 -1.425429135560989380e-01 -1.324145197868347168e-01 2.097463607788085938e-02 -9.058774448931217194e-03 5.174117162823677063e-02 1.174533441662788391e-01 -6.784310936927795410e-02 5.478595267049968243e-04 -1.248306110501289368e-01 -1.432556807994842529e-01 -7.399179786443710327e-02 -1.532252132892608643e-01 7.584291044622659683e-03 5.646382272243499756e-02 -4.453543573617935181e-02 7.225350290536880493e-02 -1.300577819347381592e-01 6.077244505286216736e-02 2.550886385142803192e-02 1.094172522425651550e-01 9.997268766164779663e-02 6.969255954027175903e-02 -8.518157154321670532e-02 -1.270557343959808350e-01 -2.029886841773986816e-02 5.614850670099258423e-02 -9.003801643848419189e-02 -8.842755854129791260e-02 -1.423406451940536499e-01 1.318414956331253052e-01 1.286053471267223358e-02 -3.023765049874782562e-02 4.123969934880733490e-03 -4.177492111921310425e-02 1.497022062540054321e-01 -1.650219969451427460e-02 8.283225819468498230e-03 8.710972964763641357e-02 8.725415170192718506e-02 6.356403231620788574e-02 1.550588291138410568e-02 -9.280576556921005249e-02 5.080601572990417480e-02 -8.940733969211578369e-02 6.397271901369094849e-02
-1.244480833411216736e-01 5.235319212079048157e-02 -9.607136249542236328e-02 -7.635476440191268921e-02 -1.089309304952621460e-01 1.245656087994575500e-01 2.803401090204715729e-02 -8.095042407512664795e-02 7.415076345205307007e-02 1.532322317361831665e-01 5.471946671605110168e-02 7.057284563779830933e-02 7.779838144779205322e-02 -4.987595975399017334e-02 -1.319255828857421875e-01 3.233776241540908813e-02 4.359338432550430298e-02 -7.641863077878952026e-02 3.378288447856903076e-02 -1.009835526347160339e-01 8.971706032752990723e-02 -8.342251926660537720e-02 -1.688687801361083984e-01 -6.760019063949584961e-02 1.417400389909744263e-01 1.201051473617553711e-02 4.959400370717048645e-02 -1.114932224154472351e-01 6.005015969276428223e-02 -3.668162971735000610e-02 -5.702343955636024475e-02 -1.916004531085491180e-02 -2.733704261481761932e-02 -1.544032990932464600e-02 -8.481041342020034790e-02 -4.381785169243812561e-02 -1.503011286258697510e-01 -7.299791276454925537e-02 -5.779866129159927368e-02 1.763745844364166260e-01 -2.205517515540122986e-02 -1.586084663867950439e-01 9.659545868635177612e-02 -8.458326011896133423e-02 1.659955233335494995e-01 1.680700778961181641e-01 -8.114868402481079102e-02 -1.121374964714050293e-01 9.646660834550857544e-02 -2.452940493822097778e-02 7.144486904144287109e-02 1.969456821680068970e-01 5.666860938072204590e-02 1.846620738506317139e-01 -1.614408940076828003e-02 1.372956484556198120e-01 -1.178194284439086914e-01 1.119614616036415100e-01 -1.534264087677001953e-01 6.034943088889122009e-02 1.190563291311264038e-01 -8.056285232305526733e-02 -2.991251461207866669e-02 -1.245744153857231140e-01
-1.027876958250999451e-01 -3.577714040875434875e-02 -1.042101457715034485e-01 -1.466918140649795532e-01 -7.626645267009735107e-02 -4.733515158295631409e-02 7.423041760921478271e-02 3.250071033835411072e-02 -1.909601539373397827e-01 -5.809073895215988159e-02 2.500760182738304138e-02 -1.130534335970878601e-01 -4.053778015077114105e-03 5.432754755020141602e-02 1.101873740553855896e-01 -2.080263337120413780e-03 8.806000649929046631e-02 -6.792556028813123703e-03 1.026062071323394775e-01 1.141692548990249634e-01 -3.622423857450485229e-02 -3.504319489002227783e-02 2.447069250047206879e-02 -1.678473949432373047e-01 -9.440529346466064453e-02 1.070888116955757141e-01 -1.278110742568969727e-01 -1.393047422170639038e-01 -9.692607820034027100e-02 -9.622284024953842163e-02 -1.210103332996368408e-01 7.769665122032165527e-02 1.872261464595794678e-01 6.368290632963180542e-02 2.182606607675552368e-02 1.450717635452747345e-02 -2.303984202444553375e-02 1.962135918438434601e-02 -2.552665024995803833e-02 1.432921290397644043e-01 5.283150821924209595e-02 -1.487627923488616943e-01 -1.242977082729339600e-01 5.460981652140617371e-02 -3.013280965387821198e-02 1.632142812013626099e-01 2.500410564243793488e-02 -1.053617000579833984e-01 1.383765134960412979e-02 -1.336067169904708862e-02 -4.557564854621887207e-02 -6.541126873344182968e-03 -5.723633244633674622e-02 1.506350785493850708e-01 -6.147946231067180634e-03 -3.025498986244201660e-02 -2.047266811132431030e-02 7.506734132766723633e-02 -9.498815983533859253e-02 -6.538655143231153488e-04 1.047594174742698669e-01 -1.618613116443157196e-02 4.723634198307991028e-02 -1.592222750186920166e-01
-4.161628312431275845e-04 6.139892619103193283e-03 -1.593452394008636475e-01 6.321749836206436157e-02 -3.134561330080032349e-02 7.989705353975296021e-02 -1.003897190093994141e-01 -1.095399037003517151e-01 -7.161720842123031616e-02 8.091176301240921021e-02 7.208818942308425903e-02 4.179355874657630920e-02 -4.001779481768608093e-02 5.088868737220764160e-02 -5.647579953074455261e-02 1.081175953149795532e-01 8.966293931007385254e-02 8.481255173683166504e-02 1.762850582599639893e-02 1.424987316131591797e-01 -1.096210479736328125e-01 -1.671535968780517578e-01 -9.928134828805923462e-02 -1.615703701972961426e-01 3.330742940306663513e-02 -4.056085832417011261e-03 -2.214756561443209648e-03 -1.262648403644561768e-01 -1.470026224851608276e-01 -7.390940934419631958e-02 7.355139404535293579e-02 -5.294902715831995010e-03 1.542101055383682251e-01 1.732595413923263550e-01 5.622975528240203857e-02 3.765092790126800537e-02 -1.525887399911880493e-01 8.329694718122482300e-02 -7.266849279403686523e-02 1.018663644790649414e-01 6.170864403247833252e-02 2.111354283988475800e-02 6.759640574455261230e-02 -6.720095872879028320e-02 1.765674203634262085e-01 9.312329441308975220e-02 3.126478195190429688e-02 1.051347553730010986e-01 -5.912915244698524475e-02 -4.684232175350189209e-02 -1.212036237120628357e-01 -4.013349488377571106e-02 1.874726638197898865e-02 8.014312386512756348e-02 -9.494527429342269897e-02 -1.179183088243007660e-02 -1.780278533697128296e-01 8.043020032346248627e-03 1.108685135841369629e-02 -2.319295890629291534e-02 2.409386821091175079e-02 6.975287944078445435e-02 -1.016338542103767395e-01 -1.541506201028823853e-01
-5.985534936189651489e-02 -2.511096745729446411e-02 4.438698757439851761e-03 -2.340256981551647186e-02 -4.159054718911647797e-03 1.538475695997476578e-02 -1.032618805766105652e-02 1.474442929029464722e-01 -1.603657603263854980e-01 -3.618904575705528259e-02 -1.014348305761814117e-02 -1.083911955356597900e-01 -1.135510131716728210e-01 5.829840153455734253e-02 -2.602072991430759430e-02 1.249297782778739929e-01 7.375086843967437744e-02 1.487359288148581982e-03 -1.877185255289077759e-01 -8.798868209123611450e-02 -5.676383525133132935e-02 -1.003551706671714783e-01 1.057395413517951965e-01 -8.400791883468627930e-02 -5.292393732815980911e-03 -2.480299212038516998e-02 -3.918520361185073853e-02 3.642186149954795837e-02 -5.813270062208175659e-02 6.760688871145248413e-02 -1.303327530622482300e-01 -5.126394703984260559e-02 3.678758814930915833e-02 1.539069861173629761e-01 -8.020728826522827148e-02 -5.784446373581886292e-02 -1.439742147922515869e-01 1.274734437465667725e-01 -6.878720968961715698e-02 1.349972337484359741e-01 -1.328007429838180542e-01 9.759119898080825806e-02 -1.161329150199890137e-01 3.041393123567104340e-02 -3.546885401010513306e-02 -4.037310183048248291e-02 3.355154767632484436e-02 -1.502966433763504028e-01 2.236837297677993774e-01 -1.017123311758041382e-01 8.959779888391494751e-02 1.617909967899322510e-01 1.206185575574636459e-02 3.337898850440979004e-02 4.944181069731712341e-02 -5.093584954738616943e-02 -2.809881046414375305e-02 -1.182333752512931824e-01 3.415004536509513855e-02 2.462449483573436737e-02 -3.603687882423400879e-02 -4.004907328635454178e-03 -1.013712510466575623e-01 -2.273142151534557343e-02
7.000323385000228882e-02 7.030471414327621460e-02 6.150138005614280701e-02 -1.394674479961395264e-01 -1.514405608177185059e-01 9.745370596647262573e-02 -9.737259894609451294e-02 -4.053457453846931458e-02 8.789501339197158813e-02 5.953502375632524490e-03 -3.000442869961261749e-02 1.306020095944404602e-02 1.328527480363845825e-01 -7.292123883962631226e-02 1.339222788810729980e-01 -1.052662283182144165e-01 8.990298025310039520e-03 -1.398356258869171143e-01 -1.809795349836349487e-01 -1.223593503236770630e-01 5.271616578102111816e-02 -7.503580302000045776e-02 8.517113327980041504e-02 -4.702039062976837158e-02 6.361986044794321060e-03 -1.660146266222000122e-01 -3.786828741431236267e-02 -1.124556511640548706e-01 -3.501727804541587830e-02 3.549668006598949432e-03 1.020000874996185303e-01 6.974594295024871826e-02 6.740904599428176880e-02 -3.699499368667602539e-02 -1.643783152103424072e-01 -9.477707743644714355e-02 4.858373478055000305e-02 -1.324116736650466919e-01 1.236991137266159058e-01 1.667640060186386108e-01 7.093121111392974854e-02 6.658668071031570435e-02 -1.031577363610267639e-01 7.337289303541183472e-02 3.843994066119194031e-02 1.107980534434318542e-01 -3.025827929377555847e-02 -6.886675208806991577e-02 3.567670285701751709e-02 -1.050568893551826477e-01 -9.284685552120208740e-02 8.826171606779098511e-02 -1.022015139460563660e-01 1.929721981287002563e-01 1.280386932194232941e-02 -4.945596680045127869e-02 -1.292276084423065186e-01 5.450971424579620361e-02 -1.264795362949371338e-01 -1.061297580599784851e-02 8.977049589157104492e-02 7.412208616733551025e-02 6.461138278245925903e-02 -7.597544044256210327e-02
-1.537576317787170410e-01 6.883382052183151245e-02 1.096862833946943283e-02 -7.442130148410797119e-02 5.134518444538116455e-02 1.107591465115547180e-01 -1.140354871749877930e-01 -1.475519090890884399e-01 -1.863396726548671722e-02 1.616011410951614380e-01 5.152583122253417969e-02 -1.543272733688354492e-01 9.413217753171920776e-02 1.595032513141632080e-01 -2.552425488829612732e-02 -1.347442418336868286e-01 -1.035443842411041260e-01 -3.797914832830429077e-02 -9.983906894922256470e-02 -6.537293642759323120e-02 -9.012244641780853271e-02 -4.825403168797492981e-02 1.013646461069583893e-02 -5.272668972611427307e-02 -3.878477588295936584e-02 5.283704400062561035e-02 9.301815181970596313e-02 -1.721461489796638489e-02 7.669105380773544312e-02 -1.770396530628204346e-01 1.872318238019943237e-02 -8.231643587350845337e-02 1.000963002443313599e-01 1.353343427181243896e-01 -6.260886043310165405e-02 -2.507569640874862671e-02 6.247050315141677856e-02 4.871577769517898560e-02 1.428785920143127441e-01 4.340838640928268433e-02 -1.217353940010070801e-01 -1.408369932323694229e-02 -2.013213746249675751e-02 6.750457733869552612e-02 -4.732579737901687622e-02 -6.846918165683746338e-02 5.239781923592090607e-03 -5.748010799288749695e-02 -3.457801043987274170e-02 -5.328521504998207092e-02 -3.619648143649101257e-02 1.270131766796112061e-01 -2.638911083340644836e-02 4.787860065698623657e-02 -9.441542625427246094e-02 -1.485272496938705444e-01 -6.076499447226524353e-02 -1.250834912061691284e-01 -1.195664703845977783e-02 8.965124189853668213e-02 1.454214900732040405e-01 -1.428586896508932114e-02 -7.026619743555784225e-03 -5.610804632306098938e-02
2.367193810641765594e-02 3.124474920332431793e-02 -8.284723013639450073e-02 9.148731082677841187e-02 -5.200779438018798828e-02 1.067050471901893616e-01 -4.118685424327850342e-02 2.158738672733306885e-02 -1.028605103492736816e-01 1.364339590072631836e-01 9.036469459533691406e-02 8.507817238569259644e-02 -1.377271860837936401e-01 1.747393757104873657e-01 1.158897578716278076e-01 -4.971938952803611755e-02 -5.375330150127410889e-02 7.092117518186569214e-02 5.029500648379325867e-02 8.788098394870758057e-02 1.286243647336959839e-01 -1.083758566528558731e-02 -1.277457177639007568e-01 8.901789784431457520e-02 6.433306634426116943e-02 -1.544245146214962006e-02 -6.489467620849609375e-02 5.749654769897460938e-02 -8.008470758795738220e-03 5.003682803362607956e-03 7.464931905269622803e-02 4.699276387691497803e-02 -7.242996245622634888e-02 2.025309018790721893e-02 -6.536481529474258423e-02 -1.393571645021438599e-01 -7.543045282363891602e-02 -1.393831372261047363e-01 7.043316215276718140e-02 5.521844699978828430e-02 -5.747877061367034912e-02 -1.196918636560440063e-01 -6.005047634243965149e-02 -1.366140991449356079e-01 -2.247191965579986572e-02 -5.625033378601074219e-02 2.213835529983043671e-02 -1.105188801884651184e-01 3.898553550243377686e-02 -1.042061746120452881e-01 -9.840383380651473999e-02 9.699240326881408691e-02 -1.053657829761505127e-01 3.918430767953395844e-03 -8.951529115438461304e-02 -1.365291774272918701e-01 -1.372052729129791260e-01 4.271643981337547302e-02 -1.501493602991104126e-01 -9.882835298776626587e-02 3.041995503008365631e-02 1.419065147638320923e-01 5.079154297709465027e-02 -8.097304403781890869e-02
-5.488285422325134277e-02 -4.973715171217918396e-03 5.528881028294563293e-02 -1.529506146907806396e-01 -1.218068674206733704e-01 8.018574118614196777e-02 -1.466525346040725708e-01 8.845527656376361847e-03 3.040228039026260376e-02 2.273549884557723999e-02 -5.333066731691360474e-02 -1.506654620170593262e-01 -2.767057530581951141e-02 -2.952372655272483826e-02 -8.471447974443435669e-02 3.916439041495323181e-02 8.450099825859069824e-02 6.881227716803550720e-03 -1.524164061993360519e-02 4.069014266133308411e-02 5.690428987145423889e-02 7.696821703575551510e-04 -1.058308780193328857e-01 7.983293384313583374e-02 8.783112466335296631e-02 5.106211826205253601e-02 -1.388253569602966309e-01 8.779165148735046387e-02 -6.100188195705413818e-02 -3.957773745059967041e-02 -1.602815836668014526e-01 1.983134075999259949e-02 2.103552520275115967e-01 6.317760050296783447e-02 -5.291032791137695312e-02 -3.537010028958320618e-02 1.573400758206844330e-02 -1.686879843473434448e-01 -1.437195092439651489e-01 1.875832676887512207e-01 -9.489203989505767822e-02 9.385153651237487793e-02 -1.522750128060579300e-02 -4.222789406776428223e-02 2.034579366445541382e-01 9.290008246898651123e-02 -8.861440420150756836e-02 3.345794975757598877e-02 1.319455355405807495e-01 3.456004709005355835e-02 5.673669744282960892e-03 1.574074327945709229e-01 -7.721647620201110840e-02 1.044122315943241119e-02 9.160057455301284790e-02 -3.220045566558837891e-02 -1.343676447868347168e-01 -1.185265779495239258e-01 2.258864790201187134e-02 -5.361339449882507324e-02 9.068212658166885376e-02 1.703895628452301025e-02 -3.795337677001953125e-02 9.831941127777099609e-02
-2.834367007017135620e-02 -7.130544632673263550e-02 5.948052182793617249e-02 -4.183895513415336609e-02 5.985095724463462830e-02 1.359837246127426624e-03 -3.745654225349426270e-02 4.789041355252265930e-02 2.706976979970932007e-02 1.295071691274642944e-01 -1.365318298339843750e-01 -2.392582036554813385e-02 -8.824402093887329102e-02 1.163259819149971008e-01 3.228178620338439941e-02 -1.118857711553573608e-01 -7.547878473997116089e-02 -7.548499107360839844e-02 -3.465133532881736755e-02 -3.104183077812194824e-02 -1.034990623593330383e-01 6.902924925088882446e-02 -1.020496524870395660e-02 6.050424650311470032e-02 1.408461928367614746e-01 -7.018399238586425781e-02 -4.802419617772102356e-02 5.862109363079071045e-03 6.053890660405158997e-02 -1.081536561250686646e-01 -9.059701114892959595e-02 -5.022916942834854126e-02 6.676862388849258423e-02 -6.018939241766929626e-02 -2.257042005658149719e-02 5.918780714273452759e-02 -3.497628122568130493e-02 3.906639665365219116e-02 -7.576911710202693939e-03 1.251834630966186523e-01 -1.658924072980880737e-01 -1.653746701776981354e-02 -7.006119191646575928e-02 -8.923017885535955429e-04 7.566758990287780762e-02 8.804309368133544922e-02 -1.312225684523582458e-02 -1.721949502825737000e-02 1.399800330400466919e-01 2.024781890213489532e-03 9.903819859027862549e-02 5.118090286850929260e-02 -1.222793161869049072e-01 9.143293648958206177e-02 -1.498908847570419312e-01 -5.168654490262269974e-03 5.967555567622184753e-02 -8.354862034320831299e-02 3.157829493284225464e-02 -5.885057523846626282e-02 1.780280284583568573e-02 -4.836015030741691589e-02 -9.279466420412063599e-02 -1.459675934165716171e-02
