-4.387458041310310364e-02 1.778651177883148193e-01
2.190761864185333252e-01 -5.044085979461669922e-01
3.369488120079040527e-01 -4.564656019210815430e-01
-1.277924776077270508e-01 9.276879578828811646e-02
-9.813947230577468872e-02 2.185387611389160156e-01
3.605694174766540527e-01 -4.463180005550384521e-01
5.313644409179687500e-01 -4.571683108806610107e-01
4.675083756446838379e-01 -4.916527867317199707e-01
3.912269175052642822e-01 -4.769266545772552490e-01
-3.584800362586975098e-01 3.464557528495788574e-01
2.339794933795928955e-01 1.408051978796720505e-02
-1.503567546606063843e-01 -4.164804145693778992e-02
5.035960674285888672e-01 -3.800207078456878662e-01
-2.614399492740631104e-01 1.761412322521209717e-01
2.164439409971237183e-01 -1.390164196491241455e-01
5.049268603324890137e-01 -3.338970839977264404e-01
2.821280360221862793e-01 -2.417841553688049316e-01
4.683855473995208740e-01 -2.720103859901428223e-01
4.726600050926208496e-01 -3.461662828922271729e-01
4.084352552890777588e-01 -4.229035377502441406e-01
3.772129714488983154e-01 -4.900315105915069580e-01
-7.541390508413314819e-02 1.911217272281646729e-01
1.525777578353881836e-01 -3.544598817825317383e-01
-3.600135445594787598e-02 -1.877179183065891266e-02
3.520308434963226318e-01 -3.647781312465667725e-01
2.479918003082275391e-01 -4.104041457176208496e-01
5.199344754219055176e-01 -2.501448988914489746e-01
-1.874834597110748291e-01 6.794401910156011581e-03
5.360293015837669373e-02 -4.408752173185348511e-02
-8.006918430328369141e-02 -1.353886444121599197e-03
4.077337309718132019e-02 -2.082852274179458618e-02
1.900071799755096436e-01 1.440790444612503052e-01
-2.564022243022918701e-01 2.913469076156616211e-01
-3.886612951755523682e-01 2.959081828594207764e-01
-2.173509895801544189e-01 1.695830076932907104e-01
4.678234755992889404e-01 -3.666644394397735596e-01
-6.569676846265792847e-02 9.832819551229476929e-02
4.219363033771514893e-01 -5.039662718772888184e-01
5.118879675865173340e-01 -1.711061596870422363e-01
-4.357030093669891357e-01 2.687967717647552490e-01
-1.995960175991058350e-01 1.860716938972473145e-02
5.186342597007751465e-01 -4.450670480728149414e-01
2.460875064134597778e-01 -5.002260804176330566e-01
7.549541443586349487e-02 4.362002015113830566e-02
-2.123850584030151367e-01 3.278299868106842041e-01
-2.547569274902343750e-01 2.829028964042663574e-01
3.700733482837677002e-01 -4.783124327659606934e-01
1.455964893102645874e-01 6.793420761823654175e-02
-1.882176250219345093e-01 3.007517755031585693e-01
-6.573083996772766113e-02 1.496663391590118408e-01
-5.785131081938743591e-02 -1.454180032014846802e-01
-2.915310561656951904e-01 4.365760087966918945e-01
-7.620780169963836670e-02 1.832179278135299683e-01
-3.943150639533996582e-01 3.002974689006805420e-01
-6.260031461715698242e-02 -8.800654858350753784e-02
3.024301230907440186e-01 -2.165141701698303223e-01
-1.640443652868270874e-01 9.404394775629043579e-02
2.469609677791595459e-01 -5.245399475097656250e-01
-5.884676054120063782e-02 1.298381835222244263e-01
3.226263225078582764e-01 -5.044101476669311523e-01
4.333772957324981689e-01 -3.033000528812408447e-01
4.078903198242187500e-01 -3.176162838935852051e-01
4.688431620597839355e-01 -3.590321242809295654e-01
2.633796930313110352e-01 -4.286687970161437988e-01
