-7.373819500207901001e-02 -9.449906647205352783e-02 -1.673585772514343262e-01 6.256878376007080078e-02 1.896837912499904633e-02 -1.332457363605499268e-01 -1.504545360803604126e-01 5.442127119749784470e-03 1.811593770980834961e-01 5.948396399617195129e-02 -7.231087982654571533e-02 -3.301802650094032288e-02 1.335045546293258667e-01 -1.174793541431427002e-01 -5.081595107913017273e-02 -1.098312735557556152e-01 9.975948929786682129e-02 -9.116060286760330200e-02 -3.303303569555282593e-02 3.248780732974410057e-03 1.071668788790702820e-01 3.409975767135620117e-02 8.279332518577575684e-02 -1.019658520817756653e-01 -9.055852890014648438e-02 1.321724653244018555e-01 -9.830386191606521606e-02 6.347528100013732910e-02 6.959559768438339233e-02 1.358449608087539673e-01 -1.981758140027523041e-02 -4.161182418465614319e-02 1.336946710944175720e-02 2.775107324123382568e-02 -1.224277541041374207e-01 4.398927092552185059e-02 5.738910287618637085e-02 -1.461125463247299194e-01 1.225931718945503235e-01 8.185304701328277588e-02 -1.408965438604354858e-01 2.612614817917346954e-02 -1.151855513453483582e-01 8.111623674631118774e-02 1.754048280417919159e-03 9.796818718314170837e-03 -7.255132496356964111e-02 -4.567657783627510071e-02 -1.317356228828430176e-01 9.568782895803451538e-02 -1.050772666931152344e-01 -5.422913283109664917e-02 9.095389395952224731e-02 3.660031408071517944e-02 1.243385002017021179e-01 6.625843048095703125e-02 -8.574813604354858398e-02 7.612535264343023300e-03 6.492556631565093994e-02 5.041075870394706726e-02 1.462703198194503784e-01 1.367021165788173676e-02 -9.434308856725692749e-02 8.796392008662223816e-03
-1.231402382254600525e-01 -1.356225609779357910e-01 -5.315483361482620239e-02 -1.128651872277259827e-01 -7.298996299505233765e-02 -8.012244105339050293e-02 -6.273914128541946411e-02 7.852496951818466187e-02 6.497496366500854492e-02 6.172963231801986694e-02 1.585236936807632446e-02 -3.443417698144912720e-02 -4.405797272920608521e-02 -1.157358139753341675e-01 -4.907709732651710510e-02 -6.835312396287918091e-02 -1.027376204729080200e-02 7.942254096269607544e-02 -8.659654296934604645e-03 -1.028385460376739502e-01 1.066897436976432800e-02 -1.454945504665374756e-01 7.278856635093688965e-02 -6.306500732898712158e-02 2.134580537676811218e-02 -8.695960044860839844e-03 -1.008661761879920959e-01 -4.357095435261726379e-02 -3.578018397092819214e-02 5.229764059185981750e-02 1.269542425870895386e-01 7.679717242717742920e-02 4.034270718693733215e-02 -5.905108153820037842e-02 1.527428999543190002e-02 4.491314291954040527e-02 2.353419549763202667e-02 6.799827516078948975e-02 1.036972776055335999e-01 1.842436194419860840e-02 -2.724867127835750580e-02 9.370739012956619263e-02 1.794308871030807495e-01 1.417709290981292725e-01 -7.047599554061889648e-02 8.621369302272796631e-02 -1.535868346691131592e-01 2.471470087766647339e-02 -9.290637075901031494e-02 1.429422199726104736e-01 5.504223331809043884e-02 5.066818371415138245e-02 6.799381971359252930e-02 6.394903361797332764e-02 -1.183308884501457214e-01 -5.035399273037910461e-02 1.137991398572921753e-01 6.240555644035339355e-02 1.085365489125251770e-01 7.453460246324539185e-02 -5.044636316597461700e-03 -1.026541143655776978e-01 -4.607395082712173462e-02 -1.134090684354305267e-02
1.148515567183494568e-01 -2.924402989447116852e-02 1.485626446083188057e-03 3.375215455889701843e-02 -1.185614392161369324e-01 3.433768078684806824e-02 -1.547232270240783691e-01 -3.784134984016418457e-02 1.124951317906379700e-01 -6.689243018627166748e-02 -1.426820084452629089e-02 -1.120307296514511108e-01 8.112201839685440063e-02 -5.575830489397048950e-02 -5.979087203741073608e-02 -1.295627057552337646e-01 -5.341281741857528687e-02 6.647566705942153931e-02 4.729682207107543945e-02 -7.654499262571334839e-02 1.231927052140235901e-01 -6.716098636388778687e-02 -7.740262150764465332e-02 7.111755013465881348e-02 -1.138561591506004333e-01 1.882181689143180847e-02 -2.205381356179714203e-02 6.509821116924285889e-02 4.558150470256805420e-02 6.800520420074462891e-02 -1.110830903053283691e-01 8.477235585451126099e-02 9.681063890457153320e-02 1.346813738346099854e-01 -1.609679311513900757e-01 -4.861434176564216614e-02 -1.818474084138870239e-01 8.781898766756057739e-02 -9.200572222471237183e-02 -1.304793655872344971e-01 5.462484061717987061e-02 -1.788760423660278320e-01 1.416659206151962280e-01 9.889337420463562012e-02 -2.933668531477451324e-02 -6.667760014533996582e-02 4.491183906793594360e-02 3.356105089187622070e-02 -4.093272238969802856e-02 -4.957413300871849060e-03 -9.995674341917037964e-02 3.296427801251411438e-02 3.490047156810760498e-02 -2.077065221965312958e-02 7.728082686662673950e-02 -1.513270474970340729e-02 -7.228200137615203857e-02 9.415467083454132080e-02 1.044375076889991760e-01 8.753819763660430908e-02 5.396486073732376099e-02 -1.364406496286392212e-01 -1.565800011157989502e-01 -1.372474879026412964e-01
9.750043600797653198e-02 1.379987299442291260e-01 9.441632032394409180e-02 8.410928770899772644e-03 -7.810385525226593018e-02 1.178732886910438538e-01 8.872637152671813965e-02 -3.152263164520263672e-02 1.161341965198516846e-01 2.228744514286518097e-02 -5.315377190709114075e-02 1.343015134334564209e-01 8.035267144441604614e-02 -7.923162728548049927e-02 -4.916398320347070694e-03 -4.476208239793777466e-02 1.238098740577697754e-01 -4.329615272581577301e-03 -1.514104902744293213e-01 7.573802769184112549e-02 1.671943664550781250e-01 -6.348554044961929321e-02 7.873573899269104004e-02 -2.140421979129314423e-02 -8.096650987863540649e-02 8.133658766746520996e-02 -9.821137040853500366e-02 -1.323155015707015991e-01 1.108765602111816406e-01 -4.494554549455642700e-02 -2.978268451988697052e-02 -1.141751036047935486e-01 -1.508178263902664185e-01 9.759376943111419678e-02 4.592475295066833496e-02 -1.113932393491268158e-02 -1.545144021511077881e-01 9.108798205852508545e-02 -2.447558566927909851e-02 8.176580816507339478e-02 5.115195363759994507e-02 -5.104894749820232391e-03 1.049041226506233215e-01 6.876586377620697021e-02 -7.992045581340789795e-02 1.408930122852325439e-02 -8.529052138328552246e-02 -2.301939297467470169e-03 2.395190112292766571e-02 -7.427483052015304565e-02 8.583767712116241455e-02 3.649011999368667603e-02 9.213957935571670532e-02 1.307586114853620529e-02 -5.332447215914726257e-02 1.338720917701721191e-01 9.300549328327178955e-02 6.607399135828018188e-02 2.019777148962020874e-02 -8.197517134249210358e-03 3.115969710052013397e-02 3.974623605608940125e-02 3.272850438952445984e-02 -3.257192671298980713e-02
8.990793675184249878e-02 8.937422931194305420e-02 2.046328224241733551e-02 1.248259376734495163e-02 -9.492291510105133057e-02 -1.097988858819007874e-01 -6.670038402080535889e-02 -6.094988435506820679e-02 -3.881781548261642456e-02 1.218228936195373535e-01 1.374717652797698975e-01 -1.302893161773681641e-01 4.550428129732608795e-03 -4.061187803745269775e-02 6.444869935512542725e-02 -1.338759660720825195e-01 4.944740608334541321e-02 -4.784316942095756531e-02 1.346180215477943420e-02 -2.851484343409538269e-03 1.344167627394199371e-02 7.401698827743530273e-02 8.428994566202163696e-02 1.229315325617790222e-01 -7.920480519533157349e-02 -6.266745179891586304e-02 -1.157427486032247543e-02 -1.204137727618217468e-01 -6.905636982992291451e-04 1.341495066881179810e-01 -1.434113830327987671e-01 -1.651484053581953049e-04 3.905529156327247620e-02 -8.052548021078109741e-02 -1.281498465687036514e-02 6.947066169232130051e-03 1.756989583373069763e-02 -3.654936328530311584e-02 -1.254246681928634644e-01 9.051021188497543335e-02 7.217966485768556595e-03 1.107161492109298706e-02 5.371792707592248917e-03 1.225303858518600464e-01 -6.855126470327377319e-02 -6.222157180309295654e-02 -5.916567891836166382e-02 7.075025141239166260e-02 -1.174398884177207947e-01 -1.145014539361000061e-01 3.706808388233184814e-02 -3.945996612310409546e-02 -1.344549655914306641e-01 1.151778623461723328e-01 1.534568052738904953e-02 1.617610454559326172e-02 -1.200841590762138367e-01 1.157243363559246063e-02 3.047052584588527679e-02 -1.328817754983901978e-01 4.713031649589538574e-02 -1.515834629535675049e-01 1.500933766365051270e-01 3.264415264129638672e-02
5.319039896130561829e-02 1.395831555128097534e-01 -9.268265217542648315e-02 -8.654627203941345215e-02 -5.619416013360023499e-02 -7.018997520208358765e-02 4.112522304058074951e-02 8.933947980403900146e-02 1.229730155318975449e-02 3.854749724268913269e-02 5.315367132425308228e-02 -6.577563285827636719e-02 -4.398984368890523911e-03 5.971602629870176315e-03 2.737535163760185242e-02 -1.479088366031646729e-01 -4.959502723067998886e-03 9.426087141036987305e-02 8.110104501247406006e-02 1.395366340875625610e-01 -1.644430309534072876e-02 9.839772433042526245e-02 3.122208639979362488e-02 -8.431603759527206421e-02 7.562897168099880219e-03 1.326069235801696777e-01 -1.031815856695175171e-01 1.068260893225669861e-01 1.794279664754867554e-01 -8.248709887266159058e-02 5.163716152310371399e-02 6.010269373655319214e-02 -4.683947935700416565e-02 6.472844630479812622e-02 -1.568411588668823242e-01 2.692059054970741272e-02 6.044537574052810669e-02 -3.262215107679367065e-02 -7.281984388828277588e-02 -1.575458645820617676e-01 -4.343154281377792358e-02 -4.417838528752326965e-02 -1.306271180510520935e-02 1.142834275960922241e-01 7.386813312768936157e-02 -7.473946083337068558e-03 3.962002322077751160e-02 -1.031546741724014282e-01 -1.697462350130081177e-01 -1.063548848032951355e-01 -3.240759298205375671e-02 -8.000582456588745117e-03 -6.864453852176666260e-02 -5.667958781123161316e-02 1.068912446498870850e-01 -5.375151336193084717e-02 -9.005239605903625488e-02 5.455550923943519592e-02 -9.720668941736221313e-02 -1.017066929489374161e-02 -4.553278908133506775e-02 -1.649416983127593994e-01 4.297355189919471741e-02 4.930603876709938049e-02
6.815081089735031128e-02 6.410196423530578613e-02 7.506750524044036865e-02 -1.287911683320999146e-01 -4.588507115840911865e-02 9.904643148183822632e-02 -1.040722727775573730e-01 6.939800828695297241e-02 -6.400875747203826904e-02 1.499343514442443848e-01 -1.731280982494354248e-01 5.092708766460418701e-02 8.848003111779689789e-03 1.102867946028709412e-01 -1.240496113896369934e-01 -4.980552196502685547e-02 -1.213252618908882141e-01 -1.213783472776412964e-01 9.037052839994430542e-02 1.791391819715499878e-01 8.396673947572708130e-02 5.862246081233024597e-02 1.807873547077178955e-01 -4.464925732463598251e-03 1.206789687275886536e-01 -4.427966661751270294e-03 -5.892476812005043030e-02 6.532037258148193359e-02 1.770574301481246948e-01 8.584168553352355957e-02 8.924979716539382935e-02 -2.826285734772682190e-02 -5.640620738267898560e-02 -6.818265467882156372e-02 7.948057353496551514e-02 -1.509090512990951538e-01 7.049442827701568604e-02 -6.069448962807655334e-02 -9.160093218088150024e-02 -7.093016058206558228e-02 -8.107742667198181152e-02 2.449615113437175751e-02 3.888053074479103088e-02 4.959000274538993835e-02 -1.180223524570465088e-01 1.675148606300354004e-01 -3.382623568177223206e-02 -6.335078924894332886e-02 1.845650561153888702e-02 -1.119716688990592957e-01 -7.052914798259735107e-02 -1.619902253150939941e-01 -1.484630107879638672e-01 -3.615402430295944214e-02 3.724861517548561096e-02 6.853603571653366089e-02 8.362694829702377319e-02 -9.433938562870025635e-02 5.172029882669448853e-02 -1.107505932450294495e-01 1.862732111476361752e-03 -1.166792139410972595e-01 -3.497693687677383423e-02 1.009426116943359375e-01
-1.674745231866836548e-02 8.189091831445693970e-02 7.832411676645278931e-03 -1.141629219055175781e-01 -1.012139022350311279e-01 -3.696475923061370850e-02 -1.114025413990020752e-01 -1.204517856240272522e-01 1.575041264295578003e-01 -2.514084801077842712e-02 -9.599927812814712524e-02 -5.613346397876739502e-02 -2.176056150346994400e-03 -5.703127756714820862e-02 4.560435935854911804e-02 -7.115459535270929337e-03 1.212952956557273865e-01 6.879036128520965576e-02 -7.736573368310928345e-02 -7.994977384805679321e-02 -6.019381433725357056e-02 7.690595835447311401e-02 1.262845098972320557e-01 1.137978434562683105e-01 1.341576576232910156e-01 9.239037334918975830e-02 6.183745339512825012e-02 4.180091992020606995e-02 -5.319603532552719116e-02 -5.905348341912031174e-03 5.856534466147422791e-02 -5.569431185722351074e-02 7.903921604156494141e-02 -1.053716167807579041e-01 8.835799247026443481e-02 1.427249889820814133e-02 -5.410268530249595642e-02 -4.029130935668945312e-02 1.372318863868713379e-01 -8.872085064649581909e-02 8.898686617612838745e-03 -2.827367372810840607e-02 -2.332936041057109833e-02 1.585098169744014740e-02 4.644254222512245178e-02 4.123327136039733887e-02 5.733142048120498657e-02 -1.218896210193634033e-01 -9.389109909534454346e-02 -1.105324625968933105e-01 -1.500510126352310181e-01 7.260549068450927734e-02 4.643760621547698975e-02 1.254132390022277832e-01 1.083664447069168091e-01 1.423906534910202026e-01 -7.152580469846725464e-02 1.141832172870635986e-01 -9.467972069978713989e-02 -7.138426601886749268e-02 -2.622645348310470581e-02 3.980262577533721924e-02 3.633471950888633728e-02 8.861364424228668213e-02
-1.820110343396663666e-02 4.758283495903015137e-02 6.886023283004760742e-02 -2.204748801887035370e-02 1.179491505026817322e-01 -8.999254554510116577e-02 3.099336102604866028e-02 8.456035703420639038e-02 1.180014312267303467e-01 -9.569857269525527954e-02 1.103154793381690979e-01 -8.042185008525848389e-02 -1.003606244921684265e-01 3.331435471773147583e-02 -4.417313262820243835e-02 5.870715901255607605e-02 -1.131429150700569153e-01 -7.271429151296615601e-02 -4.894388839602470398e-02 -6.455881148576736450e-02 -2.097182162106037140e-02 7.534901052713394165e-02 1.138961967080831528e-02 -2.660665288567543030e-02 -1.664401404559612274e-02 -2.092777751386165619e-02 -6.034012511372566223e-02 8.630923926830291748e-02 1.513890027999877930e-01 1.136713102459907532e-01 6.037021428346633911e-02 6.083704531192779541e-02 -7.631190866231918335e-02 -1.455508768558502197e-01 -1.522258073091506958e-01 -2.156007289886474609e-02 1.039558053016662598e-01 4.824494197964668274e-02 6.780906766653060913e-02 -1.267394721508026123e-01 -9.723082184791564941e-02 -1.105326861143112183e-01 1.547088921070098877e-01 -1.862674020230770111e-02 -1.712419837713241577e-02 -8.812122046947479248e-02 -1.242734864354133606e-02 5.324630066752433777e-02 4.206756874918937683e-02 1.201541051268577576e-01 4.330135136842727661e-02 -3.367502987384796143e-02 -9.147737175226211548e-02 -4.686076194047927856e-02 -1.013696268200874329e-01 1.877207658253610134e-03 -8.751508593559265137e-02 -1.461056768894195557e-01 -6.866087019443511963e-02 -3.502380475401878357e-02 4.444702342152595520e-02 -9.527539461851119995e-02 1.278967559337615967e-01 -8.768876641988754272e-02
-5.230405181646347046e-02 1.809608750045299530e-02 5.259135272353887558e-03 9.133544564247131348e-02 -1.945694349706172943e-02 8.614875376224517822e-02 -1.321344673633575439e-01 -4.332758113741874695e-02 1.621972471475601196e-01 -6.240396574139595032e-02 1.056803390383720398e-01 -1.203304976224899292e-01 1.087647750973701477e-01 -6.265042722225189209e-02 -6.690496206283569336e-02 3.528585284948348999e-02 1.069758385419845581e-01 1.143762990832328796e-01 -5.392459034919738770e-02 -2.896453812718391418e-02 -1.322308555245399475e-02 -7.952102273702621460e-02 3.530598804354667664e-02 2.388422377407550812e-02 1.376486867666244507e-01 -8.786525577306747437e-02 9.431305527687072754e-02 7.148646563291549683e-02 4.711522907018661499e-02 3.628965839743614197e-02 -9.836975485086441040e-02 -1.990594901144504547e-02 -1.768093928694725037e-02 -3.838484641164541245e-03 4.504451528191566467e-02 3.462426736950874329e-02 -1.503239423036575317e-01 -5.479303747415542603e-02 1.042462140321731567e-01 -4.926634207367897034e-02 -9.964772313833236694e-02 6.738445907831192017e-02 1.154524507001042366e-03 1.370243281126022339e-01 9.105470776557922363e-02 -2.147202380001544952e-02 -6.620405614376068115e-02 5.887577682733535767e-02 -6.382076442241668701e-02 6.233777105808258057e-02 3.107972256839275360e-02 1.000045984983444214e-02 1.210720837116241455e-01 9.454832971096038818e-02 1.032035518437623978e-02 9.076507762074470520e-03 6.113181635737419128e-02 -1.630267500877380371e-01 -7.316582649946212769e-02 -1.364096850156784058e-01 1.007051393389701843e-01 -1.318488121032714844e-01 6.299750506877899170e-02 -7.315673679113388062e-02
-5.962511990219354630e-03 -1.278277933597564697e-01 -1.006510779261589050e-01 9.146434813737869263e-02 7.075271010398864746e-02 8.104366809129714966e-02 3.722690045833587646e-02 -1.666778773069381714e-01 1.080066636204719543e-01 -7.528775930404663086e-02 -7.495537400245666504e-02 2.926984988152980804e-02 1.477385461330413818e-01 5.451459065079689026e-02 -5.044776573777198792e-02 -7.441160827875137329e-02 -3.467223793268203735e-02 -5.464969202876091003e-02 5.762184411287307739e-02 1.881867945194244385e-01 1.087207198143005371e-01 1.094200387597084045e-01 6.704909354448318481e-02 -8.109536767005920410e-02 7.346419245004653931e-02 2.526273392140865326e-02 9.086921811103820801e-03 -6.865458190441131592e-02 1.682380437850952148e-01 1.387988328933715820e-01 3.548974543809890747e-02 9.456528723239898682e-02 -1.727056875824928284e-02 1.447811909019947052e-02 -5.531897768378257751e-02 -1.081449165940284729e-01 3.847590833902359009e-02 1.441585179418325424e-02 1.202866509556770325e-01 9.522876888513565063e-02 -6.130178272724151611e-02 -9.558748453855514526e-02 3.633588552474975586e-02 -4.481155797839164734e-02 -3.464499115943908691e-02 8.683870732784271240e-02 -5.753536522388458252e-02 -1.250944733619689941e-01 -1.134737730026245117e-01 1.087264269590377808e-01 -2.508459612727165222e-02 -8.109230548143386841e-02 -1.175994127988815308e-01 1.333762258291244507e-01 1.063584014773368835e-01 1.108479872345924377e-01 -1.490828990936279297e-01 6.178111582994461060e-02 9.349773824214935303e-02 8.138093352317810059e-02 6.002931296825408936e-02 8.297709375619888306e-02 5.360747873783111572e-02 -1.692240126430988312e-02
7.587976008653640747e-02 5.366487801074981689e-02 -1.234976388514041901e-02 -9.886736422777175903e-02 -4.697553813457489014e-02 -6.583789736032485962e-02 -4.835491068661212921e-03 7.104422897100448608e-02 -1.832094974815845490e-03 -1.126335263252258301e-01 -7.977375388145446777e-02 -1.205714270472526550e-01 -5.927274003624916077e-02 8.231966942548751831e-02 3.670954704284667969e-02 8.541812747716903687e-02 -1.422948669642210007e-02 4.396339878439903259e-02 6.152403354644775391e-02 1.074477955698966980e-01 -2.298638783395290375e-02 8.850300312042236328e-02 1.345776915550231934e-01 -1.109762415289878845e-01 -5.206509679555892944e-02 1.172762215137481689e-01 -4.511746019124984741e-02 1.880331337451934814e-02 9.608028829097747803e-02 -3.523671254515647888e-02 -7.940425723791122437e-02 -9.000706672668457031e-02 4.563364014029502869e-02 2.706826478242874146e-02 8.282269537448883057e-02 -4.265794157981872559e-02 -1.226520165801048279e-01 5.499626696109771729e-02 -4.924314841628074646e-02 -4.133434221148490906e-02 -1.498215347528457642e-01 4.456529021263122559e-02 1.446711272001266479e-01 7.098542153835296631e-02 6.302568316459655762e-02 -7.926817238330841064e-02 -1.494732797145843506e-01 -9.268841892480850220e-02 -1.566424220800399780e-01 6.131782010197639465e-02 -2.685207314789295197e-02 -6.243354827165603638e-02 -1.575646251440048218e-01 -3.351587103679776192e-03 -4.748048633337020874e-02 1.086813136935234070e-01 1.140195131301879883e-01 -6.779214739799499512e-02 7.186545431613922119e-02 -7.915242761373519897e-02 5.483944434672594070e-03 -2.030203118920326233e-02 2.852112613618373871e-02 1.202770769596099854e-01
3.293886780738830566e-02 -3.119193203747272491e-02 2.061494160443544388e-03 -1.269800215959548950e-01 -8.313205093145370483e-02 -2.212049998342990875e-02 1.038284003734588623e-01 -2.608080953359603882e-02 6.757745146751403809e-02 8.670048415660858154e-02 -6.073210388422012329e-02 -1.994372159242630005e-02 6.139083206653594971e-02 6.783097237348556519e-02 -1.080563142895698547e-01 6.454470753669738770e-02 3.672826662659645081e-02 -9.621191769838333130e-02 -1.207288578152656555e-01 1.929535344243049622e-02 -8.171550929546356201e-02 -2.690647542476654053e-02 1.358111854642629623e-02 1.481585055589675903e-01 -2.603328041732311249e-02 -8.600717037916183472e-02 -1.725860312581062317e-02 -1.044257078319787979e-02 -1.047207787632942200e-01 9.707550704479217529e-02 -2.136825770139694214e-02 -7.893248647451400757e-02 -3.310160711407661438e-02 8.629778772592544556e-02 -1.039393767714500427e-01 -3.781071677803993225e-02 7.525890320539474487e-02 9.724829345941543579e-02 -1.173876319080591202e-02 -1.013171821832656860e-01 6.370632350444793701e-02 9.269362688064575195e-02 6.215257197618484497e-02 1.009000986814498901e-01 -8.720789104700088501e-02 -1.081803441047668457e-02 1.887688226997852325e-02 -6.808771938085556030e-02 -1.423867642879486084e-01 -7.717356830835342407e-02 -7.408773154020309448e-02 -1.171204373240470886e-01 1.322791073471307755e-02 1.364814192056655884e-01 -7.804708182811737061e-02 7.321120798587799072e-02 -8.178701624274253845e-03 1.175630185753107071e-02 -8.928715437650680542e-02 -8.765468746423721313e-02 3.263650834560394287e-02 -4.394837841391563416e-02 1.891196519136428833e-01 1.137542054057121277e-01
-1.866951771080493927e-02 -1.460441946983337402e-01 -1.000488847494125366e-01 9.160672128200531006e-02 3.739077597856521606e-02 4.651097208261489868e-02 -4.543575644493103027e-02 -3.896360099315643311e-02 -7.846000604331493378e-03 1.301350817084312439e-02 -1.183728128671646118e-01 8.934598416090011597e-03 -4.660394787788391113e-02 1.485556960105895996e-01 2.054292475804686546e-03 3.559189662337303162e-02 -8.206302300095558167e-03 8.981154114007949829e-02 -1.042937934398651123e-01 -1.685453928075730801e-03 -6.488408893346786499e-02 -1.655712351202964783e-02 -2.002478204667568207e-02 9.589239954948425293e-02 -8.378479629755020142e-02 -1.091401651501655579e-02 1.132911294698715210e-01 9.689902514219284058e-02 5.851994082331657410e-02 1.192983910441398621e-01 -6.020719185471534729e-02 2.178517356514930725e-02 -4.616050422191619873e-02 8.748120069503784180e-02 -8.560848236083984375e-02 -1.443936228752136230e-01 3.089733235538005829e-02 -1.001795828342437744e-01 -3.600345551967620850e-02 5.104167014360427856e-02 5.702409893274307251e-02 3.705316921696066856e-03 7.879063487052917480e-03 2.027777731418609619e-01 -9.015430510044097900e-02 -7.734227925539016724e-02 -1.611104905605316162e-01 -8.365396410226821899e-02 8.060140907764434814e-02 -9.308305568993091583e-03 3.829433349892497063e-03 -1.261854767799377441e-01 -3.733005747199058533e-02 1.944160759449005127e-01 3.213431313633918762e-02 -3.442666679620742798e-02 6.605938076972961426e-02 -1.454635858535766602e-01 7.102905213832855225e-02 -1.092098653316497803e-02 -1.661765426397323608e-01 -4.907490313053131104e-02 -1.173812523484230042e-01 -8.562736958265304565e-02
1.254563033580780029e-01 -1.366237252950668335e-01 7.500573992729187012e-02 1.281819492578506470e-01 -1.133114472031593323e-01 -5.915439501404762268e-02 1.848676986992359161e-02 -3.479288518428802490e-02 3.192155808210372925e-02 5.789677053689956665e-02 -3.266456350684165955e-02 -3.352822968736290932e-03 5.172532424330711365e-02 6.487520877271890640e-03 -7.103968528099358082e-04 -1.573525071144104004e-01 8.816602081060409546e-02 4.573296755552291870e-02 -8.011342585086822510e-02 2.377547882497310638e-02 -2.033569104969501495e-02 5.231075361371040344e-02 6.399132311344146729e-03 -4.781308397650718689e-02 8.008196204900741577e-02 -7.691391557455062866e-02 -1.084960252046585083e-01 -1.406204551458358765e-01 -9.449241310358047485e-02 -5.589714273810386658e-03 -7.436945289373397827e-02 -1.016989052295684814e-01 -3.887858614325523376e-02 -6.224969774484634399e-02 -1.398075968027114868e-01 3.761881589889526367e-02 5.400153622031211853e-02 -2.727664075791835785e-02 -8.865925669670104980e-02 2.521649934351444244e-03 2.812003483995795250e-03 1.513120830059051514e-01 -3.234901279211044312e-02 1.002996712923049927e-01 -1.238690502941608429e-02 -2.295430563390254974e-02 -4.004725813865661621e-02 -1.232154220342636108e-01 -1.054363101720809937e-01 -8.684164285659790039e-02 8.149628527462482452e-03 7.727071642875671387e-02 3.411613404750823975e-02 7.613417506217956543e-02 8.187790960073471069e-02 -3.799565508961677551e-02 1.001083925366401672e-01 -7.659706473350524902e-02 -4.406959563493728638e-02 5.524750426411628723e-02 -1.192520335316658020e-01 1.231611967086791992e-01 1.042183637619018555e-01 3.687186911702156067e-02
6.046007201075553894e-02 -1.218350827693939209e-01 -7.072426378726959229e-02 5.681859329342842102e-03 -3.584492579102516174e-02 1.163160875439643860e-01 2.854343317449092865e-02 1.382820867002010345e-02 -2.207960747182369232e-02 1.028151214122772217e-01 7.438196241855621338e-02 1.562751643359661102e-02 9.814948588609695435e-02 8.253633230924606323e-02 -1.121345069259405136e-02 4.786043986678123474e-02 -9.854567050933837891e-02 -1.256781220436096191e-01 -5.916970781981945038e-03 2.713376656174659729e-02 -8.746866136789321899e-02 -6.650511920452117920e-02 -2.113021910190582275e-02 -3.872581198811531067e-02 -1.198056712746620178e-01 5.678428569808602333e-04 8.381278067827224731e-02 9.977638721466064453e-02 1.323748975992202759e-01 8.948259055614471436e-02 1.250910907983779907e-01 8.470032364130020142e-02 -1.575536467134952545e-02 7.777781039476394653e-02 -1.298268437385559082e-01 5.109804496169090271e-02 -7.995900511741638184e-02 6.162652745842933655e-02 -1.276223808526992798e-01 -7.658582180738449097e-02 -1.424804329872131348e-01 7.879590243101119995e-02 -8.453352004289627075e-02 5.208447203040122986e-02 -3.922686725854873657e-02 1.075572818517684937e-01 -4.728932678699493408e-02 -1.197373718023300171e-01 -1.558318436145782471e-01 2.785892598330974579e-02 -1.095986738801002502e-01 -6.350672990083694458e-02 -2.421384118497371674e-02 -3.199516981840133667e-02 8.196739107370376587e-02 -5.971263162791728973e-03 -5.344102159142494202e-02 -1.249570325016975403e-01 4.080740327481180429e-04 -1.017247661948204041e-01 1.005728468298912048e-01 -7.033547013998031616e-02 3.804755955934524536e-02 -2.322179352631792426e-04
-1.250927988439798355e-02 8.224081993103027344e-02 3.001912310719490051e-02 1.331690400838851929e-01 -1.124292984604835510e-01 -6.693010218441486359e-03 6.229930091649293900e-03 -1.406333893537521362e-01 1.226234734058380127e-01 6.131583452224731445e-02 6.309793144464492798e-02 3.085887618362903595e-02 -1.306051388382911682e-02 -1.045417785644531250e-01 -3.702288120985031128e-02 7.309048622846603394e-02 -1.295729447156190872e-02 -9.267772734165191650e-02 -9.527656435966491699e-02 4.352850664872676134e-04 5.140965804457664490e-02 1.133363544940948486e-01 8.241967111825942993e-02 -8.854430913925170898e-02 4.669649153947830200e-02 2.843810617923736572e-02 1.446137726306915283e-01 1.092627272009849548e-01 3.873542323708534241e-02 -3.931057453155517578e-02 1.013228148221969604e-01 -1.093607991933822632e-01 6.433412432670593262e-02 5.230735987424850464e-02 -5.165658518671989441e-02 -1.481953859329223633e-01 -7.597289979457855225e-02 -1.356400251388549805e-01 -2.677925489842891693e-02 -1.713443398475646973e-01 -2.889239042997360229e-02 -9.865011274814605713e-02 -9.201497584581375122e-02 1.246419101953506470e-01 -1.619035452604293823e-01 -1.314437389373779297e-01 -1.426230072975158691e-01 -1.035289987921714783e-01 -1.002664342522621155e-01 -1.667363345623016357e-01 -1.170330680906772614e-02 8.142149448394775391e-02 -1.006872653961181641e-01 7.799773663282394409e-02 -1.391088068485260010e-01 1.226646155118942261e-01 -1.245616748929023743e-01 1.415397226810455322e-01 9.268597513437271118e-02 -3.121170587837696075e-02 -8.938562124967575073e-02 1.197547689080238342e-01 -1.038282662630081177e-01 5.893424898386001587e-02
2.575838565826416016e-02 6.160303205251693726e-02 -1.184068992733955383e-01 1.290602535009384155e-01 1.089991107583045959e-01 8.319542557001113892e-02 -1.542650759220123291e-01 -1.271556019783020020e-01 -4.116848483681678772e-02 -1.030604466795921326e-01 -6.614137440919876099e-02 -1.079085618257522583e-01 9.808456897735595703e-02 1.235646232962608337e-01 3.335503162816166878e-03 -4.423297941684722900e-02 -1.010715737938880920e-01 5.072869732975959778e-02 8.969864249229431152e-02 -8.786138892173767090e-02 -1.248354986310005188e-01 1.940565370023250580e-02 -8.048949390649795532e-02 7.720072567462921143e-02 -8.081845939159393311e-02 -9.457082301378250122e-02 1.021640375256538391e-01 5.608223378658294678e-02 -5.767876282334327698e-03 1.132608279585838318e-01 -9.128254652023315430e-02 -1.026451066136360168e-01 -3.225411847233772278e-02 8.377208560705184937e-02 -1.133048012852668762e-01 -3.492635488510131836e-02 7.008929550647735596e-02 -9.221532940864562988e-02 3.180815279483795166e-02 -8.319013565778732300e-02 -5.898571014404296875e-02 -6.476269662380218506e-02 -1.154486089944839478e-01 7.626705616712570190e-02 -1.560712754726409912e-01 9.908804297447204590e-02 7.958754152059555054e-02 -1.019294932484626770e-01 -2.400839701294898987e-02 1.012301165610551834e-02 -4.557866603136062622e-02 -1.545854657888412476e-01 -4.833762720227241516e-02 9.322995692491531372e-02 -1.095512956380844116e-01 1.113721728324890137e-01 3.946553170680999756e-02 1.447660923004150391e-01 -1.659933030605316162e-01 -1.386756300926208496e-01 -2.568780630826950073e-02 -3.888794407248497009e-02 -7.797764986753463745e-02 2.308485656976699829e-02
-1.030505746603012085e-01 -1.099291536957025528e-02 -1.067269667983055115e-01 -8.734463155269622803e-02 5.227167531847953796e-02 -8.267369866371154785e-02 9.516967833042144775e-02 -3.466420248150825500e-02 4.835119761992245913e-05 1.729999333620071411e-01 -1.369362790137529373e-02 -5.898267775774002075e-02 6.913279742002487183e-02 -4.583868756890296936e-02 -1.407824754714965820e-01 -1.366740763187408447e-01 -5.378554761409759521e-02 -1.133266463875770569e-01 2.200688794255256653e-02 -9.559662081301212311e-03 1.162273287773132324e-01 2.780796214938163757e-02 4.613906145095825195e-02 -4.083362594246864319e-02 -7.874762266874313354e-02 3.019743040204048157e-02 6.924476474523544312e-02 -1.163530647754669189e-01 -8.287504315376281738e-02 -4.534297436475753784e-02 6.879151612520217896e-02 5.054419115185737610e-02 3.935077041387557983e-02 -1.214948520064353943e-01 -3.083701012656092644e-04 -1.752801425755023956e-02 4.401488974690437317e-02 9.380035847425460815e-02 -8.559741824865341187e-02 -5.117569491267204285e-02 3.206015750765800476e-02 8.251488208770751953e-02 1.068592146039009094e-01 -7.499223202466964722e-02 3.243214637041091919e-02 7.757855579257011414e-03 -1.672562956809997559e-01 6.255912035703659058e-02 3.020822256803512573e-02 -2.489249594509601593e-02 -1.069388762116432190e-01 -7.610873878002166748e-02 -8.536601066589355469e-02 -1.544363610446453094e-02 -1.676805019378662109e-01 1.054142937064170837e-01 1.189234629273414612e-01 5.257800221443176270e-03 2.542735077440738678e-03 7.358361780643463135e-02 -1.075357124209403992e-01 -1.383166387677192688e-02 5.310944095253944397e-02 1.300152391195297241e-02
9.589584916830062866e-02 9.361079335212707520e-02 2.992529608309268951e-02 -8.063755929470062256e-03 -1.282638311386108398e-01 -6.468115001916885376e-02 -5.561396945267915726e-03 -1.734874844551086426e-01 5.357155576348304749e-02 8.740399777889251709e-02 1.065345630049705505e-01 -9.374223649501800537e-03 -6.379891186952590942e-02 -3.623227402567863464e-02 -6.191601604223251343e-02 -1.153057292103767395e-01 1.303490102291107178e-01 -1.279993653297424316e-01 -8.738081157207489014e-02 1.758683025836944580e-01 5.384742841124534607e-02 -1.142536401748657227e-01 1.338206082582473755e-01 -6.128009408712387085e-02 8.349490165710449219e-02 2.528244629502296448e-02 -1.157215759158134460e-01 1.130393818020820618e-01 1.494712941348552704e-02 7.320017367601394653e-02 6.327056884765625000e-02 -7.395389676094055176e-02 7.309114187955856323e-02 -7.214392721652984619e-02 -7.358347624540328979e-02 -1.396067440509796143e-01 -9.056464582681655884e-02 2.393468469381332397e-02 8.261066675186157227e-02 1.266113203018903732e-02 -1.648549884557723999e-01 1.438615024089813232e-01 2.870431914925575256e-02 1.825733631849288940e-01 -9.298513084650039673e-02 9.443367272615432739e-02 -3.591049462556838989e-02 -4.962273314595222473e-02 4.149964451789855957e-02 5.019353702664375305e-03 -9.687220305204391479e-02 2.640376426279544830e-02 -2.419868018478155136e-03 -6.396752595901489258e-02 -4.819639772176742554e-02 -1.313707046210765839e-02 -1.358887404203414917e-01 1.259900629520416260e-01 5.706792324781417847e-02 7.296565920114517212e-02 -2.584407478570938110e-02 -3.619599156081676483e-03 -1.261004656553268433e-01 -2.715115807950496674e-02
-5.144834518432617188e-02 -1.068292781710624695e-01 -9.020797908306121826e-02 -5.146247893571853638e-02 5.976147484034299850e-03 9.454435855150222778e-02 -9.869818389415740967e-02 -9.542266838252544403e-03 -3.811051696538925171e-02 -1.014386191964149475e-01 5.884712561964988708e-02 -4.050658270716667175e-02 -6.498466432094573975e-02 1.555448491126298904e-02 -1.332846470177173615e-02 -1.068768575787544250e-01 -9.419511258602142334e-02 1.351330615580081940e-02 -6.634531170129776001e-02 5.702031776309013367e-02 1.110640075057744980e-02 3.335319086909294128e-02 1.342932879924774170e-01 -5.832043290138244629e-02 -7.893237471580505371e-02 4.688687622547149658e-02 -1.941033303737640381e-01 1.163381189107894897e-01 -2.964128553867340088e-02 2.900478616356849670e-02 -1.214086934924125671e-01 3.731493279337882996e-02 2.146359533071517944e-02 -6.692389398813247681e-02 1.819141209125518799e-02 9.919726103544235229e-02 -1.153455022722482681e-02 6.872501969337463379e-02 -2.528007701039314270e-02 -1.400386393070220947e-01 5.593983456492424011e-02 6.423971801996231079e-02 9.029938280582427979e-02 -4.157776758074760437e-02 5.731092020869255066e-02 -1.958456076681613922e-02 -1.101284846663475037e-01 -1.158454418182373047e-01 -1.686104945838451385e-02 1.525183469057083130e-01 2.360142068937420845e-03 -2.659329399466514587e-02 -1.288174539804458618e-01 1.930675506591796875e-01 1.191532909870147705e-01 4.188020899891853333e-02 -3.737800940871238708e-02 5.437417328357696533e-02 -4.228357970714569092e-02 7.674481719732284546e-02 1.067663207650184631e-01 7.646535523235797882e-03 4.618391394615173340e-02 9.423873387277126312e-03
-7.237401604652404785e-02 -1.159366741776466370e-01 1.695722155272960663e-02 -6.354223471134901047e-03 -7.027337327599525452e-03 1.007417514920234680e-01 5.934064462780952454e-02 -1.149756535887718201e-01 6.980564445257186890e-02 1.791356690227985382e-02 -9.810405783355236053e-03 1.076637133955955505e-01 9.470015764236450195e-02 1.183676496148109436e-01 5.277562513947486877e-02 -1.376907378435134888e-01 -1.924432627856731415e-02 8.406786620616912842e-02 3.912426996976137161e-03 -7.089161127805709839e-02 -1.499530822038650513e-01 1.369728893041610718e-01 9.817231446504592896e-02 1.086324974894523621e-01 1.317880898714065552e-01 1.977709308266639709e-02 -2.735765278339385986e-02 -1.135776713490486145e-01 2.466192096471786499e-02 1.824047565460205078e-01 1.213952228426933289e-01 -1.150633916258811951e-01 1.106785014271736145e-01 3.085787408053874969e-02 9.553578682243824005e-03 -1.639787256717681885e-01 -3.537476062774658203e-02 7.544060796499252319e-02 9.923372417688369751e-02 7.822701334953308105e-02 2.870265394449234009e-02 -1.316861212253570557e-01 7.725797593593597412e-02 1.056650504469871521e-01 -6.781633943319320679e-02 1.203781552612781525e-02 4.479423165321350098e-02 -1.316060721874237061e-01 -8.915473520755767822e-02 9.694144874811172485e-02 -2.248449251055717468e-02 7.714149355888366699e-02 -2.110708877444267273e-02 2.378768846392631531e-02 -5.383901298046112061e-02 -1.002234965562820435e-02 -1.928992569446563721e-02 -5.386444274336099625e-03 -8.212043344974517822e-02 4.794663190841674805e-02 3.630021819844841957e-03 5.723655596375465393e-02 -7.272592931985855103e-02 -1.273402869701385498e-01
-4.018021374940872192e-02 -1.655363477766513824e-02 -1.377989351749420166e-01 1.615660786628723145e-01 6.646387279033660889e-02 -1.254202872514724731e-01 7.473491132259368896e-02 -4.971050471067428589e-02 -2.599407546222209930e-02 5.032486282289028168e-03 1.536241024732589722e-01 9.877783060073852539e-02 8.055512607097625732e-02 -4.939735680818557739e-02 5.898987129330635071e-02 -9.904054552316665649e-02 -1.022223308682441711e-01 -3.847540915012359619e-02 8.711534552276134491e-03 1.685413271188735962e-01 1.250185221433639526e-01 -6.541404128074645996e-02 8.843182027339935303e-02 6.107862573117017746e-03 4.880006983876228333e-02 7.367759011685848236e-03 -1.369640417397022247e-02 5.089773610234260559e-02 1.456555575132369995e-01 7.602608948945999146e-02 1.139671653509140015e-01 -3.695025667548179626e-02 5.548450723290443420e-02 1.003837287425994873e-01 7.969590276479721069e-02 -1.205296963453292847e-01 -5.205074325203895569e-02 -1.558475643396377563e-01 -1.194640770554542542e-01 -1.162316426634788513e-01 -1.600482314825057983e-02 1.398490369319915771e-01 -1.302702873945236206e-01 6.079258397221565247e-02 -2.704524062573909760e-02 1.382181197404861450e-01 -1.122589632868766785e-01 -7.168737798929214478e-02 3.514743968844413757e-02 9.837193414568901062e-03 -1.026237756013870239e-01 -1.871108449995517731e-02 -1.011364459991455078e-01 -3.323545679450035095e-02 4.985189065337181091e-02 -7.224690914154052734e-02 -8.340229839086532593e-02 2.523613162338733673e-02 -8.582819253206253052e-02 2.486908435821533203e-02 5.572054907679557800e-02 1.798090379452332854e-04 -8.328375220298767090e-02 5.921336263418197632e-02
-2.954712882637977600e-02 -1.244936361908912659e-01 6.390301138162612915e-02 -7.252769172191619873e-02 1.237389668822288513e-01 2.057935670018196106e-02 -9.494574368000030518e-02 -1.484001576900482178e-01 1.531922072172164917e-01 -1.474314332008361816e-01 1.120141446590423584e-01 -1.784895430319011211e-04 1.104342937469482422e-01 -1.224234104156494141e-01 5.701027438044548035e-02 -2.823621407151222229e-02 1.362994462251663208e-01 -9.785719215869903564e-03 -5.688402429223060608e-02 -5.457865446805953979e-02 1.075628250837326050e-01 -1.367334127426147461e-01 -1.757049746811389923e-02 -2.638019062578678131e-02 -3.832995146512985229e-02 9.134674817323684692e-02 3.113217465579509735e-02 1.028518006205558777e-02 -1.166258286684751511e-02 1.817622482776641846e-01 1.168332155793905258e-02 4.236004874110221863e-02 7.889456301927566528e-02 -7.085790485143661499e-02 -7.003278005868196487e-04 -9.392326325178146362e-02 6.866373866796493530e-02 -1.405334621667861938e-01 -1.145673692226409912e-01 1.396661158651113510e-02 -1.131755337119102478e-01 -2.600722014904022217e-02 -7.121056318283081055e-02 -6.738043576478958130e-02 7.828021049499511719e-02 -1.624733954668045044e-02 -8.029077202081680298e-03 8.956485241651535034e-02 2.655838243663311005e-02 5.689020734280347824e-03 -1.225779801607131958e-01 -6.835003942251205444e-02 3.721991181373596191e-02 -8.119194954633712769e-02 -1.269481778144836426e-01 1.273015979677438736e-02 1.364870518445968628e-01 7.598864287137985229e-02 2.420688280835747719e-03 -1.123443469405174255e-01 9.613826870918273926e-02 3.602812439203262329e-02 -1.378530561923980713e-01 -1.149248555302619934e-01
5.416641384363174438e-02 -4.127179458737373352e-02 -1.688921749591827393e-01 -3.509337082505226135e-02 4.956564307212829590e-02 1.684035919606685638e-02 -1.048178672790527344e-01 1.319168414920568466e-02 7.701636850833892822e-02 -5.192467942833900452e-03 -8.997520804405212402e-02 6.053239852190017700e-02 -1.384200248867273331e-02 -6.454981118440628052e-02 -9.396760165691375732e-02 -1.138237118721008301e-01 3.725537285208702087e-02 6.044526025652885437e-02 -1.214858815073966980e-01 -3.310317546129226685e-02 -7.096885889768600464e-02 5.190073698759078979e-02 -4.386242479085922241e-02 -1.662732213735580444e-01 -2.927971445024013519e-02 1.635504513978958130e-01 -8.102574385702610016e-03 9.530986100435256958e-02 1.449854522943496704e-01 2.589423023164272308e-02 -8.871176838874816895e-02 -1.259767413139343262e-01 -1.501728296279907227e-01 1.143699605017900467e-02 -5.364938080310821533e-02 8.354584127664566040e-02 -1.677614822983741760e-02 8.420921862125396729e-02 1.403794884681701660e-01 1.914503239095211029e-02 -1.117340847849845886e-01 1.052596345543861389e-01 2.295615896582603455e-02 -1.378492824733257294e-02 -6.703587621450424194e-02 1.162573024630546570e-01 -6.537517160177230835e-02 9.000080823898315430e-02 -6.590928137302398682e-02 -1.021983176469802856e-01 -1.980429701507091522e-02 6.762213259935379028e-02 -4.623583331704139709e-02 1.611351817846298218e-01 -1.115107685327529907e-01 1.243370845913887024e-01 7.390689104795455933e-02 -2.945179305970668793e-02 -1.128983199596405029e-01 -1.148320510983467102e-01 1.003687679767608643e-01 2.044240385293960571e-02 5.211536958813667297e-02 9.351898916065692902e-03
7.578787952661514282e-02 -1.224555224180221558e-01 -5.897324532270431519e-02 2.696038782596588135e-02 3.077607788145542145e-02 7.194002717733383179e-02 1.813760027289390564e-02 -1.495169252157211304e-01 -3.721198067069053650e-02 -8.649335242807865143e-03 -1.373113598674535751e-03 -2.892673946917057037e-02 1.291927993297576904e-01 2.294937334954738617e-02 4.246015474200248718e-02 9.671790897846221924e-02 1.460321843624114990e-01 -9.744933247566223145e-02 4.038836434483528137e-02 1.293190270662307739e-01 -3.895387798547744751e-02 -1.469457987695932388e-02 3.031477099284529686e-03 -2.746693231165409088e-02 2.303932234644889832e-02 6.160346791148185730e-02 -4.156904667615890503e-02 8.837934583425521851e-02 -6.507568806409835815e-02 4.585533961653709412e-02 -2.284024842083454132e-02 -1.252577453851699829e-02 2.321373857557773590e-02 2.210631966590881348e-02 8.218244463205337524e-02 7.247558981180191040e-02 6.502206623554229736e-02 -3.061316907405853271e-02 -1.416156440973281860e-01 4.984900727868080139e-02 -7.923659682273864746e-02 -5.892616882920265198e-02 -1.753493095748126507e-03 8.423932641744613647e-02 -1.028826981782913208e-01 1.383849605917930603e-02 -1.667123883962631226e-01 -1.842120313085615635e-03 9.367880225181579590e-02 -1.336113363504409790e-01 -1.172483488917350769e-01 -3.714948892593383789e-02 -1.399590224027633667e-01 2.457123808562755585e-02 -5.917700380086898804e-02 8.771720528602600098e-02 -1.196894794702529907e-01 1.294724941253662109e-01 1.132682859897613525e-01 2.982654422521591187e-02 -1.041078418493270874e-01 5.813067406415939331e-02 -6.605538539588451385e-03 -5.480362847447395325e-02
3.745186259038746357e-04 3.366188332438468933e-02 -1.104244366288185120e-01 4.843902215361595154e-02 2.248919755220413208e-02 1.430559754371643066e-01 -7.629838585853576660e-02 2.320280671119689941e-02 1.048386245965957642e-01 -1.091191894374787807e-03 -4.553565382957458496e-02 7.684851437807083130e-02 1.774742752313613892e-01 9.175973385572433472e-02 -5.488090589642524719e-02 -9.663370996713638306e-02 5.153697729110717773e-02 -1.182641908526420593e-01 -1.108797714114189148e-01 1.201692819595336914e-01 -3.431750833988189697e-02 1.017650440335273743e-01 -1.099997572600841522e-02 -1.019774228334426880e-01 1.182831171900033951e-02 6.142577901482582092e-02 6.749417632818222046e-03 -1.727365404367446899e-01 3.445414081215858459e-02 1.349572390317916870e-01 7.812481373548507690e-02 8.768145926296710968e-03 1.335203051567077637e-01 -8.822845667600631714e-02 2.939395606517791748e-02 4.971707239747047424e-02 -5.878550186753273010e-02 -1.615059077739715576e-01 7.318326830863952637e-02 5.832700058817863464e-02 -1.106849387288093567e-01 -3.617241233587265015e-02 5.171745643019676208e-02 3.266830462962388992e-03 6.552390754222869873e-02 8.429996669292449951e-02 1.757640577852725983e-02 -4.561141505837440491e-02 1.384336221963167191e-02 5.586338788270950317e-02 -1.084193140268325806e-01 -1.009240895509719849e-01 -1.518684476613998413e-01 4.032441228628158569e-02 -1.197534427046775818e-01 1.655392721295356750e-02 1.285443082451820374e-02 -1.618541218340396881e-02 1.068228110671043396e-01 8.640287816524505615e-02 2.168582752346992493e-02 1.195307914167642593e-02 5.381139740347862244e-02 8.682801853865385056e-04
9.097409993410110474e-02 -7.411315571516752243e-03 2.492471598088741302e-02 -3.433778882026672363e-02 -1.307089477777481079e-01 -1.327478289604187012e-01 1.282015163451433182e-02 7.567225396633148193e-02 1.238566488027572632e-01 -9.808897972106933594e-02 -1.251229792833328247e-01 2.410411089658737183e-02 5.335147306323051453e-02 -1.221923083066940308e-01 -1.224897876381874084e-01 -8.050107955932617188e-02 -6.840321421623229980e-02 -1.241682320833206177e-01 -2.318023890256881714e-02 -8.481279015541076660e-02 -3.960721194744110107e-02 3.020889684557914734e-02 -3.392081335186958313e-02 8.141010999679565430e-02 8.069693297147750854e-02 1.249758675694465637e-01 1.466792970895767212e-01 -5.109933763742446899e-02 5.501395463943481445e-02 -5.201937630772590637e-02 2.345766499638557434e-02 -7.410909980535507202e-02 6.440142542123794556e-02 6.025662645697593689e-02 -1.336782276630401611e-01 -1.303541809320449829e-01 5.254998058080673218e-02 -2.931011095643043518e-02 -5.615324527025222778e-02 4.942785575985908508e-02 -1.628486961126327515e-01 9.939232468605041504e-02 -1.028566956520080566e-01 2.542209578678011894e-03 7.650219649076461792e-02 7.240317016839981079e-02 -6.737501174211502075e-02 6.435441225767135620e-02 8.794359862804412842e-02 -7.732880115509033203e-02 -1.513345837593078613e-01 -8.396963775157928467e-02 -1.298267096281051636e-01 3.150042891502380371e-02 1.406890153884887695e-02 7.665577530860900879e-02 -1.433089971542358398e-01 -5.803131312131881714e-02 6.377245485782623291e-02 -1.158954575657844543e-02 5.518782138824462891e-02 1.312679350376129150e-01 1.781942509114742279e-02 1.073299944400787354e-01
-3.576552122831344604e-02 9.575415402650833130e-02 -3.930858895182609558e-02 2.582106180489063263e-02 1.248664855957031250e-01 -1.111990734934806824e-01 -1.126830000430345535e-02 3.801321983337402344e-02 1.980051025748252869e-02 -3.574522212147712708e-02 -8.923702687025070190e-02 8.732856810092926025e-02 3.257813304662704468e-02 7.246793061494827271e-02 -1.770438253879547119e-02 -1.280047148466110229e-01 -1.110628470778465271e-01 1.002286598086357117e-01 1.335584558546543121e-03 8.599530160427093506e-02 6.891814619302749634e-02 -4.222086817026138306e-02 9.687985479831695557e-02 -7.654610276222229004e-02 -3.370630741119384766e-02 -1.145584210753440857e-01 -1.157246157526969910e-01 -9.474675357341766357e-02 -7.239369302988052368e-02 -1.780039444565773010e-02 7.864198833703994751e-02 3.234963119029998779e-02 6.098799407482147217e-02 1.384685039520263672e-01 -9.709242731332778931e-02 9.897542744874954224e-02 -1.027592495083808899e-01 2.732416614890098572e-03 -1.361800581216812134e-01 -1.524098515510559082e-01 -1.648520380258560181e-01 -2.237428911030292511e-02 -8.559411391615867615e-03 1.096129193902015686e-01 -4.195169359445571899e-02 -3.192577511072158813e-02 2.327111922204494476e-02 -8.747174590826034546e-02 -9.847027808427810669e-02 9.803637117147445679e-02 7.587446272373199463e-02 -1.512389928102493286e-01 2.119688550010323524e-03 -1.286021899431943893e-02 1.671787649393081665e-01 1.506666839122772217e-01 1.948502846062183380e-02 4.210702329874038696e-02 7.383877784013748169e-02 -3.300329437479376793e-03 -5.197403952479362488e-02 1.068183258175849915e-01 1.727532967925071716e-02 6.889633834362030029e-02
-1.469929330050945282e-02 1.241060346364974976e-01 -1.224658042192459106e-01 5.267253145575523376e-02 -1.105983853340148926e-01 2.128497511148452759e-02 1.423397380858659744e-02 4.879257827997207642e-02 1.750503294169902802e-02 -5.199231952428817749e-02 -9.063685685396194458e-02 -1.135791912674903870e-01 -9.789577126502990723e-02 -1.096074059605598450e-01 1.699183695018291473e-02 -1.536548882722854614e-01 -2.488173544406890869e-02 1.040907576680183411e-01 -8.122745156288146973e-02 -9.534911811351776123e-02 -1.199176013469696045e-01 -3.474939614534378052e-02 4.397026449441909790e-02 -8.121594041585922241e-02 -4.654767364263534546e-02 -1.830084621906280518e-02 2.645829692482948303e-02 -2.227882854640483856e-02 -8.094911277294158936e-02 -1.272289752960205078e-01 -1.760063320398330688e-02 -9.799560904502868652e-02 6.228062883019447327e-02 -6.640689074993133545e-02 6.795629858970642090e-03 1.818932779133319855e-02 7.113982737064361572e-02 6.127037107944488525e-02 -4.470758885145187378e-02 -1.660378724336624146e-01 5.601805821061134338e-02 5.747606232762336731e-02 -4.458191618323326111e-02 -3.276291862130165100e-02 5.359560251235961914e-03 1.510562896728515625e-01 -1.534788608551025391e-01 1.348111629486083984e-01 3.898718953132629395e-02 -9.250530600547790527e-02 1.025017909705638885e-02 -8.619343489408493042e-02 -6.116348877549171448e-02 4.097030684351921082e-02 5.428763851523399353e-02 5.861989781260490417e-02 1.013724952936172485e-01 -1.211531683802604675e-01 5.109731107950210571e-02 -4.397425055503845215e-02 -5.224992986768484116e-03 9.470387548208236694e-02 -4.893242195248603821e-02 1.213568262755870819e-02
-5.597454309463500977e-02 1.480399817228317261e-01 5.387672036886215210e-02 7.017379254102706909e-02 -1.766571961343288422e-02 -1.046314910054206848e-01 6.895077880471944809e-03 -3.316595405340194702e-02 1.223079562187194824e-01 2.130831778049468994e-02 -8.158366382122039795e-02 3.398919478058815002e-02 -3.310935199260711670e-02 -1.083565969020128250e-02 4.010978713631629944e-02 -8.875389397144317627e-02 7.792448997497558594e-02 -7.083402574062347412e-02 -4.609888419508934021e-02 1.609052903950214386e-02 -9.939587675034999847e-03 -2.591481246054172516e-02 1.244807839393615723e-01 1.627768576145172119e-02 7.889864593744277954e-02 6.609519571065902710e-02 -1.050337962806224823e-02 1.283410042524337769e-01 4.359144717454910278e-02 2.642191946506500244e-02 -5.356587842106819153e-02 -1.333240699023008347e-02 -8.744919300079345703e-02 5.047360900789499283e-03 4.870754480361938477e-02 -6.346181035041809082e-02 9.265977144241333008e-02 4.314265027642250061e-02 2.082098647952079773e-02 2.355092950165271759e-02 -8.489850163459777832e-02 -2.838938124477863312e-02 5.438936501741409302e-02 3.823431953787803650e-02 -1.551558226346969604e-01 1.414789706468582153e-01 -9.167668223381042480e-02 5.959746241569519043e-02 6.003988906741142273e-02 -7.623089104890823364e-02 3.607051819562911987e-02 -1.197955477982759476e-02 -5.920553579926490784e-02 1.161256283521652222e-01 1.424548178911209106e-01 4.393911361694335938e-02 -1.073810458183288574e-01 -4.101401567459106445e-02 -6.782276183366775513e-02 7.407178729772567749e-02 4.088394716382026672e-02 -1.122516393661499023e-02 -1.145516242831945419e-02 -3.004128299653530121e-02
1.179812252521514893e-01 1.499118655920028687e-01 7.022366672754287720e-02 -1.311554163694381714e-01 7.259517908096313477e-02 -3.359944373369216919e-02 1.064028665423393250e-01 -7.193331420421600342e-02 1.763937622308731079e-01 -1.221226453781127930e-01 -6.522464752197265625e-02 8.287116885185241699e-03 1.124551594257354736e-01 -9.393165260553359985e-02 8.549774438142776489e-02 -4.599021375179290771e-02 3.217322984710335732e-03 -5.562696978449821472e-02 -8.639177680015563965e-02 -2.726079151034355164e-02 -4.824471101164817810e-02 2.574815228581428528e-02 1.378146409988403320e-01 -1.531671499833464622e-03 1.216914355754852295e-01 8.864773064851760864e-02 8.743482083082199097e-02 8.079190738499164581e-03 1.407840549945831299e-01 3.957961872220039368e-02 -5.026587098836898804e-02 -1.217252016067504883e-01 1.123993471264839172e-01 9.781891852617263794e-02 -1.414695680141448975e-01 9.298758953809738159e-02 1.404670476913452148e-01 -1.557991802692413330e-01 1.553713530302047729e-01 -2.562538534402847290e-02 -9.327486902475357056e-02 -9.519685059785842896e-02 -4.656113684177398682e-02 1.867413222789764404e-01 2.925484813749790192e-02 2.749923430383205414e-02 -1.138714998960494995e-01 -1.331730186939239502e-01 9.304068051278591156e-03 1.109720468521118164e-01 -2.310924045741558075e-02 -1.996575668454170227e-02 3.339264169335365295e-02 -2.052652649581432343e-02 2.049139700829982758e-02 1.658231168985366821e-01 -1.023955121636390686e-01 8.665706217288970947e-02 -1.124722696840763092e-02 -1.019833832979202271e-01 -2.119316533207893372e-02 -4.856190085411071777e-02 -5.536410026252269745e-03 9.488493204116821289e-02
-8.170276880264282227e-02 -1.570481248199939728e-02 -4.017088189721107483e-02 -7.791779935359954834e-02 -1.392191089689731598e-02 1.759789437055587769e-01 -5.384641140699386597e-02 8.773307502269744873e-02 9.485606849193572998e-02 -2.216643840074539185e-02 -1.405079215764999390e-01 -5.690446496009826660e-02 1.191830486059188843e-01 1.301004737615585327e-02 -1.719756275415420532e-01 -1.128336116671562195e-01 -1.683299690485000610e-01 6.004161387681961060e-02 3.697356581687927246e-02 1.382649093866348267e-01 1.093074120581150055e-02 -7.055021077394485474e-02 -8.268314599990844727e-02 -3.842167556285858154e-02 2.939774282276630402e-02 -6.152274087071418762e-02 1.270527392625808716e-01 -3.069380857050418854e-02 -4.695285856723785400e-02 -4.929167404770851135e-02 8.424831926822662354e-02 1.728236488997936249e-02 -1.030217409133911133e-01 -6.635132431983947754e-02 8.365169912576675415e-02 -9.202740341424942017e-02 1.180575788021087646e-01 -2.758303657174110413e-02 1.191116496920585632e-01 -7.548601180315017700e-02 -8.962785452604293823e-02 1.512878388166427612e-01 -1.332662254571914673e-01 2.064481005072593689e-02 5.950151756405830383e-02 1.691790819168090820e-01 8.579656481742858887e-02 9.930758178234100342e-02 -1.178591139614582062e-02 1.452315151691436768e-01 -5.386990308761596680e-02 -1.520206779241561890e-01 8.894467353820800781e-02 -6.810974329710006714e-02 -8.397545665502548218e-02 6.358109414577484131e-02 5.501353740692138672e-02 2.404698170721530914e-02 1.384142488241195679e-01 8.248732239007949829e-02 5.972260236740112305e-02 -5.959193781018257141e-02 1.429743170738220215e-01 -8.224813640117645264e-02
1.055516302585601807e-01 -1.482422649860382080e-01 -8.621650747954845428e-03 -9.798943251371383667e-02 1.051534339785575867e-01 -6.618027389049530029e-02 -6.835925579071044922e-02 -9.599953889846801758e-02 9.760717302560806274e-02 1.304400414228439331e-01 -8.426733547821640968e-04 1.145511791110038757e-01 -6.389220803976058960e-02 7.492616027593612671e-02 3.104676865041255951e-02 -3.398295119404792786e-02 -6.180609762668609619e-02 6.122668832540512085e-02 1.096860412508249283e-02 1.160887405276298523e-01 8.132087439298629761e-02 6.559900939464569092e-02 1.482777744531631470e-01 -3.945890814065933228e-02 -5.364087596535682678e-02 8.471814543008804321e-02 -6.492639333009719849e-02 1.622521877288818359e-02 9.982869029045104980e-02 8.033846318721771240e-02 3.054442815482616425e-02 -6.118215620517730713e-02 -1.465415023267269135e-02 7.457609754055738449e-03 5.633147805929183960e-02 -2.164557762444019318e-02 -7.638570666313171387e-02 -1.155639514327049255e-01 -1.348477303981781006e-01 2.078101970255374908e-02 6.448558717966079712e-02 9.562709182500839233e-02 -4.166078940033912659e-02 -3.416524827480316162e-02 -1.398021280765533447e-01 -7.777018845081329346e-02 1.584681309759616852e-02 8.793982863426208496e-02 4.032409191131591797e-02 -3.584702685475349426e-02 -9.370816498994827271e-02 -1.522163748741149902e-01 -6.208259239792823792e-02 1.237609013915061951e-01 1.330755650997161865e-01 -4.763005673885345459e-02 2.226773463189601898e-02 -2.764402423053979874e-03 -6.833583861589431763e-02 -1.659282445907592773e-01 -1.283537894487380981e-01 1.032335311174392700e-01 -8.129102736711502075e-02 -1.360873430967330933e-01
-1.142194718122482300e-01 -9.907380491495132446e-02 -3.715017065405845642e-02 -1.286239363253116608e-02 1.450521051883697510e-01 1.840952634811401367e-01 7.724066823720932007e-02 6.558282766491174698e-03 5.593212693929672241e-02 -7.228599395602941513e-03 -1.225213110446929932e-01 5.249499157071113586e-02 -5.678588151931762695e-02 -2.700160443782806396e-02 -5.675086379051208496e-02 -1.623077392578125000e-01 3.911306709051132202e-02 3.803661093115806580e-02 2.778998762369155884e-02 -1.242083087563514709e-01 -1.163996458053588867e-01 -8.747940510511398315e-02 -5.189247056841850281e-02 -8.586126565933227539e-02 -1.161225438117980957e-01 7.413243502378463745e-02 1.298799663782119751e-01 -8.722660690546035767e-02 1.106616631150245667e-01 -1.125029288232326508e-02 -4.434647783637046814e-02 -1.225555166602134705e-01 2.966328524053096771e-02 -1.332705467939376831e-01 3.789829090237617493e-02 5.169003084301948547e-02 -1.297688484191894531e-01 5.816819146275520325e-02 1.351052820682525635e-01 3.229191526770591736e-02 -1.476272344589233398e-01 -9.703741408884525299e-03 1.194622516632080078e-01 7.280878489837050438e-04 -1.648157238960266113e-01 3.276829421520233154e-02 -8.556397631764411926e-03 5.240644514560699463e-02 1.653811708092689514e-02 -5.645091459155082703e-02 -1.487313956022262573e-01 -5.926623567938804626e-02 -4.425910860300064087e-02 1.365775242447853088e-02 -7.068721577525138855e-03 6.044105440378189087e-02 1.438368707895278931e-01 2.383967861533164978e-02 -6.882718950510025024e-02 -7.561828196048736572e-02 1.152578592300415039e-01 8.888768404722213745e-02 -7.731451094150543213e-02 5.014573410153388977e-02
3.263826668262481689e-02 -5.630444362759590149e-02 2.354370057582855225e-02 6.590332090854644775e-02 -9.689920395612716675e-02 -2.520245686173439026e-02 -1.193911731243133545e-01 -1.141953542828559875e-01 2.096475288271903992e-02 5.065559968352317810e-02 9.286551177501678467e-02 2.060084417462348938e-02 1.272444874048233032e-01 1.328865885734558105e-01 -1.343142390251159668e-01 8.053781092166900635e-02 4.874108359217643738e-02 1.060047820210456848e-01 -1.193819791078567505e-01 -1.197966281324625015e-02 3.285583341494202614e-03 1.719288341701030731e-02 -1.222890056669712067e-02 7.181003689765930176e-03 -7.326016575098037720e-02 -3.589052357710897923e-04 -1.379174888134002686e-01 -1.672097146511077881e-01 2.084126174449920654e-01 1.091258451342582703e-01 -9.839034639298915863e-03 3.440255671739578247e-02 1.232434622943401337e-02 1.101746410131454468e-01 2.650295756757259369e-02 -4.952323436737060547e-02 -1.834352687001228333e-02 3.685828670859336853e-02 1.065022274851799011e-01 -1.085713356733322144e-01 9.528020769357681274e-02 -1.450622975826263428e-01 7.799597829580307007e-02 2.129801362752914429e-02 -7.258419692516326904e-02 1.746058762073516846e-01 -3.647613804787397385e-03 -4.225118458271026611e-02 3.434295579791069031e-02 -1.087185963988304138e-01 -1.230680570006370544e-01 -4.200276732444763184e-02 -8.952520787715911865e-02 1.299007795751094818e-02 8.751281350851058960e-02 1.126789227128028870e-01 -4.627344757318496704e-02 -4.059467837214469910e-02 4.775895550847053528e-02 -1.250580698251724243e-01 1.217071488499641418e-01 9.613259136676788330e-02 -1.576649546623229980e-01 1.173836737871170044e-01
-6.900428980588912964e-02 7.147821784019470215e-02 3.040144406259059906e-02 -1.031370609998703003e-01 4.988200217485427856e-02 -6.518209725618362427e-02 1.029160991311073303e-01 -1.300642043352127075e-01 -3.267161175608634949e-02 9.973879158496856689e-02 -3.032248467206954956e-02 1.324495207518339157e-02 1.395332366228103638e-01 5.879821255803108215e-02 3.301388397812843323e-02 7.537696510553359985e-02 -1.507835686206817627e-01 -2.727595344185829163e-02 -1.054395735263824463e-01 -5.199546460062265396e-03 -3.533332422375679016e-02 9.308736026287078857e-02 5.171459168195724487e-02 3.980911895632743835e-02 2.401636214926838875e-03 2.375665865838527679e-02 1.254817992448806763e-01 -1.329005509614944458e-01 9.126350283622741699e-02 7.430424541234970093e-02 -1.622282527387142181e-02 9.228425472974777222e-02 -6.737083196640014648e-02 -1.586719788610935211e-02 -3.985702991485595703e-02 4.281787201762199402e-03 1.133112013339996338e-01 5.920846480876207352e-03 -8.205211907625198364e-02 -1.025343462824821472e-01 -5.880875512957572937e-02 1.091974414885044098e-02 -4.759541526436805725e-02 1.409225314855575562e-01 -3.233629837632179260e-02 1.171178892254829407e-01 -3.746974468231201172e-02 3.381991013884544373e-02 6.463194638490676880e-02 6.972928997129201889e-03 3.884765505790710449e-02 8.067794144153594971e-02 7.958353310823440552e-02 1.164892092347145081e-01 -3.711695596575737000e-02 3.127279877662658691e-02 1.191187053918838501e-01 -6.872390210628509521e-02 -8.849862962961196899e-02 -7.749409228563308716e-02 7.796549797058105469e-02 1.097766757011413574e-01 8.761456608772277832e-02 6.947459280490875244e-02
6.048132665455341339e-03 8.761919289827346802e-02 9.617494791746139526e-02 -6.368964910507202148e-02 1.866647601127624512e-02 -9.291053563356399536e-02 -1.088726967573165894e-01 1.057666377164423466e-03 1.388798654079437256e-01 -1.378443557769060135e-02 1.171913370490074158e-01 1.148060485720634460e-01 1.906810142099857330e-02 -1.200951561331748962e-01 1.395879220217466354e-02 -1.589104086160659790e-01 -1.568842679262161255e-02 6.953246891498565674e-02 -1.361860781908035278e-01 1.261200457811355591e-01 -3.851421922445297241e-02 4.981630668044090271e-02 6.063236296176910400e-02 -9.629994630813598633e-02 1.304682493209838867e-01 -1.335984766483306885e-01 8.956051617860794067e-02 -1.559577286243438721e-01 -7.235449552536010742e-02 1.249275058507919312e-01 8.630643784999847412e-02 -1.153758242726325989e-01 3.092605434358119965e-02 -2.794613875448703766e-02 -2.996869571506977081e-02 -1.186856329441070557e-01 1.648895740509033203e-01 -1.501885950565338135e-01 9.130617231130599976e-02 -6.548847537487745285e-03 -1.156285628676414490e-01 -1.654409617185592651e-02 2.240650355815887451e-02 -6.305958330631256104e-02 -8.252889662981033325e-02 -8.761884644627571106e-03 -1.698748022317886353e-01 -1.281380355358123779e-01 -1.051641628146171570e-01 1.025005429983139038e-01 -3.382365778088569641e-02 -1.996201090514659882e-02 1.128696352243423462e-01 -7.073476165533065796e-02 -5.617960542440414429e-02 3.781159967184066772e-02 -4.453844204545021057e-02 2.412272244691848755e-02 1.508305501192808151e-02 -1.403445154428482056e-01 1.337135136127471924e-01 7.589683681726455688e-02 -3.863326087594032288e-02 -7.624268531799316406e-02
-3.352316468954086304e-02 5.861393362283706665e-02 -3.129194304347038269e-02 -6.096589192748069763e-02 -3.787588793784379959e-03 2.193353325128555298e-02 -4.951966553926467896e-02 -6.613171426579356194e-04 -4.596129059791564941e-02 5.335775390267372131e-02 -1.286842375993728638e-01 6.089628487825393677e-02 -4.668302088975906372e-02 1.869190670549869537e-02 -9.706131368875503540e-02 -2.680949866771697998e-02 -9.706827998161315918e-02 -3.588073328137397766e-02 -1.633426994085311890e-01 6.116971001029014587e-02 -1.343602538108825684e-01 8.186440914869308472e-02 -2.616612799465656281e-02 2.687169611454010010e-02 -5.662254616618156433e-02 1.030235886573791504e-01 1.307531148195266724e-01 -2.272440493106842041e-02 -2.295662276446819305e-02 6.287426501512527466e-02 1.181413698941469193e-02 7.777329534292221069e-02 4.086241126060485840e-02 1.338143348693847656e-01 6.915787607431411743e-02 7.839393615722656250e-02 -7.231706380844116211e-02 2.919890172779560089e-02 -1.821668632328510284e-02 -9.681006520986557007e-02 -1.232880055904388428e-01 4.218427464365959167e-02 1.831556297838687897e-02 -1.340114232152700424e-02 3.348456323146820068e-02 9.474126249551773071e-02 2.337791398167610168e-02 6.598275154829025269e-02 -3.623318672180175781e-02 -9.442546963691711426e-02 -1.757792830467224121e-01 -1.663188040256500244e-01 -1.025541312992572784e-02 1.244859248399734497e-01 -6.178412586450576782e-02 5.495959892868995667e-02 1.491558104753494263e-01 -5.195679515600204468e-02 -1.382826566696166992e-01 -2.449435181915760040e-02 -2.276493795216083527e-02 3.717408701777458191e-02 -7.960262149572372437e-02 -4.746491089463233948e-03
-4.309216141700744629e-02 1.542650312185287476e-01 5.517522618174552917e-02 1.406501531600952148e-01 -1.446248590946197510e-01 -8.903034776449203491e-02 9.068958461284637451e-02 9.163951128721237183e-02 8.598878048360347748e-03 1.690979301929473877e-01 9.930159151554107666e-02 5.133303627371788025e-02 -1.207096800208091736e-01 1.568580716848373413e-01 -6.085602581151761115e-05 -1.177456080913543701e-01 -4.132363200187683105e-02 -6.730918586254119873e-02 1.282545551657676697e-02 8.743533492088317871e-02 -6.902137398719787598e-02 -6.168406456708908081e-03 1.029461845755577087e-01 -3.471295908093452454e-02 3.199006989598274231e-02 -3.280221298336982727e-02 -6.905711255967617035e-03 9.085874259471893311e-02 1.333207488059997559e-01 1.705971807241439819e-01 7.982227951288223267e-02 -1.178495660424232483e-01 -1.674121827818453312e-03 -1.037629097700119019e-01 -1.107705980539321899e-01 -1.125980764627456665e-01 3.689606487751007080e-02 8.645334094762802124e-02 -6.130298972129821777e-02 -1.219996586441993713e-01 -7.256266474723815918e-02 5.881407484412193298e-02 8.920026570558547974e-02 -3.870739042758941650e-02 3.441276028752326965e-02 1.060561910271644592e-01 -1.620164215564727783e-01 1.045236438512802124e-01 -1.630847305059432983e-01 -9.098590910434722900e-02 3.461015969514846802e-02 -7.348073273897171021e-02 1.792224310338497162e-02 -1.872109621763229370e-02 -1.014986634254455566e-01 9.214073419570922852e-02 3.095799870789051056e-02 1.466850042343139648e-01 -7.346642017364501953e-02 1.017484217882156372e-01 -1.473552137613296509e-01 -1.329845488071441650e-01 -7.853131741285324097e-02 -1.105974093079566956e-01
-1.258363202214241028e-02 2.755656838417053223e-02 -5.888903141021728516e-02 -5.992880463600158691e-02 -1.782942190766334534e-02 -3.865779936313629150e-02 -6.908208131790161133e-02 8.925270289182662964e-02 1.232256218791007996e-01 3.945898637175559998e-02 1.065544784069061279e-01 5.290597677230834961e-02 8.175069838762283325e-02 7.529312372207641602e-02 -5.425359308719635010e-02 -1.089266017079353333e-01 8.092879503965377808e-02 -2.869299985468387604e-02 -1.145357787609100342e-01 1.317761838436126709e-01 -4.523044452071189880e-02 -2.308931201696395874e-02 1.256060898303985596e-01 1.268459409475326538e-01 -1.138112545013427734e-01 -9.263108484447002411e-03 -3.235788270831108093e-02 1.147716678678989410e-02 3.710017353296279907e-02 -7.088353484869003296e-02 -3.783554211258888245e-02 -5.403026193380355835e-02 -1.189884915947914124e-01 2.328661456704139709e-02 2.375241369009017944e-02 -7.674346864223480225e-02 1.095073744654655457e-01 9.792132675647735596e-02 1.354758720844984055e-02 9.061289578676223755e-02 7.311884546652436256e-04 4.085653275251388550e-02 7.636110484600067139e-02 8.506888896226882935e-02 -1.885303109884262085e-02 2.762182243168354034e-02 -9.812708944082260132e-02 4.548289254307746887e-02 -4.783262312412261963e-02 -9.856891632080078125e-02 -7.443557679653167725e-02 -5.942307878285646439e-03 -5.994877591729164124e-02 -4.392329428810626268e-04 1.038729697465896606e-01 -2.182732895016670227e-02 4.880248103290796280e-03 -7.119169086217880249e-02 4.009275883436203003e-02 -8.202403783798217773e-02 -2.267182804644107819e-02 -1.472591906785964966e-01 6.791382282972335815e-02 3.968570753931999207e-02
9.722631424665451050e-02 3.772437199950218201e-02 -1.605996638536453247e-01 -1.702170968055725098e-01 4.099495336413383484e-02 3.080449998378753662e-02 -1.605221480131149292e-01 -8.932391554117202759e-02 8.828411996364593506e-02 -6.108363624662160873e-03 -1.443327516317367554e-01 8.878592401742935181e-02 -5.812416970729827881e-02 1.319745928049087524e-01 2.299450151622295380e-02 4.252370074391365051e-02 8.028846979141235352e-02 8.394371718168258667e-02 7.461200933903455734e-03 -3.500543162226676941e-02 1.028739809989929199e-01 -3.826243057847023010e-02 1.104120984673500061e-01 5.992698669433593750e-02 -1.101654544472694397e-01 -1.366809010505676270e-01 8.135075867176055908e-02 1.691479980945587158e-02 1.514076292514801025e-01 8.015847951173782349e-02 4.647645354270935059e-02 -9.908184409141540527e-03 6.225430220365524292e-02 7.457111030817031860e-02 -1.250540316104888916e-01 -6.203747540712356567e-02 -7.228056434541940689e-03 -1.538788825273513794e-01 1.158132925629615784e-01 -2.613947354257106781e-02 5.311002582311630249e-02 8.818801492452621460e-02 -1.424284726381301880e-01 1.124655231833457947e-01 -1.084542348980903625e-01 -4.067888483405113220e-02 4.656855016946792603e-03 -6.964880973100662231e-02 7.039371132850646973e-02 -2.679428458213806152e-02 -8.084923960268497467e-03 -5.640123039484024048e-02 -7.073897868394851685e-02 9.016466885805130005e-02 3.017631918191909790e-02 1.606166958808898926e-01 -1.619134396314620972e-01 2.023334987461566925e-02 -1.033648755401372910e-02 -9.401647001504898071e-02 7.524775713682174683e-02 -4.065099731087684631e-02 1.104667037725448608e-01 2.227043733000755310e-02
1.266448646783828735e-01 7.714213803410530090e-03 4.372175410389900208e-02 2.609109878540039062e-02 9.730014204978942871e-02 -7.936886698007583618e-02 4.387624561786651611e-02 6.116697937250137329e-02 2.949805185198783875e-02 6.339431554079055786e-02 9.504716843366622925e-02 -2.721727266907691956e-02 1.451251804828643799e-01 1.205114349722862244e-01 -5.095908045768737793e-02 -1.125189438462257385e-01 -6.257384270429611206e-02 1.804170385003089905e-02 -4.213781654834747314e-02 1.659539192914962769e-01 8.595371991395950317e-02 -1.163464635610580444e-01 -1.184362638741731644e-02 3.928216174244880676e-02 1.517272442579269409e-01 -1.471257805824279785e-01 -2.226176485419273376e-02 -1.070445328950881958e-01 4.554219916462898254e-02 -3.152804449200630188e-02 -4.919102042913436890e-02 -1.348205357789993286e-01 2.060636878013610840e-02 -3.930879756808280945e-03 1.983237639069557190e-02 -1.535990387201309204e-01 3.709935769438743591e-02 -1.086660400032997131e-01 6.179866567254066467e-02 -7.284251600503921509e-02 -2.632953412830829620e-02 -1.289577186107635498e-01 3.126846253871917725e-02 -6.607460230588912964e-02 -2.347158966585993767e-03 -6.233401224017143250e-02 4.589989408850669861e-02 6.651774793863296509e-02 -2.556485682725906372e-02 1.106086671352386475e-01 2.589556202292442322e-02 8.026652038097381592e-02 -1.197102218866348267e-01 -1.080920826643705368e-02 1.460984051227569580e-01 1.760120093822479248e-01 -1.130726411938667297e-01 -3.322254866361618042e-02 -1.400716751813888550e-01 -1.504784375429153442e-01 -1.343501806259155273e-01 2.327022515237331390e-02 -6.637441460043191910e-03 -6.409789621829986572e-02
8.606301248073577881e-02 1.098365485668182373e-01 -1.386753469705581665e-01 -2.674628421664237976e-02 -2.664684318006038666e-02 1.497128754854202271e-01 7.904683053493499756e-02 1.900652237236499786e-02 -5.618014559149742126e-02 1.269838213920593262e-01 2.325305342674255371e-02 -4.616605490446090698e-02 6.640972197055816650e-02 -1.168938577175140381e-01 -2.015547454357147217e-02 7.219545543193817139e-02 1.474341899156570435e-01 4.754412919282913208e-02 2.513561584055423737e-02 5.209079384803771973e-02 3.385050594806671143e-02 -9.866967797279357910e-02 1.153250932693481445e-01 -7.148100435733795166e-02 8.806725963950157166e-03 -7.712326943874359131e-02 -1.704735099337995052e-03 -5.787792429327964783e-02 2.016333341598510742e-01 1.352186948060989380e-01 -9.955514967441558838e-02 8.647634088993072510e-02 4.689683765172958374e-02 8.993850648403167725e-02 6.686528027057647705e-02 -8.194103837013244629e-02 1.170016303658485413e-01 7.125318516045808792e-03 -1.793278455734252930e-01 -2.596767386421561241e-03 -7.798188831657171249e-03 -1.497945785522460938e-01 -7.848068326711654663e-02 9.957902878522872925e-02 -2.216525003314018250e-02 -4.799349606037139893e-02 3.998157009482383728e-02 1.290005147457122803e-01 -4.367033019661903381e-02 -9.812390431761741638e-03 -1.530076377093791962e-03 -3.133977879770100117e-04 6.454828381538391113e-02 1.312412768602371216e-01 1.256984472274780273e-01 6.902802735567092896e-02 3.228657692670822144e-02 -9.023200720548629761e-02 7.555479556322097778e-02 -1.388293206691741943e-01 2.545673586428165436e-02 8.681773394346237183e-02 -7.221011072397232056e-02 -1.113684549927711487e-01
3.079547919332981110e-02 -5.139759927988052368e-02 9.410075098276138306e-02 -4.385940730571746826e-02 1.011845543980598450e-01 -5.680269747972488403e-02 -1.448189020156860352e-01 -1.154366880655288696e-01 -3.989847004413604736e-02 -7.432907819747924805e-02 1.384454518556594849e-01 7.860354147851467133e-03 -6.144540011882781982e-02 1.479182839393615723e-01 3.671603335533291101e-04 1.148543041199445724e-02 1.405700743198394775e-01 -1.082573607563972473e-01 4.651849344372749329e-02 6.295779347419738770e-02 -1.206739470362663269e-01 -1.177342012524604797e-01 9.059975296258926392e-02 4.288489744067192078e-02 -5.317979492247104645e-03 -1.123846322298049927e-01 -9.370123594999313354e-02 -1.404723972082138062e-01 -1.005397513508796692e-01 3.210197761654853821e-02 -9.988939762115478516e-02 2.887433767318725586e-02 -1.027637943625450134e-01 -8.508227020502090454e-02 -1.177621260285377502e-01 -2.625159732997417450e-02 -6.281572580337524414e-02 -7.630809396505355835e-02 1.292112618684768677e-01 -3.526504337787628174e-02 5.211839452385902405e-02 -1.155140176415443420e-01 1.656675636768341064e-01 -4.681810364127159119e-02 9.401206672191619873e-02 1.062521710991859436e-01 -9.769704192876815796e-02 1.018829867243766785e-01 -1.085381358861923218e-01 5.130919814109802246e-02 -1.581893861293792725e-01 -9.733861684799194336e-02 -9.503284841775894165e-02 2.123607508838176727e-02 -1.089731603860855103e-01 -1.020416989922523499e-01 -8.608966320753097534e-02 1.089459508657455444e-01 -1.290510445833206177e-01 2.395814098417758942e-02 1.515893638134002686e-01 1.176970377564430237e-01 1.270029880106449127e-02 -2.491900697350502014e-02
1.092096325010061264e-02 -1.553972717374563217e-02 -1.124550551176071167e-01 1.026081889867782593e-01 -1.728470250964164734e-02 4.816679656505584717e-02 -6.803544610738754272e-02 -7.146557420492172241e-02 1.077378392219543457e-01 -3.084030561149120331e-02 8.714677393436431885e-02 -1.413816362619400024e-01 1.234524622559547424e-01 -4.082131758332252502e-02 4.261070489883422852e-02 -7.211133092641830444e-02 3.701156750321388245e-02 8.736383169889450073e-02 5.799666047096252441e-02 1.019501239061355591e-01 -1.036524176597595215e-01 6.715385615825653076e-02 -5.426963046193122864e-02 7.930529862642288208e-02 3.681226074695587158e-02 1.334372758865356445e-01 8.005969226360321045e-02 -7.942968606948852539e-02 1.408711522817611694e-01 1.000907123088836670e-01 -3.727460652589797974e-02 -1.567478477954864502e-02 -6.201171875000000000e-02 8.863518387079238892e-02 -1.712023913860321045e-01 -1.285457015037536621e-01 1.071454212069511414e-02 -1.629849970340728760e-01 1.396234631538391113e-01 4.721081256866455078e-02 1.391813624650239944e-03 1.795205473899841309e-02 -1.574279963970184326e-01 6.172120571136474609e-03 -9.978523850440979004e-02 9.735126048326492310e-02 4.420611634850502014e-02 -1.233271732926368713e-01 -1.573453247547149658e-01 -4.675118997693061829e-02 -1.087433695793151855e-01 -1.115650981664657593e-01 -1.809381693601608276e-02 3.541806340217590332e-02 2.550155296921730042e-02 -7.418627291917800903e-02 -1.471028029918670654e-01 -6.863971799612045288e-02 1.091835200786590576e-01 -2.473010681569576263e-02 -8.084968477487564087e-02 -3.549943119287490845e-02 -4.204915836453437805e-03 1.694406382739543915e-02
1.050574239343404770e-02 9.191031754016876221e-02 -1.223084405064582825e-01 -5.658331327140331268e-03 -8.975041657686233521e-02 1.614866405725479126e-01 5.581097677350044250e-03 8.628980070352554321e-02 -1.813659816980361938e-02 -7.823877967894077301e-03 -6.030967459082603455e-03 -1.279484629631042480e-01 1.037515923380851746e-01 -1.435645818710327148e-01 1.770222373306751251e-02 7.163220643997192383e-02 1.090250760316848755e-01 -9.803890436887741089e-02 -1.068605110049247742e-01 -7.171373069286346436e-02 7.409492880105972290e-02 -6.628602743148803711e-02 -3.319219499826431274e-02 7.467398792505264282e-02 2.463379316031932831e-02 -1.104983612895011902e-01 8.362264931201934814e-02 -7.864511758089065552e-02 8.995293080806732178e-02 7.495246827602386475e-02 -1.027356013655662537e-01 -1.425142288208007812e-01 9.690885990858078003e-02 -9.530559182167053223e-03 6.465172767639160156e-02 -1.638346910476684570e-01 -1.740491017699241638e-02 -1.555720418691635132e-01 -1.116441562771797180e-01 -1.382981538772583008e-01 -1.180218607187271118e-01 3.647259995341300964e-02 2.062532491981983185e-02 -6.178898736834526062e-02 -5.290352553129196167e-02 1.075002923607826233e-01 -2.742704004049301147e-02 5.631770193576812744e-02 -2.336275763809680939e-02 1.113814860582351685e-01 7.173502445220947266e-02 -1.061042770743370056e-01 1.186446053907275200e-03 5.966291949152946472e-02 -9.286797046661376953e-02 5.106709897518157959e-02 -6.572285294532775879e-02 1.121359784156084061e-02 -1.120745465159416199e-01 -1.207473501563072205e-02 -1.145074367523193359e-01 -3.952850401401519775e-02 7.987470924854278564e-02 5.438224226236343384e-02
3.155442699790000916e-02 6.011303886771202087e-02 -5.697958171367645264e-03 -1.437780559062957764e-01 -5.253530293703079224e-02 -1.208850834518671036e-02 -3.013451769948005676e-02 -2.529843710362911224e-02 -7.057603448629379272e-02 6.109387055039405823e-02 1.525658369064331055e-02 1.281783729791641235e-01 7.143131643533706665e-02 6.095268577337265015e-02 -1.627431064844131470e-01 4.135401174426078796e-02 8.934468962252140045e-03 -1.521098241209983826e-02 -1.356357485055923462e-01 -9.491800516843795776e-02 -5.757118016481399536e-02 -1.350657343864440918e-01 -4.289234802126884460e-02 3.111414983868598938e-02 -1.186734363436698914e-01 -8.738797903060913086e-02 1.016683876514434814e-01 1.066674515604972839e-01 -7.624378055334091187e-02 -8.415871113538742065e-02 6.490403413772583008e-02 -1.703577637672424316e-01 -4.335715249180793762e-02 -1.072850376367568970e-01 -3.891470655798912048e-02 -2.752968296408653259e-02 -6.018356606364250183e-02 -1.096275746822357178e-01 -1.071540415287017822e-01 2.918788604438304901e-02 -1.004656478762626648e-01 -5.555042624473571777e-02 -1.163923591375350952e-01 -9.174858033657073975e-02 -1.418117340654134750e-02 1.073660850524902344e-01 -7.896196842193603516e-02 2.132809534668922424e-02 -1.072794124484062195e-01 2.345308102667331696e-02 -1.510951966047286987e-01 2.325615845620632172e-02 -1.043086498975753784e-02 9.635647386312484741e-02 5.072671920061111450e-02 -2.877334132790565491e-02 4.875064641237258911e-02 3.626635298132896423e-02 -8.964934200048446655e-02 -2.875360101461410522e-02 1.890118233859539032e-02 -5.078187212347984314e-02 -1.018219254910945892e-02 1.010058224201202393e-01
-1.086353510618209839e-01 -1.020311266183853149e-01 -6.574828177690505981e-02 1.242587566375732422e-01 -6.816033273935317993e-02 -2.496868930757045746e-02 4.174869507551193237e-02 -5.621498450636863708e-02 -4.320798441767692566e-02 -5.615471675992012024e-02 -4.484306648373603821e-02 -3.900850657373666763e-03 -1.046777702867984772e-02 1.643472723662853241e-02 -2.972145564854145050e-02 7.721382379531860352e-02 1.596642434597015381e-01 -2.074121125042438507e-02 -4.935372248291969299e-02 -5.942559242248535156e-02 9.051076322793960571e-02 -8.758211624808609486e-04 3.088035807013511658e-02 7.505170255899429321e-02 1.581934094429016113e-02 1.177241653203964233e-01 -6.713602691888809204e-02 -3.606078028678894043e-02 1.646992415189743042e-01 2.933437190949916840e-02 1.799384690821170807e-02 4.192372038960456848e-02 1.354572623968124390e-01 -5.025500431656837463e-02 -1.279546469449996948e-01 -1.894600130617618561e-02 1.018472164869308472e-01 -9.089741110801696777e-02 7.578750699758529663e-02 6.593377143144607544e-02 -9.284728765487670898e-02 1.093880832195281982e-02 -9.948650375008583069e-03 -2.258930169045925140e-02 -5.865171086043119431e-03 3.085787221789360046e-02 -8.131910860538482666e-02 1.129618361592292786e-01 4.775856807827949524e-02 -1.874658279120922089e-02 -1.083811447024345398e-01 5.338684841990470886e-02 5.198994651436805725e-02 4.881430044770240784e-02 8.792924135923385620e-02 1.786261051893234253e-01 -5.219831690192222595e-02 -1.260805577039718628e-01 -5.246634408831596375e-02 -1.472139805555343628e-01 -5.553146358579397202e-03 -1.719033420085906982e-01 -7.596627622842788696e-02 -6.610386073589324951e-03
-8.891196548938751221e-02 -5.368073005229234695e-03 9.859818220138549805e-02 -2.003221772611141205e-02 1.223327219486236572e-01 5.494223162531852722e-02 -1.397398710250854492e-01 -8.687190711498260498e-03 1.977991312742233276e-01 -5.591447278857231140e-02 -5.900095030665397644e-02 -2.619550004601478577e-02 1.791917383670806885e-01 -1.546985507011413574e-01 -2.411187812685966492e-02 -1.570911109447479248e-01 1.462516635656356812e-01 6.239415705204010010e-02 9.173281490802764893e-02 -1.803117990493774414e-02 1.173546090722084045e-01 1.187691763043403625e-01 7.036701589822769165e-02 2.462227083742618561e-02 7.976567000150680542e-02 6.391090154647827148e-02 3.671387210488319397e-02 4.506373032927513123e-02 1.377057516947388649e-03 -1.232754141092300415e-01 6.437724828720092773e-02 7.514854893088340759e-03 -2.708647027611732483e-02 -2.589052543044090271e-02 -1.201582998037338257e-01 -3.274201229214668274e-02 -2.721091918647289276e-02 -1.617358997464179993e-02 -3.566054254770278931e-02 -1.564050614833831787e-01 5.664847791194915771e-02 -7.425119169056415558e-03 1.254165619611740112e-01 1.914861351251602173e-01 -1.273481398820877075e-01 -1.165601331740617752e-02 4.284503310918807983e-02 -7.597681879997253418e-02 -3.032709285616874695e-02 -3.078987263143062592e-02 -1.184075623750686646e-01 8.771061152219772339e-02 -5.248647555708885193e-02 -3.559991344809532166e-02 4.024124890565872192e-02 1.755615323781967163e-01 -8.152858912944793701e-02 -1.477658003568649292e-01 1.551072113215923309e-02 -4.520264640450477600e-02 -1.384848356246948242e-02 9.962258487939834595e-02 2.752598933875560760e-02 9.808625280857086182e-02
-7.349980622529983521e-02 -1.303222328424453735e-01 -1.427206546068191528e-01 1.140908747911453247e-01 -6.146344915032386780e-02 1.057974249124526978e-01 -3.944047167897224426e-02 3.666529804468154907e-02 -4.566092789173126221e-02 3.143014758825302124e-02 1.008302569389343262e-01 3.274255432188510895e-03 1.362669020891189575e-01 1.560335159301757812e-01 -1.115319058299064636e-01 4.000816866755485535e-02 1.264068949967622757e-02 8.409613370895385742e-02 -7.669286429882049561e-02 -2.514737471938133240e-02 -4.983862489461898804e-02 -5.403244122862815857e-02 -9.879806637763977051e-02 2.002588240429759026e-03 -7.846648246049880981e-02 -9.628186374902725220e-02 -4.310834407806396484e-02 1.081481724977493286e-01 5.001261457800865173e-02 6.963619589805603027e-02 9.735181927680969238e-02 2.548509649932384491e-02 5.205406248569488525e-02 9.079638123512268066e-02 -2.903777360916137695e-02 -9.152484685182571411e-02 -4.570792615413665771e-02 -1.765842586755752563e-01 3.903083503246307373e-02 9.528276510536670685e-03 -8.007189631462097168e-02 -1.139316558837890625e-01 -7.602722942829132080e-02 8.510336279869079590e-02 -1.481180489063262939e-01 -2.548118587583303452e-03 -8.451358415186405182e-03 7.867398113012313843e-02 -1.489731576293706894e-02 -7.796737831085920334e-03 5.453914031386375427e-02 -1.598166301846504211e-02 4.352650418877601624e-02 1.564849168062210083e-01 2.175386250019073486e-02 1.831447482109069824e-01 3.223456442356109619e-02 -1.170393899083137512e-01 1.179381832480430603e-01 -3.446431457996368408e-02 -1.394799947738647461e-01 -7.833783328533172607e-02 2.534506469964981079e-02 5.358825903385877609e-03
-1.093986555933952332e-01 3.838417306542396545e-02 1.562613435089588165e-02 2.877340838313102722e-02 -8.830673247575759888e-02 4.745655134320259094e-02 -2.722370205447077751e-03 -1.386592090129852295e-01 1.196868270635604858e-01 -1.575289480388164520e-02 -8.134367316961288452e-02 -1.085376888513565063e-01 -9.411718696355819702e-02 1.120331883430480957e-01 2.631375566124916077e-02 5.522111803293228149e-02 -1.578661799430847168e-02 -3.585174307227134705e-02 -7.143055647611618042e-02 -1.187690719962120056e-02 -1.564314812421798706e-01 -1.583361416123807430e-03 -4.302344098687171936e-02 -1.021837815642356873e-01 3.954261913895606995e-02 1.377781629562377930e-01 7.402133196592330933e-03 -7.472281157970428467e-02 -1.026934087276458740e-01 8.119686692953109741e-02 -1.758528649806976318e-01 -1.065282523632049561e-01 -1.208482459187507629e-01 1.127363443374633789e-01 -1.386719048023223877e-01 -1.901350356638431549e-02 1.080997437238693237e-01 7.151730358600616455e-02 -4.464262723922729492e-02 -1.604932993650436401e-01 2.853521704673767090e-02 -9.518503397703170776e-02 -2.254845574498176575e-02 1.480162888765335083e-01 5.234126746654510498e-02 6.314522773027420044e-02 -1.332686841487884521e-01 6.088552251458168030e-02 1.383802946656942368e-02 -1.135577484965324402e-01 7.975704967975616455e-02 2.145311795175075531e-03 1.152450218796730042e-01 9.644806385040283203e-02 -1.038542091846466064e-01 1.248402297496795654e-01 -1.961275562644004822e-02 1.863836310803890228e-02 5.709337070584297180e-02 4.623043164610862732e-02 5.373457819223403931e-02 1.698445528745651245e-01 1.554839909076690674e-01 -1.404585316777229309e-02
7.701931148767471313e-02 -3.711663186550140381e-02 3.131727874279022217e-02 1.411184221506118774e-01 1.436994820833206177e-01 -7.540427893400192261e-02 3.468074649572372437e-02 -3.256213665008544922e-02 -6.953351944684982300e-02 -3.214072063565254211e-02 -4.300993867218494415e-03 6.771393865346908569e-02 -6.252853572368621826e-02 5.219296552240848541e-03 -3.021068498492240906e-02 6.816060841083526611e-02 1.313774138689041138e-01 -9.207490831613540649e-03 6.383807957172393799e-02 8.904220908880233765e-02 -6.006265431642532349e-02 -5.929566174745559692e-02 6.245813146233558655e-02 3.375333175063133240e-02 1.430986821651458740e-02 -8.971416950225830078e-02 -1.129209622740745544e-01 2.648999169468879700e-02 -3.042700886726379395e-02 1.519228518009185791e-01 -6.542696803808212280e-02 -9.583563357591629028e-02 -7.503479719161987305e-02 1.351302713155746460e-01 3.496236354112625122e-02 -1.588476151227951050e-01 -7.435573637485504150e-02 -6.349379569292068481e-02 1.407542917877435684e-02 -8.410960435867309570e-02 -1.068438813090324402e-01 -9.445623308420181274e-02 -1.165898442268371582e-01 2.670330926775932312e-02 1.107964385300874710e-02 3.570685163140296936e-02 5.147659406065940857e-02 1.022966299206018448e-02 7.370341569185256958e-02 -1.484475582838058472e-01 -4.366093128919601440e-02 -6.303406506776809692e-02 -4.696298763155937195e-02 6.504253298044204712e-02 7.228376716375350952e-02 4.687517136335372925e-02 -8.323545567691326141e-03 4.244317486882209778e-02 -4.040662944316864014e-02 -1.162705197930335999e-01 -2.011294476687908173e-02 -4.523130506277084351e-02 1.307865977287292480e-01 1.189625933766365051e-01
-4.893587902188301086e-02 8.360341936349868774e-02 5.202003940939903259e-02 -1.117219552397727966e-01 4.301552474498748779e-02 1.250250786542892456e-01 9.927564114332199097e-02 5.861173197627067566e-02 1.087151542305946350e-01 1.016957610845565796e-01 -4.330763593316078186e-02 -1.192924678325653076e-01 1.033535972237586975e-01 -5.202909186482429504e-02 4.442242160439491272e-02 9.108933806419372559e-02 1.015819609165191650e-01 4.183000698685646057e-02 1.565761119127273560e-02 1.167877316474914551e-01 1.774063520133495331e-02 9.140966460108757019e-03 1.192796602845191956e-01 -1.412672549486160278e-01 1.235744431614875793e-01 8.326739072799682617e-02 2.217277139425277710e-02 1.462763547897338867e-01 6.706291437149047852e-02 -6.904573738574981689e-02 3.927270323038101196e-02 -1.615233570337295532e-01 3.208792069926857948e-03 -3.717513382434844971e-02 -1.818764768540859222e-02 -3.734103962779045105e-02 -2.475997991859912872e-02 -1.631008088588714600e-01 2.915033325552940369e-02 1.796395890414714813e-02 3.171928599476814270e-02 -4.128094017505645752e-02 -1.256254166364669800e-01 7.040330022573471069e-02 -1.175397336483001709e-01 1.130905933678150177e-02 -1.216303855180740356e-01 6.591533869504928589e-02 -4.025549814105033875e-02 -6.442121230065822601e-04 7.438327372074127197e-02 -1.564978361129760742e-01 3.343519940972328186e-02 -1.104566305875778198e-01 -2.739113697316497564e-04 4.770821705460548401e-02 8.480615168809890747e-02 4.177464917302131653e-02 -5.094525963068008423e-02 3.152154013514518738e-02 -5.990046262741088867e-02 -1.650414019823074341e-01 -5.885547026991844177e-02 1.043859776109457016e-02
-6.294614076614379883e-02 1.068620905280113220e-01 -6.330784410238265991e-02 1.683678627014160156e-01 1.295237094163894653e-01 -4.207233339548110962e-02 7.893997430801391602e-02 -1.445047259330749512e-01 -8.360822498798370361e-02 9.668330103158950806e-02 -1.178599298000335693e-01 -4.328942857682704926e-03 1.175453066825866699e-01 2.421430125832557678e-02 -5.193272978067398071e-02 -9.399703145027160645e-02 -2.918846346437931061e-02 -1.202056705951690674e-01 2.189218439161777496e-02 -6.725597660988569260e-03 1.571597903966903687e-01 -1.077923998236656189e-01 2.291991561651229858e-02 1.844654977321624756e-01 -9.666696935892105103e-02 -1.349523365497589111e-01 1.148898527026176453e-02 -8.348499238491058350e-02 1.238840147852897644e-01 1.044784411787986755e-01 -1.184791475534439087e-01 2.370058931410312653e-02 -9.994077682495117188e-02 -1.037545129656791687e-01 -5.328937619924545288e-02 7.420056313276290894e-02 5.268356204032897949e-02 -8.594123274087905884e-02 -1.302254199981689453e-01 -3.674539551138877869e-02 -1.478793323040008545e-01 8.465066552162170410e-02 5.039955954998731613e-03 6.524881720542907715e-02 6.751091033220291138e-02 -9.958181530237197876e-03 8.959839493036270142e-02 -8.545079082250595093e-02 -3.648168593645095825e-02 4.242164269089698792e-02 -1.568504869937896729e-01 7.415784150362014771e-02 -1.051205024123191833e-01 1.183728650212287903e-01 1.313254237174987793e-01 -1.080950498580932617e-01 -5.207811668515205383e-02 -8.422390371561050415e-02 1.486776173114776611e-01 -1.570633053779602051e-01 -5.889121815562248230e-02 -6.424175202846527100e-02 9.161847829818725586e-02 7.675552368164062500e-02
-1.317041111178696156e-03 3.703708201646804810e-02 -1.030984148383140564e-01 -5.683567747473716736e-02 -7.465362548828125000e-02 8.212599158287048340e-02 1.453840453177690506e-02 -1.666039973497390747e-01 8.070579916238784790e-02 -1.478529572486877441e-01 7.060876116156578064e-03 -4.877055808901786804e-02 1.292830109596252441e-01 -8.847206830978393555e-02 2.376131713390350342e-02 2.087943255901336670e-02 -1.117986589670181274e-01 -8.507481962442398071e-02 3.618261963129043579e-02 5.068566184490919113e-03 -9.765514731407165527e-02 -1.152294352650642395e-01 -6.527643650770187378e-02 8.775510638952255249e-02 4.603490233421325684e-02 -1.192899327725172043e-02 6.265630014240741730e-03 -9.012918919324874878e-02 -6.082826480269432068e-02 -1.352020353078842163e-02 4.523677006363868713e-02 -2.010432630777359009e-02 1.382620185613632202e-01 -2.925921604037284851e-02 1.650479971431195736e-03 -9.098788350820541382e-02 -9.230284020304679871e-03 7.896365597844123840e-03 5.731619894504547119e-02 6.407673656940460205e-02 5.119139701128005981e-02 1.081380322575569153e-01 -8.043207228183746338e-02 -8.274643681943416595e-03 -1.806539110839366913e-02 1.711458899080753326e-02 5.446037650108337402e-02 5.808146204799413681e-03 -2.483266405761241913e-02 -5.305666849017143250e-02 -1.470994763076305389e-02 2.184294722974300385e-02 -1.153091713786125183e-01 1.338612288236618042e-02 -9.651559591293334961e-02 -8.588273078203201294e-02 1.424788380973041058e-03 1.375905275344848633e-01 8.539281785488128662e-02 -7.017017155885696411e-02 1.228549703955650330e-01 4.833063483238220215e-02 4.869842901825904846e-03 -2.672590781003236771e-03
-1.859379746019840240e-02 1.093779690563678741e-02 -4.334809258580207825e-02 -8.446742594242095947e-02 8.274985849857330322e-02 -8.172391355037689209e-02 -4.039368033409118652e-02 -6.706214696168899536e-02 5.632793903350830078e-02 -1.419001668691635132e-01 2.267393842339515686e-02 -1.193027105182409286e-02 -3.076638095080852509e-02 -1.220013052225112915e-01 -1.357676088809967041e-01 -1.075140684843063354e-01 -7.403262704610824585e-02 8.785648643970489502e-02 -1.267515867948532104e-02 1.224235594272613525e-01 7.952997088432312012e-02 1.454990953207015991e-01 2.603666484355926514e-02 1.134475320577621460e-02 1.033375784754753113e-01 1.110999807715415955e-01 7.143406569957733154e-02 1.130054071545600891e-01 5.658188834786415100e-02 5.222470033913850784e-03 9.296991676092147827e-02 -1.197360530495643616e-01 4.659235477447509766e-02 -1.398076713085174561e-01 1.734564779326319695e-03 -9.130176156759262085e-02 4.656168818473815918e-02 -2.912544086575508118e-02 -1.305117309093475342e-01 6.120513007044792175e-02 -5.049038678407669067e-03 1.346758157014846802e-01 1.128949373960494995e-01 5.111930891871452332e-02 -1.011137291789054871e-01 1.354624330997467041e-01 -1.495720893144607544e-01 -6.783447414636611938e-02 5.822670087218284607e-02 -1.488397270441055298e-01 5.359583348035812378e-02 -1.492374390363693237e-01 -5.224505811929702759e-02 1.047573909163475037e-01 -2.320797368884086609e-02 -4.533732682466506958e-02 -5.816311016678810120e-02 8.690901845693588257e-02 -8.098533749580383301e-02 2.165602985769510269e-03 3.820765018463134766e-02 9.133825451135635376e-02 -7.189590483903884888e-02 1.102158129215240479e-01
-1.395779252052307129e-01 6.458270549774169922e-02 5.564309656620025635e-02 6.317290663719177246e-02 7.058046758174896240e-02 5.195199325680732727e-02 4.125699400901794434e-03 3.964401409029960632e-02 -1.694683544337749481e-02 -3.676281124353408813e-02 1.635079644620418549e-02 2.024137228727340698e-02 8.257072418928146362e-02 -2.508562989532947540e-02 4.031792655587196350e-02 -4.804371390491724014e-03 6.335949990898370743e-03 -2.601808868348598480e-02 -1.184046342968940735e-01 1.546929925680160522e-01 6.656087934970855713e-02 -6.646955758333206177e-02 -6.133543699979782104e-02 -1.089142784476280212e-01 -3.218055935576558113e-03 2.205626852810382843e-02 1.379985827952623367e-02 8.678058534860610962e-02 3.257364034652709961e-02 1.321436017751693726e-01 7.508990913629531860e-02 -2.347317337989807129e-02 -1.109057962894439697e-01 9.427313506603240967e-02 -1.241720393300056458e-01 -6.244314834475517273e-02 3.202629834413528442e-02 -1.679166257381439209e-01 -3.888404741883277893e-02 -1.654866188764572144e-01 -4.768101032823324203e-03 6.935665756464004517e-02 -5.171778798103332520e-02 2.126977294683456421e-01 -1.354605704545974731e-01 1.279141902923583984e-01 -1.367636770009994507e-01 4.646943509578704834e-02 -1.541151255369186401e-01 4.932349920272827148e-02 -6.250683218240737915e-02 -1.667324453592300415e-01 7.484868168830871582e-02 1.340224891901016235e-01 -1.379407383501529694e-02 2.927430346608161926e-02 1.052484884858131409e-01 1.149984449148178101e-01 1.186116635799407959e-01 5.349099636077880859e-02 3.725519776344299316e-02 -6.495384126901626587e-02 -1.660885363817214966e-01 -9.684363007545471191e-02
-6.250698119401931763e-03 -4.195977747440338135e-02 -1.116167530417442322e-01 -6.317466963082551956e-03 1.275490969419479370e-01 1.284361183643341064e-01 1.002229228615760803e-01 8.746195584535598755e-03 -3.450685366988182068e-02 1.249046549201011658e-01 -2.308364026248455048e-02 -1.492112036794424057e-02 7.628201693296432495e-02 -8.878473192453384399e-02 -5.676823109388351440e-02 -2.838920801877975464e-02 -8.087973296642303467e-02 6.298182904720306396e-02 -2.540907077491283417e-02 -5.889344960451126099e-02 -1.414255052804946899e-01 -6.860901415348052979e-02 1.034368425607681274e-01 1.527267247438430786e-01 8.730991184711456299e-02 1.165771409869194031e-01 -1.921996772289276123e-01 -6.515887379646301270e-02 -3.471982106566429138e-02 9.317193180322647095e-02 -9.098315984010696411e-02 -4.553758725523948669e-02 -5.810306221246719360e-02 -9.607707709074020386e-02 6.651607155799865723e-02 -6.694057583808898926e-02 6.907153874635696411e-02 -1.529828757047653198e-01 1.769714988768100739e-02 3.181236237287521362e-02 8.918567001819610596e-02 -1.233081445097923279e-01 4.022908862680196762e-03 1.517508476972579956e-01 -1.597965061664581299e-01 5.424011498689651489e-02 2.454266883432865143e-02 -1.101844012737274170e-01 -1.236874517053365707e-02 2.548839338123798370e-02 -1.630357801914215088e-01 3.437114506959915161e-02 -3.480843082070350647e-02 -5.285361036658287048e-02 8.177859336137771606e-02 4.831884428858757019e-02 -3.998383507132530212e-02 3.758211061358451843e-02 -4.993211477994918823e-02 -9.854358620941638947e-03 4.778142273426055908e-02 1.056743264198303223e-01 -8.307965844869613647e-02 5.545728653669357300e-02
-6.067365407943725586e-03 5.132284481078386307e-03 5.428105220198631287e-02 -1.314862221479415894e-01 -8.234574645757675171e-02 8.624976128339767456e-02 -4.734008014202117920e-02 1.062409486621618271e-02 8.605279773473739624e-02 6.504260469228029251e-03 1.317033171653747559e-02 -7.987118512392044067e-02 1.389162838459014893e-01 -1.521631795912981033e-02 -1.003334671258926392e-01 4.505710303783416748e-02 9.032669663429260254e-02 1.407562047243118286e-01 7.040642201900482178e-02 3.145518898963928223e-02 -1.242618486285209656e-01 1.704438328742980957e-01 -4.506806284189224243e-02 -5.457000806927680969e-02 -7.394109666347503662e-02 -3.202301636338233948e-02 -7.408679462969303131e-03 1.298814266920089722e-01 9.002643637359142303e-03 9.644819796085357666e-02 1.433365792036056519e-01 9.112714231014251709e-02 2.346911933273077011e-03 -1.456823050975799561e-01 -5.960894748568534851e-02 5.084313452243804932e-02 -1.422530412673950195e-01 -1.078192889690399170e-01 4.922048002481460571e-02 -1.004333794116973877e-01 8.772969245910644531e-02 7.054261863231658936e-02 -2.330044843256473541e-02 1.483224146068096161e-02 -1.787092164158821106e-02 4.710581898689270020e-02 -1.271470189094543457e-01 6.302597373723983765e-02 4.804128780961036682e-03 1.168048605322837830e-01 -1.237291768193244934e-01 -1.233258470892906189e-02 3.009133785963058472e-02 -1.675567403435707092e-02 -4.631098732352256775e-02 1.997016929090023041e-02 9.852767735719680786e-02 1.218247972428798676e-02 -6.607740372419357300e-02 -2.042874135076999664e-02 1.020880714058876038e-01 -1.313785165548324585e-01 -3.249209001660346985e-02 -1.126402523368597031e-02
-2.733671106398105621e-02 9.613506495952606201e-02 -1.246774494647979736e-01 -4.155366495251655579e-02 1.239520162343978882e-01 -3.217819333076477051e-02 4.059133306145668030e-02 -1.708826422691345215e-01 -4.295780509710311890e-02 1.274881511926651001e-01 -1.138664484024047852e-01 8.956388384103775024e-02 1.099736467003822327e-01 3.010214865207672119e-02 -1.005041133612394333e-02 1.937264762818813324e-02 1.254734545946121216e-01 -5.259047076106071472e-02 9.351506829261779785e-02 8.569410443305969238e-02 1.625651419162750244e-01 -1.291572451591491699e-01 1.955210119485855103e-01 -4.457801207900047302e-02 4.134519025683403015e-02 -5.091449990868568420e-02 -2.199946902692317963e-02 -1.030863001942634583e-01 1.749770641326904297e-01 3.151396289467811584e-03 2.009798400104045868e-02 -1.083123907446861267e-01 -2.254102565348148346e-02 7.536726444959640503e-02 -1.620391383767127991e-02 -1.161734312772750854e-01 -1.569013595581054688e-01 -1.520354021340608597e-02 8.192510157823562622e-02 1.042347494512796402e-02 -6.968285888433456421e-03 1.139542460441589355e-01 -3.539350349456071854e-03 -3.314082697033882141e-02 -5.119860637933015823e-03 1.294447481632232666e-01 -1.084075719118118286e-01 7.102768868207931519e-02 9.294287860393524170e-02 4.361004382371902466e-02 7.615296635776758194e-03 5.050123482942581177e-02 -1.020349338650703430e-01 -3.279430419206619263e-02 -2.348251640796661377e-02 2.904465608298778534e-02 1.080516651272773743e-01 -2.370551973581314087e-02 -5.272560194134712219e-02 1.368394005112349987e-04 -1.284611523151397705e-01 4.669719189405441284e-02 9.630069136619567871e-02 -1.011941432952880859e-01
