-1.667366623878479004e-01 2.328197285532951355e-02 1.379223465919494629e-01 6.276126950979232788e-02 9.832851588726043701e-02 -9.153478592634201050e-02 -1.414047181606292725e-01 -5.341618508100509644e-02 -6.419450044631958008e-02 8.295778185129165649e-02 6.826104968786239624e-02 6.376923620700836182e-02 -9.041325538419187069e-04 1.518321782350540161e-01 1.271202117204666138e-01 3.610090911388397217e-02 7.080968469381332397e-02 -3.496065735816955566e-03 1.542323827743530273e-01 -1.479092687368392944e-01 1.278320699930191040e-01 -1.777076721191406250e-01 -1.754898875951766968e-01 -1.651043295860290527e-01 9.917458891868591309e-02 1.503727883100509644e-01 1.306966543197631836e-01 -3.781739994883537292e-02 -1.688695400953292847e-01 1.296140104532241821e-01 1.356862187385559082e-01 -1.502139717340469360e-01 -5.417523533105850220e-02 -1.110736280679702759e-02 -1.197579950094223022e-01 8.746030181646347046e-02 1.716797500848770142e-01 -3.593974979594349861e-03 1.742816716432571411e-01 -1.499969810247421265e-01 4.787412285804748535e-02 1.539310365915298462e-01 -1.975599676370620728e-02 -1.780132204294204712e-01 1.369640380144119263e-01 -5.651610717177391052e-02 -9.974037855863571167e-02 1.569938063621520996e-01 -2.682027779519557953e-02 1.336752176284790039e-01 -4.149257764220237732e-02 1.067569255828857422e-01 -6.241139769554138184e-02 -3.138400986790657043e-02 -1.404705196619033813e-01 1.362683326005935669e-01 1.667314469814300537e-01 8.921469002962112427e-02 6.607228517532348633e-02 1.081575676798820496e-01 -1.210660114884376526e-01 1.470968425273895264e-01 1.442566663026809692e-01 -4.488300159573554993e-02 -1.121676340699195862e-01 -8.847711235284805298e-02 1.045409739017486572e-01 -6.791234947741031647e-03 -1.093172580003738403e-01 3.879562253132462502e-03 -1.502488106489181519e-01 4.705068841576576233e-02 5.906340852379798889e-02 3.731326013803482056e-02 -4.696607217192649841e-02 1.012091487646102905e-01 -1.608470380306243896e-01 -9.953894466161727905e-02 -4.279659315943717957e-02 7.293531671166419983e-03 -8.266063779592514038e-02 1.721622347831726074e-01 9.213799983263015747e-02 -1.597359031438827515e-01 2.740209922194480896e-02 6.806771457195281982e-02 1.448894292116165161e-01 -6.251706928014755249e-02 7.292371243238449097e-02 1.012354046106338501e-01 5.301086697727441788e-03 1.147684082388877869e-01 -2.773343585431575775e-02 -5.704064667224884033e-02 5.675109568983316422e-03 -6.154655665159225464e-02 -1.111897602677345276e-01 8.184963837265968323e-03 -6.069167703390121460e-02 1.879199780523777008e-02
5.402464047074317932e-02 1.759740114212036133e-01 5.831637419760227203e-03 1.328960955142974854e-01 -1.605792641639709473e-01 -1.089073792099952698e-01 -8.338344097137451172e-02 1.260361373424530029e-01 1.323696225881576538e-01 -7.369094341993331909e-02 -1.281895935535430908e-01 -4.851919040083885193e-02 5.258213356137275696e-02 1.484754960983991623e-03 1.058420091867446899e-01 -8.304515480995178223e-02 -1.774913221597671509e-01 -4.381658136844635010e-02 1.511470973491668701e-01 1.640007942914962769e-01 1.596772223711013794e-01 5.772351101040840149e-02 -6.622149795293807983e-02 1.186818182468414307e-01 -6.199343875050544739e-02 1.333075910806655884e-01 -2.908591926097869873e-02 1.499946229159832001e-02 1.420316696166992188e-01 -1.367413550615310669e-01 -1.802615374326705933e-01 -1.481305360794067383e-01 -5.035754293203353882e-02 5.165700986981391907e-02 -3.763493150472640991e-02 -1.427680402994155884e-01 1.013380885124206543e-01 1.254619807004928589e-01 -1.737834364175796509e-01 1.234646588563919067e-01 -6.339451298117637634e-03 1.383163630962371826e-01 -7.213338464498519897e-02 5.155101884156465530e-03 8.619477599859237671e-02 -1.242782622575759888e-01 1.585917919874191284e-01 -1.609007418155670166e-01 -1.596999764442443848e-01 7.088489085435867310e-02 -7.987663149833679199e-02 -1.270565539598464966e-01 2.666019648313522339e-02 1.131716817617416382e-01 -6.529019773006439209e-02 -1.789394766092300415e-01 1.391496062278747559e-01 -8.646656759083271027e-03 -9.702502936124801636e-02 -1.107533574104309082e-01 1.114559918642044067e-01 -1.091910060495138168e-02 -9.159529209136962891e-02 1.722875535488128662e-01 -4.593933373689651489e-02 -4.706951975822448730e-02 9.003852307796478271e-02 1.498560905456542969e-01 4.792092740535736084e-02 -1.769713163375854492e-01 8.576021343469619751e-02 -1.203902810811996460e-01 -5.206884443759918213e-02 -6.902728229761123657e-02 6.251949071884155273e-02 -1.401957590132951736e-02 -5.354442074894905090e-02 1.672585904598236084e-01 7.044488936662673950e-02 1.727114021778106689e-01 6.830572336912155151e-02 -1.331045925617218018e-01 1.506929844617843628e-01 6.193187087774276733e-02 -3.357928246259689331e-02 -1.272964775562286377e-01 -8.958330005407333374e-02 -2.799679338932037354e-02 8.505427837371826172e-02 -1.451749056577682495e-01 1.771382093429565430e-01 4.387533664703369141e-02 1.547742635011672974e-01 6.246643513441085815e-02 1.547463983297348022e-02 -2.887153066694736481e-02 -6.490907073020935059e-02 1.624791473150253296e-01 -5.329991877079010010e-02 2.658123709261417389e-02
1.197310686111450195e-01 1.662452369928359985e-01 -4.998891428112983704e-02 -1.731873899698257446e-01 1.128626763820648193e-01 9.546416252851486206e-02 6.005597114562988281e-02 -1.571126431226730347e-01 2.364493533968925476e-02 -9.334017336368560791e-02 -1.511772125959396362e-01 -3.072898089885711670e-02 -1.406110376119613647e-01 -1.740730106830596924e-01 1.563480943441390991e-01 1.675244793295860291e-02 -5.164908617734909058e-02 -1.955539360642433167e-02 -1.477168053388595581e-01 9.488720446825027466e-02 3.741592168807983398e-02 -1.270820349454879761e-01 1.363925188779830933e-01 -8.383015543222427368e-02 1.388596594333648682e-01 9.667886793613433838e-02 5.418253317475318909e-02 -1.374415755271911621e-01 1.502382755279541016e-01 -1.672853231430053711e-01 -6.444247066974639893e-02 1.254287958145141602e-01 2.715175971388816833e-02 7.980629801750183105e-02 -3.918765112757682800e-02 1.552159637212753296e-01 -6.999488174915313721e-02 -3.133446723222732544e-02 -1.801618337631225586e-01 1.181195750832557678e-01 7.882488518953323364e-02 3.333634510636329651e-02 1.864396966993808746e-02 -2.522394619882106781e-02 8.488036692142486572e-02 8.392142504453659058e-02 -1.259100884199142456e-01 1.606595367193222046e-01 -1.397457867860794067e-01 1.157663241028785706e-01 -8.691290766000747681e-02 7.580411434173583984e-02 8.004063367843627930e-02 -2.440528944134712219e-02 5.461509525775909424e-02 1.998618803918361664e-02 -1.106668040156364441e-01 -1.391607224941253662e-01 7.965061068534851074e-02 1.712763309478759766e-02 -8.141157031059265137e-02 1.795543134212493896e-01 -5.397648364305496216e-02 7.501975446939468384e-02 -1.470244526863098145e-01 8.639748557470738888e-04 1.392986476421356201e-01 1.289068758487701416e-01 -8.980906754732131958e-02 -1.489001065492630005e-01 1.419668793678283691e-01 -1.025643497705459595e-01 1.103501692414283752e-01 1.163484901189804077e-02 9.500940889120101929e-02 1.144039779901504517e-01 1.437143385410308838e-01 -9.682059288024902344e-02 -9.366274625062942505e-02 -1.781104356050491333e-01 1.279454231262207031e-01 -1.611193865537643433e-01 5.610875785350799561e-02 -1.699949502944946289e-01 7.378328591585159302e-02 -1.110717579722404480e-01 6.125799566507339478e-02 8.325898647308349609e-02 1.718497723340988159e-01 -2.373973466455936432e-02 1.003690436482429504e-01 -4.928368702530860901e-02 -3.264756873250007629e-03 1.499469578266143799e-01 7.300364971160888672e-02 7.445240858942270279e-03 -7.805822044610977173e-02 -2.059768419712781906e-03 6.968756020069122314e-02 6.014122441411018372e-02
-1.817366331815719604e-01 1.164918318390846252e-01 1.502878665924072266e-01 8.478494733572006226e-02 1.765520498156547546e-02 -9.585912525653839111e-02 -1.892818254418671131e-03 -3.320603445172309875e-02 1.091570220887660980e-02 -7.219221442937850952e-02 -1.658688038587570190e-01 -1.085935458540916443e-01 -2.863379009068012238e-02 4.762028157711029053e-02 1.722075939178466797e-01 1.089243218302726746e-01 2.290496602654457092e-02 -5.224349722266197205e-02 7.243565469980239868e-02 1.123088691383600235e-02 1.479985862970352173e-01 8.489705622196197510e-02 -1.336688399314880371e-01 1.234669387340545654e-01 -1.120622530579566956e-01 -1.531021483242511749e-02 1.304577887058258057e-01 -1.278238594532012939e-01 -1.233038529753684998e-01 1.652493327856063843e-01 1.374378707259893417e-02 -1.702092438936233521e-01 1.498151421546936035e-01 -7.764386013150215149e-03 -6.023764982819557190e-02 7.576710730791091919e-02 9.100402146577835083e-02 -4.128293320536613464e-02 4.688752442598342896e-02 -1.808511167764663696e-01 -3.855612128973007202e-02 -1.773286014795303345e-01 4.876176267862319946e-02 8.378949016332626343e-02 1.122797504067420959e-01 1.174140535295009613e-02 1.180779188871383667e-01 9.975600987672805786e-02 4.342244938015937805e-02 -8.278687298297882080e-02 -9.757731109857559204e-02 -5.629564635455608368e-03 1.439089775085449219e-01 3.380065038800239563e-02 3.026367723941802979e-02 -5.087350681424140930e-02 1.625482141971588135e-01 -6.513457000255584717e-02 -1.235287860035896301e-01 -4.395810887217521667e-02 -9.486770629882812500e-02 -4.063804075121879578e-02 5.189982429146766663e-02 -3.692999482154846191e-02 -5.541437491774559021e-02 -1.784296184778213501e-01 1.808762401342391968e-01 1.186186149716377258e-01 8.617606759071350098e-02 1.794670242816209793e-04 -7.137838006019592285e-02 -1.679838001728057861e-01 1.785648167133331299e-01 1.186740677803754807e-02 2.180639095604419708e-02 1.109465956687927246e-01 2.801515161991119385e-02 -1.506843417882919312e-01 4.528162255883216858e-02 -9.884773939847946167e-02 -1.777990162372589111e-01 -1.303479075431823730e-01 -1.242913752794265747e-01 1.634959727525711060e-01 2.138380520045757294e-02 -1.051294133067131042e-01 8.501421660184860229e-02 -9.064488857984542847e-02 1.250607818365097046e-01 -8.278153091669082642e-02 9.886677563190460205e-02 5.775240063667297363e-02 9.542620927095413208e-02 -8.329163491725921631e-02 -1.245075091719627380e-01 1.532412320375442505e-01 1.062800455838441849e-02 -4.933955892920494080e-02 3.776322677731513977e-02 3.517515212297439575e-02
2.086404152214527130e-02 -1.095134243369102478e-01 -4.671863839030265808e-02 1.082185953855514526e-01 1.665691882371902466e-01 -5.927285179495811462e-02 5.820408463478088379e-02 -7.619995623826980591e-02 1.665455847978591919e-01 1.546437293291091919e-01 9.364276379346847534e-02 1.156604140996932983e-01 -1.737489700317382812e-01 -1.858513504266738892e-01 -1.144083887338638306e-01 -1.116102002561092377e-02 -1.462588012218475342e-01 -1.265353858470916748e-01 5.165051552467048168e-04 -4.300554469227790833e-02 -1.654485985636711121e-02 5.689450725913047791e-02 -1.515038162469863892e-01 1.149512305855751038e-01 -1.504006832838058472e-01 -3.704013302922248840e-02 -7.079654186964035034e-02 -4.634050279855728149e-02 7.355050183832645416e-03 4.806746728718280792e-03 6.585221737623214722e-02 -1.441016644239425659e-01 -1.254002898931503296e-01 -9.297802299261093140e-02 -1.483237594366073608e-01 -3.238543123006820679e-02 -9.026338160037994385e-02 -1.859616488218307495e-02 7.531208544969558716e-02 6.171987857669591904e-03 2.720078639686107635e-02 -1.585529744625091553e-01 1.015785858035087585e-01 -5.765413120388984680e-02 1.299977153539657593e-01 1.305680721998214722e-01 1.571999192237854004e-01 8.454010635614395142e-02 -1.745368987321853638e-01 -5.173505097627639771e-02 1.581769287586212158e-01 6.183985620737075806e-02 -5.877101421356201172e-02 5.476308241486549377e-02 1.749729216098785400e-01 5.645936727523803711e-02 1.202869787812232971e-01 3.292080387473106384e-02 1.639295816421508789e-01 -1.267837435007095337e-01 5.260618403553962708e-02 -1.796443164348602295e-01 -9.456504136323928833e-02 -5.516603589057922363e-02 5.317919328808784485e-02 -2.872225642204284668e-02 -2.457136847078800201e-02 1.454057097434997559e-01 -4.986090213060379028e-02 1.483685821294784546e-01 8.644596487283706665e-02 7.632222026586532593e-02 -1.718299686908721924e-01 1.444974094629287720e-01 8.677778393030166626e-02 -1.592556200921535492e-02 -1.474803537130355835e-01 -1.318106055259704590e-01 -1.762258410453796387e-01 -1.083600670099258423e-01 1.307132393121719360e-01 9.636428952217102051e-02 1.604955494403839111e-01 -9.265510737895965576e-02 -1.364577710628509521e-01 -1.779494583606719971e-01 1.045517325401306152e-01 -7.051520980894565582e-03 -7.404898107051849365e-02 1.195139512419700623e-01 -1.106040850281715393e-01 -1.356352120637893677e-01 -9.318220429122447968e-03 3.837323049083352089e-03 3.898864239454269409e-02 6.957990676164627075e-02 -1.659276932477951050e-01 1.174398735165596008e-01 -4.739084467291831970e-02 1.662065684795379639e-01
-1.281275153160095215e-01 1.297151297330856323e-01 7.306888699531555176e-02 -1.188442930579185486e-01 7.946317642927169800e-02 -1.627428531646728516e-01 -1.691140532493591309e-01 -2.021153643727302551e-02 -6.342187523841857910e-02 -1.165271177887916565e-02 -1.239687800407409668e-01 -1.253573447465896606e-01 1.157789900898933411e-01 -1.136074513196945190e-01 -4.528423026204109192e-02 -1.787448972463607788e-01 8.527202904224395752e-02 -1.489619612693786621e-01 -2.391620352864265442e-02 6.930354516953229904e-03 -2.089758589863777161e-02 2.917571179568767548e-02 -6.748570501804351807e-02 9.937345981597900391e-02 4.420301690697669983e-02 2.022107876837253571e-02 -1.022994369268417358e-01 -1.672750152647495270e-02 1.671255677938461304e-01 -9.864445775747299194e-02 1.664895564317703247e-01 -5.634571611881256104e-02 -5.413964018225669861e-02 7.611126452684402466e-02 2.042004838585853577e-02 5.876694340258836746e-03 6.779883801937103271e-02 -1.357246637344360352e-01 -2.353340387344360352e-02 1.018434539437294006e-01 3.988685831427574158e-02 1.272795945405960083e-01 -1.354931760579347610e-02 -1.096520945429801941e-01 2.747358940541744232e-02 1.073696836829185486e-01 -7.082405686378479004e-02 -1.756110638380050659e-01 1.129854544997215271e-01 -1.215005964040756226e-01 1.851266808807849884e-02 -6.454659998416900635e-02 -1.580522060394287109e-01 -1.806789636611938477e-01 -1.300734728574752808e-01 -6.382939964532852173e-02 7.435942441225051880e-02 1.674612760543823242e-01 -4.969897866249084473e-02 1.688756644725799561e-01 9.549520909786224365e-02 -7.991026341915130615e-02 3.186344355344772339e-02 1.313061919063329697e-02 -1.251752525568008423e-01 -9.589361399412155151e-02 1.534804850816726685e-01 -1.340671479701995850e-01 -1.351114064455032349e-01 1.693581193685531616e-01 -1.790667325258255005e-01 -1.403190791606903076e-01 1.711812615394592285e-01 -7.312047481536865234e-02 -5.588908120989799500e-02 1.343343108892440796e-01 1.695404760539531708e-02 9.855033457279205322e-02 -1.209086254239082336e-01 -1.182116344571113586e-01 -1.173197999596595764e-01 -1.175094097852706909e-01 -1.350560635328292847e-01 1.436261385679244995e-01 1.393648143857717514e-02 1.771287918090820312e-01 -5.987009033560752869e-02 -1.744871735572814941e-01 1.730561107397079468e-01 4.168026149272918701e-02 1.690087169408798218e-01 -1.567639261484146118e-01 -1.341980248689651489e-01 -1.504581123590469360e-01 -7.812788337469100952e-02 1.478315293788909912e-01 8.455203473567962646e-02 2.668422646820545197e-02 8.068448305130004883e-02 6.263333559036254883e-02
-5.482761561870574951e-02 -9.820334613323211670e-02 -4.545176029205322266e-02 -1.684417426586151123e-01 -1.803595572710037231e-01 1.212518545798957348e-03 5.169805511832237244e-02 7.177148014307022095e-02 1.721172183752059937e-01 8.338134735822677612e-02 -1.623345166444778442e-01 8.230472356081008911e-02 -7.897695153951644897e-02 -6.173350382596254349e-03 5.880204215645790100e-02 -1.096724271774291992e-01 6.745146960020065308e-02 -1.186087280511856079e-01 -1.748261004686355591e-01 1.363658905029296875e-02 -7.365536689758300781e-02 8.038661628961563110e-02 1.445597261190414429e-01 -9.526053071022033691e-02 -1.448583751916885376e-01 1.753050982952117920e-01 7.124798744916915894e-02 -6.222765147686004639e-02 1.489221751689910889e-01 -7.311964780092239380e-02 -5.131904035806655884e-02 5.568200349807739258e-02 -1.153300255537033081e-01 -1.540724188089370728e-01 -4.541009292006492615e-02 1.280685514211654663e-01 4.611175879836082458e-02 -1.037944927811622620e-01 -1.756424270570278168e-02 -4.003625735640525818e-02 -1.374727785587310791e-01 -1.276326775550842285e-01 8.177039027214050293e-02 6.932926923036575317e-02 -2.548982203006744385e-02 8.657408505678176880e-02 -5.055749043822288513e-02 -1.582979224622249603e-02 -9.783346951007843018e-02 1.486142873764038086e-01 -1.718474030494689941e-01 1.794439107179641724e-01 -1.176683604717254639e-01 -3.828390035778284073e-03 1.778186410665512085e-01 1.003392189741134644e-01 1.011311411857604980e-01 3.511655703186988831e-02 -2.985523547977209091e-03 -1.009217128157615662e-01 1.073193736374378204e-03 3.427666053175926208e-02 7.474282383918762207e-02 3.364390879869461060e-02 7.698334008455276489e-02 8.048962056636810303e-02 -1.275623142719268799e-01 6.213054060935974121e-02 -1.214617788791656494e-01 -1.343845278024673462e-01 -5.737105384469032288e-02 1.764642745256423950e-01 5.789851769804954529e-02 1.642684489488601685e-01 -2.551382035017013550e-02 3.440959006547927856e-02 1.007501110434532166e-01 4.425465315580368042e-02 -1.045577004551887512e-01 1.607380062341690063e-01 -2.212100103497505188e-02 -9.780455380678176880e-02 7.946798577904701233e-03 6.412890553474426270e-02 1.549648679792881012e-02 1.437794268131256104e-01 1.069067046046257019e-01 1.387665271759033203e-01 9.720335714519023895e-03 7.323329150676727295e-02 -1.533488780260086060e-01 -1.069665253162384033e-01 6.568107753992080688e-02 -1.669267192482948303e-02 -4.070051014423370361e-02 9.554614126682281494e-02 7.768105715513229370e-02 1.357514411211013794e-01 -6.495438516139984131e-02 8.283308893442153931e-02
7.252587378025054932e-02 -1.832174807786941528e-01 7.659639231860637665e-03 2.581062540411949158e-02 -1.676289141178131104e-01 -4.877819120883941650e-02 -1.782581061124801636e-01 -1.201975569128990173e-01 -1.817461103200912476e-01 -3.932585194706916809e-02 1.632023602724075317e-01 2.407934702932834625e-02 -1.128407567739486694e-01 -4.556047171354293823e-02 3.661307692527770996e-02 -1.109512224793434143e-01 -8.883829414844512939e-02 -1.699834465980529785e-01 -8.713225275278091431e-02 -2.731085382401943207e-02 -7.428857684135437012e-02 -2.089819684624671936e-02 -1.334445178508758545e-01 -8.682195097208023071e-02 -1.553243845701217651e-01 1.251789927482604980e-01 1.167483627796173096e-01 -6.242457032203674316e-02 1.655084043741226196e-01 -1.097398921847343445e-01 1.957176625728607178e-02 1.339630782604217529e-01 -3.030687198042869568e-02 -4.101169481873512268e-02 -5.748892948031425476e-02 -6.238847225904464722e-02 -1.134280040860176086e-01 -2.036742493510246277e-02 -2.787537127733230591e-02 -5.327579379081726074e-02 2.207266166806221008e-02 4.527888447046279907e-02 -9.471388533711433411e-03 4.044653475284576416e-02 -6.714908033609390259e-02 6.759475171566009521e-02 1.106961295008659363e-01 9.999505430459976196e-02 5.976600199937820435e-02 -6.570751219987869263e-02 1.615050435066223145e-01 -1.695983409881591797e-01 1.008607745170593262e-01 -9.168348461389541626e-02 -1.158766746520996094e-01 -1.106612682342529297e-01 1.070090383291244507e-02 1.308145672082901001e-01 -1.137523353099822998e-01 1.685326248407363892e-01 3.501856327056884766e-02 7.508788257837295532e-02 1.416275054216384888e-01 1.410501003265380859e-01 -1.308009326457977295e-01 -3.223472461104393005e-02 1.393186450004577637e-01 -1.573349982500076294e-01 1.209627911448478699e-01 -7.592210918664932251e-02 4.253961890935897827e-02 -5.980080738663673401e-02 2.221404202282428741e-02 9.431993961334228516e-02 -5.059242621064186096e-02 7.785388734191656113e-03 -1.400726735591888428e-01 -1.303085237741470337e-01 -1.306524723768234253e-01 -8.611340820789337158e-02 1.899211108684539795e-02 6.841192394495010376e-02 4.263216257095336914e-02 1.242497712373733521e-01 2.958850562572479248e-02 5.654874444007873535e-02 -8.535101078450679779e-03 -4.006504267454147339e-02 3.495112759992480278e-03 -7.809734903275966644e-03 -4.088393598794937134e-02 9.911677986383438110e-02 3.756456822156906128e-02 1.064348742365837097e-01 -1.137155368924140930e-01 5.327425524592399597e-02 1.522302180528640747e-01 1.159914433956146240e-01 1.276018768548965454e-01 7.833959907293319702e-02
5.536635592579841614e-02 -1.849933713674545288e-01 6.111695617437362671e-02 1.107444912195205688e-01 -2.682733349502086639e-02 5.132090672850608826e-02 -1.507965475320816040e-01 1.363362818956375122e-01 -9.894054383039474487e-02 -9.427137672901153564e-02 -1.243762820959091187e-01 -1.206161528825759888e-01 1.175933703780174255e-02 1.183312609791755676e-01 4.495097696781158447e-02 1.678111106157302856e-01 -2.014149539172649384e-02 -1.668168157339096069e-01 7.549934834241867065e-02 -1.727977246046066284e-01 -4.447787627577781677e-02 -1.485777944326400757e-01 9.576199948787689209e-02 -1.859563589096069336e-01 1.155308261513710022e-01 7.294591516256332397e-02 -1.263295765966176987e-03 -2.368259057402610779e-02 4.456731677055358887e-02 1.349791139364242554e-01 -8.195272833108901978e-02 8.196526020765304565e-02 -1.307889632880687714e-02 2.761351503431797028e-02 2.067418769001960754e-02 -8.371631056070327759e-02 8.228375762701034546e-02 -4.564693570137023926e-02 -6.064863502979278564e-02 1.004634872078895569e-01 1.160660982131958008e-01 -1.608472615480422974e-01 2.266173996031284332e-02 -8.372002840042114258e-02 -1.740561053156852722e-02 -1.728268563747406006e-01 -9.871276468038558960e-02 -1.421370506286621094e-01 6.235537678003311157e-02 -5.300026386976242065e-03 -6.698322296142578125e-02 1.472788751125335693e-01 -1.208341587334871292e-02 1.755929738283157349e-01 -5.748360976576805115e-02 1.177595555782318115e-01 -1.761893332004547119e-01 -1.664686650037765503e-01 -5.175577476620674133e-02 1.721581071615219116e-01 -2.652548439800739288e-02 4.732519388198852539e-02 -1.228905394673347473e-01 -1.492570787668228149e-01 1.663064211606979370e-01 -1.206109207123517990e-02 1.393466889858245850e-01 -1.156556233763694763e-01 -1.536750495433807373e-01 8.726471103727817535e-03 -6.984523683786392212e-02 1.777395419776439667e-02 -5.774286016821861267e-02 -1.265012621879577637e-01 1.418681442737579346e-01 -4.603091161698102951e-03 -1.558909099549055099e-02 1.767777353525161743e-01 -1.572253853082656860e-01 -1.322314888238906860e-01 -9.055186808109283447e-02 4.946383833885192871e-02 -1.571600735187530518e-01 1.832116208970546722e-02 7.842297665774822235e-03 6.051228940486907959e-02 -2.862475626170635223e-02 1.639353036880493164e-01 1.137285754084587097e-01 1.273634880781173706e-01 7.123318500816822052e-03 -1.508887857198715210e-01 1.116742789745330811e-01 3.361128643155097961e-02 -8.857247885316610336e-04 -1.231505200266838074e-01 9.425149112939834595e-02 -1.205635666847229004e-01 -1.331202536821365356e-01 4.068178310990333557e-02
-1.309585422277450562e-01 1.760403066873550415e-01 -1.072201207280158997e-01 4.683464393019676208e-02 -5.224023945629596710e-03 -1.029593870043754578e-01 2.282402478158473969e-02 -3.540271148085594177e-02 4.204791504889726639e-03 -9.008656442165374756e-02 2.241752576082944870e-03 -1.614225804805755615e-01 -4.164044931530952454e-02 3.302676975727081299e-02 -1.509723961353302002e-01 -2.418934553861618042e-02 6.592357903718948364e-02 -1.381024625152349472e-02 3.026215545833110809e-02 7.863871753215789795e-02 -6.907612085342407227e-02 -7.873026654124259949e-03 1.099042221903800964e-01 8.152915537357330322e-02 8.190263807773590088e-02 -1.338922083377838135e-01 -8.755935728549957275e-02 -1.138099655508995056e-01 -3.323382884263992310e-02 1.003522500395774841e-01 -2.583648450672626495e-02 1.185151711106300354e-01 -1.043904051184654236e-01 -7.512177526950836182e-02 1.613757014274597168e-01 -8.161583542823791504e-02 6.314929574728012085e-02 7.506088912487030029e-02 1.625609248876571655e-01 -7.131175696849822998e-02 -7.562033832073211670e-02 9.572792798280715942e-02 1.091642212122678757e-02 -1.070823371410369873e-01 1.286678314208984375e-01 -1.315199434757232666e-01 -8.959566801786422729e-02 -9.462472051382064819e-02 4.249239340424537659e-02 1.588661521673202515e-01 -5.210542306303977966e-02 -7.589737325906753540e-02 -4.704149812459945679e-02 -1.716197580099105835e-01 -1.198952719569206238e-01 6.762687116861343384e-02 -1.763009577989578247e-01 1.471293624490499496e-02 4.949181899428367615e-02 -1.442841887474060059e-01 6.575629115104675293e-02 -6.017073243856430054e-02 -7.499751448631286621e-02 1.751688569784164429e-01 5.952259153127670288e-02 -9.247798472642898560e-02 -1.622182577848434448e-01 -8.731730282306671143e-02 -1.808502823114395142e-01 -8.776631951332092285e-02 6.526037305593490601e-02 1.583968251943588257e-01 -1.590505838394165039e-01 9.742930531501770020e-02 -5.069491639733314514e-02 6.193757057189941406e-02 1.115039885044097900e-01 -1.070995070040225983e-02 3.506922349333763123e-02 -1.552978903055191040e-01 -3.907908499240875244e-02 1.709921061992645264e-01 -6.676261872053146362e-02 1.763010472059249878e-01 4.361266270279884338e-02 -1.312739849090576172e-01 6.448827683925628662e-02 -9.283076040446758270e-03 9.889654815196990967e-02 9.219252318143844604e-02 2.969087660312652588e-02 1.697191745042800903e-01 -1.631081998348236084e-01 -1.153525039553642273e-01 5.994197912514209747e-03 4.471227154135704041e-02 -1.346029043197631836e-01 -5.968510732054710388e-02 2.775785699486732483e-02 -8.299607783555984497e-02
1.152454391121864319e-01 -1.333354562520980835e-01 1.386176496744155884e-01 -9.758199751377105713e-02 -7.534084469079971313e-02 1.467483341693878174e-01 -1.760789155960083008e-01 3.668387653306126595e-03 -1.707390844821929932e-01 2.915358170866966248e-02 -8.774664998054504395e-02 -6.253508478403091431e-02 -4.337234422564506531e-02 9.556765854358673096e-02 -6.135070696473121643e-03 -8.394509553909301758e-02 5.901705101132392883e-02 -1.215978711843490601e-01 -1.168647315353155136e-02 -1.746131777763366699e-01 -1.407496482133865356e-01 1.292637288570404053e-01 -9.462296962738037109e-02 -1.344296932220458984e-01 1.615624427795410156e-01 -1.789801418781280518e-01 7.280848175287246704e-02 -5.705180391669273376e-02 1.493793278932571411e-01 1.218745112419128418e-01 7.949955016374588013e-02 7.240325957536697388e-02 -1.376741230487823486e-01 2.482800744473934174e-02 -1.782100945711135864e-01 -9.039031341671943665e-03 1.467823795974254608e-02 -2.955727651715278625e-02 -6.800070405006408691e-02 1.308053582906723022e-01 -2.213128469884395599e-02 1.789193786680698395e-02 1.706554442644119263e-01 3.435011208057403564e-02 6.470758467912673950e-02 1.701524555683135986e-01 7.101919502019882202e-02 -1.745291352272033691e-01 2.785080112516880035e-02 8.121336251497268677e-02 -9.356145560741424561e-02 2.155485749244689941e-02 8.168321102857589722e-02 6.464642286300659180e-02 1.157111451029777527e-01 9.946311265230178833e-02 -1.913903630338609219e-03 7.640876621007919312e-02 -1.172089502215385437e-01 -1.341029703617095947e-01 -1.176400184631347656e-01 3.064112551510334015e-02 -8.752367645502090454e-02 1.132059991359710693e-01 -1.720695644617080688e-01 -1.084579527378082275e-01 -1.086756028234958649e-02 -2.530020661652088165e-03 1.396178603172302246e-01 1.459733992815017700e-01 -4.967645555734634399e-02 8.855494111776351929e-02 -4.393628984689712524e-02 5.202694237232208252e-02 -8.907625824213027954e-02 1.358815643470734358e-04 -1.238186936825513840e-02 1.196989938616752625e-01 -1.631701830774545670e-03 -7.934824377298355103e-02 3.596669808030128479e-02 3.676553815603256226e-02 6.566703319549560547e-02 -1.049044076353311539e-02 -1.237009689211845398e-01 1.660339236259460449e-01 -9.999344497919082642e-02 -1.166193410754203796e-01 1.558468192815780640e-01 1.223699823021888733e-01 9.743105620145797729e-02 -1.207300648093223572e-01 1.305383294820785522e-01 2.625405043363571167e-02 -1.320579648017883301e-01 -1.637100130319595337e-01 -2.329047396779060364e-02 -1.374733150005340576e-01 -9.374982863664627075e-02 1.747496277093887329e-01
-4.770912602543830872e-02 -9.058370441198348999e-02 6.116663664579391479e-02 -6.848230957984924316e-02 -6.534580141305923462e-02 1.553678512573242188e-01 1.113636493682861328e-01 1.561390757560729980e-01 6.082484498620033264e-02 1.379109770059585571e-01 -9.241630882024765015e-02 -4.173719882965087891e-02 1.467121094465255737e-01 4.012929275631904602e-02 -1.521844863891601562e-01 -2.262935042381286621e-03 -9.943486750125885010e-02 1.093490645289421082e-01 9.238732606172561646e-02 1.331753432750701904e-01 -1.303353011608123779e-01 1.327495127916336060e-01 9.357756376266479492e-02 1.702618896961212158e-01 -2.361965551972389221e-02 -3.495867422316223383e-04 -5.192836746573448181e-02 1.457536518573760986e-01 -6.287994235754013062e-02 -1.077325791120529175e-01 1.296050548553466797e-01 -1.461232751607894897e-01 -4.385350737720727921e-03 -3.345753997564315796e-02 -6.421275902539491653e-03 6.148285791277885437e-02 1.549748480319976807e-01 -3.401461988687515259e-02 1.758012771606445312e-01 8.804598450660705566e-02 1.037297099828720093e-01 -8.454394340515136719e-02 -8.429940044879913330e-02 1.436061859130859375e-01 1.472534686326980591e-01 -1.065928768366575241e-02 -1.005709543824195862e-02 1.341091990470886230e-01 1.440978199243545532e-01 -3.729537501931190491e-02 -1.797526031732559204e-01 -2.316170185804367065e-02 1.814941912889480591e-01 -1.642359644174575806e-01 -1.770339012145996094e-01 -1.313703656196594238e-01 1.009698510169982910e-01 -1.358465701341629028e-01 6.199779361486434937e-02 -9.208954870700836182e-02 -4.139682650566101074e-02 8.122922480106353760e-02 1.527723222970962524e-01 -1.082751750946044922e-01 7.772422581911087036e-02 1.682674735784530640e-01 1.157914996147155762e-01 -1.429633498191833496e-01 -7.034286111593246460e-02 2.716469578444957733e-02 -7.156772911548614502e-02 -6.469807028770446777e-02 1.121451407670974731e-01 -3.003665804862976074e-02 -9.511322714388370514e-03 3.426433354616165161e-02 -6.366002559661865234e-02 4.992894455790519714e-02 1.732652336359024048e-01 -1.310652792453765869e-01 -3.015722148120403290e-02 1.121576689183712006e-02 -1.178271919488906860e-01 -1.416671723127365112e-01 -1.572504937648773193e-01 -1.653993278741836548e-01 1.641518026590347290e-01 -7.985404878854751587e-02 -1.114720255136489868e-01 -1.213448196649551392e-01 9.291823208332061768e-02 1.401195526123046875e-01 6.467240303754806519e-02 8.270071446895599365e-02 7.342799007892608643e-02 -9.392170608043670654e-02 1.088614091277122498e-01 2.876313216984272003e-02 7.897986471652984619e-02 -1.384192109107971191e-01
-2.538759633898735046e-02 1.666265912353992462e-02 -6.361439824104309082e-02 -1.417023986577987671e-01 5.139610171318054199e-02 -1.647507995367050171e-01 4.847093299031257629e-02 7.797621190547943115e-02 -1.036358326673507690e-01 6.187017261981964111e-02 -9.319552034139633179e-02 -7.304142415523529053e-02 -1.109113097190856934e-01 1.247921660542488098e-01 -5.384911596775054932e-02 -1.141083762049674988e-01 -9.834762662649154663e-02 2.321618143469095230e-03 -1.554303616285324097e-01 -3.708421438932418823e-02 -3.307503648102283478e-03 1.570876687765121460e-02 7.402532547712326050e-02 8.754729479551315308e-02 1.611066013574600220e-01 1.743786036968231201e-01 -5.333923548460006714e-02 6.566266715526580811e-02 9.867011755704879761e-02 -2.227343618869781494e-02 2.342790178954601288e-02 1.326094418764114380e-01 -1.642007678747177124e-01 3.455520048737525940e-02 5.733650922775268555e-02 7.671073079109191895e-02 -6.915152817964553833e-02 4.134095087647438049e-02 -1.553779989480972290e-01 1.728252172470092773e-01 2.786649391055107117e-02 8.976820856332778931e-02 7.911430438980460167e-04 1.815477162599563599e-01 1.525366902351379395e-01 -1.249286755919456482e-01 -1.499772816896438599e-01 9.823007881641387939e-02 1.683018952608108521e-01 -7.400322356261312962e-04 -7.371784001588821411e-02 -1.790241450071334839e-01 -6.022419780492782593e-02 -2.479328587651252747e-02 6.800996512174606323e-02 1.723917126655578613e-01 5.365552380681037903e-02 -8.349350839853286743e-02 4.023009445518255234e-03 -2.953772060573101044e-02 6.438718736171722412e-02 1.490690112113952637e-01 1.580719798803329468e-01 2.083675237372517586e-03 -2.822333201766014099e-02 1.493794769048690796e-01 -6.120179966092109680e-02 -4.520971328020095825e-02 3.955916687846183777e-02 -1.497146766632795334e-02 -3.500585258007049561e-02 2.622374892234802246e-02 8.490227907896041870e-02 -1.820385605096817017e-01 -1.033230125904083252e-01 -7.062111794948577881e-02 -9.225635230541229248e-02 -5.992763116955757141e-02 -3.585040569305419922e-02 -1.649282574653625488e-01 -5.031176842749118805e-03 -8.693082630634307861e-02 -6.962098181247711182e-02 -7.507535815238952637e-02 -1.183761060237884521e-01 -2.296395972371101379e-02 -8.503914624452590942e-02 1.588651686906814575e-01 -8.309829980134963989e-02 -1.092514023184776306e-01 -1.588397473096847534e-01 -8.417303860187530518e-02 -1.176273673772811890e-01 1.124070286750793457e-01 6.455991417169570923e-02 -1.566394418478012085e-01 2.946305461227893829e-02 5.076934397220611572e-02 4.330767691135406494e-02 1.201004907488822937e-01
9.609074890613555908e-02 -6.512363255023956299e-02 -1.673718094825744629e-01 5.256682634353637695e-02 7.985153049230575562e-02 1.715893894433975220e-01 -1.041612550616264343e-01 3.687090426683425903e-02 1.173510774970054626e-01 7.555946707725524902e-02 9.062948822975158691e-02 -1.556185334920883179e-01 -6.656964868307113647e-02 -1.444747895002365112e-01 -8.884493261575698853e-02 -2.610033750534057617e-02 -1.589644104242324829e-01 -8.467168360948562622e-02 -1.354324519634246826e-01 -1.692609637975692749e-01 4.982564225792884827e-02 1.081028580665588379e-01 -1.841173619031906128e-01 4.481345415115356445e-02 -1.545569002628326416e-01 -1.889685355126857758e-02 -9.979117021430283785e-05 -1.369922310113906860e-01 1.650661230087280273e-02 -1.320763826370239258e-01 -1.048710867762565613e-01 -5.683970078825950623e-02 -6.447187624871730804e-03 -1.118621323257684708e-02 -1.310486048460006714e-01 -1.610877662897109985e-01 -1.177424043416976929e-01 -1.579355299472808838e-01 -1.104788631200790405e-01 -1.793927103281021118e-01 1.112845242023468018e-01 -1.151410266757011414e-01 1.458866000175476074e-01 1.235503777861595154e-01 -1.872962899506092072e-02 8.169055730104446411e-02 -1.185637488961219788e-01 -1.570237129926681519e-01 -3.088526614010334015e-02 4.677651450037956238e-02 -5.360447987914085388e-02 -7.087713479995727539e-02 -1.416499316692352295e-01 -8.996251225471496582e-02 1.023556217551231384e-01 -6.564424932003021240e-02 3.036234527826309204e-02 1.081889644265174866e-01 1.489873044192790985e-02 -1.282765716314315796e-02 -9.149570018053054810e-03 -3.133524954319000244e-02 -1.562078949064016342e-02 1.683012992143630981e-01 -1.293514370918273926e-01 -1.139591336250305176e-01 6.605258584022521973e-02 9.622225910425186157e-02 -1.091114338487386703e-02 1.509705185890197754e-01 -1.359784901142120361e-01 1.642788648605346680e-01 -5.184584110975265503e-02 -5.594372749328613281e-02 -1.212416142225265503e-01 1.905425265431404114e-02 1.479473263025283813e-01 1.582603156566619873e-01 7.357020676136016846e-02 1.090860217809677124e-01 7.353680580854415894e-02 4.349562525749206543e-02 -5.476103350520133972e-02 8.522980660200119019e-02 1.356047242879867554e-01 -6.093202531337738037e-02 -4.354110360145568848e-02 3.768512234091758728e-02 -1.795241981744766235e-01 -6.921695172786712646e-02 -5.696753039956092834e-03 1.964495750144124031e-04 -1.560455113649368286e-01 -1.505246162414550781e-01 9.536315500736236572e-02 -1.575951874256134033e-01 1.176338866353034973e-01 9.080933779478073120e-02 -1.181339174509048462e-01 9.761749953031539917e-02
4.053305089473724365e-02 1.079438477754592896e-01 -1.335906684398651123e-01 -1.039120778441429138e-01 -1.422131955623626709e-01 6.252419203519821167e-02 8.426163345575332642e-02 1.246813163161277771e-01 2.729651145637035370e-02 2.798262797296047211e-02 -8.352006971836090088e-02 -3.375291451811790466e-02 8.721074089407920837e-03 1.254673600196838379e-01 -5.727993696928024292e-02 5.292211845517158508e-02 -1.418993920087814331e-01 -9.834782034158706665e-02 -1.503473520278930664e-01 -1.634298637509346008e-02 -1.865416765213012695e-01 1.109727844595909119e-01 1.583183556795120239e-01 -1.079785004258155823e-01 1.697097867727279663e-01 -2.467087469995021820e-02 1.562945544719696045e-01 -7.028655707836151123e-02 9.702065587043762207e-02 1.346120089292526245e-01 -8.744074404239654541e-02 9.832729399204254150e-02 1.685997992753982544e-01 2.956870384514331818e-02 7.501759380102157593e-02 6.591012328863143921e-02 7.660908997058868408e-02 9.703814238309860229e-02 1.345677971839904785e-01 -1.477848440408706665e-01 1.461226195096969604e-01 6.955736130475997925e-02 -1.632042974233627319e-01 2.288211509585380554e-02 6.230225320905447006e-03 7.505556195974349976e-02 -7.442662492394447327e-03 1.686647683382034302e-01 1.238467097282409668e-01 -1.590425074100494385e-01 -2.097719721496105194e-02 2.011147700250148773e-02 7.384566217660903931e-02 -1.039481833577156067e-01 -7.062943652272224426e-03 6.323263049125671387e-02 -7.904035039246082306e-03 -1.422433257102966309e-01 -1.252911537885665894e-01 -1.126375645399093628e-01 -4.385370761156082153e-03 -1.435200870037078857e-01 2.074928022921085358e-02 4.951171576976776123e-02 9.036955982446670532e-02 -1.767657138407230377e-02 1.077707856893539429e-02 2.232681028544902802e-02 -1.455498933792114258e-01 8.968640863895416260e-02 -7.894653081893920898e-02 -1.740321516990661621e-02 -1.113073378801345825e-01 -1.523899286985397339e-01 -1.534698754549026489e-01 5.993005633354187012e-02 9.605621546506881714e-02 1.410626173019409180e-01 -4.115326330065727234e-02 -9.756983257830142975e-03 -5.480872467160224915e-02 7.052004337310791016e-02 4.975215718150138855e-02 -5.099976062774658203e-02 1.287433654069900513e-01 7.415610551834106445e-02 -2.995070815086364746e-02 -4.639677237719297409e-03 -1.222339347004890442e-01 -1.777968108654022217e-01 1.739857494831085205e-01 1.676878482103347778e-01 -3.220196813344955444e-02 -4.585408791899681091e-02 8.552781492471694946e-02 -3.328912705183029175e-02 1.298787444829940796e-01 2.047483809292316437e-02 1.455253511667251587e-01 1.106383129954338074e-01
8.684768527746200562e-02 8.296710997819900513e-02 -3.741123713552951813e-03 -2.981101721525192261e-02 5.663980916142463684e-02 -7.133190333843231201e-02 1.394466310739517212e-01 1.801888942718505859e-01 -2.853144519031047821e-02 -1.745197772979736328e-01 -1.254113316535949707e-01 -5.549741908907890320e-02 1.485168337821960449e-01 -4.101471602916717529e-02 5.026387795805931091e-02 1.328772753477096558e-01 1.755258440971374512e-01 -4.578644037246704102e-02 1.601293832063674927e-01 1.645159870386123657e-01 -1.663563400506973267e-02 1.396661251783370972e-01 9.299737960100173950e-02 1.770917624235153198e-01 4.723914712667465210e-02 -2.691717818379402161e-02 5.938808899372816086e-03 1.280506551265716553e-01 -1.732090313453227282e-04 9.437146782875061035e-02 -1.451103836297988892e-01 -1.176733803004026413e-02 1.119330897927284241e-01 1.162267848849296570e-01 4.404058679938316345e-02 8.914960175752639771e-02 1.600631475448608398e-01 2.863966673612594604e-02 -9.800591319799423218e-02 3.574519883841276169e-03 -6.899727880954742432e-02 -1.583894342184066772e-01 1.595524251461029053e-01 -1.421572864055633545e-01 -1.109909787774085999e-01 5.361215397715568542e-02 -9.571889042854309082e-02 -1.433954983949661255e-01 4.974636435508728027e-02 -3.843748942017555237e-02 -7.420173380523920059e-03 -2.846503257751464844e-02 -1.720979064702987671e-01 9.524331241846084595e-02 6.128203868865966797e-02 -2.194255217909812927e-02 4.090574011206626892e-02 -1.465228945016860962e-01 -1.697136163711547852e-01 -1.373672038316726685e-01 -1.820871084928512573e-01 -1.185618527233600616e-02 -1.420541405677795410e-01 7.825446873903274536e-02 1.643926650285720825e-01 8.631975203752517700e-02 -1.809892654418945312e-01 1.657991558313369751e-01 1.754244416952133179e-01 1.159882247447967529e-01 -1.365244537591934204e-01 -8.432431519031524658e-02 -1.156539246439933777e-01 1.532961875200271606e-01 -1.830612421035766602e-01 3.743604198098182678e-02 -1.541853845119476318e-01 1.338561624288558960e-01 2.958795428276062012e-02 1.438955813646316528e-01 -8.490680158138275146e-02 7.192987482994794846e-03 -3.926445916295051575e-02 7.011447101831436157e-03 -9.956546127796173096e-02 9.488158673048019409e-02 7.013256847858428955e-02 1.458387523889541626e-01 5.899248644709587097e-03 -1.301478892564773560e-01 -1.682558357715606689e-01 -1.680794805288314819e-01 1.721898019313812256e-01 6.498043239116668701e-02 -7.274331897497177124e-02 -2.466018311679363251e-02 -1.058378443121910095e-01 -7.197858393192291260e-02 -2.913757041096687317e-02 1.740224361419677734e-01
-6.778689473867416382e-02 -2.296985872089862823e-02 4.376655444502830505e-02 -8.405357599258422852e-02 -7.885397970676422119e-02 -1.521037518978118896e-01 -1.434818189591169357e-02 -1.588623076677322388e-01 1.659129112958908081e-01 -8.566533029079437256e-02 -4.929538816213607788e-02 6.945336237549781799e-03 -1.522223651409149170e-01 -9.118384122848510742e-02 1.418452113866806030e-01 5.069718509912490845e-02 -1.259790211915969849e-01 -7.651781290769577026e-02 1.690120548009872437e-01 1.147096455097198486e-01 -1.715612560510635376e-01 1.059686988592147827e-01 -1.338490247726440430e-01 -1.673336513340473175e-02 -1.399078369140625000e-01 3.141878917813301086e-02 -1.648935973644256592e-01 1.287593543529510498e-01 5.637504532933235168e-02 -1.620748490095138550e-01 -2.240543812513351440e-02 5.325799062848091125e-02 2.903020009398460388e-02 -1.642552316188812256e-01 1.207451671361923218e-01 6.921014189720153809e-02 -7.364242523908615112e-02 1.082750260829925537e-01 1.075469925999641418e-01 -4.538008943200111389e-02 1.054829806089401245e-01 1.105486080050468445e-01 6.066543236374855042e-02 -5.948429927229881287e-02 5.725671350955963135e-02 1.366532593965530396e-01 -7.810476422309875488e-02 1.537304222583770752e-01 2.396865189075469971e-02 -2.679670229554176331e-03 -1.012303903698921204e-01 1.140979155898094177e-01 -5.933138355612754822e-02 -6.775221228599548340e-02 -1.099747717380523682e-01 -1.476740390062332153e-01 1.187498867511749268e-01 -8.727422356605529785e-02 -1.768847107887268066e-01 -1.379037648439407349e-01 1.612185878911986947e-04 1.389741152524948120e-01 -1.340356320142745972e-01 -4.261895269155502319e-02 -4.442605003714561462e-02 1.767894774675369263e-01 -8.317612111568450928e-02 -3.787606209516525269e-02 -4.093752056360244751e-02 2.023291401565074921e-02 -1.009499952197074890e-01 -7.865072786808013916e-02 -1.760656684637069702e-01 6.516428291797637939e-02 2.864386886358261108e-02 -9.293825924396514893e-02 -7.855232059955596924e-02 -1.739426851272583008e-01 1.391168534755706787e-01 -7.230079919099807739e-02 1.637399643659591675e-01 -1.620743125677108765e-01 -1.545397751033306122e-02 -1.113724634051322937e-01 1.338339298963546753e-01 1.473593115806579590e-01 6.479407846927642822e-02 1.476917564868927002e-01 -6.725767999887466431e-02 -7.659049332141876221e-02 1.033817231655120850e-01 1.660555005073547363e-01 1.708603352308273315e-01 -1.523564159870147705e-01 7.976286858320236206e-02 1.147769577801227570e-02 1.272135600447654724e-02 4.700352903455495834e-03 1.066923812031745911e-01 2.262940257787704468e-02
-1.110523287206888199e-02 3.165302425622940063e-02 -1.618205308914184570e-01 1.406795717775821686e-02 1.710439920425415039e-01 1.352178212255239487e-02 -8.334435522556304932e-02 9.516187012195587158e-02 -1.576060615479946136e-02 -5.106035992503166199e-02 -7.796225138008594513e-03 -9.886775910854339600e-02 -1.389537602663040161e-01 1.084414720535278320e-01 -8.225383237004280090e-03 3.032148629426956177e-02 -1.468870639801025391e-01 8.035165071487426758e-02 -9.947812184691429138e-03 7.492632418870925903e-02 -1.044734716415405273e-01 -1.083777993917465210e-01 -1.022178184939548373e-04 -1.039560511708259583e-01 -1.478642523288726807e-01 1.643707156181335449e-01 -1.136272698640823364e-01 -1.654029935598373413e-01 -4.883215576410293579e-02 -8.254698663949966431e-02 -5.977343022823333740e-02 1.504148542881011963e-01 1.611472219228744507e-01 -1.348713785409927368e-01 1.297539025545120239e-01 6.848248839378356934e-02 -1.092720218002796173e-02 4.793852940201759338e-02 4.367141053080558777e-02 -5.884150043129920959e-02 -1.461078971624374390e-01 1.119558885693550110e-01 -1.020590364933013916e-01 3.159549087285995483e-02 2.338122390210628510e-02 -1.479115188121795654e-01 -1.067797392606735229e-01 1.303937286138534546e-01 -2.650951780378818512e-02 2.839316427707672119e-02 1.054419800639152527e-01 -1.007243171334266663e-01 -1.807902157306671143e-01 5.703216418623924255e-02 1.525670439004898071e-01 -3.489666618406772614e-03 1.039775013923645020e-01 -8.458475023508071899e-02 -2.104877308011054993e-02 -1.610163152217864990e-01 8.018314093351364136e-02 1.669840663671493530e-01 -4.806070774793624878e-02 -7.713709771633148193e-02 -8.752365410327911377e-02 1.008205637335777283e-01 -2.852657623589038849e-02 1.024052277207374573e-01 1.429058611392974854e-01 1.902195811271667480e-02 1.114795282483100891e-01 1.664842420723289251e-04 1.286083310842514038e-01 -1.725236922502517700e-01 -1.200085207819938660e-01 -9.714251011610031128e-02 7.742266356945037842e-02 -1.049585714936256409e-01 -1.862915232777595520e-02 5.800669267773628235e-02 8.366838097572326660e-02 -3.575761616230010986e-02 1.417237450368702412e-03 -1.573234945535659790e-01 7.898487895727157593e-02 9.786336123943328857e-02 8.591458946466445923e-02 -1.271155178546905518e-01 -1.373831778764724731e-01 -9.097375720739364624e-02 3.001578897237777710e-02 -1.772169917821884155e-01 -9.815695881843566895e-02 5.853693932294845581e-03 -1.494890451431274414e-01 6.278241518884897232e-03 1.753067821264266968e-01 -1.749400943517684937e-01 8.639293164014816284e-02 1.401685029268264771e-01
-1.369834691286087036e-01 -6.186148151755332947e-02 -7.822871953248977661e-02 -2.335123717784881592e-02 1.005513742566108704e-01 5.577227845788002014e-02 -1.801292300224304199e-01 -9.469855576753616333e-02 1.032212600111961365e-01 -1.572701781988143921e-01 -1.222376227378845215e-01 -3.645570203661918640e-02 -1.757294237613677979e-01 -1.555134057998657227e-01 -1.473614275455474854e-01 -1.670472472906112671e-01 -4.321543499827384949e-02 -1.337619721889495850e-01 1.406853646039962769e-01 2.032470144331455231e-02 3.066502325236797333e-02 1.471994817256927490e-01 -1.434816867113113403e-01 1.362351477146148682e-01 4.556350037455558777e-02 -7.676569372415542603e-02 -1.618789136409759521e-01 2.188972942531108856e-02 3.967396169900894165e-02 -4.349381476640701294e-02 -1.713453829288482666e-01 5.703233182430267334e-02 -7.226564735174179077e-02 3.065420314669609070e-02 -1.174684986472129822e-01 1.075647696852684021e-01 -1.708863377571105957e-01 -1.313581615686416626e-01 -9.430734813213348389e-02 -8.863330632448196411e-02 9.910899214446544647e-03 -1.550016365945339203e-02 -7.376070320606231689e-02 -7.696424424648284912e-02 1.328410804271697998e-01 -3.456722199916839600e-02 -9.611184149980545044e-02 1.021194458007812500e-01 1.220554113388061523e-02 -8.116254210472106934e-02 6.176657509058713913e-03 -1.299102157354354858e-01 1.700539514422416687e-02 5.164353549480438232e-02 -1.405858397483825684e-01 4.860374331474304199e-02 -1.508554965257644653e-01 -1.494018435478210449e-01 8.254439570009708405e-03 -1.758406907320022583e-01 8.638537675142288208e-02 -1.342961937189102173e-01 3.937869146466255188e-02 1.783914491534233093e-02 1.927641802467405796e-03 9.859513491392135620e-02 1.734112203121185303e-01 1.631670445203781128e-01 5.946790799498558044e-03 -9.751906245946884155e-02 6.895223259925842285e-02 8.561220765113830566e-02 -1.533525530248880386e-02 -4.328775778412818909e-02 3.432516381144523621e-02 5.746067315340042114e-02 -6.443974375724792480e-02 6.755623221397399902e-02 1.596516743302345276e-02 -9.315274655818939209e-02 -1.077381148934364319e-01 -1.304043680429458618e-01 2.930955775082111359e-02 4.385843127965927124e-02 1.074862554669380188e-01 5.814906954765319824e-02 -4.812256991863250732e-02 -1.242314279079437256e-01 -7.594635337591171265e-02 -1.007698662579059601e-02 3.155313432216644287e-02 8.447291702032089233e-02 4.550147056579589844e-02 9.286404401063919067e-02 -3.445621207356452942e-02 -5.226118862628936768e-02 -4.910771176218986511e-02 -1.699754297733306885e-01 -8.669259399175643921e-02 -1.425330489873886108e-01
-1.401450950652360916e-02 -9.390224516391754150e-02 5.871045589447021484e-02 7.032649964094161987e-02 1.392023861408233643e-01 2.002336317673325539e-03 -1.509024947881698608e-02 8.409640938043594360e-02 5.339406803250312805e-02 -8.197282254695892334e-02 5.516384169459342957e-02 -9.991702437400817871e-02 -1.169593483209609985e-01 1.286081969738006592e-02 9.193463623523712158e-02 -1.876882016658782959e-01 -8.946184813976287842e-02 1.844132132828235626e-02 -1.660281717777252197e-01 7.418683171272277832e-02 -5.844105780124664307e-02 -1.589053124189376831e-01 -1.053335741162300110e-01 5.378140136599540710e-02 8.312110602855682373e-02 -6.450105458498001099e-02 -2.419072948396205902e-02 -4.404029250144958496e-02 5.614455416798591614e-02 8.416391909122467041e-02 -5.939081311225891113e-02 1.751299500465393066e-01 -1.849722564220428467e-01 6.725778430700302124e-02 3.068736521527171135e-03 -9.239999204874038696e-02 9.984908998012542725e-02 2.375128678977489471e-03 1.499395817518234253e-01 -1.093997359275817871e-01 -9.360741823911666870e-02 -5.612501874566078186e-02 1.172332316637039185e-01 -7.987000793218612671e-02 3.404790535569190979e-02 9.950046241283416748e-02 1.005660295486450195e-01 -8.162032812833786011e-03 -1.307865530252456665e-01 1.020155549049377441e-01 1.440987884998321533e-01 7.763537112623453140e-03 -4.942129924893379211e-02 -1.334887444972991943e-01 -1.578199267387390137e-01 -1.600761413574218750e-01 -3.214187175035476685e-02 -5.098385736346244812e-02 -1.218238994479179382e-01 -1.091031953692436218e-01 -9.970675408840179443e-02 -3.582217171788215637e-02 9.598829597234725952e-02 1.787995547056198120e-01 7.609660923480987549e-02 -1.411175876855850220e-01 8.415510505437850952e-02 1.747132837772369385e-01 1.055959463119506836e-01 5.365484580397605896e-02 1.141481846570968628e-01 -4.175551608204841614e-02 3.674847260117530823e-02 -1.754271984100341797e-01 -6.176136434078216553e-02 -1.262985765933990479e-01 6.281767971813678741e-03 5.310452356934547424e-02 9.545936435461044312e-02 -1.473179161548614502e-01 -1.007866486907005310e-01 1.218810304999351501e-01 -8.645725250244140625e-02 -8.985097706317901611e-02 1.798605769872665405e-01 2.461404725909233093e-02 -1.416344102472066879e-02 -1.438799947500228882e-01 -1.286370307207107544e-01 6.769464910030364990e-02 -8.090600371360778809e-02 1.280887722969055176e-01 9.194238483905792236e-02 -4.094849154353141785e-02 -3.335350379347801208e-02 -2.015907503664493561e-02 1.691398769617080688e-01 -1.096519157290458679e-01 -4.576875641942024231e-02 -1.257101539522409439e-02
1.000210568308830261e-01 5.306749045848846436e-02 1.297897249460220337e-01 2.727754041552543640e-02 1.821886897087097168e-01 -1.654737889766693115e-01 -3.941221907734870911e-02 -3.811189532279968262e-02 1.640304923057556152e-01 -1.113920435309410095e-01 -1.157173812389373779e-01 2.146702446043491364e-02 -1.682387106120586395e-02 -1.587033271789550781e-01 8.940347470343112946e-03 5.712593719363212585e-02 -8.794930577278137207e-02 -7.581312954425811768e-02 -7.476922124624252319e-02 1.803575158119201660e-01 6.892836093902587891e-02 1.622046977281570435e-01 1.137251406908035278e-01 -2.095483057200908661e-02 9.351266175508499146e-02 -3.768486529588699341e-02 -1.196293719112873077e-02 -6.932836025953292847e-02 -1.610150039196014404e-01 1.096494793891906738e-01 -1.818049699068069458e-01 1.174435019493103027e-01 1.078785136342048645e-01 -1.149266213178634644e-01 2.757207676768302917e-02 1.055697277188301086e-01 1.237737759947776794e-01 4.123553261160850525e-02 1.000957936048507690e-01 -5.300603434443473816e-02 -1.686051338911056519e-01 4.296216741204261780e-02 4.087272100150585175e-03 -2.922678366303443909e-02 -1.042005866765975952e-01 4.163572564721107483e-02 -1.095692887902259827e-01 -6.542799621820449829e-02 1.612032502889633179e-01 2.017559669911861420e-02 -5.584880337119102478e-02 6.477969884872436523e-02 -7.886572927236557007e-02 7.907767593860626221e-02 -1.685610860586166382e-01 3.715809062123298645e-02 -1.196208894252777100e-01 -6.921130418777465820e-02 9.336742013692855835e-02 -1.630514413118362427e-01 1.466989070177078247e-01 -1.141527071595191956e-01 -1.325179785490036011e-01 -1.368819177150726318e-01 1.246910355985164642e-02 8.387386798858642578e-02 -4.113452509045600891e-03 -8.741524815559387207e-02 -9.407950937747955322e-02 1.731157451868057251e-01 -3.127415850758552551e-02 -1.752161188051104546e-04 1.425679922103881836e-01 -1.172149479389190674e-01 5.843320488929748535e-02 1.578552462160587311e-02 -1.789278239011764526e-01 -1.198639497160911560e-01 6.775056570768356323e-02 1.343707591295242310e-01 4.019321501255035400e-02 1.455708593130111694e-01 -4.178683448117226362e-04 1.234060525894165039e-01 -1.028012782335281372e-01 1.169643849134445190e-01 -1.731302291154861450e-01 -1.121992766857147217e-01 5.277360230684280396e-02 -1.001676991581916809e-01 -1.692834943532943726e-01 -2.712291479110717773e-02 -7.155723869800567627e-02 2.016975730657577515e-02 5.276954174041748047e-02 1.183844059705734253e-01 -5.293834954500198364e-02 -1.124418675899505615e-01 4.674464836716651917e-02 -1.534530520439147949e-01
7.687465101480484009e-02 8.858674764633178711e-02 -1.214758530259132385e-01 5.543209612369537354e-02 1.205369830131530762e-01 8.734273165464401245e-02 7.704613357782363892e-02 -4.611127451062202454e-02 7.350659370422363281e-02 -1.067788228392601013e-01 -9.900349378585815430e-02 -1.271556317806243896e-01 1.627018749713897705e-01 -6.778234988451004028e-02 -1.585680246353149414e-01 1.226771697402000427e-01 7.167322188615798950e-02 1.154405325651168823e-01 -1.179884523153305054e-01 -6.481139361858367920e-02 1.643412411212921143e-01 -1.776650696992874146e-01 -5.906469374895095825e-02 7.682762574404478073e-03 -1.106462180614471436e-01 -1.134163066744804382e-01 -7.785056252032518387e-03 1.683933287858963013e-02 -1.117008700966835022e-01 1.245394572615623474e-01 -1.323513537645339966e-01 -1.719777584075927734e-01 1.607930809259414673e-01 1.696270406246185303e-01 1.606864035129547119e-01 6.597221642732620239e-02 -7.684329897165298462e-02 -3.383110836148262024e-02 6.364668905735015869e-02 -1.106873005628585815e-01 8.873948454856872559e-02 1.244597230106592178e-02 1.652929633855819702e-01 -8.511834591627120972e-02 -1.158864200115203857e-01 -1.376994401216506958e-01 -9.014508873224258423e-02 1.396728772670030594e-02 -9.674505144357681274e-02 1.556623131036758423e-01 -8.671200275421142578e-02 1.191608756780624390e-01 -2.328034304082393646e-02 8.846852928400039673e-03 1.662204563617706299e-01 -7.588291913270950317e-02 -3.007842926308512688e-03 1.704374998807907104e-01 -4.485278390347957611e-03 3.390847146511077881e-02 -1.354375034570693970e-01 6.543001532554626465e-02 -9.675815701484680176e-02 -1.514361351728439331e-01 7.708729058504104614e-02 -1.555228233337402344e-01 1.602258682250976562e-01 1.436306685209274292e-01 -8.688688278198242188e-02 -8.979743719100952148e-02 1.731798797845840454e-01 -9.309343248605728149e-02 -7.914141565561294556e-02 -5.416900292038917542e-02 -7.067903131246566772e-02 4.585377126932144165e-02 5.983942374587059021e-02 2.019145758822560310e-03 -8.513548225164413452e-02 -9.305759519338607788e-02 7.453042268753051758e-02 -1.042227074503898621e-01 1.248521432280540466e-01 7.945929467678070068e-02 1.044634059071540833e-01 5.086770653724670410e-02 8.535849303007125854e-02 -5.107388645410537720e-02 -2.732416987419128418e-02 7.404436916112899780e-02 1.561424136161804199e-01 -1.625612825155258179e-01 1.748216003179550171e-01 1.458791494369506836e-01 -4.796754568815231323e-02 -8.971703797578811646e-02 2.822638954967260361e-03 -5.865788832306861877e-02 -3.875103220343589783e-02 1.052875816822052002e-01
7.675800472497940063e-02 1.218909844756126404e-01 5.667245388031005859e-02 -8.213758468627929688e-02 1.755830086767673492e-02 7.363687455654144287e-02 -6.869789212942123413e-02 -1.145699769258499146e-01 -1.212716400623321533e-01 1.755586564540863037e-01 -1.782131493091583252e-01 -1.554082930088043213e-01 -1.740633994340896606e-01 -1.776325404644012451e-01 4.566257819533348083e-02 -8.234657347202301025e-02 -1.685553044080734253e-01 1.167060062289237976e-01 1.241897195577621460e-01 -1.813630610704421997e-01 1.059691235423088074e-02 1.042371839284896851e-01 1.527042388916015625e-01 1.533978581428527832e-01 7.939499616622924805e-02 7.424672693014144897e-02 1.533863246440887451e-01 2.066017501056194305e-02 1.193180233240127563e-01 1.473389714956283569e-01 -9.341314435005187988e-03 1.559664458036422729e-01 -4.569736495614051819e-02 1.766030341386795044e-01 -1.291173547506332397e-01 -1.600500009953975677e-02 -6.720421463251113892e-02 -1.558573544025421143e-01 -6.848972290754318237e-02 1.632413864135742188e-01 1.600148379802703857e-01 3.349145874381065369e-02 1.707550734281539917e-01 -7.426380366086959839e-02 -1.682040542364120483e-01 1.124602556228637695e-01 8.535154163837432861e-03 1.549101322889328003e-01 2.637048624455928802e-02 -1.468750089406967163e-01 7.171344757080078125e-02 6.778637878596782684e-03 -8.068725466728210449e-02 -4.605655744671821594e-02 -1.797691583633422852e-01 -1.451236754655838013e-01 5.190861970186233521e-02 9.000746905803680420e-02 8.501277863979339600e-02 -1.308667957782745361e-01 -1.784191429615020752e-01 1.833285018801689148e-02 -7.696979492902755737e-02 -7.558491080999374390e-02 -1.581466346979141235e-01 -1.149310767650604248e-01 9.329041093587875366e-02 -1.075560972094535828e-01 9.770160540938377380e-03 -1.625411063432693481e-01 -1.788649559020996094e-01 1.455788910388946533e-01 -6.608197093009948730e-02 -1.542579382658004761e-01 -1.503217518329620361e-01 6.441376358270645142e-02 -3.244048729538917542e-02 -7.072842866182327271e-02 -4.806185886263847351e-02 -3.262801095843315125e-02 -1.335796117782592773e-01 1.423378288745880127e-01 -1.307621505111455917e-02 1.157986596226692200e-01 -9.280572831630706787e-02 -1.703197509050369263e-01 -1.064243987202644348e-01 -1.765060722827911377e-01 -1.298629492521286011e-02 -1.672755628824234009e-01 -1.610769331455230713e-01 5.672790110111236572e-02 -2.922307141125202179e-02 -2.231425419449806213e-02 -9.264180809259414673e-02 1.046993024647235870e-02 -7.043937593698501587e-02 -3.135607019066810608e-02 -1.363161653280258179e-01 -4.590639472007751465e-02
-1.213292852044105530e-01 6.385964900255203247e-02 5.700488761067390442e-02 -5.733169615268707275e-02 1.008523479104042053e-01 -1.513925939798355103e-01 -8.209414035081863403e-02 1.321654468774795532e-01 -1.683010160923004150e-01 1.257961690425872803e-01 -1.066956445574760437e-01 4.056561738252639771e-02 -1.566390623338520527e-03 1.435184627771377563e-01 -4.450532793998718262e-02 -1.203815639019012451e-01 -7.930316776037216187e-02 -1.256407350301742554e-01 -1.497350633144378662e-01 -3.689764812588691711e-02 -4.244890064001083374e-02 -9.983317553997039795e-02 -9.150180965662002563e-02 -2.379570901393890381e-02 -8.950316905975341797e-02 9.611905366182327271e-02 8.424615859985351562e-02 1.367612332105636597e-01 -2.070152200758457184e-02 -1.633518338203430176e-01 2.220406383275985718e-02 1.237238496541976929e-01 1.694562137126922607e-01 3.081477771047502756e-04 -1.299101300537586212e-02 1.736679226160049438e-01 -1.776896268129348755e-01 -9.151330590248107910e-02 1.589889265596866608e-02 -9.059769660234451294e-02 1.344358772039413452e-01 -2.544129081070423126e-02 -1.327567547559738159e-01 -1.175793707370758057e-01 -5.557323619723320007e-02 1.066659390926361084e-01 -4.308106005191802979e-02 1.363612264394760132e-01 3.891946002840995789e-02 1.400941908359527588e-01 1.464089155197143555e-01 -1.408608108758926392e-01 1.575707942247390747e-01 1.505618244409561157e-01 1.114669293165206909e-01 3.256433457136154175e-02 -1.818680316209793091e-01 -1.817566305398941040e-01 5.797354876995086670e-02 -1.686197817325592041e-01 1.689583063125610352e-01 -7.151532918214797974e-02 -1.362535655498504639e-01 5.262637883424758911e-02 -1.202542260289192200e-01 5.821476131677627563e-02 8.194935321807861328e-02 8.666798472404479980e-02 -2.863713353872299194e-02 2.334487438201904297e-02 3.840980306267738342e-02 -1.659807264804840088e-01 -1.668152064085006714e-01 -3.488556249067187309e-03 -1.505047678947448730e-01 -4.155397787690162659e-02 6.176688894629478455e-02 -2.559074759483337402e-02 1.144498288631439209e-01 7.955656200647354126e-02 -1.042030155658721924e-01 -1.376541256904602051e-01 1.263431161642074585e-01 8.180207014083862305e-02 -4.761109501123428345e-02 -1.483072340488433838e-01 -1.512431632727384567e-02 -4.155143350362777710e-02 9.332453832030296326e-03 1.381326559931039810e-02 -1.299676746129989624e-01 1.241242587566375732e-01 1.173341125249862671e-01 1.736410558223724365e-01 -2.918811514973640442e-02 9.372467547655105591e-02 1.699202805757522583e-01 -9.917975217103958130e-02 -2.858019992709159851e-02 -7.530944794416427612e-02
-1.114821434020996094e-01 8.155690133571624756e-02 -9.819108247756958008e-02 9.645132720470428467e-02 -8.202178031206130981e-02 4.581021517515182495e-02 1.678317636251449585e-01 -4.731369763612747192e-02 -1.823620647192001343e-01 1.728285551071166992e-01 -1.610446572303771973e-01 1.120942365378141403e-02 1.305144727230072021e-01 1.488521099090576172e-01 -6.478997413069009781e-03 9.582128375768661499e-02 5.667540058493614197e-02 -1.025486439466476440e-01 -1.816165298223495483e-01 -1.467029601335525513e-01 -1.305995858274400234e-03 1.637909412384033203e-01 -1.294684782624244690e-02 -7.827874273061752319e-02 -1.530342251062393188e-01 -7.292822748422622681e-02 -9.101675450801849365e-02 -1.866769194602966309e-01 1.673395335674285889e-01 3.462619706988334656e-02 1.754367351531982422e-01 -2.722075022757053375e-02 -8.726491779088973999e-02 4.054673388600349426e-02 -8.529599756002426147e-02 -1.865531504154205322e-02 -1.854273378849029541e-01 -1.184762865304946899e-01 6.939865648746490479e-02 1.498444229364395142e-01 -1.056481972336769104e-01 4.764122515916824341e-02 1.695435494184494019e-01 -7.853680849075317383e-02 9.533726423978805542e-02 2.694224752485752106e-02 9.510116279125213623e-02 1.457793861627578735e-01 9.975770860910415649e-02 -1.082695573568344116e-01 -6.070518866181373596e-03 5.887209996581077576e-02 -1.272443681955337524e-01 1.519015729427337646e-01 4.406740143895149231e-02 -3.665553033351898193e-02 1.757186651229858398e-01 -7.572385668754577637e-02 -1.103511527180671692e-01 -5.864843726158142090e-02 7.758787274360656738e-02 -6.670817732810974121e-02 -1.675742566585540771e-01 -1.323526203632354736e-01 1.812862604856491089e-01 3.368379082530736923e-03 -6.595635414123535156e-02 -7.674292474985122681e-02 -1.405851095914840698e-01 4.936904087662696838e-02 -6.436484307050704956e-02 1.468705236911773682e-01 8.281297981739044189e-02 -1.553579270839691162e-01 5.154171213507652283e-02 -7.563483814010396600e-05 3.348718583583831787e-02 1.055289432406425476e-01 -6.373292207717895508e-02 1.691038757562637329e-01 -1.232563778758049011e-01 5.441213399171829224e-02 -1.036587208509445190e-01 5.380021035671234131e-02 1.366665810346603394e-01 -2.110437490046024323e-02 1.025855317711830139e-01 1.320303697139024734e-02 -8.862587809562683105e-02 -4.325849562883377075e-02 -1.680278778076171875e-01 1.503396183252334595e-01 -4.515327140688896179e-02 -8.992125838994979858e-02 -1.664544045925140381e-01 1.499841064214706421e-01 5.768629536032676697e-02 3.891219571232795715e-02 3.100083209574222565e-03 -5.627476796507835388e-02
-1.334237903356552124e-01 9.149697422981262207e-02 -4.284802451729774475e-02 -1.294923126697540283e-01 -7.735460996627807617e-02 -1.285049021244049072e-01 4.136507585644721985e-02 -3.087016753852367401e-02 1.228012144565582275e-01 -6.419393420219421387e-02 1.796476542949676514e-01 4.222871363162994385e-02 -1.842529699206352234e-02 -1.526250839233398438e-01 2.984121441841125488e-02 -1.037671938538551331e-01 8.143725246191024780e-02 1.644797921180725098e-01 -1.060962397605180740e-02 -1.308356672525405884e-01 1.131622791290283203e-01 -1.037930175662040710e-01 8.483608067035675049e-02 9.086260944604873657e-02 -1.713198721408843994e-01 1.257459223270416260e-01 1.583766043186187744e-01 -1.664343178272247314e-01 1.220044344663619995e-01 1.414001882076263428e-01 9.033261239528656006e-02 -1.261295676231384277e-01 -1.173425093293190002e-01 1.752995997667312622e-01 -5.442975088953971863e-03 -1.632523536682128906e-01 2.593255229294300079e-02 7.596991211175918579e-02 -8.050709962844848633e-02 -1.510061323642730713e-01 -1.383938193321228027e-01 3.591246157884597778e-02 -1.370058953762054443e-01 1.454967409372329712e-01 4.997063800692558289e-02 2.272969111800193787e-02 -3.386450186371803284e-02 7.052959501743316650e-02 -1.114894598722457886e-01 1.675087660551071167e-01 4.885379597544670105e-02 9.036196023225784302e-02 -4.995752125978469849e-02 -4.301375523209571838e-02 -5.955398082733154297e-02 -1.628527045249938965e-01 -7.108698040246963501e-02 1.098173484206199646e-01 1.733217090368270874e-01 8.193390816450119019e-02 -1.620272397994995117e-01 -1.746983453631401062e-02 -1.280613690614700317e-01 1.164237130433320999e-02 3.934906423091888428e-02 1.484938412904739380e-01 1.483424101024866104e-03 1.404989659786224365e-01 9.371717274188995361e-02 1.566605269908905029e-01 -1.779845729470252991e-02 2.131418883800506592e-02 9.316381812095642090e-02 1.725772917270660400e-01 -1.997390016913414001e-02 6.422516703605651855e-02 -1.474983394145965576e-01 4.393618181347846985e-02 1.471073925495147705e-01 -1.389303952455520630e-01 1.794141381978988647e-01 -7.948666810989379883e-02 4.772456735372543335e-02 -1.497808247804641724e-01 1.433943659067153931e-01 -1.068654358386993408e-01 1.534505337476730347e-01 1.475716978311538696e-01 1.313810795545578003e-01 1.325687915086746216e-01 -8.862095884978771210e-03 -1.801895201206207275e-01 4.004375264048576355e-02 5.207884311676025391e-02 3.408392518758773804e-02 -1.002480685710906982e-01 1.494615226984024048e-01 1.782735139131546021e-01 -1.758969128131866455e-01 1.227646321058273315e-01
4.312303848564624786e-03 -9.747227653861045837e-03 -7.941389828920364380e-02 6.122410297393798828e-02 1.605528444051742554e-01 1.637165397405624390e-01 -3.324213996529579163e-02 1.798732019960880280e-02 -3.251368179917335510e-02 2.750337589532136917e-03 1.026446521282196045e-01 -1.648970693349838257e-01 5.707935616374015808e-02 6.770112365484237671e-02 -2.931732498109340668e-02 1.587952077388763428e-01 1.064403802156448364e-01 4.227863252162933350e-02 6.868369132280349731e-02 1.433925610035657883e-02 -1.053733974695205688e-01 9.591564536094665527e-02 5.069641396403312683e-02 -3.082729689776897430e-02 2.006771601736545563e-02 1.559424400329589844e-01 -2.011018805205821991e-02 9.666216373443603516e-02 8.278319984674453735e-02 -1.825276762247085571e-01 -1.471505612134933472e-01 1.002430990338325500e-01 -2.440180070698261261e-02 2.234711311757564545e-03 2.119325846433639526e-02 -6.209409981966018677e-02 -1.078029535710811615e-02 1.463039368391036987e-01 4.634935408830642700e-02 -4.048224538564682007e-02 -1.387522816658020020e-01 1.492760330438613892e-02 1.312441974878311157e-01 1.134549900889396667e-01 -1.765545830130577087e-02 1.177298091351985931e-02 5.226374045014381409e-02 -1.366842240095138550e-01 -1.136155333369970322e-03 -6.529334932565689087e-02 -1.409408748149871826e-01 7.194708287715911865e-02 1.462108790874481201e-01 -8.188801258802413940e-02 -6.937847286462783813e-02 -1.662471890449523926e-01 7.231996208429336548e-02 -1.567101776599884033e-01 -4.046449810266494751e-02 -2.772937528789043427e-02 1.494917422533035278e-01 -5.604663118720054626e-02 -1.789062023162841797e-01 -6.699141114950180054e-02 -2.846123091876506805e-02 1.201106533408164978e-01 -1.412656158208847046e-02 -7.502230256795883179e-02 -8.963143080472946167e-02 -1.310563981533050537e-01 -1.292314976453781128e-01 -2.776309289038181305e-02 4.433982074260711670e-02 6.280060857534408569e-02 1.200808510184288025e-01 -1.407993435859680176e-01 -1.762426495552062988e-01 1.141942217946052551e-01 -3.091014176607131958e-02 1.047057509422302246e-01 -1.193638816475868225e-01 -1.303177028894424438e-01 5.630130693316459656e-02 -6.086132302880287170e-02 -1.718171834945678711e-01 -1.553148627281188965e-01 -9.965504705905914307e-02 1.181597709655761719e-01 1.256194561719894409e-01 -7.841899245977401733e-02 5.419656261801719666e-02 -4.546548426151275635e-02 -5.937524884939193726e-02 -4.199169948697090149e-02 -8.187618851661682129e-02 1.770184040069580078e-01 -1.423198878765106201e-01 9.013599902391433716e-02 1.710762530565261841e-01 -1.676912903785705566e-01
-1.439769566059112549e-01 1.030572652816772461e-01 -1.158207803964614868e-01 1.573326885700225830e-01 -1.124076023697853088e-01 -1.064390316605567932e-01 7.392434775829315186e-02 -5.428703874349594116e-02 6.134585291147232056e-02 -1.438244432210922241e-01 1.254441440105438232e-01 -4.016568884253501892e-02 8.172127604484558105e-02 -1.814999878406524658e-01 1.601755172014236450e-01 -1.322472691535949707e-01 -1.562117189168930054e-01 -7.651991397142410278e-02 -5.514545738697052002e-02 1.740222424268722534e-01 -1.182071641087532043e-01 -4.343394562602043152e-02 1.790810674428939819e-01 -1.526630371809005737e-01 7.130963355302810669e-02 -2.666181698441505432e-02 1.495026499032974243e-01 -1.055410131812095642e-01 -1.776100546121597290e-01 1.163365021347999573e-01 -5.353920906782150269e-02 -1.957374252378940582e-02 -3.237997367978096008e-02 -7.552478462457656860e-03 9.575624018907546997e-02 1.047876700758934021e-01 -6.542389019159600139e-05 -1.428497135639190674e-01 6.270425394177436829e-03 -8.010534197092056274e-02 -3.386020287871360779e-02 -1.763141602277755737e-01 -1.809123158454895020e-01 -1.063288152217864990e-01 -1.580221354961395264e-01 -7.897998439148068428e-04 -7.010200619697570801e-02 -1.199592426419258118e-01 2.843763493001461029e-02 -1.058519631624221802e-01 1.695972383022308350e-01 -2.723664604127407074e-02 7.055643945932388306e-02 -1.101840138435363770e-01 1.473808437585830688e-01 -1.518627405166625977e-01 -1.409617960453033447e-01 -1.730439364910125732e-01 -1.258153766393661499e-01 3.455165028572082520e-02 1.489596068859100342e-01 9.451372548937797546e-03 8.059757761657238007e-03 -1.177920550107955933e-01 1.654215008020401001e-01 -1.649879105389118195e-02 1.409630179405212402e-01 -1.467019170522689819e-01 4.698358848690986633e-02 1.671334356069564819e-01 1.266042292118072510e-01 -1.344245821237564087e-01 -1.654013693332672119e-01 -2.600946091115474701e-02 6.690213922411203384e-03 5.015463102608919144e-03 1.169242709875106812e-01 -3.953944891691207886e-02 1.759590655565261841e-01 -3.972780704498291016e-02 8.762200921773910522e-02 -1.462325900793075562e-01 1.278140395879745483e-01 8.789050043560564518e-04 -1.540142148733139038e-01 1.158383116126060486e-01 9.011495113372802734e-02 6.178072094917297363e-02 1.230438128113746643e-01 -1.276671588420867920e-01 -4.214145243167877197e-02 8.872891217470169067e-02 -1.599786132574081421e-01 -5.785626545548439026e-02 7.798963226377964020e-03 -4.389388859272003174e-02 9.663151204586029053e-02 -5.236024037003517151e-02 -1.091149225831031799e-01 -9.065959602594375610e-03
1.520782858133316040e-01 1.498748511075973511e-01 1.507696062326431274e-01 -5.894509702920913696e-02 -2.127864025533199310e-02 5.032788962125778198e-03 -5.114457011222839355e-02 1.704086065292358398e-01 1.047274544835090637e-01 -1.677634865045547485e-01 -8.643255382776260376e-02 6.619852036237716675e-02 4.231434315443038940e-02 -1.173329204320907593e-01 -1.526222079992294312e-01 -1.154068857431411743e-01 9.384786337614059448e-02 1.656480580568313599e-01 -2.452598698437213898e-02 1.233505606651306152e-01 -9.908509999513626099e-02 3.815255314111709595e-02 -9.288808703422546387e-02 1.069376468658447266e-01 -9.969197958707809448e-02 -1.060550138354301453e-01 1.772276684641838074e-02 1.167812868952751160e-01 1.250717043876647949e-01 -1.591051518917083740e-01 -2.207293361425399780e-02 5.558237433433532715e-02 -1.506712171249091625e-03 -7.333493232727050781e-02 -2.518535777926445007e-02 -4.954549670219421387e-02 -7.110900711268186569e-03 1.478444337844848633e-01 -1.374592483043670654e-01 -1.768566966056823730e-01 1.538337171077728271e-01 -1.386931389570236206e-01 -1.345157176256179810e-01 -6.259629130363464355e-02 -1.385583542287349701e-03 -1.179109662771224976e-01 -2.399232983589172363e-02 1.013428643345832825e-01 -5.623902752995491028e-02 1.165067870169878006e-02 1.248185932636260986e-01 -1.244272440671920776e-01 1.493857502937316895e-01 1.612524986267089844e-01 9.974806010723114014e-02 1.118667721748352051e-01 1.688785552978515625e-01 1.797228753566741943e-01 -4.439148306846618652e-02 -6.559877097606658936e-02 1.403340995311737061e-01 7.980173081159591675e-02 1.141391694545745850e-01 1.038534715771675110e-01 1.233552396297454834e-01 -1.463656276464462280e-01 4.212058335542678833e-02 -4.745545797049999237e-03 -1.611000043340027332e-03 -8.221629261970520020e-02 -9.135088883340358734e-03 -1.265673488378524780e-01 -1.211593300104141235e-01 1.069575846195220947e-01 4.516428336501121521e-02 1.121975760906934738e-02 1.847799867391586304e-02 1.390372812747955322e-01 1.473220437765121460e-02 4.206852987408638000e-02 1.015379279851913452e-01 8.571208268404006958e-02 1.415311545133590698e-01 1.477561295032501221e-01 -7.069555111229419708e-03 9.358208626508712769e-03 -1.479382067918777466e-01 4.734459519386291504e-02 1.568320989608764648e-01 -8.923666924238204956e-02 1.251821964979171753e-01 -9.182921051979064941e-02 -8.916993439197540283e-02 -9.331247955560684204e-02 -6.047571077942848206e-03 -5.205953121185302734e-02 1.706610247492790222e-02 2.671355009078979492e-02 1.825733333826065063e-01 -1.718074679374694824e-01
-5.803635343909263611e-02 -4.183906316757202148e-02 -1.471060663461685181e-01 -1.790952682495117188e-01 -1.494892239570617676e-01 -8.655056357383728027e-02 -1.452091932296752930e-01 6.187182664871215820e-02 1.147777438163757324e-01 3.825299069285392761e-02 -1.189886257052421570e-01 1.457971185445785522e-01 4.843250289559364319e-02 2.906076237559318542e-02 -1.627667546272277832e-01 6.310871243476867676e-02 3.040437027812004089e-02 5.441101267933845520e-02 1.345540136098861694e-01 3.407073765993118286e-02 1.656498461961746216e-01 -9.228119254112243652e-02 -5.631500855088233948e-02 -1.295812875032424927e-01 8.160357922315597534e-02 2.836625464260578156e-02 -1.850243061780929565e-01 8.583995699882507324e-02 -1.767827868461608887e-01 -1.777184158563613892e-01 -5.123933777213096619e-02 1.700705438852310181e-01 8.054109662771224976e-02 1.297179758548736572e-01 1.680871844291687012e-01 4.202665761113166809e-02 -7.629456371068954468e-02 -1.009008213877677917e-01 2.355185896158218384e-02 5.864026397466659546e-02 4.363502189517021179e-02 1.312676370143890381e-01 4.267334938049316406e-02 -8.823747187852859497e-02 -7.655189186334609985e-02 -1.012309119105339050e-01 -7.861955091357231140e-03 -7.298749685287475586e-02 1.068542990833520889e-02 -8.833565562963485718e-02 -1.644864529371261597e-01 -1.359895616769790649e-01 2.411884628236293793e-02 -9.814799576997756958e-02 5.849326029419898987e-02 1.248125880956649780e-01 -8.018303662538528442e-02 -1.309728771448135376e-01 1.419489178806543350e-02 8.744238317012786865e-02 1.707100123167037964e-01 6.214091181755065918e-02 5.774246901273727417e-02 -1.742646843194961548e-01 -1.767585724592208862e-01 -4.692036658525466919e-02 1.791397482156753540e-01 -4.895804822444915771e-02 -1.570388972759246826e-01 -2.455578744411468506e-02 1.516202539205551147e-01 4.913068562746047974e-02 1.787450760602951050e-01 -3.797011449933052063e-02 7.161826640367507935e-02 3.584666177630424500e-02 -1.513633131980895996e-01 -3.855618415400385857e-03 -1.452173739671707153e-01 -3.346708044409751892e-02 -6.787378340959548950e-02 -1.604339480400085449e-01 -6.297276169061660767e-02 -6.169816106557846069e-02 3.702159225940704346e-02 6.687684357166290283e-02 7.944324612617492676e-02 -1.294410377740859985e-01 -6.373570114374160767e-02 -9.489183127880096436e-02 -4.846364632248878479e-02 6.869187951087951660e-02 8.957094699144363403e-02 1.481790542602539062e-01 1.555716544389724731e-01 -4.362932592630386353e-02 1.536219939589500427e-02 1.728115379810333252e-01 1.603245139122009277e-01 -1.364220678806304932e-01
2.443455904722213745e-02 1.034407094120979309e-01 -2.075136080384254456e-02 -1.681403517723083496e-01 -9.231261163949966431e-02 -3.564738901332020760e-03 -1.506360471248626709e-01 -6.032485887408256531e-02 1.430389937013387680e-02 -8.746558427810668945e-02 -1.165567059069871902e-02 -5.135590955615043640e-02 -1.263452917337417603e-01 -9.129355847835540771e-02 1.719478145241737366e-02 4.303605481982231140e-02 4.655457288026809692e-02 1.402694582939147949e-01 2.246107207611203194e-03 -1.689692288637161255e-01 1.372039020061492920e-01 -1.276110708713531494e-01 1.514916718006134033e-01 -1.494739055633544922e-01 1.043180972337722778e-01 4.088408872485160828e-02 -1.322281062602996826e-01 -5.782370641827583313e-02 -1.679139882326126099e-01 2.783683314919471741e-02 -6.217693164944648743e-02 -1.088897585868835449e-01 -2.743936516344547272e-02 -9.133600443601608276e-02 4.341214895248413086e-02 5.002029240131378174e-02 1.571200191974639893e-01 -1.341954320669174194e-01 1.457030773162841797e-01 5.253503471612930298e-02 4.750545322895050049e-02 9.116211533546447754e-02 -1.014100015163421631e-01 1.466855406761169434e-01 1.171540990471839905e-01 -1.528544910252094269e-02 -4.898985102772712708e-02 -1.328031569719314575e-01 -7.794394344091415405e-02 -7.617288827896118164e-02 -1.075581312179565430e-01 1.780762337148189545e-02 1.303514689207077026e-01 1.358098089694976807e-01 1.148840934038162231e-01 1.623558700084686279e-01 -1.689763963222503662e-01 6.412537395954132080e-02 1.248121112585067749e-01 -1.146026626229286194e-01 6.046660989522933960e-02 7.380666583776473999e-02 -1.730150580406188965e-01 -1.565070450305938721e-01 1.534314453601837158e-01 3.863515332341194153e-02 1.442444138228893280e-02 3.082123398780822754e-02 2.564955875277519226e-02 3.471338748931884766e-02 1.448786854743957520e-01 1.129219308495521545e-01 -2.860908210277557373e-02 8.801455609500408173e-03 -6.847818195819854736e-02 -1.426936239004135132e-01 5.835296586155891418e-02 6.490298546850681305e-03 -1.234103217720985413e-01 -7.806305587291717529e-02 -1.574703678488731384e-02 -8.086755126714706421e-02 1.273450851440429688e-01 3.554166108369827271e-02 -1.516140066087245941e-02 -5.023582838475704193e-03 -2.592507377266883850e-02 -8.526831865310668945e-02 4.947894439101219177e-02 3.088280558586120605e-02 6.683973222970962524e-02 -1.140577867627143860e-01 1.696798801422119141e-01 -1.752713024616241455e-01 -9.758449345827102661e-02 -1.291594505310058594e-01 -1.292963325977325439e-02 -1.183031126856803894e-01 -3.951604664325714111e-02 -1.387576907873153687e-01
2.465163171291351318e-02 -1.618030369281768799e-01 -5.439055711030960083e-02 1.211360916495323181e-01 -7.004871033132076263e-03 -9.330093860626220703e-02 -5.971699580550193787e-02 -4.916893318295478821e-02 7.618452608585357666e-02 -1.516089588403701782e-01 1.697661280632019043e-01 -1.801408082246780396e-01 1.164765357971191406e-01 -1.002400591969490051e-01 -4.006386175751686096e-02 -2.565489895641803741e-02 1.176428422331809998e-02 1.924533862620592117e-03 6.432887166738510132e-02 -4.541954398155212402e-02 1.479099839925765991e-01 6.138518825173377991e-02 -9.228633344173431396e-02 6.436119973659515381e-02 -1.702133752405643463e-02 -1.432543098926544189e-01 -1.338079124689102173e-01 1.566592603921890259e-01 -1.839559078216552734e-01 -1.198855228722095490e-02 -1.671792715787887573e-01 6.453704833984375000e-02 -5.792391672730445862e-02 -1.538093388080596924e-01 -1.843083500862121582e-01 4.057169891893863678e-03 -8.421882987022399902e-02 -5.876176804304122925e-02 -5.428014695644378662e-02 7.253421097993850708e-02 -7.764859497547149658e-02 -3.629434108734130859e-02 -1.155636906623840332e-01 1.757660955190658569e-01 -5.125980824232101440e-02 1.637771427631378174e-01 2.599866129457950592e-02 1.425099670886993408e-01 -1.374584883451461792e-01 -1.641928255558013916e-01 -2.429285086691379547e-02 6.373772025108337402e-02 7.706738263368606567e-02 1.115617007017135620e-01 1.486440896987915039e-01 4.568034783005714417e-02 -1.444274634122848511e-01 1.025883406400680542e-01 -1.086908131837844849e-01 1.767371147871017456e-01 -1.030109375715255737e-01 1.126131266355514526e-01 1.593763083219528198e-01 5.746285244822502136e-02 2.304349467158317566e-02 1.261839866638183594e-01 -1.336543112993240356e-01 1.273554712533950806e-01 1.102400943636894226e-01 -9.498850256204605103e-02 -1.715306043624877930e-01 2.051195828244090080e-03 1.501966863870620728e-01 -2.846343070268630981e-02 -1.067964360117912292e-01 3.791234642267227173e-02 1.001284196972846985e-01 -1.386537253856658936e-01 -2.304185554385185242e-02 9.065531939268112183e-02 9.507879614830017090e-02 -9.972459077835083008e-02 -7.005975395441055298e-02 6.831760704517364502e-02 5.400721356272697449e-02 -1.122548505663871765e-01 1.199334636330604553e-01 1.558579355478286743e-01 1.855343393981456757e-02 3.987559303641319275e-02 -1.267508417367935181e-01 7.936242967844009399e-02 -4.165642336010932922e-02 -1.618741005659103394e-01 -1.140363290905952454e-01 -1.535150408744812012e-01 -9.600979834794998169e-02 6.681226193904876709e-02 4.300656169652938843e-02 -8.703988045454025269e-02
-1.791919767856597900e-01 1.723985075950622559e-01 2.073663100600242615e-02 -1.682707965373992920e-01 9.914193302392959595e-02 4.870439413934946060e-03 1.348411887884140015e-01 -1.032573059201240540e-01 -9.403297305107116699e-02 7.145160436630249023e-02 -1.238284707069396973e-01 1.780255436897277832e-01 -9.882000833749771118e-02 -1.303817033767700195e-01 5.217446386814117432e-02 -8.233246952295303345e-02 1.427873522043228149e-01 -1.737177558243274689e-02 7.309259474277496338e-02 -3.491926565766334534e-02 -1.770210862159729004e-01 -1.191028133034706116e-01 -1.358362287282943726e-01 -1.379224210977554321e-01 1.608120799064636230e-01 1.648504100739955902e-02 3.391581773757934570e-02 -1.357081085443496704e-01 -1.669660955667495728e-01 7.286153733730316162e-02 -1.597980409860610962e-01 1.817807704210281372e-01 1.246817633509635925e-01 3.095796704292297363e-02 -1.244162395596504211e-01 1.245560422539710999e-01 1.780574619770050049e-01 -8.635008707642555237e-03 -1.236923187971115112e-01 -1.092494577169418335e-01 -7.448425889015197754e-02 8.660669624805450439e-02 -5.648646131157875061e-02 1.683017760515213013e-01 -1.459835618734359741e-01 1.396869868040084839e-01 -1.709472537040710449e-01 1.412943601608276367e-01 7.342648506164550781e-02 -3.972870111465454102e-02 5.007499828934669495e-02 -7.556598633527755737e-03 7.506991177797317505e-02 -1.535445451736450195e-01 -2.743672952055931091e-02 -9.511399269104003906e-02 1.621174626052379608e-02 -4.307075589895248413e-02 -1.821893155574798584e-01 1.824285089969635010e-01 -1.339319050312042236e-01 -1.396343298256397247e-02 -3.187024965882301331e-02 2.282755821943283081e-02 1.052812710404396057e-01 6.145829334855079651e-02 1.359308212995529175e-01 1.415062397718429565e-01 5.481557920575141907e-02 7.595574716106057167e-04 1.518401503562927246e-01 4.079698026180267334e-02 -1.776037514209747314e-01 -7.875978201627731323e-02 -9.460907429456710815e-03 -1.681396216154098511e-01 -2.887688949704170227e-02 1.769175827503204346e-01 1.534118354320526123e-01 1.265002340078353882e-01 1.582177579402923584e-01 -5.626134946942329407e-02 -1.985631510615348816e-02 7.336706668138504028e-02 -1.617671847343444824e-01 -1.465342193841934204e-01 1.647876501083374023e-01 4.888875037431716919e-02 1.684699654579162598e-01 -1.702136695384979248e-01 -1.267190724611282349e-01 3.130761906504631042e-02 5.759685486555099487e-02 -1.217203065752983093e-01 -2.348849177360534668e-02 4.527688026428222656e-02 -1.541652716696262360e-02 -3.592068329453468323e-02 1.068601384758949280e-01 6.012310460209846497e-02
1.147306710481643677e-01 -1.366297453641891479e-01 8.906399458646774292e-02 -1.039701327681541443e-02 2.393388189375400543e-02 7.470184564590454102e-02 -1.035091131925582886e-01 1.047309115529060364e-02 9.653210639953613281e-02 -6.085198745131492615e-02 -2.754658833146095276e-02 1.309717595577239990e-01 -7.599590718746185303e-02 -8.659951388835906982e-02 -7.641416043043136597e-02 -1.849128603935241699e-01 -6.772030144929885864e-02 -3.497019410133361816e-02 -9.421147406101226807e-02 7.724016159772872925e-02 1.629348099231719971e-01 -1.208816245198249817e-01 2.838873676955699921e-02 8.764304965734481812e-02 6.201575323939323425e-02 8.810977637767791748e-02 1.689604669809341431e-02 1.122807990759611130e-02 1.388578563928604126e-01 -1.641077995300292969e-01 7.805776782333850861e-03 7.853922992944717407e-02 1.284903138875961304e-01 -1.695330291986465454e-01 -9.480943530797958374e-02 -1.265562772750854492e-01 1.232545822858810425e-01 3.985239192843437195e-02 -1.054122112691402435e-02 9.940554201602935791e-02 -8.771164715290069580e-02 1.578268557786941528e-01 1.424723416566848755e-01 -1.767198555171489716e-02 -1.355783734470605850e-02 -2.923079591710120440e-04 -1.175921261310577393e-01 6.186933442950248718e-02 4.528346937149763107e-03 -2.833251468837261200e-02 3.117657452821731567e-02 -1.162187084555625916e-01 1.815504580736160278e-01 -1.844063773751258850e-02 -3.220846131443977356e-02 -8.994114398956298828e-02 -1.578752994537353516e-01 -1.005685180425643921e-01 -1.178601086139678955e-01 6.201813742518424988e-02 8.855595439672470093e-02 9.799119085073471069e-02 -2.590535208582878113e-02 -1.738705635070800781e-01 3.952710889279842377e-03 6.792653352022171021e-02 -7.238843291997909546e-02 -1.100871935486793518e-01 1.595332920551300049e-01 -1.200563535094261169e-01 2.261025272309780121e-02 4.493065923452377319e-02 1.267355978488922119e-01 8.209236711263656616e-02 -7.271134853363037109e-02 -3.870940953493118286e-02 -1.289685219526290894e-01 -1.649438738822937012e-01 5.345832556486129761e-03 9.084706008434295654e-02 -1.789793074131011963e-01 9.163491427898406982e-02 -1.320710033178329468e-01 -6.510995328426361084e-03 -1.018687263131141663e-01 -1.243893504142761230e-01 1.713860034942626953e-01 1.090374290943145752e-01 1.275488436222076416e-01 7.474680896848440170e-03 6.478454172611236572e-02 -1.232806220650672913e-01 8.433498442173004150e-02 -4.992503672838211060e-02 1.743877232074737549e-01 1.817843914031982422e-01 -8.171227574348449707e-02 -1.416811496019363403e-01 1.199061125516891479e-01 -1.541317999362945557e-01
-1.842229813337326050e-01 8.392874896526336670e-02 -1.647902131080627441e-01 -2.273178659379482269e-02 5.911314114928245544e-02 -9.985648095607757568e-02 1.652650088071823120e-01 9.574581868946552277e-03 -6.531661003828048706e-02 1.759626530110836029e-02 -1.377638727426528931e-01 1.532643437385559082e-01 -1.775032877922058105e-01 1.339521259069442749e-01 -4.133128747344017029e-02 -4.637158289551734924e-02 -1.336120218038558960e-01 -1.648408472537994385e-01 -1.880133301019668579e-01 -7.855285704135894775e-02 6.048726290464401245e-02 -1.011398583650588989e-01 -1.767798066139221191e-01 -1.311651915311813354e-01 -7.144278381019830704e-03 1.206882223486900330e-01 -1.419462412595748901e-01 8.178272098302841187e-02 -1.629788875579833984e-01 -7.446951419115066528e-02 -2.388653520029038191e-04 7.596107665449380875e-03 -3.591040149331092834e-02 -7.743137329816818237e-02 -7.369439303874969482e-02 -8.437246084213256836e-02 -1.759786307811737061e-01 -1.605572104454040527e-01 7.280282676219940186e-02 -1.212742477655410767e-01 -1.221387535333633423e-01 1.429641246795654297e-01 -5.018140748143196106e-02 -1.280608773231506348e-01 7.085782289505004883e-02 -5.685855820775032043e-02 2.536069974303245544e-02 4.221902415156364441e-02 3.157390654087066650e-02 -8.596957474946975708e-02 -1.138746589422225952e-01 -3.161116316914558411e-02 4.170833155512809753e-02 -1.107883006334304810e-01 1.204781159758567810e-01 -1.478696763515472412e-01 1.378892958164215088e-01 -8.268721401691436768e-02 1.565278321504592896e-01 1.820252537727355957e-01 -4.807140678167343140e-02 -6.681527942419052124e-02 -1.776148825883865356e-01 -1.453448981046676636e-01 1.116635203361511230e-01 5.467855185270309448e-02 -3.603090345859527588e-02 -6.631288677453994751e-02 2.566011995077133179e-02 -1.217520087957382202e-01 -5.416392907500267029e-02 -3.961542993783950806e-02 8.320035785436630249e-02 1.235751509666442871e-01 -1.711727827787399292e-01 -6.706396490335464478e-02 1.660362929105758667e-01 1.594165116548538208e-01 1.421820670366287231e-01 -8.385585248470306396e-02 4.180907458066940308e-02 5.058223754167556763e-02 7.759440690279006958e-02 -1.328057497739791870e-01 -5.367226153612136841e-02 8.429204672574996948e-02 -1.744645535945892334e-01 -1.026408001780509949e-01 1.701854914426803589e-01 -7.655930519104003906e-02 1.595471799373626709e-01 1.334331631660461426e-01 -8.892755955457687378e-03 -1.349680572748184204e-01 -1.396711319684982300e-01 1.669273525476455688e-01 -5.257823970168828964e-03 -1.614540666341781616e-01 1.580862551927566528e-01 -1.216007098555564880e-01
1.760935038328170776e-01 7.659328728914260864e-02 1.812917762435972691e-03 1.553040742874145508e-01 9.476263076066970825e-02 -1.772408485412597656e-01 1.351355165243148804e-01 8.536008000373840332e-02 -1.702698916196823120e-01 -1.344575583934783936e-01 -1.727524548768997192e-01 -1.787975877523422241e-01 1.672490537166595459e-01 -1.205841451883316040e-01 5.902704317122697830e-03 8.096965402364730835e-02 -5.743463523685932159e-03 -8.515109866857528687e-02 -4.129270091652870178e-02 1.555713862180709839e-01 -1.771926879882812500e-01 -1.196225266903638840e-02 -1.548652946949005127e-01 -7.154964655637741089e-02 1.652985215187072754e-01 -8.297862112522125244e-02 2.884030342102050781e-03 8.621869981288909912e-02 -1.165720894932746887e-01 -1.025472730398178101e-01 -2.524350583553314209e-02 1.239924579858779907e-01 -6.235051527619361877e-02 5.331041291356086731e-02 -9.917100518941879272e-02 2.776914089918136597e-02 -1.187624856829643250e-01 1.028549373149871826e-01 -1.291652172803878784e-01 6.844907999038696289e-02 7.698579132556915283e-02 1.399994194507598877e-01 1.778385192155838013e-01 -6.764391809701919556e-02 -1.464354544878005981e-01 -1.440572291612625122e-01 1.147621124982833862e-02 3.120010532438755035e-02 7.349211722612380981e-02 8.747892081737518311e-02 -3.339159861207008362e-02 -1.543712168931961060e-01 7.604689896106719971e-02 -2.101343311369419098e-02 -8.830713480710983276e-02 -6.272255629301071167e-02 -1.286247670650482178e-01 1.524856537580490112e-01 8.842860907316207886e-02 5.856275558471679688e-03 -1.324712187051773071e-01 -1.661239415407180786e-01 1.040745154023170471e-01 1.601143628358840942e-01 -1.435337066650390625e-01 -1.774327605962753296e-01 5.709465965628623962e-02 -1.702151894569396973e-01 -1.266378611326217651e-01 1.792527921497821808e-02 1.694499403238296509e-01 1.043099462985992432e-01 4.570042248815298080e-03 -9.323342889547348022e-02 1.435245871543884277e-01 9.392478317022323608e-02 -6.409694254398345947e-02 2.910293266177177429e-02 3.550364403054118156e-03 -1.141867265105247498e-01 1.098592765629291534e-02 -4.266148060560226440e-02 -1.849426925182342529e-01 3.690231218934059143e-02 1.201423779129981995e-01 1.679484397172927856e-01 3.847224637866020203e-02 4.432662576436996460e-02 1.003236770629882812e-01 1.230045482516288757e-01 3.402733057737350464e-02 -3.998252004384994507e-02 -2.736009284853935242e-02 -1.686933189630508423e-01 3.873213008046150208e-02 7.914736121892929077e-02 3.869809955358505249e-02 1.599151790142059326e-01 -1.602122783660888672e-01 1.094319969415664673e-01
-1.182741075754165649e-01 8.633093535900115967e-02 5.369534343481063843e-02 -1.105172559618949890e-01 -1.222604140639305115e-01 -1.012444198131561279e-01 -1.513970941305160522e-01 1.044384390115737915e-01 4.831866174936294556e-02 8.173657953739166260e-02 -1.534980982542037964e-01 1.374330222606658936e-01 -4.043561872094869614e-03 -1.160602122545242310e-01 -1.173400282859802246e-01 1.183964163064956665e-01 -2.081854082643985748e-02 5.420009838417172432e-04 -1.645314395427703857e-01 1.788811944425106049e-02 1.359817236661911011e-01 -8.631034195423126221e-02 1.081584692001342773e-01 -8.496681600809097290e-02 1.498224865645170212e-02 5.758860334753990173e-02 1.412956416606903076e-01 -1.467980444431304932e-01 -9.216566383838653564e-02 -1.154279708862304688e-01 1.668224632740020752e-01 -1.312364339828491211e-01 9.109011292457580566e-02 1.003648154437541962e-02 -1.027783676981925964e-01 1.345571428537368774e-01 -3.476892411708831787e-02 1.636291593313217163e-01 -1.520857512950897217e-01 1.787784881889820099e-02 9.169461578130722046e-02 -5.511701479554176331e-02 -3.624696657061576843e-02 1.753922402858734131e-01 -9.058327972888946533e-02 -8.304694294929504395e-02 1.377520989626646042e-02 -6.295177340507507324e-02 -1.589444577693939209e-01 -1.392812877893447876e-01 4.558741301298141479e-02 -9.058000147342681885e-02 -1.328052133321762085e-01 -4.359944257885217667e-03 -6.649943999946117401e-03 -3.756728768348693848e-02 -4.149394482374191284e-02 1.572840064764022827e-01 5.012863874435424805e-02 1.460310220718383789e-01 -3.245297819375991821e-02 -1.262240558862686157e-01 1.106257736682891846e-01 1.736811399459838867e-01 -1.677056401968002319e-01 -1.448881775140762329e-01 9.668927639722824097e-02 7.897548377513885498e-02 -2.855094708502292633e-02 -7.953182607889175415e-02 -1.745846718549728394e-01 3.712305054068565369e-02 3.424243256449699402e-02 -1.342587321996688843e-01 1.722949892282485962e-01 -2.463492751121520996e-02 -1.149881556630134583e-01 9.448147565126419067e-02 1.823757737874984741e-01 -8.787368237972259521e-02 5.570797249674797058e-02 -1.592827774584293365e-02 4.218964278697967529e-02 -6.925001740455627441e-02 -2.649586834013462067e-02 1.297798007726669312e-01 -1.715393513441085815e-01 1.625219359993934631e-02 8.991184085607528687e-02 -1.814734935760498047e-01 -1.070971190929412842e-01 -1.598127186298370361e-01 -1.035718247294425964e-01 1.653588861227035522e-01 -1.792576909065246582e-01 -1.343891918659210205e-01 -1.495051290839910507e-02 1.286137551069259644e-01 -1.706267148256301880e-01 5.394523218274116516e-02
-2.886127121746540070e-02 1.575983911752700806e-01 8.516746759414672852e-02 -8.920775353908538818e-02 -9.639166295528411865e-02 9.327546507120132446e-02 -2.334198169410228729e-02 -4.180961474776268005e-02 -4.880964010953903198e-02 2.117697522044181824e-02 -1.328426748514175415e-01 -9.988978505134582520e-02 -8.129471540451049805e-02 3.314215224236249924e-03 -1.247855350375175476e-01 1.763698905706405640e-01 -1.040231063961982727e-01 9.487349539995193481e-02 1.764437854290008545e-01 -1.003615409135818481e-01 -9.153291583061218262e-02 -2.970704250037670135e-02 -1.284072250127792358e-01 -1.236866787075996399e-01 -1.744050681591033936e-01 -9.633380919694900513e-02 1.060262098908424377e-01 1.748496294021606445e-01 6.555514037609100342e-02 -7.306704670190811157e-02 5.194042250514030457e-02 1.797718852758407593e-01 9.619383513927459717e-02 1.177426427602767944e-01 1.196208689361810684e-02 9.176947176456451416e-02 7.290263473987579346e-02 -1.716757565736770630e-01 -1.193412989377975464e-01 9.826830029487609863e-02 1.798865497112274170e-01 7.902769744396209717e-02 -1.025589928030967712e-02 -8.631110936403274536e-02 1.414751708507537842e-01 1.415167152881622314e-01 -1.318667382001876831e-01 1.300187706947326660e-01 4.743262752890586853e-02 -1.348277367651462555e-02 -1.497865170240402222e-01 1.517121046781539917e-01 -1.172339022159576416e-01 5.923312157392501831e-02 -4.355339705944061279e-02 -9.493596106767654419e-02 -6.249028258025646210e-03 -3.819906711578369141e-02 -1.044297739863395691e-01 1.164495665580034256e-02 4.085313528776168823e-02 1.317784041166305542e-01 1.449001282453536987e-01 -1.283321976661682129e-01 4.759986698627471924e-02 -1.403689980506896973e-01 1.020347103476524353e-01 1.019532904028892517e-01 6.373132765293121338e-02 -1.590173244476318359e-01 -1.131033375859260559e-01 1.712144911289215088e-01 1.164100226014852524e-02 2.807084843516349792e-02 1.566348671913146973e-01 4.231920093297958374e-02 1.586724221706390381e-01 3.334870561957359314e-02 -9.907329827547073364e-02 3.477331623435020447e-02 1.097783725708723068e-02 -4.554462805390357971e-02 1.710130423307418823e-01 -2.113389410078525543e-02 -1.059964448213577271e-01 -1.630822569131851196e-01 9.742394834756851196e-02 1.084248647093772888e-01 7.438892126083374023e-02 -1.053010001778602600e-01 8.307727426290512085e-02 3.680855035781860352e-02 7.654436677694320679e-02 -4.988112673163414001e-02 -9.967593103647232056e-02 1.270101368427276611e-01 1.707147359848022461e-01 -6.414981931447982788e-02 -1.018234640359878540e-01 -9.807717800140380859e-02
-7.808056473731994629e-02 -9.829927235841751099e-02 -7.521919906139373779e-02 6.376615911722183228e-02 7.934429496526718140e-02 1.341965794563293457e-01 -1.782534085214138031e-02 4.477438051253557205e-03 1.130086630582809448e-01 -1.612066179513931274e-01 -1.551282256841659546e-01 -1.814351379871368408e-01 8.980433642864227295e-02 1.133883967995643616e-01 -6.341946125030517578e-02 -7.459047436714172363e-02 -5.939558148384094238e-02 1.564768254756927490e-01 -3.045125678181648254e-02 -1.552056670188903809e-01 -1.674263030290603638e-01 -1.692925207316875458e-02 -1.326439082622528076e-01 1.440978646278381348e-01 1.309008598327636719e-01 9.359426051378250122e-02 7.985635101795196533e-02 9.509319812059402466e-02 -8.618015050888061523e-02 1.302993893623352051e-01 -7.310451567173004150e-02 -4.763615131378173828e-02 1.568793058395385742e-01 -1.201295480132102966e-01 -1.348008215427398682e-01 1.706030517816543579e-01 9.477085620164871216e-02 7.532617449760437012e-02 1.190193444490432739e-01 -1.539516299962997437e-01 -1.637506783008575439e-01 -1.761702150106430054e-01 1.074378043413162231e-01 -1.150431856513023376e-01 7.799867540597915649e-03 -1.780970692634582520e-01 -9.626175463199615479e-02 1.384199857711791992e-01 -1.662784516811370850e-01 1.753901876509189606e-02 -1.182705834507942200e-01 1.070294603705406189e-01 8.164688944816589355e-02 -9.835068881511688232e-02 -1.645106375217437744e-01 -7.279223948717117310e-02 5.480875074863433838e-02 -1.733893156051635742e-01 -4.027542099356651306e-02 -1.119939833879470825e-01 -6.514195352792739868e-02 -6.819266080856323242e-02 1.235854625701904297e-01 8.179119229316711426e-02 1.438322514295578003e-01 1.181224212050437927e-01 7.057358324527740479e-02 -4.227484017610549927e-02 -7.003971189260482788e-02 1.449489444494247437e-01 -1.119731217622756958e-01 -6.065924838185310364e-02 6.187409162521362305e-02 -8.206788450479507446e-02 1.533024106174707413e-02 -4.737877845764160156e-02 7.426540553569793701e-02 1.030079368501901627e-02 1.654744893312454224e-02 -9.078725427389144897e-02 -2.627787925302982330e-02 -8.407869935035705566e-02 9.635786712169647217e-02 1.769604086875915527e-01 1.489683687686920166e-01 3.066870756447315216e-02 7.399623841047286987e-02 3.586790338158607483e-02 1.672973334789276123e-01 3.797373175621032715e-02 -2.251273952424526215e-02 -1.482889056205749512e-01 -1.605819165706634521e-01 -1.464870274066925049e-01 6.402406096458435059e-02 -1.263401210308074951e-01 -1.657215505838394165e-01 -6.228385120630264282e-02 -3.025025688111782074e-02 1.370201557874679565e-01
